33
64
2
5
2
2
0.7473817	0.5626548	1.3372017	-0.05938384	0.008568718	0.12878172	0.89105654	-0.14568704	1.6003582	-0.1982098	0.1182612	-1.4948646	-0.21615772	0.0108484235	0.59328985	-0.13908269	0.09483309	-0.35289335	0.0075685903	-0.057470072	1.6201583	-0.029108126	0.9613743	-0.0066575934	0.11900077	-0.11380911	0.15612584	-2.6808152	-0.09935334	-1.6210599	-0.12309549	-0.05520862	-0.10512321	-0.32176784	-2.924863	0.03427734	0.14653136	0.017014334	-0.15880871	0.64863753	0.08296946	-0.25465348	0.057028446	-0.039281234	0.18767118	-0.007694576	-1.1297158	-0.09012322	0.22686772	-0.05465165	-0.12473219	-0.1300063	-0.74907255	-0.28519416	1.1070325	0.0058864984	2.0306146	0.049995802	-0.05496904	0.058995254	-0.09713983	-0.5064274	-1.0100286	0.03758377	
-1.8160347	0.79679686	1.8308253	0.5858483	-0.22586632	-0.50020534	-2.1335468	0.019286249	1.2878376	-0.18713175	-0.068846725	-2.5839064	0.47681615	0.04974951	0.35062006	0.10793726	0.04536958	0.8925834	0.16966332	-0.523997	1.177714	-0.075618714	0.2167815	0.38646898	-2.4551976	-0.057907134	-0.40740612	1.7728443	0.2367908	2.4786677	0.2938902	0.040275104	0.40108785	-0.11266992	0.7221531	-0.44813484	0.23479624	-0.113225386	0.047797646	-0.24776796	0.081286535	0.24244636	-0.08373713	-0.07858079	-0.7427807	-0.017129142	3.4903815	0.12133518	-0.10671658	0.04595594	-0.7260551	0.3227244	-1.8866017	0.17956427	-2.3779237	0.07248686	-3.8631709	0.10108576	0.12745403	-0.35158506	0.07413825	-0.35094342	0.6818503	-0.35243055	
0.07438864	1.5408752	-3.7682495	2.6752746	0.42254293	-0.45995638	-0.31176046	1.8451824	0.06706492	-0.073042415	0.14701365	2.2983785	-0.7440329	3.228418	0.46344063	0.4384827	0.006787661	0.8267691	-0.2997681	0.21726653	-0.5220634	-0.323289	-0.53734195	-1.2486373	-0.47708166	-0.007504572	0.27278134	1.8956537	-1.8541133	-0.6685573	-0.00856116	0.006673323	-2.397606	2.119455	0.5568404	-0.5326838	-0.08598131	0.021465287	-0.30607864	-0.5431087	-0.29463196	0.06316835	0.041269213	-0.0010978522	0.083854765	0.02506259	-3.924831	-0.07542773	-0.3796673	0.02535848	2.266584	-1.0356662	-1.6112416	-1.1494826	1.3614812	-0.055333078	3.034527	-0.050719332	0.11952491	0.9208379	-0.3186917	-0.06390486	1.2343028	-0.020094588	
0.91539454	-0.045418415	0.2538591	-1.9169469	-1.5144447	0.12114649	0.6147306	-3.0072262	0.055809956	-0.07813373	-0.45087683	-0.037355024	0.4219285	1.2418941	-1.1122034	0.065457456	-1.4694934	0.32400587	-0.21492007	0.6679617	-0.045376055	0.24885978	-2.2696145	-0.17801757	0.45210359	0.13420352	0.0069450056	-0.4453971	3.7409053	-0.08292869	0.11286428	0.021143517	-0.25664392	-0.1508848	-0.26671106	2.9279945	-0.15606561	0.0037989637	0.09103209	0.23437704	-0.35510218	0.10619476	0.02030479	-0.0052482355	-0.10026546	-0.02351378	2.0284674	0.058435515	-0.53713465	-0.043879647	-1.792773	-0.056083698	-0.46430057	-1.7778622	1.2167364	0.2284965	-1.4387856	0.49273732	0.0072894553	0.03008579	2.4111786	1.2319126	-0.44312134	0.003978558	
-0.0505764	0.21034053	0.19909175	-0.9950411	-1.5303214	0.17511326	-0.15585028	1.5942864	-0.12613516	0.038707733	-0.522419	0.17561175	0.2090351	0.15066554	-0.82191616	-0.17472453	-2.6595237	0.18630058	0.07265244	1.0673321	0.03841923	0.14738184	2.0861676	1.5228646	0.066920385	-0.0019239208	-0.057877246	-0.17721237	-1.7788776	-0.025239933	-0.112710334	0.0661354	0.20758429	0.1815764	0.15369175	-2.0119402	-0.5317808	0.036078703	0.23132093	-0.11506912	-0.26491657	-0.08189595	-0.13712077	0.077394	-0.35946748	0.1204022	-0.44212925	0.05172502	-0.37189925	0.10537321	0.21901886	-0.23826262	0.045176424	3.1557336	-0.8047327	-0.21405816	0.34415555	0.49951053	-0.005565629	0.2503429	0.7463091	0.15475866	-0.27429456	-0.010856162	
0.8350243	-0.24590698	-2.0973868	-0.16189748	0.09400933	-0.37484768	0.4525287	0.3406765	-3.2377784	-0.20524122	0.080333345	2.7908154	-0.06070787	-0.18681668	1.082122	-0.1722649	-0.013612664	0.42656606	0.032736387	0.044179894	2.0567915	0.0152381165	-0.44818166	-0.011221065	-0.008131389	2.577051	-0.8643897	-0.3345229	0.44516838	4.283498	0.28398225	0.08608998	0.7058293	0.94544166	1.4466478	0.15158656	0.44703668	-0.04655377	0.24121945	-3.2596831	0.106837936	-0.63764215	-0.39110836	-0.11086144	-0.24872556	0.037641313	-0.92042917	0.033118665	-0.13706875	-0.14406781	0.07335543	0.292562	-0.3888459	0.44388703	-0.21700352	-0.29341662	-2.0461962	0.11832236	0.07017237	-0.22693098	-0.079614475	0.20126542	-2.0487268	0.26063344	
2.1238353	-0.11975	-1.0106514	0.81651664	0.5862279	-3.4837961	-0.54970396	0.0052673146	-2.8863606	0.073486194	-0.21365736	-0.38052157	-1.6054995	-0.01198159	1.0938891	-0.45221502	-0.08284919	0.5291229	-0.045417577	1.1091431	-1.571471	0.17256701	-1.16175	0.65186626	5.0109406	-5.3659897	1.3096316	-0.85173684	-0.60836774	-4.934124	-0.033197906	-0.14282764	-0.7650473	-0.28376746	3.499024	0.32332546	0.034224927	0.050669983	-0.67415667	1.4933163	-0.18542792	0.52048635	0.3985016	0.1333389	0.17872413	-0.0045632906	2.1470175	-0.042952497	-0.6000056	0.20950358	-0.8404737	-0.84556735	1.1383886	-0.6256412	-1.6283085	0.44825706	3.5803506	0.015367273	0.17075768	0.7418603	-0.098127276	1.3088704	4.2137995	0.67752147	
-2.9671226	-0.2133503	3.6479256	-2.68973	1.906719	0.0034965044	1.8524436	-2.905264	-0.32929146	0.20596984	1.2613492	-0.77537775	1.0297914	-3.1712556	-0.4805252	-0.03976359	0.17314483	-2.8210764	-0.05303006	-0.9005876	-1.1606542	0.2210007	0.24372418	0.94876105	0.64337516	3.1888885	-0.6054733	0.6353166	1.8347889	0.52452445	-0.24187228	0.031735823	1.5990974	-2.7664971	-1.8173811	-2.76112	-0.17280525	-0.1589841	-2.2576523	0.49461332	0.37050468	0.10217216	-0.18404968	-0.019936912	-0.41329655	-0.13157241	-1.6929619	0.20243864	-1.056098	0.069960244	2.8911686	5.424321	2.1096294	2.8270123	3.589643	-0.1341809	-2.6281214	-0.11545352	0.06470723	-5.199535	0.3717515	1.5985496	-2.049475	-0.12760617	
0.0034460232	0.24865547	-0.10460199	0.9650012	2.4244893	0.06304183	0.21833645	4.181595	-0.04513834	0.058876324	-0.44119313	0.23462193	1.1736382	-1.3139184	-0.16290618	0.24536686	1.5950758	0.15028994	0.14701939	0.3650966	0.16060792	-0.22458749	0.8582349	-3.4118843	-0.4500071	-0.7093582	0.12672535	-0.25867534	-3.7441058	0.057879258	-0.1106976	-0.13104674	0.7370222	0.7792176	0.5266733	2.8364818	0.24424967	0.09326725	0.90450466	0.3288481	0.18910386	-0.20377293	-0.01339705	0.14347258	0.10715449	0.20084275	0.036326297	-0.0007021983	0.45184296	-0.12522303	-3.6551397	1.4530506	1.2210929	-0.65629554	-2.7299993	0.19916393	0.9335231	-0.6184996	0.1634881	-1.2778766	0.55719763	-2.224729	-0.7154955	0.08507838	
0.081810854	-0.24706583	-0.2498489	1.3676996	-0.41030088	-0.007796246	-0.2266171	-2.0492218	0.14066264	0.10102271	-1.5897344	-0.10855554	-0.6193559	-0.11413799	-0.8740164	0.048985623	2.4627514	-0.09877699	-0.07737686	0.6599588	0.03189809	0.07862247	-0.25499797	1.3188505	-0.049906723	0.23253508	0.058591984	0.0074748457	1.7996894	0.091264434	0.13253306	0.045011926	-0.17545132	0.010369215	-0.19607128	-0.5169365	-0.21886148	-0.037732292	1.8672668	0.3021085	0.0541863	0.00068587065	0.08442943	-0.029651375	0.13526455	-0.111134075	0.33444092	-0.06400783	0.4652592	-0.10391203	1.7837371	0.54271805	0.15693319	-2.2128534	0.3843724	0.15330665	-0.10124646	-0.37348205	-0.08092085	-0.51720387	-3.432002	0.007958373	0.3013198	0.08188451	
-2.1100333	-0.7331607	0.8695675	0.26021144	-0.14256531	-0.61351323	0.48592165	-0.3019035	1.3288308	-0.042836234	-0.24468751	-0.36055627	-0.8693866	0.11283449	0.25067592	0.010364147	-0.10335235	-0.100637004	-0.101699956	0.66004026	0.2020055	0.35044077	-0.58634824	-0.027894346	-0.11700471	0.35743022	5.8721137	0.76520824	-0.39308417	-2.723082	-0.03553923	-0.037865877	-0.36330876	0.5157738	0.9020768	0.1536906	0.3863482	-0.12875879	-0.048995093	2.1836536	-0.057854027	-4.878438	-0.48488978	-0.056248344	-0.7226047	-0.1116589	0.21779571	-0.13320756	0.14159779	-0.12747274	0.106429644	-1.0606728	0.21813037	-0.2898325	-0.21267588	0.10269029	0.148777	-0.09088854	0.12740578	0.96774834	0.039127342	0.3275503	0.22673528	0.027721722	
0.09149548	-0.11644888	0.26076588	0.28289473	0.024234118	0.076008506	-0.08307705	0.050877407	0.024940185	0.88516665	0.18854944	-0.42403126	0.03255789	0.07739188	0.35717776	-0.76445746	0.008009453	-0.18403901	-0.20858157	0.22457914	0.537018	0.24070953	0.8624274	0.31754735	-0.051528312	0.30587593	0.1275637	-0.531532	-0.09947623	-0.23352802	2.36744	-0.24856822	-0.12777624	0.83403015	0.3959613	0.11799602	0.6728807	0.086825155	-0.208115	-0.73348826	-0.50021684	-0.23017706	-0.27899718	-0.54888976	-1.1725931	-0.54111207	-0.21578445	0.17401291	0.27779165	-0.37295547	0.12652422	-0.07436044	-0.21188933	-0.08984563	-0.1294455	0.24091384	-0.03839784	0.059764806	0.04771016	0.1146118	0.13769396	-1.0265673	0.22126876	-0.19644618	
-0.22925219	-0.085841656	-0.117961586	0.041995235	-0.073346406	-0.38986087	-0.22221434	-0.07912083	0.25999945	-0.43858036	-0.26025817	-1.0043578	-0.62261045	0.20657097	-0.17362662	-0.49575418	0.098499894	0.44984546	-0.069171906	0.0676355	0.34182382	-1.0778893	0.4036948	-0.2989589	0.2140732	-0.5238809	-0.19902991	0.6061162	-0.28369898	0.31089363	-3.3128111	-2.7942464	-0.14283213	0.6047308	-0.10518324	-0.16701297	2.1174662	0.026780767	0.14092769	-0.046587136	0.81724524	0.32313165	1.0840474	-0.846807	1.8609185	-0.04166475	0.16076535	-0.06456095	0.30140337	-1.3355883	-0.16452461	0.042947154	0.48064804	-0.004817467	0.3053968	0.49792296	0.022944337	-0.39385173	1.7194579	0.08880298	0.079171784	0.04268881	0.039739896	-1.0986679	
0.10770977	0.086600676	-0.20400138	-0.29514912	0.05370029	0.16584548	0.36704695	-0.4309455	-0.24650174	0.7094415	0.18799381	0.16121389	2.157099	0.0061306716	0.10489841	1.5503981	-0.23323818	-0.22496554	0.60577184	-0.16699894	0.013783261	-0.33312705	-2.4828007	-0.35402906	-0.36421606	0.011831559	0.011731946	0.033913273	0.38697386	0.26188764	-0.6554068	1.9299169	-0.3857178	-1.7978072	0.09826479	-0.28298795	0.2944537	-0.06882531	0.135431	0.5556097	-1.001999	-0.37777174	-0.5493656	-1.6832126	-0.22128302	0.19623515	-0.10173923	0.6895031	-1.0234181	2.1000826	0.2569126	0.052353863	-0.23589517	0.14490524	0.057573013	0.9215066	-0.055187356	2.521912	-0.515578	-0.15779789	0.13774383	0.51425517	0.32901582	-0.8691767	
0.16227123	0.21997344	-0.09969896	-0.28366053	-0.0070462683	0.19316548	0.35619697	0.026475022	-0.04550885	0.106738426	0.20457514	0.6197658	1.0615399	-0.31996208	0.10447577	-0.07782623	-0.4068888	-0.14646141	0.5909761	0.03272962	0.033059027	0.7567256	-0.02745991	0.2630575	-0.22557886	0.090893276	-0.013425177	-0.08100755	-0.25541258	-0.20274736	1.8877665	1.0342425	0.19096152	-0.6436817	0.011946146	0.1820613	-1.6168059	0.022110071	-0.21658267	0.06130273	-2.4350512	0.086117625	-0.38545403	-1.4079366	-1.8665977	0.002727411	0.086947896	0.8478769	-0.2771232	0.49909058	-0.043964256	0.13093187	0.26203457	-0.12724978	-0.3493077	-0.17333396	0.07699457	2.561313	-0.33253804	-0.07163274	0.09195235	0.043277822	0.057406805	0.35632762	
-0.054248933	-0.10665968	0.22583473	0.0755327	-0.080989026	-0.16586407	-0.11159615	-0.13748093	0.22167735	-0.13351457	0.096043035	-0.007351412	-0.86201644	0.21522854	0.23562714	0.26342344	0.56888855	0.4366944	-0.20036617	-0.18643738	0.001157223	1.4964399	1.9609028	0.55198413	0.07228787	0.014473038	0.068236485	0.107273564	0.21550304	0.08763593	-0.7320264	-0.16439328	-0.11586119	0.9050516	-0.01762727	-0.0014817885	-1.553995	-0.025252128	0.05009637	0.17978877	-0.7745059	0.0014957129	0.026270365	-0.47249857	0.76624995	-0.021893911	-0.15858775	0.7226471	-0.4439114	0.48564753	-0.12976444	0.10854656	-0.11467966	-0.5729943	0.09872106	-1.2218701	-0.023486342	2.1801436	-0.070999615	-0.124121636	0.22551055	-0.3691947	0.1126261	-0.47716337	
0.34460345	-0.41725045	-0.3387978	-0.06199603	0.28139505	-0.16540821	-0.17168115	0.10632887	0.011679289	-0.4775723	-0.39214343	0.8530955	-0.27562386	-0.1300139	-0.28934285	0.64366597	-0.117050506	-0.013102044	0.3714787	0.14733726	0.4699777	-0.7065533	2.2067103	0.059607457	0.14319837	-0.349148	0.07375258	-0.31030267	0.086284496	0.15069038	-1.8915389	-1.3269413	-0.12444772	-1.4529346	-0.33907342	0.13511787	3.4508274	0.21012928	0.23899968	1.3638626	1.3248638	-0.086991206	0.13795096	-0.5557171	1.5829209	0.28576085	0.16447125	-0.3208758	-0.37629625	-1.3611002	0.20935124	0.03558551	0.24279082	0.08502458	0.08824383	-1.6598964	-0.15454103	-0.5696593	1.4731761	-0.10620612	0.2197327	0.8949356	-0.47377348	0.44050846	
0.054419834	0.44232637	0.20825516	-0.4333902	0.24020807	-0.06335995	-0.7370888	-0.17037258	-0.57633597	2.1174674	0.502674	0.35009664	0.38491347	0.07719639	-0.040887073	-2.243705	0.020651983	-0.8260907	0.2969094	-0.4706185	-0.30238542	0.8377093	-4.701111	1.2206665	-0.40915704	0.3104663	-0.14001365	-0.29544687	0.49413982	-0.17010888	4.3284183	9.469498	0.9604454	0.41722888	0.3270812	0.49859393	-4.9915376	-0.9403152	-0.4853804	-0.9668756	-1.5325428	0.023302345	-3.3091812	-2.3994012	-3.8682635	-0.11482767	-0.13505381	0.33571544	-0.8006066	6.7532716	-0.5179704	0.23574983	-0.6384869	0.14537479	-0.39141035	3.7035244	-0.025872242	0.5703513	-6.6785483	-0.33848733	-0.44162092	0.9390578	0.6243391	2.808102	
-0.6357344	0.06595522	0.01838974	0.3028823	0.06025054	-0.12466444	1.8665653	0.6154218	0.33322427	-2.0052369	-0.27367485	-0.7623358	-0.25333354	-0.054832302	0.6115756	0.7600547	0.45104325	0.21814956	-0.76344925	-0.088520445	-0.758328	-3.14812	2.478005	-0.54010546	0.4947341	0.0057990486	0.1158715	0.7537478	-0.33078063	-0.3871949	-1.8199921	-1.9585648	-0.29493546	1.9854026	0.08418436	-0.08782176	0.6452984	0.95448196	-0.053922758	-0.4265694	2.1557565	-0.11022981	3.2318366	1.9117045	2.7171583	0.8270463	0.034396112	-0.2959118	-1.3809491	-5.3782306	0.6421981	-0.21153949	-0.21624646	-0.046148486	-0.13243757	1.5270463	0.22875287	-2.8591218	-1.2225106	0.23622894	0.035578765	-0.41696015	-0.3714238	0.28144163	
0.44555545	-0.571635	0.26540178	-0.060561646	-0.08296731	-0.2139656	-1.0229317	0.0062309303	-0.27835378	-0.4902547	-0.036139414	-0.3130244	0.2326134	0.41705278	-0.77585286	0.8519707	0.19283135	0.18969584	0.10806809	0.09048288	0.1665374	0.45003507	0.20882893	-1.6437608	0.07647466	0.20828822	0.053109307	-0.093858235	0.43365136	0.12772718	-2.216199	-1.3493358	-0.16942745	0.65300786	-0.20237969	-0.34177256	1.0511168	-0.26948473	0.2931573	-0.16678926	0.38542807	0.2780226	0.47688925	2.2581618	1.3271359	0.25592047	-0.09769724	-1.1084087	-0.7297725	-3.0527372	-0.60684717	-0.15702277	-0.092965305	0.58709943	0.5727943	2.0269053	-0.38451612	-2.8409433	0.16498896	0.16528066	0.0042945193	-0.8731121	-0.014964082	0.016259264	
-0.22650716	0.23857597	0.0023583737	-0.007814109	-0.13602662	0.23076688	0.07745066	0.028873095	-0.09223604	0.5290506	-0.097801246	0.2810523	-0.9554199	-0.20529227	-0.34705868	-0.09182979	-0.40097836	-0.01688098	0.267739	0.26380953	-0.0693633	1.0350481	-0.22808981	0.68709445	0.015664633	-0.084674716	-0.021046596	-0.27376652	-0.35704806	0.020632384	1.9154689	-0.28239614	0.40037784	-0.9560727	0.28290984	0.24325505	0.070170164	-0.1709589	-0.16577943	-0.0055554025	-0.92746955	-0.07562635	-0.37507877	0.61488503	-0.9535606	0.010094681	0.010629962	-0.49417448	1.1566688	-0.112054974	0.075745575	-0.098549664	0.13269709	0.11630669	0.15865421	0.44546053	0.1907404	-1.2255238	0.3633513	0.06579054	-0.23307835	0.55619645	-0.16241209	0.63882643	
0.00077187555	0.19717027	0.2959411	-0.15496702	-0.23066583	-0.05100564	-0.14075747	0.13746917	-0.24039179	0.1602345	0.40317148	-0.3714495	0.11994378	0.29198793	0.3264168	-0.044849895	0.26860818	0.37115985	1.1616426	-0.16184217	0.020096283	4.116264	-0.67088497	-0.2555383	0.01386126	0.4693388	0.28763834	0.7917008	0.2049929	0.009858712	-0.23994355	3.0337627	0.45520356	1.1043054	0.2546672	-0.043777682	1.6431092	-1.1938773	-0.10330273	-0.4830516	-0.9862094	1.2166283	-7.562688	-0.5783733	0.34130058	0.09756489	-0.2940122	-0.3327943	-0.43248677	1.4956145	-0.44816485	0.20003003	-0.15948655	-0.11669885	0.0675551	0.23982583	-0.033321403	0.82206535	-1.9950314	-0.17068979	-0.2982238	-0.5830322	-0.051578045	-0.71781135	
-0.12890981	-0.18679385	-0.26848802	-0.09006194	0.012539958	0.02064729	-0.19167426	-0.054133978	0.27057827	-1.5929539	-0.024500351	-0.034882568	0.9006934	0.08249392	0.15206423	0.25419796	-0.049404763	-0.25712794	0.5751083	-0.13534915	0.13600844	0.484264	-0.20767948	0.09451433	-0.1913361	0.42551202	-0.113076694	-0.4000856	0.046235785	-0.24220267	0.24875158	0.62303275	0.28829306	0.0741329	-0.1257589	-0.039620925	0.2417527	0.0077034547	-0.06511203	-0.015274621	-0.47812328	0.11650152	-0.31543833	-0.4211237	-0.76668566	0.9679997	-0.0120914	0.19077723	-0.054828644	-0.60689765	-0.035405267	0.14350225	0.2200075	0.012948023	0.15482116	0.31763005	0.16663474	0.006370247	0.41677657	-0.017915282	0.017920267	-0.16127412	-0.21625338	0.2023673	
0.46150157	-0.26386386	0.15804914	-0.37845626	0.03534455	-0.30173245	-0.05218671	-0.15875378	-0.14421533	-1.5221126	-0.13176432	-0.22853765	-0.54709274	0.07941394	-0.01686102	-0.14881688	0.07622393	0.37940904	1.1569046	-0.015725546	-0.02095428	0.43262252	1.0961657	-0.1766556	-0.18221067	-0.29388383	-0.17234406	0.36833856	-0.18852523	0.046740748	-2.8930788	-0.33861628	-0.53636396	0.2972549	0.24844891	-0.0477443	0.60693866	-0.2646526	0.14291218	0.2965443	-0.053162992	-0.22338481	0.42394933	-0.28847128	0.6419087	1.077628	-0.13253061	0.82885456	-0.14974375	1.5330902	-0.31103858	-0.102547616	0.35283333	0.27256313	0.20870344	-0.6920102	-0.4408053	-0.13436453	-0.045811422	0.07026816	-0.037380356	-0.4434889	0.19137059	2.1067	
-0.089543685	0.17441906	0.27901974	0.13149849	0.0009294208	-0.1505637	0.019395437	0.18774232	-0.09002275	-1.5289385	-0.18013656	0.03925683	-0.2663	0.08158142	0.15443562	0.79599535	-0.055726226	0.039260946	-0.77879846	0.2741934	-0.102793984	0.083129086	-0.12768412	-0.015351558	0.13929789	-0.19338171	0.00743042	-0.22817993	-0.04292947	0.2029933	0.053035237	0.2790727	0.044174176	-0.54120034	0.005394418	0.09509661	0.7584505	0.6455201	-0.054436713	0.3091113	-0.8182485	0.22603463	-0.3308327	-0.046266265	0.47661242	-2.606814	-0.021274403	3.8517246	-0.16683981	-0.6062236	0.4553314	-0.11133993	0.4369993	-0.6152696	-0.48685327	-1.2037555	0.16778675	-1.8100232	-0.5256582	0.19792242	0.13048764	-0.2627062	0.2365656	-0.16154301	
0.044771854	0.09356578	0.056496244	0.5545899	0.15055871	0.07777388	-0.20246974	-0.25895363	-0.11291447	0.504395	0.111183636	-0.026578903	0.14652464	-0.15090293	-0.37270936	1.9473382	-0.029785339	0.008546992	-1.6672026	0.17048189	-0.013882485	-0.6644277	-1.4645745	0.27785388	-0.1952914	0.10969441	0.15194307	-0.06657553	0.100646	0.10180465	1.4356908	0.0071844957	0.8246744	-0.29408187	-0.13895555	-0.28416163	-1.0014328	0.1801583	-0.020688318	0.24647744	-0.1783723	-0.083574414	0.3587867	0.61010104	-0.2875296	-1.1214961	0.031964492	2.5289738	0.09874587	-0.07487906	-0.10728219	-0.050216794	-0.09597377	0.1396263	0.1256392	-1.1186862	0.08375932	-1.2094679	-0.752679	-0.011524666	0.2078131	0.6388943	0.13438115	-0.29424912	
-0.06563359	0.17639439	0.05221789	-0.18555288	0.3237356	-0.11177569	-0.47123986	0.05653665	-0.018883662	0.01953438	0.06201705	0.2739805	-0.020359792	0.06422986	0.0025992854	0.060093585	-0.0111072175	-0.15646388	-0.80710423	-0.07820894	-0.06674103	-0.93451583	0.54690415	0.6065637	0.097921446	0.08823097	-0.015093455	-0.1163592	0.09029888	0.05898	1.0060118	0.10988487	-0.12727281	-0.32582295	0.06920594	0.19557539	-0.40835655	-0.17339808	-0.194665	-0.008410439	-0.5819567	0.176349	-0.2793145	-0.113030136	-0.13972314	0.21188425	-0.16811298	1.2684222	0.4460685	0.1266521	-0.13373636	0.048945535	-0.14537166	-0.08799484	0.01447386	0.6654631	0.046811942	-1.1994859	-0.38934466	0.04690967	0.034166582	-0.34503007	-0.07510939	-0.8696474	
0.10283091	-0.012914959	0.12686472	-0.301118	0.1056634	-0.2581684	0.23697996	-0.117594786	0.07056697	-2.101755	-0.031325385	0.19290708	-0.37428844	-0.099310756	0.08803111	-1.1769934	0.12538564	0.058430377	0.07760459	0.49618444	-0.009708171	-1.0500298	0.2716815	-0.14067137	0.26514363	-0.45727563	0.2625542	0.34715214	-0.26251733	0.012040282	-1.5659834	-0.06378687	-0.4219571	0.058818202	-0.19576082	0.13796471	1.3110067	0.66554976	-0.059426025	-0.14709894	0.14438051	-0.21535046	-1.2827799	0.17693208	0.8175954	1.0376468	-0.15673041	-0.7754579	0.122960076	0.10236586	0.11925039	-0.18073067	0.05922791	-0.2359056	0.60346675	1.4531143	-0.41939777	-0.057719484	-1.0735581	0.1602237	0.033675116	-0.6837826	0.4180271	0.44844034	
-0.7845331	0.29809737	-0.37656546	1.1963991	-0.5276295	0.6995475	0.33746648	0.16373429	0.20871249	0.43078798	0.18390802	0.56042403	0.46711373	-0.1750624	-0.364895	-2.8357594	-0.1389261	0.48737043	-3.6147983	-0.55248725	0.3664033	1.7362225	0.33798555	0.5376665	0.42485866	0.18340373	0.036616296	-0.3113687	0.45306307	0.2979495	3.4236507	1.1017299	0.10860059	0.10907162	0.52387524	-0.19300333	-1.3463385	1.7609327	0.01416588	-0.48829737	1.1563802	-0.04607208	0.6739631	0.9712304	-1.1639833	-8.092523	-0.038713314	1.8895282	0.055037692	-2.8793645	-0.04130184	0.29750127	-0.2063952	-0.1371032	-1.273408	-0.41114137	0.4848926	-0.07008038	1.1161182	-0.081874326	0.30977798	0.035101037	-0.10171969	-8.281256	
0.025553448	0.0063240593	-0.19596586	-0.0008008935	0.16953635	-0.028050678	-0.34054485	-0.1886957	0.14907704	3.150143	0.05123349	-0.36121035	-1.5511144	-0.17601041	-0.21502255	1.279274	0.17385782	-0.35981217	0.6047015	0.029739134	-0.18605317	1.7047366	-0.26056945	-1.1372823	-0.38422185	0.2043565	-0.13051982	-0.2796271	0.3900817	-0.2580583	-1.1657766	-0.46390256	-0.017189724	0.3483862	-0.16150865	-0.42486328	-1.2704933	-2.8156414	-0.012624015	0.45450822	0.3417078	0.16778255	0.7565508	0.13602486	0.44992223	3.260944	0.038709078	-3.2262926	1.046309	3.2920878	-0.3426913	0.15089509	-0.37206495	0.36961243	1.0328679	0.5721498	-0.21209992	2.187952	0.53848237	-0.3073719	-0.22244723	1.0851967	-0.41202033	-1.8096889	
-0.06969932	-0.3468499	-0.16593271	-0.5185613	-0.26431948	-0.31501377	0.513664	0.15800326	0.08401181	-0.18932416	-0.32375544	-0.19937724	0.36372116	0.14920568	0.3238854	2.1722097	-0.005854685	-0.072909616	0.1535636	0.13587815	-0.2736586	-0.39241326	0.1607258	-0.51823545	0.29429156	-0.15595493	0.058969107	0.20768048	-0.051658448	-0.124602415	-1.6106701	-0.400752	-0.660153	0.19175147	0.058586635	0.23672688	0.8245264	0.07008599	0.27886367	-0.6694463	0.031546216	-0.019162878	-1.0231616	-0.24088621	0.13681936	2.8362305	-0.06551239	-2.3872645	-0.40583965	-0.47189313	-0.15989202	-0.061802257	0.14130531	0.08216175	-0.03741914	0.20897578	-0.10949118	1.1273259	1.1357087	0.09725411	-0.09779795	-0.5181854	0.14659475	0.88097554	
0.020261029	-0.07713156	-0.070155874	0.044626657	0.09736073	0.13036086	0.288877	0.00059852167	-0.041869108	0.20139599	0.15570872	-0.070274726	1.2153935	0.019284746	0.093931414	0.61636335	0.10165537	0.26077572	0.7322787	0.049929902	0.13430469	-0.9022762	-0.26833606	0.1288456	-0.17693004	-0.043167803	0.12068705	-0.051050566	-0.28399828	-0.05686644	-0.064884156	0.10695783	0.075240225	0.3539647	0.012614104	-0.1509267	0.1434031	0.009052767	-0.01766299	0.24640407	0.4398608	-0.06481676	0.079041615	-0.298075	-0.21881524	0.58591604	0.010233364	-1.0579665	-0.2710049	-0.107842274	0.12525976	0.11431384	-0.013202353	0.18030342	-0.15496463	-0.6698763	-0.032465283	0.85594803	0.44096792	-0.077809766	-0.20838447	-0.02348892	0.02607988	0.60475975	
-0.13636991	-0.0022544276	-0.20948951	0.21130037	0.1727868	-0.09446046	0.30336916	0.41817382	0.03358173	-0.43481824	0.069885775	-0.18707633	-1.2915053	0.042774126	0.04760978	0.9622625	-0.03872252	0.0040054163	-3.8497934	0.15268004	0.2333172	-2.2415206	0.20416188	0.32683408	-0.08462516	-0.13509978	-0.3044916	0.065868706	0.15306821	0.09863474	1.6747546	0.6138687	0.2795244	-0.013528643	0.08840682	0.12740827	-2.444973	9.48156	-0.076588295	0.2299155	0.26327774	-0.09271231	-4.082907	0.14268284	-0.2864016	-2.2253163	-0.044311836	0.998741	0.38530216	-0.30242118	-0.030948784	-0.10249481	-0.03896242	0.046153426	0.009202623	-0.44343978	0.037609622	0.34046778	1.5776457	0.03664471	-0.16707955	-0.23595314	0.12061256	1.8641038	
0.48800066	0.1098408	-0.03579028	0.4926082	-3.2208314	-0.09656883	0.98374844	0.29528373	-0.49985853	0.90862197	-0.60253036	-0.3782908	0.4626149	0.43660134	1.4958931	-0.8181642	0.43482187	0.40089768	-0.51051486	-1.1209571	0.030989723	-2.875797	0.5963356	0.019481119	0.3037153	1.0431457	-0.4919444	0.08099808	0.21237324	0.14944518	0.73469347	0.007192653	0.82967865	0.4638881	0.2758187	-0.7372559	0.6869976	1.7946657	0.442307	1.2370667	0.46730775	-1.9649746	0.58086836	0.5055194	0.40701276	-0.53508335	-0.16817227	1.805764	-0.50706553	0.3327032	-1.0548751	-0.9894028	0.14173748	1.4049006	0.7541505	0.26272932	-0.6902211	-0.19637534	-2.5532923	0.13994145	-1.3935372	-0.22632685	-1.6375736	-1.3297513	
-0.43090686	-0.4038213	0.33131185	0.13464405	1.8290269	1.0781581	-2.246786	0.17790242	-0.98925847	1.8988035	-2.5074387	-0.12854385	-0.6393968	0.893159	-0.033557974	0.9412244	-0.3974334	-1.7033195	-1.9802358	-0.69060427	-0.73888034	0.4114779	-0.14457235	-0.85073733	0.67521375	0.25490066	0.12877147	0.19220947	0.58343494	-0.33334577	-0.66639817	-0.23881212	-0.20577437	-3.8998814	-0.5128399	0.28852594	0.115557514	-0.20335343	-2.000841	-0.37845805	-3.8213015	0.4806995	-1.4479816	-0.3023826	0.08284113	-0.16360053	-0.5179582	0.9989117	-1.3984199	1.1003009	0.10773575	0.9142663	1.2952751	0.2846004	0.31038597	-0.3371908	-0.79133105	0.35187557	0.5963611	-1.3119928	-1.3013917	0.88719267	-1.0059978	2.100364	
-0.25531843	-0.010903527	-2.1417205	0.90731776	-0.35098827	0.6277546	-2.8914323	0.7559912	0.25543374	-0.99999624	1.1412767	-0.68446743	0.6154009	-0.4087791	0.8046178	-1.102853	-1.409662	0.5241558	-1.59689	-0.7472309	0.7295692	0.6676081	0.8848539	-0.20903344	0.727319	-0.028429555	0.4233379	-0.8697632	1.6699178	-2.574814	-0.8478839	1.0228246	0.21190862	0.47739172	1.1878159	0.22204646	0.796637	2.2445538	-0.14896624	0.71521986	1.1811564	-0.8262345	0.5944334	-1.8923122	0.63337845	-0.90343714	1.20205	1.3552531	1.1427526	0.58921814	0.91688883	-0.9141669	-0.21706495	0.20679468	1.2167021	-0.044153124	-1.0226643	0.01697463	-0.6470241	-0.96814674	-0.3737436	-1.0805888	-1.628131	-2.460746	
0.7975018	-0.08975244	-1.5307925	1.3291007	-0.7292492	0.6156706	-0.82012373	-3.757174	0.19642952	-2.6705143	1.7878699	-0.44764835	0.7112605	0.56556004	-0.7956618	-0.62867016	-0.5996158	1.6044905	-0.7435182	-0.02468689	0.9902884	0.28270683	0.3818742	0.00073929946	0.54758966	-0.14042218	0.16945754	-1.1711044	1.2357949	0.2521133	1.4736078	1.1614879	-0.06502301	-0.6361091	0.7167596	-0.88774234	-0.30917957	2.5215669	-0.12483285	0.9250823	1.0045716	-0.52426183	1.542914	-1.0604179	0.96170825	0.1413151	-0.4390296	0.90513325	0.83496153	1.0969864	0.54385066	-0.61372954	-0.8300955	-0.21207851	-0.2511021	0.48175502	-0.38649154	0.85420346	-0.53869	0.51003146	-0.03141507	0.89340055	0.7199319	-2.0084014	
1.1126099	0.72890824	-0.149334	-0.29191354	0.85584295	0.659944	0.74224097	0.41345078	-1.932868	-1.0992951	-0.86399925	0.08884492	0.08430242	1.44318	-0.7596321	0.6471529	0.8501346	-0.34299076	0.7312778	-1.7285477	-0.185476	-1.3066663	-0.32543293	0.19013058	0.9653528	0.9254139	0.1528312	1.3207304	-3.41381	0.013059191	-0.5965592	-0.9807549	-0.6462739	1.4251966	-0.33345374	-2.0716512	-0.44642285	-0.25149527	0.08368454	0.70923275	-0.72512823	0.014288986	-0.59593254	0.17564885	-2.397896	0.14498949	-0.708759	0.88867617	-0.070282385	-0.4556059	-5.8874454	-1.1657413	0.7190036	0.97597605	-0.4361945	0.80440116	-0.15922582	0.51107794	-0.73406756	-0.71699464	0.11942062	-0.030634146	-2.2903883	1.0347621	
-12.000478	-0.65174913	0.29900998	-1.3130342	-0.2824914	0.15499352	-1.8099498	0.08589567	-0.29310033	-0.15961815	0.79856443	-0.1704417	0.14712138	-1.3698308	-1.2763478	1.2698843	-0.73138267	0.3303977	-3.068947	-0.1304015	0.20065503	1.1377618	0.17623462	0.4887608	0.15826207	-1.529185	-0.69539434	0.78784525	1.1037562	-1.0474786	0.64637536	-0.38036054	0.11019613	-0.07660548	-0.12403219	0.20071106	-1.4109472	0.047882136	-1.7237132	0.39945343	0.8249206	0.062052745	-0.65608513	-2.2215447	-0.40554363	-0.4781952	-0.11538172	1.6979569	-0.64842886	0.6411007	0.136121	1.0295695	0.15653183	-1.3333776	0.9856591	-1.3310497	-0.5791458	-0.24278985	1.6965975	0.30698025	-0.56952256	-0.08852806	-0.038768202	-0.0011263156	
0.6638224	0.6725959	0.1980176	0.31669882	0.77725047	2.1864269	1.3378724	-1.8318852	-0.35635898	-0.29476172	-0.002189379	-0.7495446	0.072634846	-0.7254682	-0.4651305	1.1650543	1.1065758	0.3294772	0.7265187	0.2798391	0.26266918	0.3882484	-0.579014	-0.52239805	0.97890884	-0.92763	0.61969554	-0.1344834	1.0706835	2.3844862	-0.26851034	0.60126764	-0.59301937	-1.4165385	-1.9895543	-0.5723145	-0.7537224	-0.37059188	-1.109925	-0.07456544	-3.4509401	0.32083765	-1.4180773	0.058561645	0.63017493	0.39075524	-0.2721155	1.6190281	0.60783684	0.61690146	0.12831375	-0.8279962	-0.5363927	-1.6812457	0.20319024	0.034161013	0.06898875	1.020614	0.40376505	0.8132686	1.5409548	-1.3604507	2.249062	1.112761	
0.82236624	0.13330732	-0.7667336	1.1156542	0.58719724	0.2608285	-0.27759853	1.235314	-0.044929918	0.0022976156	1.9124727	-0.4729732	0.75669676	-0.29414263	-0.5499918	-0.79411894	1.3249443	0.9627887	-1.1505017	1.631602	1.3286475	-0.6870944	0.8966702	0.5792384	-0.9444893	0.024069993	-0.65715057	-1.4450005	-0.41595277	0.9250785	-0.22911465	0.077400945	-0.3252418	0.5072108	0.8534763	-0.64183986	1.3518367	0.17428665	0.68222314	-0.9639827	1.2229244	-1.623772	0.23173025	-0.33159322	-0.6285885	-1.6336334	0.55437946	2.33753	0.29719463	-1.3627241	-1.1656859	-1.9581654	-0.63445365	0.20292246	1.3221074	0.2297286	0.38936868	0.7024848	-1.0680267	0.06420894	-0.17669083	-1.4359124	-1.5008785	-1.6281201	
-1.1808838	-0.9374732	-3.9207034	0.8490413	0.3567039	0.09802666	-2.7738008	0.48705894	-0.2630588	1.034036	-1.8373289	-1.0699458	0.44638124	-0.14669827	-1.2960126	0.45199126	-0.40392822	-0.13636626	-2.2597423	0.22849825	-0.010931129	-0.647928	0.21275431	-0.5897118	0.39032212	1.1906289	0.16512187	0.7543145	-0.2397749	-0.7391869	0.48227203	0.17874105	-0.11286213	-1.3759294	-0.6258647	-0.8665454	1.1644262	-0.5900784	1.7055699	-0.40114012	-0.5109685	0.33242378	0.1740527	1.0126479	-0.54324025	-0.48903754	-0.40437198	1.2899255	0.40837425	-0.44711268	-0.81919336	-1.5646104	0.7355054	-2.3907514	-1.1788832	1.3934256	0.36727798	0.00070115377	0.7770572	0.6209127	-0.18608287	0.8798324	0.7133805	-1.9704401	
-1.2298834	1.2726768	0.80180913	-0.4578875	0.52003294	-0.4277763	-0.20321089	-3.3202803	-0.07696754	-0.40045762	-0.11834709	0.028754951	1.452232	-0.57104534	-0.6769586	1.4545796	0.27471414	0.100391574	-0.10591602	-0.106556274	-3.864755	0.6205111	0.6335507	0.18849874	-0.37993184	-0.47726047	-0.2779061	0.43830007	0.7949372	-0.9792354	-2.0422952	0.08549798	0.5043376	-2.1574674	-0.21481688	0.6996446	1.4171114	-0.42462125	-0.9002596	0.2689967	-0.5945217	0.06855334	-0.15608987	-0.25115773	0.7162507	-0.6940167	0.41312388	0.077985965	0.08916243	0.015763743	0.38679132	0.5238869	-0.7414121	-1.7186835	-2.3564677	-1.4675342	-0.2083748	-0.6552836	0.13418582	1.5996004	0.21543002	0.050094254	0.118182	0.27776456	
0.4346003	-0.4432762	0.33843383	-0.58017015	1.4550391	-0.16887085	-0.63654155	-0.347259	-0.59388745	0.8176009	1.2882239	0.055401072	-2.343929	0.6551116	1.2491294	0.04366922	-0.5033235	-0.23741202	0.80274945	-0.56623644	0.991867	-0.5948482	0.7105466	-3.1995237	0.15434277	-1.217722	0.08092313	1.1503108	-2.9131424	1.0849612	-1.0757691	-1.101228	0.1502803	0.17701231	0.2947845	0.8344853	-0.049954507	0.13103642	-0.51066554	-0.7043201	0.63391423	0.22129136	-0.40858683	-0.07698847	-6.7084703	0.027886469	-0.7682698	1.5270537	-0.9969598	0.49824715	1.0136325	0.9064735	0.5963647	0.88326794	0.71218324	-0.5611048	0.65253454	-1.6714417	-0.88389415	-0.016521527	-1.0299261	0.12345843	-1.0282791	0.41618374	
-0.7383769	-0.15429339	-0.3453455	-0.28864592	-0.614168	0.6849299	0.63551015	-0.6127832	-0.306893	0.2639823	-1.7569084	0.2635116	-0.09764583	0.8965083	0.7693995	0.36381435	-0.32100093	0.23322181	0.9383537	-0.014326545	-0.48408714	-0.6732788	-0.038911536	0.03215532	0.81791806	0.5230641	0.39016297	0.42486256	0.49085426	-2.4762216	0.25273484	-0.93329614	1.9863755	-2.1652942	-0.84095776	-1.0331913	-0.46662512	0.09705523	1.1764357	1.3818369	-0.839647	0.46891952	-0.9322336	0.51256895	0.37165368	0.33126357	-0.790865	0.78331447	-0.05235549	0.38581088	-1.5598758	-2.2312753	0.9236842	0.85349894	0.25893176	1.0661942	0.24990214	0.15843636	-1.3999486	-0.8823421	0.06756071	2.1153257	-0.45938045	0.5471687	
-0.48479107	-0.47270527	-0.07839222	0.031364307	-0.12627696	-0.5289879	0.73061395	-3.4756448	0.612344	-0.9291863	-0.05194014	-0.10014457	-0.8641009	0.57375336	0.05099679	-0.05080487	0.5160971	-2.6448364	0.27659562	0.40469408	-0.61271864	0.29650685	-0.8319402	-0.037349567	-0.78152895	0.06162997	-0.5583279	-0.08419662	1.1067238	-0.40089536	-2.5177665	0.3695848	1.9566288	-0.42923015	0.27211177	0.20949711	-1.3583136	-0.88607365	0.37850648	-1.0042838	-0.9656305	-0.84681517	-0.5760536	0.45862547	0.43307126	0.6997599	0.4853498	0.44271812	0.5086566	-0.04423281	0.95258844	-0.51861715	-0.3750114	-1.0750595	-0.64547765	0.47776	0.5423529	0.46754166	-1.0134804	0.9486717	0.652735	0.6781288	0.017538989	-0.12845637	
0.5790482	1.4791023	1.064147	-0.30476364	0.41405404	1.1784346	-4.621939	-2.871499	-2.3236487	-0.07088559	-1.1346475	0.11790694	0.8866865	0.31057823	-1.5874271	0.47859505	0.37438327	1.7059201	-3.3777952	-1.8171496	0.22216973	-0.40852636	-0.7545699	0.8985072	1.3642412	-0.9045052	0.29879555	0.8937207	-0.67670023	-2.915109	0.61890185	-0.8279407	-0.6183451	-2.8425224	0.38043398	-0.72451246	0.33693632	1.8062724	-1.585871	-0.6690492	-0.6793286	1.442716	-0.43329448	-0.5692479	-0.120476626	-4.309179	-0.75946474	1.4689466	-0.78744763	0.5258112	-2.0986543	-1.1099579	-2.5022519	1.2348908	0.7641449	-0.22536337	-2.4457788	0.5561858	1.1960266	0.3967259	0.22838971	0.7537519	-0.21760099	-0.20072336	
-0.7581246	0.31011572	0.016196586	0.22134568	-2.7873752	0.19598539	0.5870501	-0.55370444	0.81480616	0.9739707	-2.7721167	0.5374246	-0.13734438	-0.24052708	0.42887458	-0.5174961	-0.39196715	-0.49947694	0.45533636	0.8099629	-2.1424043	-0.754873	0.38205194	-3.1252217	0.19499135	0.6773345	-0.58671665	-1.4075009	0.534838	0.21186957	1.0180037	-0.47714397	0.2921143	-2.4047494	-0.92378837	0.73726153	-0.6623234	-1.8245906	-0.14409487	0.45886528	-2.4440606	-0.30825475	-2.4061983	-0.5647493	-0.4177229	-0.34910995	0.74922365	0.23403041	-0.013812127	0.020885743	1.2673349	-0.5999984	-0.20499144	-0.33236253	-0.028488278	-0.5024208	0.12916134	0.14506532	-2.0272756	0.027983282	-0.61585116	-0.56327957	0.33931622	1.5164431	
0.48877558	-0.814773	-0.5454073	-0.057111662	0.029076513	-0.08663347	0.8448472	-0.39206266	-0.13592975	-0.21070631	-1.6371014	0.30196422	-2.2305915	0.777129	0.8121493	-1.1042427	0.07423364	-2.9151745	0.5045644	-0.16638303	-1.0118043	-1.5471673	-1.3118821	-0.15433145	0.13510643	0.27260378	-0.26715362	0.3309963	-1.044693	0.789797	-1.0643986	-0.05253452	-0.31923687	-0.5129727	0.10450892	0.057838727	-2.4612496	-0.08093158	1.2436053	0.026973702	-0.1491417	-0.048330884	0.04112726	0.15202217	-1.0171664	0.03452489	-0.17246976	0.15110281	-1.0555911	-0.056296233	-0.58776927	-0.5212799	0.90944767	1.0057187	0.84324276	0.62640965	0.2541942	-0.9513116	0.19683829	-1.5186033	-0.88978547	-0.32479814	-1.4378778	0.68615294	
-0.13460408	0.23149776	0.46268442	0.38610378	0.115359336	-0.20414136	-3.2090175	-2.1422298	-1.8854109	0.43218112	-0.08248646	-0.241526	0.6763772	0.28498563	-0.94680065	0.41001084	-0.6143357	-0.38090095	-2.6730218	-1.2784513	0.3402894	0.674447	-1.0685625	-0.0114117265	-0.27982667	0.6249916	1.2329881	0.02009422	-0.5240458	0.32576197	-1.5054702	0.5075077	-3.005468	-1.4375892	0.29376906	-0.4159486	0.58490145	-0.6755815	0.10787535	-0.81953233	-0.73105365	1.1015903	-0.5462947	0.3695946	1.3809206	-0.25868914	0.3919748	1.4519562	0.51889354	0.5006255	-1.6636418	1.7081623	-1.2470375	0.10550289	0.15688002	-0.9108584	0.6547497	-1.1902736	1.1219732	-0.119148456	-0.50457567	0.26389065	1.8994999	0.014042393	
0.14008951	-1.0222068	0.032066725	-0.97366613	-0.17060536	-1.4116691	-0.6092591	-2.9649203	1.3695269	-1.9839022	-1.8147213	0.3377521	0.0016234119	-0.88725996	0.25789052	-1.1335052	-0.79899085	-2.3069696	-1.2767315	0.18861142	-1.8791758	-1.5874169	0.46936655	-0.31767496	-0.9039388	0.5657902	-1.0868734	-1.0169493	-0.39752954	0.29401806	-2.4240496	-1.9233139	0.7505642	-1.8754783	1.3768191	1.5609138	-1.9469488	-1.6185173	0.59235203	-1.5529338	0.8953715	-0.19131607	1.9188386	-1.9283341	1.039043	-2.9783797	0.34354797	-0.38592103	-0.04626664	-0.8234845	0.85878676	-0.76923645	-0.98559237	-1.4357932	-0.5569155	0.5623075	0.16542637	-1.4365473	-0.40949118	-1.5355065	-1.682032	-0.03383686	-0.7372863	-1.5704992	
0.6789101	-0.54152554	-0.67429733	-0.46856183	0.042351373	-0.6312171	0.799095	-0.6679153	-1.0391551	-0.14535332	-0.013458826	-0.1601826	0.5939529	0.541463	0.26705232	0.8621808	-0.064402215	3.849597	0.5654362	-1.0188082	0.16995761	1.3945934	-2.089318	-0.17186508	0.20171669	0.62248296	0.80379295	0.051215805	-0.7932412	0.08319718	-2.5446048	-0.26237875	-0.14661945	-0.31136578	0.017724138	-0.55815053	1.6255624	1.3460405	-0.6969186	-1.1535221	0.074689426	0.48177156	0.015839905	0.39612135	-0.30173263	0.08187626	-0.43831095	0.5672385	-0.44075283	0.17862445	-0.9054997	0.057893414	1.5299692	0.69574165	0.15840855	-0.15689243	-0.29852316	0.79768497	0.48984125	-0.37808225	1.5548912	0.071136974	1.8547248	-0.09588707	
0.9858135	-0.71633637	-0.007197197	-1.0728177	-1.1205521	-0.6475499	0.34065455	-4.858272	-0.82327074	-1.1286412	0.20566352	-0.22170623	0.08979524	1.1864467	-0.5503478	0.9982549	-0.19158445	-5.098262	0.731447	-1.0516301	-0.7102592	-0.92301905	-4.1031327	-0.078051895	-0.615917	0.24065445	1.1743321	-0.7233958	-2.583442	-0.45033103	-0.60575336	0.32800442	-1.6764168	-1.7019769	0.5644927	-0.8489988	0.52141345	0.13857675	0.08509034	-0.64045155	-1.5017326	-0.1301884	0.12136272	0.14571333	-1.5086464	-0.4020153	-0.12844181	0.02196871	-0.92686754	-0.7789708	-1.5595928	0.03180512	0.29198658	-0.4798713	-0.9798536	-0.12787199	-1.3928713	-1.01173	-0.5452698	-0.059078887	-0.14478688	0.7991366	0.498117	-0.21091266	
-1.3154695	0.70107436	0.09635741	-0.62571317	0.07352186	-0.56699723	0.84509397	-1.0897228	-0.3113966	-0.23175497	0.42409194	0.64196104	-0.59394914	-1.3111945	-0.73071337	1.9892032	0.083715096	0.95599914	0.55962294	0.38320893	-1.686097	0.51460963	-0.15271704	-0.6782076	0.024584858	-0.9176402	-0.19141847	1.6391556	0.85970753	-1.4477944	0.39229313	0.74412495	0.8489256	-4.62347	-2.062934	0.71293485	-0.15335724	0.297555	-0.4312485	-2.2947695	-2.024953	0.91307974	-1.0781908	1.2393502	0.31937197	0.12885842	0.34489757	0.5223003	-0.07637079	-0.40529886	0.30686334	0.5206241	-0.6273654	-3.2016876	-2.9308214	0.677157	0.36486158	0.7226471	0.863343	-0.71777314	0.4038752	-1.3438764	1.5813818	-0.05430389	
0.5467344	-0.93280977	-0.25485393	-0.5282826	-0.055038966	-0.2356542	0.6199099	-1.09469	0.49369258	-0.26998198	-0.34659275	0.27414337	-2.9237633	0.6660783	0.4531895	-1.0966654	0.4542827	-0.7383584	0.4169626	-0.004352907	-2.5496488	-1.9293325	-1.4712863	-0.019959664	-0.21923885	-0.48124215	0.09278828	0.3628232	-0.82887924	1.2926201	-1.3445325	0.43120825	0.2229953	-2.280369	-0.19869189	0.23174761	-0.7608321	-0.6396246	1.039544	0.9200519	0.05124978	-0.390843	-0.38565102	0.3517093	-1.2775011	-0.898854	0.19225584	0.23790078	-0.28158706	-0.25835574	0.0466169	-0.54801124	0.059885226	0.51815933	0.38624784	0.8726511	0.3206171	-0.06489299	-0.32798514	-0.61551017	-0.7208912	-0.65888834	-1.4648191	0.6547939	
-0.82278395	0.03874039	0.2640063	-0.47277862	-1.9455652	0.2725481	0.50344604	-2.8457966	0.26945806	-1.3433284	0.37614793	0.3281662	-0.24030524	-0.4195194	-0.382595	0.74289757	0.19937178	-2.52089	0.1106974	0.6171644	-1.1911948	-0.026575739	-0.77105075	0.059437945	-0.28908077	-0.50461376	1.0188189	0.3046675	0.96909887	-0.79450876	0.49256304	0.017301956	0.078348994	-2.4458957	0.029360672	0.50517315	-1.5372066	-0.9276351	-0.6528651	-1.4183569	-1.3419329	-0.10668155	-0.81306773	0.024480823	-0.2439778	0.39303523	0.85331565	0.71796113	0.4354798	-0.8497784	0.72201943	0.64186484	0.37882042	-0.4256206	-0.19372527	-0.59747314	0.22133547	-0.16562267	-0.64307815	0.11829676	0.18355945	-2.0234103	0.6943773	-0.0033271676	
0.40515697	0.2530657	0.1539911	0.1785135	-0.04599192	-0.5609175	1.0564564	-0.4809108	-0.9246152	0.9583931	-0.23116627	0.6823978	-0.31713012	1.1617407	1.2466934	-0.086428866	-0.2584232	0.15524267	0.97813773	-1.5115441	-0.12600408	-3.240819	-1.5182918	0.5666961	0.5398917	-0.4293693	-0.54785544	0.7391511	-1.8181087	0.38013807	0.08499423	-0.47438794	-0.04251323	-0.5119541	-0.18013024	-0.021025784	0.024374502	-0.1532367	0.93259	0.9426229	-0.83853	-0.50531805	-0.79130584	0.6705647	-1.9572556	-0.9106471	-0.045354966	1.114103	-1.072871	-0.6058614	-0.4670751	-1.3614224	0.055780716	0.780643	0.20721923	-0.14528707	0.19724977	-0.48293203	-0.407003	0.21644577	-1.3430579	-0.3426337	-2.9665747	2.0331366	
0.49685878	0.8649096	0.994496	-0.27982837	-1.1674539	0.33369076	-5.5260334	2.3937798	-0.63654774	-0.5673481	-0.87527347	0.14500013	1.0957811	-0.8546732	-0.15100397	0.24851902	-3.5743213	0.5960535	-4.0576844	-0.5677845	0.37426776	1.1092135	-0.24238603	-0.04517747	0.6613006	-0.14572857	-0.31025892	-0.8888341	0.5684325	-1.1222807	0.6712989	0.32043734	0.7489124	0.23129405	0.23196478	-0.6392468	0.10972763	0.5462337	-0.44367296	-0.397026	0.21825846	1.2466654	0.9719459	-2.6471066	0.010583442	-1.1058712	-0.29345122	1.09892	-0.7005629	1.7655108	-1.033464	0.8325327	0.37646335	1.6722264	-0.374266	0.41334027	-1.321535	-0.21921515	-0.032039985	-0.83528185	0.05161007	0.6365004	-0.33972818	-1.2689108	
-0.11284952	-2.5560706	-1.1733078	-0.85456425	0.76550794	-1.3528644	0.7674969	-0.105382845	0.62490046	1.1050664	-0.58247286	0.08419828	-0.20806074	-0.29808268	1.0313972	-0.36392128	0.3371983	0.9500617	0.17363511	-0.17472346	0.19251116	-3.4248054	0.5912905	-0.29004416	-2.5524728	1.1930141	-2.4058378	1.4560817	-0.9956375	1.5812492	-0.34366342	-0.42495096	-0.80000186	1.2394075	0.16883725	1.2101672	0.88191086	-0.5095679	1.476248	0.6240236	0.4441759	-1.442064	0.41321677	0.5020265	-0.35622758	-0.72489977	1.1380104	0.91434735	-0.09363145	-2.2520638	-0.8681709	-0.8364284	0.56155974	-0.992756	1.9959776	0.18079495	0.31487927	-1.583996	-1.6380925	0.90020055	-1.3657044	-1.0357153	-3.3243644	0.27347672	
0.87574273	0.32850835	0.47462708	-0.4667704	0.3824307	-4.071029	-0.7824972	-0.4333381	0.84843254	-2.2279127	0.24929982	0.38596755	0.8783125	0.6912668	0.44535217	-1.9603686	-0.46705517	0.33245432	0.44049865	0.5183302	-0.26202902	0.6267241	0.48099878	-0.12998576	-6.392348	-0.31026617	-1.355116	-0.72540545	0.045433324	-1.5110012	-0.09747639	-0.22569945	0.435675	-0.1005475	0.04677769	-0.48890418	-0.10142052	0.85317767	0.16503191	-1.2082292	0.39863557	-0.8237686	0.5749198	0.32145625	0.37608728	0.1906508	0.27545398	1.1943972	0.14389353	-1.1369175	-0.31813177	0.54911816	0.10546236	1.0216926	0.7172508	-0.044921137	-0.43717098	0.21243948	-0.9469262	-0.88359135	-0.12110873	-1.4437342	-1.6514064	-0.77636415	
-1.1295531	-0.8028382	-1.3009858	-0.25986534	-1.3967664	1.5272285	0.287391	-0.025409048	-0.02951066	1.3653388	-1.4988776	0.10911608	-0.60043633	0.21188156	0.40631565	-0.11699139	-1.1074848	0.13787736	0.18073672	-0.6812904	-0.18301517	-0.26413515	-0.21038137	-0.5584926	0.6060085	1.0450398	1.1040258	-0.5852069	0.8697556	-0.60252184	1.1259322	-1.1631259	-0.20428836	-1.8181477	-1.1147575	0.24398555	-0.6439692	-0.16802256	1.29034	1.0525836	-1.180256	-0.5775772	-1.6350077	-1.1562812	0.00081957184	-0.6649322	0.66395044	1.2187943	0.5706079	-0.46534908	-0.106069185	-0.3353028	0.93474185	1.4042242	0.77291274	0.022049995	0.072209954	-0.3871486	-0.12264491	-0.4985683	-0.3032543	0.22878136	-1.6667935	1.4841459	
0.9485425	-0.49898574	-0.9640181	1.3135592	-0.17929406	0.83308667	-3.0155478	-1.9519317	-0.4318135	-0.6699164	-0.18826024	-0.82658285	0.4244641	0.2584596	0.5489415	-0.9052041	-1.288621	0.94272465	-1.0979759	-0.68286216	1.103679	0.5807868	0.43019873	0.850803	0.23239975	-0.52558374	1.3896791	-1.8417629	-0.5118757	0.39711678	-0.6024737	-0.13545685	-1.5841502	0.38026476	0.70926094	-0.544346	-0.42550835	-1.2939572	-0.17229384	0.9001877	-0.1405524	-0.8347217	1.1455183	0.18229811	1.9242887	-0.70413876	-0.03327437	1.3070275	1.7305539	0.4237077	0.9701889	-0.27708092	-0.7890353	0.53376204	0.67407846	0.5430908	-0.7374083	0.62549144	-2.1787288	-0.6135922	0.5392743	0.8181703	-0.11088771	-1.895973	
0.5902235	-2.4942176	0.94870687	1.8822972	-1.7779039	-0.95435154	-3.7054243	0.35024825	0.70525897	-1.45741	1.120481	-1.2123948	0.9897244	-1.1572167	-0.9809908	-0.27807638	0.20347722	0.5752905	-2.9085262	0.16471305	1.6839008	0.9380867	0.13910775	-0.5994108	0.515661	-0.038315967	0.9143339	-1.5735099	0.75753516	-1.3328428	0.26782644	1.1088055	-0.1995515	-0.44755208	1.1334754	-0.7324115	0.73957926	-1.4410862	-0.1947824	-0.43346426	1.3045733	-1.5371002	0.8435049	0.14216048	-0.071729355	-0.38860184	0.65501136	2.2663028	1.3887409	1.3621532	0.97206306	-0.35578433	0.4685109	-1.237597	0.89113486	0.73829085	-0.87886983	1.3487272	-0.73727655	0.22287485	0.4818795	-0.42265424	1.2744647	-3.3766117	
1.3210107	-3.3002412	-1.8790194	-1.5070797	-0.8563219	0.86200005	-0.39682055	0.9612256	-0.10849923	-0.1788302	-0.060708903	-0.2645207	-2.8946414	0.5316517	0.3365749	-1.622186	-0.36437753	0.4312537	0.028433375	-0.1984877	-3.3379095	0.6563644	-0.119503774	-0.5710484	0.086629	0.5659916	0.4604326	-1.1450629	0.34831667	0.5414693	-1.2008153	-1.5786989	0.048377223	0.5401473	0.4941616	0.6523481	-2.2544334	-2.0958617	-0.01120226	-1.0098901	0.5240815	0.1416294	0.2474905	-0.10096544	0.23189884	0.3867957	0.2176424	0.42073214	-0.22257243	0.10937878	0.41534728	0.36071938	-0.23378791	0.8750513	1.2311306	0.56878877	0.28047812	0.4820564	-0.4357484	-2.0367749	0.50635535	-0.13184099	-0.23214768	-1.0641133	
-1.508476	1.7376755	0.34382486	-2.355392	-0.51493746	-0.41373995	-1.6980499	1.2746651	-0.0753077	-0.35534057	1.2417003	-0.2864906	1.2171606	-1.7030563	-0.89148706	0.95732564	-0.5803585	0.58834636	-1.7443689	-0.03217871	-6.3259068	1.19951	0.5607125	0.26541337	0.7315021	-0.24556974	0.070961066	-0.39500144	0.90129817	1.4638733	-1.5677286	-1.3032755	1.0272831	0.20209363	-0.032604735	-0.07212932	1.5943393	0.22898939	-1.986827	-0.24604796	0.31289655	0.002383749	0.45048735	-0.15847796	0.85348046	0.5874963	-0.105126195	0.2619435	-0.2584255	-0.16787595	0.56780714	1.0238916	-1.0369453	-1.3171422	-1.4333787	-2.2892241	-0.6154859	0.5332937	0.78415406	-0.11037987	-0.05593481	-0.844316	1.2606213	-0.41241202	
1.0944663	-1.9508975	-0.6749999	-0.64253587	0.3345761	0.44424435	-1.6225613	2.3334394	-0.030395493	2.4733937	0.45218602	-0.50410044	0.49957958	0.8293357	-0.60676694	-0.38584885	-0.35410607	1.0723805	1.5352559	2.164049	1.7966048	-0.20420137	-0.962836	-0.027614746	0.1746564	-0.679385	-0.21529326	-0.16926204	2.1955168	0.94396657	-2.4096045	-0.42053396	-1.2208581	1.042302	-3.8611813	-1.5976096	-0.48947266	0.13984372	-1.045572	-0.28377652	-3.05027	-1.5297562	0.7329672	0.28074598	-0.5999011	1.9673281	-1.0013461	-0.8377455	0.3423679	-0.61894244	-0.13550615	1.7679775	-1.3113811	-0.27775067	-0.6260449	-2.2313268	1.4750129	0.38535497	-1.0485932	1.4714303	1.7915775	-0.6474532	0.6670366	-1.1915115	
1.4978805	-0.66241866	-1.3630058	-2.593766	-1.363883	-0.41970605	1.0559186	2.408778	-1.3930632	-1.8040193	0.22459877	-0.6229645	-1.6528499	1.3216707	-1.7597154	0.08128181	0.38833717	-1.8362331	1.1543301	-0.09040315	0.022824215	0.33440787	0.44582915	0.31557623	-0.5956398	0.8718073	0.08758921	-1.3047245	2.0567956	0.48224628	0.11187926	-2.0741901	0.56025517	1.5188686	-0.8281285	-1.9836113	0.53172266	-0.8697852	0.07100475	-1.6862147	-2.208298	-0.92654926	0.226983	0.8102125	0.6884021	0.5715884	-1.1682327	-0.7587901	-0.9764911	0.39793083	0.46729058	0.74430734	0.7784651	2.03597	1.151213	-0.54150474	-1.8865451	0.47485086	-3.4558942	-0.4364503	-0.40491664	0.7998645	-0.019951858	-1.5928249	
-0.63778466	-0.19870877	0.44558024	0.6932136	0.86854625	-1.234374	-0.69095296	1.1166347	0.7960717	-2.1677184	1.0883695	-0.14527236	0.8012827	-2.5706317	-0.8059881	0.7205206	0.08101702	0.06127763	-0.41801795	0.7103851	1.0705035	0.6976421	0.114884816	-0.24068534	-0.16841935	-0.3655452	0.2194596	-1.380926	1.1498828	-0.19910538	0.07594447	1.4981465	-0.10863229	0.042486556	-0.17712516	0.15412436	-0.8137407	0.68541473	-0.6372499	-0.34838483	0.4489844	0.6474163	1.3564873	1.1727394	0.783879	0.6776277	0.35925663	1.1641921	0.3666867	0.457611	0.68733394	0.11930539	-0.5421993	-3.173424	-4.7144957	0.36143804	0.7386292	0.04248148	0.94421405	-3.224262	-0.086238414	-0.92119694	1.4632837	-1.8935546	
-0.0156245865	0.6761475	-0.95667917	0.15002392	0.32739756	0.27853125	2.0900605	0.4247217	0.36620182	0.23820926	0.24262805	0.50474626	0.5947087	0.68683195	0.08395235	0.7460666	0.519721	0.18934917	0.94141114	0.014516782	0.3746297	-3.581945	0.37008244	-0.01657064	-0.8954493	0.0029245662	0.22974393	0.31242287	-2.7140048	0.30676615	0.5599572	0.07642295	-0.7335735	-0.11705369	0.13175593	-0.9825868	-0.00341905	0.25135434	1.4981246	0.9263455	0.7540841	-1.7187135	0.3110739	-0.155849	-2.1060574	0.7511048	0.18449353	1.4907682	-0.507963	-1.7617631	-4.102549	-2.1035392	0.39451697	0.40171117	0.017119238	0.06315216	0.5925645	0.214838	-2.1245136	0.407131	-0.5948142	-0.92299014	-2.51245	1.0413498	
-0.07853811	-0.39026222	-0.52769536	-1.5903436	-1.4319351	-0.6466601	-0.42878032	0.008942823	0.055159286	-0.71776605	-0.27816546	-0.04366951	-2.9306817	-0.3317402	0.27160108	-1.3646845	-0.0060069333	-2.032403	0.033194307	0.13669561	-3.819977	0.09384916	1.323279	0.33549178	0.25748056	-0.41180053	-0.034940522	-0.5065105	0.4282734	0.4900974	-0.5059866	-0.9778297	-0.0010385164	1.0120964	-0.2103799	0.5916973	-1.7753701	-0.6867956	-0.06458826	0.13427585	-0.32630375	-0.08752592	-0.41313803	-0.24870928	0.33665532	-0.465804	0.26425165	-0.16008905	0.06452381	-0.70164347	0.4665183	0.40196434	-0.28240043	0.12076609	0.22897342	-0.7360683	-0.33357587	-1.1241369	-0.18974343	-1.4969686	-0.19343853	-0.91502386	-0.39200675	-0.27138117	
-0.09277127	1.0219235	-0.023497593	-3.3330357	-1.697982	-3.0734942	0.5938902	0.21093789	0.82063967	-0.85782903	0.25790846	0.2021464	-2.9276316	-0.049785905	0.22051021	-1.069561	0.33858052	-0.22554319	0.58339214	0.37254673	-2.0896492	-0.13808364	-0.12026131	0.3607094	0.19490924	-0.33064383	-0.3961427	0.26103267	0.067746334	-1.3936608	-0.7548622	0.07625244	0.25567305	0.33596537	-0.37896156	0.5361833	-0.33956593	0.46657336	0.9890283	1.1160762	0.23530906	-0.18045853	0.017313233	0.4861045	0.17008513	0.041979156	0.4949232	0.20095433	0.21048361	-0.07244937	0.53072023	0.2654679	0.41358554	-0.07553145	-0.14073604	0.8112065	0.19840558	0.4814021	-0.18926728	-0.21364382	0.1853864	-1.2777505	-0.19586945	0.2007995	
-0.8803957	1.2274016	0.08082431	0.9580896	0.14991702	1.0328665	0.6894662	-0.44233012	0.5563034	0.9216717	0.19041672	1.2184057	0.02679752	0.693937	-0.57121205	-0.41168964	-0.16468847	-1.380945	-1.1593399	1.2678106	0.13456285	-0.34115013	-2.2830539	1.0540862	0.4137454	0.88917667	-2.0557675	1.3258059	0.5098629	1.557383	1.0234977	0.76209044	-0.73262197	0.5508416	-1.2057207	1.3643435	0.56664425	0.08153128	0.54309577	-0.25957277	-0.5245927	-0.37500143	-2.3331244	-0.48701683	1.3764329	-0.0073538376	1.5606964	1.9571686	-1.8206861	1.8792219	2.2662113	0.33877915	-0.03416633	-0.7618641	-0.028231476	-0.14416258	-1.0227777	1.0152981	1.0978488	0.3703508	-0.117290564	-1.2981621	1.386998	1.2255294	
-0.35592505	-0.741677	-0.48179004	-0.61095184	-0.34563377	-1.1676977	-0.08229975	0.29878867	0.39848584	1.77305	-0.6622366	-0.6658645	0.40336335	0.617473	1.3502432	0.27385315	0.16363367	1.3969339	0.40002126	0.71044445	1.3315786	0.10235542	-0.0313546	0.3654613	0.014873996	0.8531283	-0.38702863	-2.4032369	-0.6259083	0.20131916	-0.2987191	0.12105779	0.8730983	0.95421565	-1.555231	0.040535793	0.28522444	0.24737754	-1.2898577	0.43698898	-1.4097664	1.2564789	0.48526943	1.6154951	0.51658964	0.34213105	-0.9314588	1.3626735	-0.468314	0.1489747	-0.29754022	-0.9204235	0.45199436	2.4280953	1.2762328	0.28619412	0.636882	-0.82106364	0.7961792	-0.310442	1.6660051	0.477085	0.16890119	-1.7799789	
0.8549929	0.3280906	0.3605301	1.8246092	0.2825523	0.211768	0.26262665	-0.82287097	-0.8184142	0.5368478	-0.59879696	0.117155746	-2.9326272	0.6308747	0.37268287	-0.03638357	-0.29723042	1.8828044	-0.07641065	-0.804885	-0.012419832	-0.7166364	-3.0175712	-0.32101908	0.38455123	0.11607172	0.89599156	0.15833028	-1.90759	-0.98739547	-0.13632926	-0.28991234	0.20269932	-0.7650797	0.5259695	0.48494136	-2.895521	-0.6331738	0.03819657	-0.36688262	0.23973167	-0.3862048	-0.035340693	-0.17174001	-1.4146432	0.19121829	0.103958294	0.81062794	-1.1114224	-0.0738869	-0.4685401	-0.53694606	-0.77271485	0.21195954	0.2068214	-1.1645217	0.15111387	-0.5509079	0.4437689	0.027014274	-0.57745624	0.30303878	-0.66679174	0.726003	
-0.6156626	-0.7851131	0.5632472	-1.5902134	-1.4856732	-4.650556	1.6677529	0.34812465	0.6699591	-0.29507792	-0.009621831	-0.11794753	-1.1414809	-0.18240902	-0.11344766	-1.4819722	1.0282935	0.48321816	0.28165218	-0.57226616	0.3549627	-1.2766713	0.01730465	0.06021655	1.5386236	-1.6802756	-1.2426344	1.0166285	-0.8618142	0.86741483	-0.2701271	0.02445483	-1.6216116	0.5296636	-1.4163601	0.28955677	0.51684725	0.4653485	0.9286692	-0.35196334	-0.16292249	-0.7189532	-1.4095314	1.1312504	-0.4279745	0.23331898	0.1906523	0.6675967	-0.13754015	0.71826166	0.3293035	-0.6107259	0.1919561	0.47347772	0.46236405	0.72081447	0.35316616	-0.26391098	-0.1704175	0.16644666	0.16696836	-0.60070086	0.5056356	1.0332872	
-0.50065905	0.27277267	-0.022489307	-3.5771453	-2.5992894	-2.1622157	0.50409406	-0.33241433	0.53758293	-0.009631683	-0.046351977	0.16024427	-2.2251906	-0.1723326	0.050086115	-1.8482904	0.39059612	-0.64496887	0.3853403	0.21155699	-2.6033132	-0.43995625	0.1790004	0.06857941	1.0029871	0.04885227	-0.050960604	0.15066575	-0.30269018	0.039876904	-0.3873874	-0.21201217	0.6438996	-0.13960841	-0.22628006	0.3986544	-2.417363	-0.124899045	0.45870027	0.6845174	0.18653527	-0.018913813	0.24389912	0.5106209	-0.21327694	0.056114484	0.39404526	0.46621248	0.07856029	-0.37233317	0.29703107	0.30062512	0.41035143	0.14234635	-0.09039031	0.7378958	0.28604358	0.25534016	-0.12825167	0.17276521	-0.574825	-1.6056597	-0.62718576	0.05739386	
-2.00686	0.33784983	0.2563462	-0.7788279	-0.31160805	0.0882271	-0.4469295	0.5877212	-0.8945931	-1.2117697	1.136074	0.0081998315	-8.531714	-0.8698443	-0.32969382	1.5794562	0.002937327	0.19716556	-0.24580587	-0.010100986	-6.708466	1.3754369	1.1950788	0.17300315	-0.35663417	-0.37448946	-0.06094197	-0.3336605	1.2687175	0.79076344	0.25135064	0.020589367	0.95933336	1.520068	-0.66502655	0.4510736	-4.471629	0.083771765	-2.1439836	-0.3380713	-1.0840948	0.056214303	-1.1010046	-0.14523499	0.67502785	0.37667513	0.4003248	0.1370492	0.46755147	-0.18068554	0.34741768	0.8803828	-1.0507922	-2.1839879	-2.0033123	-3.3109307	-0.32359555	0.19510163	0.2607035	1.7679505	0.06367357	-0.0006066003	0.82847744	0.47530168	
0.46559298	1.5591004	-0.6676822	-3.164474	0.5960836	2.0072682	1.1379373	0.22206402	0.435089	1.2800272	-2.00535	-0.4427743	1.0322362	-0.5623171	0.73077273	-0.7071663	-0.297182	-2.0100665	0.7006043	0.23175701	-6.460839	-2.0757966	0.04147455	-0.5446188	-0.28844187	-0.37938386	-0.23023833	-1.8059791	0.55398744	1.2832237	0.41889974	1.0625349	1.0786657	1.9547427	0.9810414	-2.924991	-2.2731688	-1.3937122	1.16792	0.75085664	-2.2612975	-1.8591671	1.6371568	-0.65580374	-0.2056062	-1.5443723	-0.88662004	-0.34802338	-0.64004064	-0.89475965	-0.8174196	1.3012428	-0.5767486	0.34467304	1.2751453	-1.3501462	0.38026488	-1.3007979	-1.1657068	-0.95856696	1.4157213	0.62703633	-1.6337098	-0.6243925	
-0.1745316	1.2271537	0.5870998	-1.1352451	-0.14195253	-0.90707207	-1.363381	0.2131429	0.8316759	-0.67822737	1.6693678	-0.087915644	1.0457268	-1.1899898	-1.020188	0.0348774	-0.12135403	-0.122993864	-1.0926932	0.5648695	-2.9926248	0.62575275	2.0558498	0.1398952	0.05189358	-0.8071198	0.10366853	0.07693964	1.222619	-0.85350096	2.1699774	0.07287191	0.41263008	-0.6310428	-0.08066992	0.4526594	1.131344	0.53010887	-1.1100172	0.13414061	0.5520879	-0.18803726	0.2800579	-0.45593604	0.42470932	-0.38361195	0.7576683	0.3954225	0.7963825	0.02481031	1.6776772	1.0736974	-1.1232927	-1.5048661	-1.0777217	-2.6586685	-0.131898	1.1168061	-0.11312035	0.2112195	0.6523998	-1.055813	1.1859488	-0.028283432	
0.9589553	-0.81907886	-1.582616	0.28872865	1.6583104	1.3702289	2.7696545	-2.0179324	0.17273976	0.89893955	-0.34032497	-0.12628542	1.0298067	-0.41576573	-0.25244975	0.9877299	1.2155926	0.05717835	2.3238811	0.21640101	1.0190754	-1.9013001	0.26294228	-0.17402719	-1.1129689	0.046112586	0.1175305	-2.388802	-0.032147717	0.3173687	1.4415766	-0.0044098273	0.1353689	-1.1015488	0.33903146	-0.78282547	-0.055988073	-0.71225995	1.2343395	0.39669657	0.6212979	-1.8476135	0.6939165	0.064207084	-0.32190183	-0.3517598	0.6913862	2.6088	0.66752404	-1.6083584	-1.0345755	-0.9735312	-0.45359328	0.6852585	-0.44248575	0.3645823	-0.422041	0.754523	-0.55196923	0.41113773	-0.10811691	-1.9781566	-3.1118188	-1.1290435	
0.0046768063	-0.04176653	0.5687142	0.7680586	0.787128	0.43998688	-1.410818	-0.8178373	-1.1017036	-0.42352182	0.11436519	-0.12610613	-2.6512172	-0.12810197	-0.7734222	0.915296	-0.50547034	0.008604846	-0.63753206	-0.57623065	-1.96576	0.62719613	-1.6324644	-0.14448805	0.33388823	-0.038377583	0.36529696	-0.018509405	0.24899995	-0.592319	1.3909769	-1.93593	-0.025661577	-0.16757633	0.13478379	0.317657	0.36354372	0.17389148	-2.1211343	-2.295425	0.014701187	0.19936322	0.2838405	-0.6289892	0.22597402	-0.11573512	-0.016265351	0.2286761	-0.23440485	0.22243933	0.015413294	0.01471412	-1.6124499	-0.5112517	-0.59987986	-3.9602304	-0.30646005	-0.29084474	0.3004725	-0.14302872	0.08394306	0.34962115	1.4294969	0.17731185	
-2.5154219	0.9953188	0.41866264	-0.52061826	0.46638143	-0.37724254	0.18830983	0.002254916	0.8260259	0.754209	-0.09999468	0.44219232	-1.9188694	0.31635657	0.74050015	0.70024365	0.6033095	0.2678419	-0.3084642	-0.43006784	-1.39347	1.4500362	-0.50891507	0.18875587	0.2175159	0.20838922	0.38426134	1.0300517	0.25998932	-0.8655153	-1.9208491	-2.9965196	-0.17376332	-1.7035073	-0.4183546	-1.8290764	-0.93721	1.2792145	1.0677427	0.35035986	-2.2326558	-0.0902326	-2.909137	-0.15369487	1.3126004	-0.36948082	-0.21932782	-0.052801583	-0.45348978	0.48966613	-0.6780783	-0.36914903	0.7024672	0.20864804	-0.7040921	-2.2962313	-0.053857457	0.24297501	-0.80903554	0.9416949	0.14043039	0.36629277	1.229014	1.3898023	
0.4553913	-1.128456	-0.69446874	-0.9368813	-0.8627275	-0.01624434	0.7491772	0.36267588	1.0143474	-2.1766975	-0.6028745	0.4321026	0.30820546	-0.1574553	-0.11334681	-2.4471548	0.3244357	-0.8143568	0.8598321	0.45267385	-1.8118001	-1.044578	-0.015437513	0.0934279	-0.63890713	-0.54682904	-0.5588292	-0.060943566	-0.3847375	-1.1539093	-1.6676186	1.5773451	0.28480327	0.6453545	-0.20470478	0.2934903	-0.5944775	-1.6838275	1.1116825	-0.055976484	0.29945976	-0.37918666	-0.3055972	0.23402444	-0.38847962	0.24839853	0.5881989	0.20731238	0.83679366	-0.33065188	0.34375083	-0.0693086	0.7910533	0.04203073	0.25345793	1.3894858	0.27003947	0.16177922	-0.56390107	-3.6894407	0.2572593	-0.61957014	-1.1457385	0.15921772	
0.29622197	0.7391731	0.44068205	0.6543257	1.7729894	0.27212816	1.0770185	0.7921038	0.4953754	0.5219432	0.40929013	0.1442637	0.6285059	-0.0077520707	-0.4419048	0.5028369	0.30590364	0.07171126	1.6901664	-0.1913171	0.528412	-2.6608717	0.2594163	0.33128977	-0.6615722	-1.8616176	-0.91120034	0.10326837	-1.5271515	0.29420838	0.1312943	0.8722126	0.2361775	0.2757305	0.6794121	-0.34102702	0.14140612	-3.598351	0.2430807	-0.11466515	0.9939635	-1.2721348	0.79392916	-0.3573434	-0.4033536	0.7533183	0.65365297	2.2096474	1.0573921	-2.0775247	0.72261363	-1.2815518	-0.33261976	-1.6496732	-1.5189435	0.81184816	0.931602	0.40047216	-1.9845314	-0.046560578	0.5837305	-1.5458457	-1.3019553	-0.05618525	
-0.12948331	-0.12589791	0.38545513	0.69933826	-0.18967429	0.20261355	-0.10020685	0.08958611	1.5641026	0.4184728	0.7867545	-0.32100698	-0.041236836	-0.29873583	1.1177423	-0.15071599	-0.62968147	0.5587121	1.1297199	1.3515211	0.45078975	0.7141697	0.6445361	0.6640434	-0.08978058	-0.42234203	-1.2050217	0.33937332	-0.03012107	0.3323925	1.1034867	-1.187828	-0.24383995	0.07813546	0.22748344	0.0023289172	0.3003294	-0.29693756	-1.1371752	1.203059	0.73870337	0.7157666	0.48043072	0.0026674531	0.18657821	0.87453574	3.8743873	0.63953394	-0.85038567	-0.5929206	-1.1592366	-0.7911389	0.26307425	0.26942527	0.36353856	0.19977742	0.04340402	0.18941881	0.45901	0.9702738	-0.5818682	-0.7351267	-0.7373614	0.654223	
-1.5549189	-0.13927594	-0.14941709	0.91307306	0.3386696	-0.11313908	-1.8953906	-1.616402	-0.17810263	-0.89912754	0.14393885	-0.32005805	-1.2797331	-0.7717779	-0.021496108	-0.1759957	-0.32750252	-0.66802907	-1.4819887	0.10395313	-0.55070066	0.023872808	0.6248226	-0.6671615	-0.14595953	-0.019954361	0.07024403	0.036155533	0.42051598	-1.4424012	-1.1974823	0.038730066	-1.0978318	-0.46602017	-0.20336904	0.36769328	0.011769768	0.8035934	0.44630727	-0.55512005	-0.83912224	-0.17265536	-1.6933376	-0.4777611	0.18125835	-0.13729532	0.7657427	0.014780261	1.1446111	-1.0530937	-0.083319865	0.51358694	-1.5486543	-2.36922	-2.2872417	-1.3351351	-0.5098108	-0.14255354	0.60935473	-1.5289141	0.13371496	-0.101143725	-1.9647121	1.1897349	
0.7645492	-0.12669839	-0.28954735	0.3593572	0.29980177	0.9161748	-1.005907	-1.6142732	-2.017337	0.49968642	-0.879078	-0.4760384	1.0124475	0.7707355	0.5340239	0.1389906	-0.9557867	0.61792564	-0.29241526	-1.7049247	0.668161	1.328195	-0.24453336	0.40944594	0.9555693	0.6567913	1.0648375	0.5065459	-2.6197462	1.2024888	-0.34644943	0.07849876	-0.24536797	0.7011815	0.22470938	-1.5913016	0.027808623	-0.6955141	0.35223687	0.12638704	-0.062956266	-0.5319571	0.4742158	0.54557985	-0.3554152	-0.9510614	-0.5901242	1.5197039	0.24403836	0.6856711	-2.4043279	0.26986194	-0.9962373	1.3822051	0.69562286	0.92607874	-0.052137297	0.25502038	-1.9629574	-0.35500988	0.21502867	1.3582832	0.098119915	-0.6978409	
-0.12587056	0.36353466	-0.6665918	0.55994153	-0.6513628	-0.7171069	1.3175222	-2.5822227	0.7362499	-0.6142301	0.15698332	0.24136274	0.17635798	-2.2704086	-0.23013373	0.18250744	-0.6915703	-0.6683513	1.3373568	0.19415455	0.26765567	0.19102898	-0.006156218	-0.33127904	-1.1304681	-1.2893964	-0.36256185	-0.099111445	1.9677362	-1.0335956	0.4946626	0.9477207	-1.0672575	-0.17212406	0.5017161	-0.34165362	0.034222804	-1.7111347	0.13055263	-0.5607834	0.7438697	-0.88411397	-0.2569883	-0.11779101	-0.017934997	1.5491852	0.5673992	1.709973	0.75775456	-0.4085283	1.0889187	-0.81578875	-1.4030735	-1.962043	-1.4860735	0.67520773	0.2546132	0.4751154	-0.82998806	0.4734857	0.8255785	-1.8316485	0.5447136	-0.17927168	
0.34288713	-2.780565	-0.28811133	1.986138	0.39115924	1.1256728	-0.22107562	-0.8186534	-0.28227353	-0.48074016	-0.99497586	0.13223684	-3.1982648	0.50316346	0.441666	-1.4337138	-0.19000773	-0.78924197	-0.064895056	-0.3701772	-2.9447343	-1.1670547	-0.38424715	-0.18565576	0.03188847	0.12312388	-0.42553273	-0.0002055868	-0.7729823	-0.31428975	-0.013597779	-0.5937584	-0.4711355	-0.13982606	0.19696076	0.15086485	-1.4277742	0.3526975	-0.61397535	-1.4054097	-0.3595224	-0.079238825	-0.3879726	-0.1543741	-0.5184453	-0.9385644	-0.08068932	0.25790673	-0.8679163	0.020336036	-0.41405103	-0.866073	0.46595445	0.80412465	0.7545709	-1.0403798	-0.26649025	-0.9717296	-0.17713769	-1.7209625	-0.5203778	0.11323455	-1.3799994	0.32013795	
0.24966465	-1.688714	-1.3187109	1.2424896	-1.8508229	0.6797781	0.082034215	-1.916855	1.4429781	-1.0178543	-0.2581644	-0.8043425	1.2324362	-1.904697	0.035489045	-0.20872155	0.90244466	0.56965166	0.4957619	1.2653799	1.714863	-1.1874958	0.1704867	-0.005748042	-1.3951459	-0.5436709	1.1459273	-4.0360594	0.9060296	-2.4687734	-0.17034984	0.11476509	0.018978639	-2.3010137	0.6121078	0.9220927	0.13633588	-0.6700651	0.5961596	0.84857404	1.1361688	-1.2962629	1.2984517	0.4751792	0.90393746	-0.5439952	0.9536615	2.4822369	1.6953151	0.5769355	1.18346	-1.0231794	0.5020483	-0.21998951	0.72220534	0.8582664	0.11448699	0.063425094	-0.14669792	-0.32636783	0.67735857	-1.1960473	-1.9796354	-2.9998627	
0.2501895	-0.20957917	-0.2023803	0.47207066	0.123577595	0.43231034	-0.85117626	-1.9347755	-1.44106	0.9562686	-0.74560344	-0.17596619	-1.7778382	0.4619636	-0.053417414	0.42888433	0.2411266	-0.35693127	-0.63783723	-0.7869784	-3.3775108	0.40106034	-2.139734	-0.20025969	0.36828437	0.38138455	0.4168635	-0.13345514	0.0829294	-2.6845057	0.21635266	-3.3294618	-0.06034622	-0.11179863	0.36506587	-0.18625054	-1.0393461	-0.05523735	-1.349412	-0.37402824	-0.6095635	-0.023989372	-0.06267519	-0.36630663	0.21577092	-0.42721802	-0.4173489	0.020225093	-0.40265447	0.4095414	-0.9823267	-0.5120276	-2.819876	0.028699487	0.1681387	-1.2682452	-0.53619677	-0.5172392	-0.1626687	0.2884365	-0.3119845	0.9095073	0.13265583	-0.05347562	
0.55314016	-0.40593743	-0.3885604	1.7139114	0.7981973	0.68452173	-2.118696	1.2932246	0.31946784	0.42977566	-0.44772068	-0.43344358	-1.2588664	0.43385205	-0.16460685	0.14808437	-1.1609439	-0.90966654	-0.96255887	-0.26701492	2.859401	-0.26658383	0.9034497	0.3124175	0.3957906	0.18447874	-0.7989815	-0.8640063	0.22464342	-0.2106549	0.22700572	0.22282058	-0.34620413	0.6836508	0.049809482	-1.012318	-1.5994028	0.2852581	-0.92926204	-2.6686025	0.43963552	0.5372105	0.4412287	-0.57504416	0.24352974	-0.744762	-0.8133245	0.8022	-0.17443709	-0.29164898	-0.61099964	0.35962486	0.64904773	1.1647414	1.0951663	-1.3409463	-1.2646036	-0.3644046	0.44487554	0.08367127	0.8506452	0.73142153	0.052277304	-0.8113809	
-0.3292143	1.3098367	-0.85451895	1.2179464	0.24438395	0.59430236	1.0797747	0.92827755	-0.88268083	-0.24510185	-1.3811606	2.3814085	-0.17915598	1.136663	-0.98361117	-0.070475	1.041962	-0.33627197	-1.4221724	-1.2482272	0.6489383	-0.6273443	-0.04593793	-0.7552614	-0.34273535	0.96000534	0.19154549	-0.6343656	-0.9967754	0.8920834	-0.41725683	1.8214568	-0.3028962	1.1639992	-0.62541705	0.43937144	1.2620113	-0.58310163	0.6687928	-0.37604865	0.41274303	0.643874	-2.0443072	-0.14447494	-1.2789705	-4.9239388	-1.0579245	3.069127	0.6022215	-0.60389465	0.29058954	0.46273738	0.6796818	0.6172693	0.21381094	0.06875935	-0.38753963	-0.6285281	-0.1917308	0.12805438	0.6727053	1.041121	1.1586584	0.63802415	
0.18900524	-0.20101629	1.1685472	0.867709	0.20212047	-0.38341856	-0.8802104	-2.6981337	-0.051590234	0.12531537	0.72619367	0.41441157	0.19788821	-0.5298276	-0.37734938	0.06966428	-0.23029678	0.1804446	-0.78474563	1.3856254	-0.15842235	2.4337623	-0.2559047	1.417865	0.007996148	-0.43438807	-0.28162757	0.44581324	0.28545418	-1.3700275	1.5167065	0.3600482	0.17294756	-1.5746673	-0.06496999	0.45784822	0.17955452	1.0887616	-0.16667436	0.1558946	-0.9492745	0.6217023	-1.3251222	0.114235744	-0.90791106	-0.3448739	0.38302025	2.304522	0.7399324	-0.5032531	1.70836	-0.64525354	-1.404842	-2.018416	-1.9259341	0.7943389	1.6370624	0.62074274	0.28519237	-0.54761887	1.0190479	0.13398719	0.24542703	0.4166616	
-0.38367772	0.42220798	-0.07018496	-1.4735454	0.58600014	1.3396053	0.64986545	-0.7992782	-1.5501448	0.64331037	1.3551632	-0.22808114	-1.7478706	-0.027547147	0.4567359	0.57731867	-0.33798188	-0.90474534	0.16535032	-0.44936845	-1.0287662	0.3181854	0.914692	0.3145015	-0.0011828017	0.49835002	-0.98970836	1.5901275	1.4331809	1.4787003	-0.28626588	-0.99422985	0.7207444	1.1777264	-1.4177334	0.4883584	0.4001571	-2.6309178	-1.2757522	-0.8266272	-0.96905833	0.1195731	-2.0663314	0.3645255	0.83441377	0.47970167	-0.009741036	1.7590268	-0.3397423	-0.8510347	2.2098842	1.6424354	0.6805464	1.3409251	-0.18669787	0.6869168	-0.27578995	0.20901166	-0.08043175	-2.417041	1.2158093	0.12283598	1.203681	-0.8633421	
0.62631416	1.1830224	0.6456388	-0.10401924	1.3514081	-0.03334709	0.40422663	-0.57347685	0.29016563	0.21607241	0.65113044	0.82515794	-0.63860977	-3.120645	0.5829769	1.2363437	0.70666754	0.18191536	0.8022736	0.65381885	-0.7410889	-0.08794552	0.17124203	-0.81701887	-1.6387277	-1.635837	-0.080939844	-1.3691287	0.8663585	-1.1555955	0.57214284	0.708846	0.9139699	0.61447287	-0.24653271	0.32513148	0.24092884	-0.26820642	-0.53241336	0.34514406	0.1684005	-0.86277264	-1.731259	0.5810524	0.49458188	-0.15744062	0.20722273	0.49576062	0.081146896	0.029196935	1.0237151	-0.89983606	-0.074077666	-1.3115135	-3.775628	-0.09805796	-0.4110262	0.5081314	-1.2058954	-0.26167884	0.75069404	-2.4856524	1.7196618	0.1645529	
-0.13966389	-1.9554315	0.0203134	1.0067986	0.08014439	0.75358236	-1.1856852	-1.0200515	-0.40874767	0.46737084	-1.3300147	-0.30146998	-1.8755746	0.25350314	-0.06848154	0.20879522	-0.4747771	-1.6367917	-0.7783301	-0.11036686	-0.8483444	0.010178892	0.15386553	-0.12051132	0.11005213	0.37112203	-0.3957871	-0.14099824	-0.16069378	0.35425335	-0.01741397	-0.57931554	0.46823156	-1.2488191	0.068694316	-0.4412923	-1.2989923	-0.18377365	-0.6406393	-1.7119582	-0.019207962	0.36873227	0.30564666	-0.47302574	0.3225627	-0.13474908	-0.58492917	0.013073239	-0.28673184	0.5758676	-0.51623374	0.031756558	-0.22221701	0.2753151	0.19452277	-0.616258	-0.24518089	-0.6921012	0.3612897	-0.8178461	-0.5047923	1.0470754	0.17827612	0.053968936	
0.6222175	1.0295213	1.3620539	1.6797147	-0.9699241	-0.2751734	-6.51008	0.59383833	-1.6890264	0.0035946646	-0.10362454	-0.08197366	0.26939493	-0.4306287	-0.9471731	0.32656455	1.2654935	0.65096855	1.224435	-1.1796049	0.17576605	0.21676317	0.10875171	-4.3787804	-0.26150018	0.2616409	0.0035860497	-0.06582953	-0.5578921	-0.6242319	-0.55387515	0.053399768	0.19937144	0.11952329	-0.054772865	-0.12700896	-0.88729835	0.31861457	0.7027881	-1.3553717	0.23415968	-0.5807292	-1.1466962	0.31410912	-0.521107	-2.5849345	0.3555437	0.10995226	-0.1252313	-1.1384808	-0.111569405	-7.4972286	0.4849654	-0.4530629	-0.082402125	0.010761296	0.8598697	0.18382826	1.0790101	-0.008806028	0.27093247	0.3894187	-0.31712535	-0.4552621	
1.8850267	0.41183433	0.8594994	1.2913945	2.3792763	0.44206405	-2.3536468	-0.6526623	-1.1411833	-0.18451655	0.3603928	-0.4702989	-1.8941966	0.3081152	-0.46658003	1.0819628	0.54493	-2.0092793	-2.7015142	-0.5189033	-0.5234254	-0.433635	-0.21534576	-1.3247885	-0.02566782	1.1956569	-0.3016089	0.0009866694	0.83588594	-0.51928824	-0.42346236	1.4516728	0.590721	1.0342207	-1.3976157	0.21394716	-0.35670638	-0.8634126	-5.842815	-0.42428306	-0.24269827	-2.514579	0.4714228	0.16215329	0.20579514	-4.281389	-0.31726423	0.13526486	1.1276813	-0.41398445	-0.34782508	-3.591758	-1.0874873	0.27828676	-0.24903838	-0.2297635	-0.39476064	0.29141334	1.2163796	-0.8844491	-0.13632685	0.239861	-0.7745258	-0.3861564	
-0.794589	-1.6494762	1.5599048	1.369302	-0.6272885	0.29119807	-2.2709734	0.5943985	-0.4861251	-1.8247448	-1.328442	0.1509527	0.55579895	-0.12746738	0.11779375	-0.28925812	-0.587951	-0.89674705	1.6158673	-0.5777694	0.31014496	-0.1872485	0.53884536	-0.790764	-0.25975594	1.2295122	0.11454072	0.6387298	0.85141426	-0.97307974	0.01653438	-1.5829895	0.5202521	-4.179679	-0.58747995	0.2813086	-2.6602852	1.5088527	0.51724154	0.6964733	-0.04529369	0.47018182	-0.23091313	0.30859527	-1.0012481	-3.6597316	-0.27205974	-0.4417422	-0.60126007	-0.92752403	0.40477642	-1.359595	0.076366335	0.54930764	0.6187578	-0.16520964	0.19927052	-0.09991686	1.1301382	0.7696892	-0.54825324	-0.6355374	0.8653379	0.6218071	
-1.0290651	0.65530586	0.01216553	0.21812159	1.0531639	-0.2988909	0.56673527	0.0022929502	-0.36159426	0.2461223	-0.13444766	0.5252792	-0.71971947	0.5675625	0.1841374	-1.5138092	-0.39659667	0.4106328	1.6906602	1.2817193	0.29170913	-0.60951877	-0.18361801	-2.096709	-1.0476532	0.2651812	0.31965658	0.4602194	-0.46885878	-0.18969415	0.21767601	-5.6952605	-0.9200398	-1.106552	1.1054221	-0.08634762	0.38239896	0.60441804	0.025876177	0.069286406	-0.3220056	0.38778836	0.39162457	-0.5838582	-0.5171269	-0.3208813	-0.19815491	-0.45446667	-0.4388831	0.54667056	-0.007027801	0.31159988	0.27748758	-0.5638516	1.7340224	-0.30678394	-1.2956316	0.059327386	-0.7725451	-0.89147204	0.027361747	-0.79746634	0.09183396	-0.64852417	
0.8163292	0.29032123	-0.26925373	-1.0920588	2.4288197	-0.45799145	-1.5115256	-0.06797109	0.09330559	0.00454865	0.09723978	0.043277483	-1.551683	-0.30803066	-0.49470544	-0.23489389	0.58778673	-1.2882575	0.4111504	0.10396424	0.15304808	0.292659	-1.1429557	-8.013295	0.88402325	-1.4873632	0.33768973	0.17613563	-0.467195	1.0472437	0.5724172	-2.2290232	-0.3100397	0.0376016	0.8020311	-0.05824057	0.48099667	-0.7665597	-0.7827423	-0.9260321	0.3492413	-0.12287271	0.25668874	-0.04790462	-0.5524704	1.3059596	0.089347206	-0.5301304	0.058162905	1.0450445	-1.8783226	-0.44074994	0.10011506	-0.15727407	0.29999647	-0.111198604	0.3980987	0.22218792	-1.813423	1.0376027	-0.5869902	-0.21515359	2.0487378	-0.38552895	
0.43669978	-0.7897694	0.061279368	-1.2378163	1.7153763	-0.29226312	-2.4762368	-0.19531274	0.038295027	0.50987387	0.04129669	0.20644997	-1.0506301	-0.05274096	0.09954652	2.8282814	-0.94829744	-0.44829723	-0.84719485	0.32382378	-0.64849824	-0.6818703	-1.2768235	-3.6464467	-0.19580296	-0.49740407	-0.05478665	0.109026134	-0.40107447	-0.45510232	-1.3783512	-0.49191895	-0.38270453	0.26301384	0.33390367	-0.3634319	0.19488329	-1.5330516	0.08938336	-1.7382269	-0.24848154	0.5849993	0.5650772	-0.8408118	-1.0326877	-2.0566843	-0.43683523	0.054648373	1.0589916	0.9778294	-1.6056025	-0.14629029	-0.24679531	-0.46654812	0.37104806	-0.1136616	-1.00992	0.116889395	-0.82812834	-0.14106317	0.142223	-3.7576058	-0.4122312	-0.6734381	
-0.04989209	-0.030116703	-0.5428152	-0.9421532	0.008944777	0.58330613	-6.101285	0.21863733	-0.19167587	-1.1619854	-1.0767226	-0.008421085	-2.1402054	-1.6882293	0.20670697	-1.5720582	0.29716507	-3.3723688	0.3726031	-0.56675726	-0.8328656	-0.00027278165	-8.070901	-2.1668477	-3.6628275	-1.134283	-1.2631263	0.052961234	0.37937683	-0.045292493	-1.0840671	-2.2931304	-0.6421035	-6.660916	-7.028926	0.049735297	1.0634366	-0.5995641	0.088529885	-2.8472285	-0.016565481	-4.1457086	-0.97058624	0.50986326	-0.6555591	0.52454555	-0.45844316	-1.1304106	-0.27572247	-0.68486077	-5.615444	0.6455372	-0.65256685	0.13842875	-2.1057427	-0.2019148	-0.45161805	-0.20497167	0.17561163	-8.521106	-0.12876594	-0.052276712	-0.090838015	-0.70976263	
0.56779957	-0.5399504	-8.26779	-3.7970843	-1.3547565	2.7853308	-2.5480266	1.5175397	-1.4687221	0.72108704	1.8800523	-0.5692124	0.3273676	-3.489155	-3.9486399	1.2752271	-1.9986323	2.4551404	4.046285	-1.7265332	1.082547	-0.7835667	-3.007837	-3.1618958	-2.7666745	-1.3987541	0.047449943	-0.050191615	2.2766588	-1.2168528	-3.1608596	-0.6652761	0.38819283	0.5247364	-4.267233	0.647476	-4.412062	-4.352184	-0.3154022	-1.173862	1.4771594	-6.908074	2.666018	0.49663508	-1.7406465	-6.0302	-2.0308528	1.1655715	0.34470293	-0.7066441	-0.29576442	-1.4271547	-1.8852098	1.6789619	3.0103562	0.115468465	-2.4526303	0.55567247	-0.40711102	-6.612893	-0.6840849	-1.7408618	-3.2782686	0.30509636	
-1.3086848	-0.61937886	-2.0284975	-1.0759053	-3.040664	-0.022375336	-0.21334355	-0.04660712	-0.37157226	-0.18029897	0.7665463	-0.17807499	0.26235634	-0.71795917	-0.024963155	-4.354511	-17.527197	-0.55808085	0.52186775	0.09962554	-0.6451867	0.3986029	-0.72702235	-4.7359457	-0.25446972	-3.4490833	0.10872899	0.19492298	0.18566447	-0.77928746	0.30072123	-1.0936705	-0.5896169	-5.7226	-0.8430998	-0.27329874	0.4054318	0.24299064	-0.99549085	-2.1313233	0.2628318	-0.32678103	-0.23975103	0.062729046	-2.575632	-3.1053894	0.05126045	-0.12053504	-3.8565607	-0.7976393	-1.2391783	1.0459645	0.5555739	0.51868814	0.04038738	0.059261624	0.8109527	-0.73507607	-1.3939475	0.039966468	0.7311849	-0.022365734	-2.6945968	-2.027836	
-0.77068	0.09848521	-6.076429	0.8140096	1.4104033	-0.35675168	-5.941034	0.38421258	0.09349344	1.4099083	-0.32564378	0.6732921	-0.025536476	-0.0150176305	0.44143546	0.8346684	-2.3518832	0.9631939	0.9655641	1.1496654	-0.2827271	0.3421547	-9.359977	-3.1094298	0.36948973	-0.7574186	0.36616853	-0.6307235	-0.17038193	-1.3812041	0.81333023	-1.560523	-0.25322556	-0.27611193	-1.1166313	-0.3574393	0.14024611	-3.7853487	1.3314396	1.2671881	0.6207549	0.45780826	0.9068861	-0.44878092	-1.0065225	1.7764192	0.23728739	-0.20484383	1.0070726	0.99503917	-1.0289994	-2.2162213	0.30621126	0.3705537	0.5634571	-0.08417257	0.5640122	-0.4763361	-0.28573114	-1.7446384	0.2855473	-0.5071784	4.4263773	-0.21543495	
-1.8645285	-0.26333076	-0.93360233	0.97259307	1.4505577	0.273612	1.3260574	0.032565333	0.54936713	-0.9212965	0.7286924	-0.48909566	0.5208641	-0.83480865	0.48040256	-0.5616875	0.9304986	-2.8194058	1.5850061	-3.2118485	-0.25560272	0.57674485	-0.02060463	0.95429957	-0.77379715	-3.2129004	-0.18758692	0.60557777	0.99478936	-0.003776407	0.68686485	1.1236455	-1.470216	2.7199376	-7.113511	-0.03244129	0.0030800537	-0.36134616	-1.6847612	-1.4767529	0.33581212	0.29363868	0.90374863	0.3448635	-0.6659528	-0.67806095	0.5569178	0.48640862	1.0908526	-0.41168198	-0.20269084	1.2316585	0.43289518	0.6635876	3.6255012	0.052823313	0.6300783	-0.15550588	-1.2045333	-2.1579955	0.97267365	1.799315	-1.829618	2.753564	
0.20237614	0.07982051	0.8799624	2.8631897	0.9574585	0.8790704	-1.7580106	1.5163647	-1.0019149	0.6718315	0.2923869	0.5473381	-0.85624576	-0.5374457	-0.15325277	-0.97632825	0.22518443	0.5474912	-0.3702359	0.36301556	0.42442364	-0.0626112	0.6298546	0.66766423	-1.2386081	2.0524566	-0.3123423	0.39171308	-0.15380616	0.09740712	0.86649406	-0.6797417	-0.15822102	-3.104603	0.4086688	0.4221331	1.9595965	-1.1377888	-2.5803044	0.8781407	-0.6663574	1.2097143	-0.5689568	0.09574041	0.12663355	0.5216926	-0.6526283	-0.09571001	-2.452244	0.63429	0.6893367	-1.7447019	-0.08552867	-0.0722298	0.7411109	-0.12938935	-0.2997931	-0.3951048	0.05461711	0.94100076	-1.3297482	1.7849488	2.745181	1.3184869	
-1.1538272	0.287548	-1.2595884	-0.6801789	0.70627356	-0.29826567	-1.6830955	-0.46774063	0.20414104	1.0924121	-0.20078555	0.08727316	-3.6289856	-1.2401674	-0.0494329	0.32541153	-2.296824	1.2299443	-1.2400835	1.5349423	0.6411806	0.06037117	-1.0432036	-1.1204057	0.4521861	-0.5823475	0.25105858	-0.9230439	-1.2836876	0.28005028	-0.7913775	-7.859408	-0.9290231	0.31785518	-1.9707545	-0.106160715	1.1406127	-1.3135651	-4.0793443	-4.5788007	0.26508075	0.17804521	-0.11668333	0.18066932	-0.46016648	-1.8102667	0.14731666	-0.02365898	1.4487525	-0.060921982	-0.18094642	0.5552177	-0.24722283	0.4021864	0.36850145	-0.3266414	0.73174393	-0.08424555	-0.6299748	0.14653867	0.5349726	-0.32007486	-0.20900671	-0.56985384	
0.6425705	0.14596899	-0.27851114	-0.31599304	0.5606476	0.30934268	-0.6221301	-0.028820828	-1.6129631	-0.48573422	-0.41568244	-0.67410904	-3.8260818	-0.5039735	0.7489444	-0.6751333	-7.3010106	-1.2905008	-1.4680357	0.2649933	-0.4927018	-0.19199315	0.4552578	-1.5337565	-0.15441602	-0.748037	0.029496314	-0.68035686	0.855229	-0.78956544	0.07724794	-1.4753305	-0.5656152	0.5373346	-2.4835415	-0.18840158	1.4783297	-1.8890941	-0.566672	-1.9277769	0.11375603	1.0080131	1.2138021	0.12474288	-1.4661406	-1.3987921	-0.44678077	-0.78975576	-0.7366705	-0.72540015	-0.40629447	0.6333493	-0.5154685	0.75557816	0.12691633	0.01695101	0.32585567	0.24116687	-0.78724366	-0.9036086	0.1673821	-1.8351969	-0.19079892	0.075006366	
1.9279356	-2.3627157	-4.036549	0.8447932	1.1169702	-0.3563684	0.25586984	-0.26718646	-0.173689	0.35483783	0.6162194	0.29696748	0.41507003	0.3209015	-0.13178587	0.29241017	0.30945727	0.23153251	1.0015275	-0.93983287	-0.28370863	-0.19182198	-0.24089213	-5.0224667	0.20604149	-4.0211706	0.0645794	0.5298268	-0.8183171	0.89909893	0.12026281	-0.041425195	-0.22401768	1.1680422	0.47167635	-0.11019639	0.8123426	0.2836055	-0.2498065	-0.90581524	0.17726016	-0.65186375	-0.2954894	-1.0634735	0.039483283	-0.295855	0.2602749	-0.7746587	1.0857224	0.64196	-1.3724799	-0.11949167	-0.39986256	0.24281575	0.3106821	-0.23324756	-0.4840756	-0.08229769	-0.66259354	-0.12109363	-1.1384014	0.14803678	0.86438036	-0.22671652	
-0.6779975	-0.027715104	-0.15744352	1.2603124	0.22483099	-0.26389125	-1.0333583	0.3677148	-0.68295425	1.4114162	-0.7943895	1.0358437	-0.4756222	0.6578946	0.06802635	-0.1890859	-0.44959277	-0.12049522	-0.1294533	0.86092126	-0.068537295	-0.4236665	-0.77114564	-0.79907966	-0.818161	0.55013794	0.21551846	-0.32234842	-0.46749264	-0.37704787	-1.1389731	-3.8027616	-1.2005444	-0.6747217	-1.4039079	-0.07668394	-0.6902415	-0.9301891	-0.30853721	-0.010582911	-0.058566708	-0.11659688	0.3602804	-0.84332687	-1.4499085	0.57775646	-0.19600497	-0.102740474	-1.1844647	-0.28055725	0.21217898	-0.6225656	-0.16422391	-0.024496887	1.195144	-0.046400145	-0.1731584	0.3204111	-0.09034572	-0.64659584	-0.5529948	-0.9093211	0.4105931	-0.28964722	
0.26491907	1.2998908	2.0681038	-2.4281917	2.5172083	0.32645065	0.92429566	0.5568075	-0.52849805	0.64751446	0.368025	-0.08614977	1.1771059	0.84869564	1.2612203	1.6951386	-9.744985	1.1685865	-1.0676471	-0.89561146	1.0885706	-0.77921945	-9.812024	0.28796476	0.6393079	1.839632	-0.23739114	-0.045985222	-0.21197248	0.24802448	1.245814	-0.7910349	0.118540145	0.5867898	-1.7848916	0.3532821	-0.7408663	0.093624264	-1.1811526	-1.4594842	-0.4113072	0.96578383	-0.047717504	-0.07266453	0.15897031	-0.6391056	-0.24598737	-0.7320216	2.0945914	1.5499293	-0.7273869	-0.4367914	0.15515777	-0.06592409	0.7807531	-0.011906936	-0.78347886	-0.0994008	1.4574499	-2.036902	-0.96089906	-0.8193848	2.3776095	-2.2066042	
0.47677407	0.83340865	-1.9759543	-0.07562414	1.6222091	-0.2633874	1.0967469	0.07855337	-0.1981055	-0.79529727	0.11622298	-0.23271693	1.9145736	-0.8112109	0.41857934	-1.1250077	0.8785028	-0.58028156	0.8448618	0.19925989	0.11954091	0.22093302	0.54436195	-0.06582006	1.2644013	-1.4510869	0.27884665	-0.20585294	-0.7541125	0.92293787	0.3423844	1.095667	-0.37534055	0.2507562	0.32842675	-0.068995446	0.9524036	0.01848899	0.26892897	-0.76444536	-0.044791013	0.2219568	0.9108458	0.39241058	-1.4915329	0.66911626	0.10800503	-0.12488221	-1.2415382	0.23180725	-0.094857365	1.1092869	0.047134623	-0.013349396	-0.38755715	-0.019378195	0.5983345	-0.1760043	-0.15071177	-0.8634003	-0.013316379	1.1486564	0.83874536	-1.021512	
-1.2674936	-0.17167556	0.024183875	-0.13902485	-1.5856426	-0.5248446	-3.9687474	-0.10079232	-0.5136333	1.1943363	-0.15139097	-0.0960317	-0.05156109	0.428441	0.6288253	-0.46442837	-5.0706544	-1.5839031	1.0647335	0.06660635	-1.6572838	0.3822015	0.03827814	-8.073759	-1.70124	-1.5932035	-0.05926477	1.052394	-0.07210682	-0.73674613	0.171173	-2.5867913	0.18588836	0.46128827	-1.3518554	-0.4087101	1.3330877	-7.181345	-1.485772	-0.5156721	0.7711343	0.5717741	1.3058827	-0.12983862	-3.5246446	0.26856098	0.4205921	0.039221354	-0.6595845	0.121255435	-3.2203884	-4.3946686	0.045721345	-0.26857692	3.3260417	-0.22097443	0.83621126	-0.10988645	-0.099346116	-4.492186	0.05300646	1.5171372	-1.208216	2.4673471	
2.4680557	0.097702704	1.0325377	0.62962735	2.312741	-0.34713516	-0.7118569	-0.14947397	0.0057321703	1.4329164	-0.37385827	0.23358104	0.62050086	0.64923453	-0.48302522	0.9124892	-3.275417	-3.4686084	2.8529313	0.13049397	-0.14365968	0.47238904	0.38183528	-0.896793	-0.16243215	1.032753	-0.016226176	-0.40148866	0.24817093	-0.36627674	-0.9810292	-1.1131176	-0.16608848	-2.327823	-0.9184301	-0.12567928	-0.10364552	-0.66544425	-0.7120863	-1.3203359	0.23302424	-0.13808179	-0.9002741	0.32617164	-0.29166597	-0.05396472	0.33000815	0.6334132	1.0557634	1.4723921	1.6918601	-1.4863929	0.100274585	-0.67127	1.3022188	0.021693286	0.92803824	-0.35255986	0.03388557	-0.4627458	-1.4793645	1.4935927	0.06278077	1.1138405	
2.9132025	-2.660889	-2.2640483	2.4392934	-0.46440032	0.48302397	-1.4490011	-1.0771179	0.06259633	-0.056961186	0.5685139	-0.5428399	1.5251057	0.5911826	-0.7820581	0.8182765	-4.394944	1.0153385	0.30710343	-0.5257633	0.70094395	-0.33880818	-2.3565352	-2.4593184	-0.8480648	-0.86026657	0.12820193	0.18209864	1.2947394	-0.9676042	-0.77554464	-0.9714865	0.3984804	0.7143014	-0.34879202	0.41485897	-1.0816367	-0.99942946	0.63991463	1.3115314	-0.48866874	1.5314666	0.18863559	0.37209108	-0.5209774	-0.03243551	-0.49097258	-1.2020774	0.7858555	0.95958966	-1.9910442	-1.8236697	-0.5269602	0.3553186	-0.37460878	-0.21569562	-1.6999286	0.53293544	0.73731303	-13.549855	-1.2206626	-2.6425586	0.695889	0.8710123	
-0.8740718	0.6303051	-0.7185495	0.9150481	0.012161583	0.783215	-1.6001172	-0.3270639	0.8610959	-1.3046955	0.29322755	0.15810074	-2.311406	-0.8518297	1.0745449	-2.7891462	2.1073928	-1.8540847	-1.1792046	-1.1659346	0.5321314	-0.053633653	-0.11766179	-7.384423	0.40105322	-2.2878375	-0.058330055	0.03458355	0.34913918	0.037607912	-1.7962929	0.42304072	0.40055493	-0.52080524	-1.3470232	0.42158842	-1.1846007	2.002736	0.7254616	-2.6878889	-0.6421041	0.041234944	-1.1627773	-0.18268831	-0.2611031	0.5030176	-0.2436207	-0.05354524	-1.0731685	0.13315393	-0.36392683	-2.4505038	-0.37742516	0.85842687	-0.3269318	0.06885439	-1.0779041	-0.10940847	0.013595404	-0.26862198	0.49701583	-1.4505122	1.0596415	-0.24224018	
-0.9906816	-0.41600174	-1.4397064	-1.0649451	0.48178872	0.24046671	0.69105095	-0.467457	-0.22381444	0.3007264	0.13717283	-0.82898307	-0.54547507	0.82097673	-0.37110373	2.6632056	0.62561303	0.2960801	-0.6437307	-0.6611674	0.20523809	-0.29253244	-0.5681643	-4.6661854	-1.4508076	1.4495529	-0.27111506	-1.1371896	0.27792054	-0.36239427	-0.29130518	-1.4320443	0.37100592	-0.00327734	0.57485205	0.17690994	-1.0368509	-3.2475328	-2.4241045	0.087954044	-0.19973725	0.18161823	0.9203477	0.066483885	-0.6140723	-0.059657604	-0.2327881	0.042822156	1.3994066	-0.07635958	-0.34977815	-0.19272871	0.005888954	0.0998289	1.3392026	-0.26181337	-1.029033	0.2516424	0.19107403	-5.323548	-0.117251866	-0.7561925	-0.39660132	0.7298698	
4.234337	0.91095203	-2.8933685	-0.66664296	2.3066242	-0.21789077	-0.8793321	-0.33628747	-2.553575	0.39256206	0.12661803	-0.021704327	0.68993217	0.4368002	-0.8723889	1.4296587	-0.4783475	0.53841376	2.1465764	1.0307249	-0.6920175	-0.52766496	-1.3561792	1.1852158	0.6638943	-1.865001	0.17635766	-0.9583108	-0.39506853	1.1934854	-0.78366756	0.1810889	-0.43450233	-0.3971357	-1.5204878	-0.32379344	-1.0714059	-0.82572985	-0.20886685	-2.0560052	0.46057066	0.4508455	-0.62655103	-0.0695255	-1.6519336	-2.0481231	-0.03439306	0.18965745	-0.10859011	1.382688	0.0017768998	-1.3531154	-1.0868258	0.24968159	1.2684805	0.029926466	0.7346242	0.48357064	0.60230887	-0.596512	-0.60966414	1.3912599	1.6593663	-1.4254322	
0.16833179	0.165192	1.0953685	0.13858844	0.8381968	-0.36430725	0.42649767	-0.08085288	0.09544152	0.71411777	0.32684684	-0.24378513	-1.5508299	-0.60682523	-0.87531626	-0.34104693	0.030998517	1.1609807	1.9272702	-0.060503908	-0.6449068	-0.05571393	-1.3343128	0.21866786	0.026378956	1.6160028	0.08011515	0.17776127	-0.50648385	0.645698	1.2375699	0.17541313	-0.4440539	-0.71110374	-1.2398175	-0.25750276	-1.0038787	-6.701724	-0.39906666	-1.6426841	0.4186967	-0.67913526	0.44966245	-0.34806135	-0.27448985	-1.287673	0.08456614	-0.5414193	-0.05610972	-0.11596414	1.0378518	-0.09206995	0.29612187	-0.09339032	0.6696141	-0.010509002	1.0441303	-0.22929962	-0.6342977	-0.34023616	0.12292041	0.26528472	0.100588605	-0.20332837	
2.6135287	-1.0302073	-0.43686002	0.6839169	3.5271285	0.56649256	0.6264686	-0.80616546	-1.2869587	-0.5451125	-0.06350749	-0.16093592	-0.34623566	0.23275651	0.29537836	2.5367362	-4.7952704	-1.7468457	0.7369605	-0.43071112	0.5386684	-0.0581475	-0.95289254	-4.346675	-0.60257685	0.65764517	-0.02425268	-0.14313489	-0.24489611	1.034807	-0.2017754	0.9810691	-0.3093318	1.0043526	-2.270196	0.38262746	1.1328149	2.3032753	-0.26782373	-0.01396008	-0.6224576	1.054721	-1.043227	0.18462074	0.07302508	0.7899357	-0.2684929	0.14077368	1.3966961	0.64855397	0.49792215	0.53266835	-0.8726761	0.069850184	1.9573952	-0.13393852	0.17401917	0.040819664	0.88470066	-7.277921	-0.06488987	-0.37592462	-0.63867104	-0.58692884	
2.1226032	-0.4373616	-4.3774962	-0.117337376	-0.5102637	0.021517588	-9.665446	0.5962659	0.16931935	0.16685574	-1.5662398	0.517348	-4.5318003	-0.48638618	-0.08719283	0.4568846	-0.2011007	-0.20945194	1.5706403	1.1559317	-1.061827	-0.470713	-1.0766215	-8.065491	-4.737315	-3.9460335	0.12005226	0.30976886	0.17846112	-0.8620424	0.6981153	-2.816025	-0.6044838	-2.8343327	-1.3504944	-0.22516629	-0.34208062	-3.4712846	-1.720125	-2.1200733	0.4034876	0.980032	3.7567103	-0.8616396	-0.029980207	-2.3292048	-0.29658747	0.81092554	-2.1969912	0.46367568	0.12930502	0.4969848	1.2959895	-1.0863063	0.043985534	-0.11749402	-3.837315	0.5529886	-0.15919407	-2.0704665	0.030010251	0.36859974	2.9929895	0.17902489	
-0.4153128	1.0845735	-0.7929309	-0.35313618	1.9668007	-0.34587026	1.3880999	-0.17458013	-0.1823738	0.39029267	-0.4820293	0.13832527	-1.1402229	-0.2128332	-0.3937222	0.19658941	-0.033623062	1.0828826	-0.92793256	-0.30908287	-0.80465865	0.36652443	-0.66059965	-0.69640166	0.285141	-1.746508	-0.080693856	-0.9231467	-0.98383063	0.5390249	-0.35964316	0.5171726	0.27814355	0.9819788	-5.492206	-0.12652746	0.57293636	-4.0441704	0.3914844	0.09526593	0.16746096	-0.13139188	0.054911084	-0.19793016	-1.329779	-1.5517197	0.38154244	-0.711838	0.05412281	-0.05309248	-0.9269164	0.1253923	-0.23082814	-1.0140629	0.4624114	-0.18968126	0.47213277	-0.04275547	0.47847787	0.64896727	0.4417778	-0.19721173	2.5255725	-0.4305669	
-0.0210469	-0.29063293	-1.767475	-0.9360569	-3.12169	0.08247773	-1.3085082	-0.75170463	-0.4224044	-0.64514697	-1.0584056	-0.70488304	-0.96930856	-0.7789011	-0.7320353	-1.9578371	0.058577616	0.60665053	-0.22148938	1.0212115	-0.4289777	0.20498495	0.2337692	-1.7935988	-1.1911613	-1.493556	-0.16843854	-0.5726797	0.36559558	-0.66069156	0.5750358	-2.191759	-0.8840652	-5.2133203	-0.9100759	-0.49210688	-0.5191016	0.7452481	-1.2662352	-0.5982864	0.47232762	0.6725608	0.5638099	0.010962906	-0.7970055	-1.8608516	-0.31609878	0.03661611	-0.8857828	-0.2510301	-0.06123159	-1.0639043	0.5716526	0.22719021	-0.021892713	-0.03102136	1.0528657	-0.35343036	-0.44787794	-1.6738398	0.9390458	0.10705724	-2.0370014	-1.0751263	
3.3103714	-0.12755811	-5.0059147	0.5598786	-0.77406514	0.050394457	0.10723495	0.48624316	0.24829084	0.18469344	0.48635024	-0.7749142	-0.0417892	0.47021547	-0.6545966	1.434663	-9.103855	1.1044787	-1.1648841	0.38829848	0.08833344	-0.14039145	-4.9004617	-2.7217493	-1.5728728	-3.3794987	-0.085161835	-0.47946525	0.27364594	-0.052825037	0.17289959	-1.1796144	-0.6313323	-1.7254131	-1.6379166	0.05018657	-0.43168652	-7.512302	-0.9995993	-0.44551405	0.03969609	0.36628857	-0.6577472	0.29942727	-2.4830027	-1.6080213	-0.20115963	-0.5354674	1.7560902	0.6212912	0.07898336	0.123981796	0.56248635	0.32586196	1.0012019	-0.12839174	-0.46416482	0.42081517	0.7672695	-0.2073402	-0.5285263	-0.5369858	-2.346081	-0.17026587	
-0.7211464	0.21751378	-1.036715	-0.18227413	0.7946966	0.33569524	-6.042524	-0.56226236	-0.67681783	0.5181397	1.090852	-0.48876113	0.98792946	0.672404	-0.22733554	1.0021644	-0.24460351	0.6932691	1.3217171	-1.5104493	0.24833804	-0.746749	-0.22185287	-1.6905459	-0.6962534	-1.9534199	-0.1200276	-0.1494243	0.6447597	-0.63877547	-1.3888315	-0.8677263	0.181734	-4.096408	0.42969772	0.107264094	1.6635125	-0.3083048	-1.196785	-6.8429055	-0.16776754	0.7688303	-1.2692475	0.31482074	-2.3293972	-6.0829697	-0.3555201	0.085119896	1.3589649	1.2863047	-0.588108	0.29964536	-0.99490947	0.046542436	0.67545044	-0.07906773	-1.5455433	0.34343436	0.48720574	-2.8176916	-0.23682515	-0.035991035	-1.2347959	1.2850246	
1.1397189	0.3494422	-0.30824962	-0.4914101	2.0385878	0.567161	0.92060673	-0.78097445	-0.8825765	-0.18516648	0.39898282	-0.80156183	-0.70020366	0.28931552	-0.5780077	3.0815923	-0.6867201	3.321028	3.5222423	-0.9882519	0.40975338	-0.023562998	-1.6175699	-2.9464028	-1.278779	-0.675605	-0.22763799	-0.3357155	0.99340224	-0.70700663	-0.7275404	0.7243635	0.17288165	-2.7289793	-3.4434435	0.30193695	-0.8821519	-9.097765	1.1927983	1.0767393	0.3138589	0.13467067	-0.46793157	0.30198294	-0.26179487	-2.616275	-0.47779217	-0.10042414	1.8490767	-0.124551706	-0.2742772	-1.219433	-0.48913652	-0.39217907	1.2077373	-0.043727316	-0.53129756	0.5693758	-0.85223156	-7.4319673	-0.5509762	2.3659601	0.739916	1.338078	
-1.9700915	-0.24514899	-1.1839899	-0.82920146	-1.7156036	0.20084627	-2.90076	0.023165492	-0.06694938	0.20188771	0.19263968	-0.7639577	0.0325505	-1.6267956	0.47669187	2.172153	-0.37514883	-1.781359	0.2611863	0.46796942	-0.07424268	-0.524601	-0.100805864	-2.0366712	-2.2851555	-2.6231294	-0.099839345	-0.55747485	0.6005608	-0.516471	-0.33012828	1.0928078	-0.37677523	-3.9280474	1.0947446	0.043840684	-2.4503276	-0.48469344	-2.966169	-0.622439	0.01668938	0.48290956	0.31698096	0.34288254	-0.47052002	-1.0145235	-0.18928419	0.20392388	0.06253947	0.83929086	-0.64482784	-0.9442441	0.060069192	-0.28726527	0.17241816	-0.0870788	-0.81241	0.4129868	-0.7906845	-0.081666276	0.36533353	-1.6146934	-4.0473423	-0.38475868	
-0.54795617	-0.20381224	-1.239716	-0.5189755	5.6906753	-1.2026714	-2.2359369	0.7346184	-2.6078625	-1.158091	0.93857944	-0.20111921	2.0397081	-1.7299637	0.67555857	-0.6987991	0.6177346	-1.1639439	-0.761269	1.5766144	-4.080083	1.58393	-17.406645	-4.9954996	-2.8950245	-2.5711663	-0.5611632	-1.3347689	-3.0189505	-0.5373054	-0.14019512	0.99433494	-0.28599977	0.73242694	-5.8764563	-0.9620847	2.6131234	-0.31192344	-1.205377	-2.2732983	-0.2623244	-0.04997117	-0.24741687	-2.319238	-1.4959803	-8.913416	0.6581876	-0.43198356	-0.6694649	0.96928966	-1.6966269	0.06983647	0.7656527	-1.2966406	1.5584201	0.118557066	2.37894	-0.65942717	0.18666905	0.6439586	-1.39013	0.49865597	-0.54659694	-1.7850304	
-3.0507152	0.4238832	-1.5945982	-4.1803565	1.5967846	-0.074077755	-2.2865725	-0.6997096	-0.9220677	-0.31994936	-0.9303041	-1.3702066	-0.111292146	-0.64561254	-0.36398524	-2.828088	0.026038688	-0.08689637	-4.554024	-0.6396568	-0.13841574	-0.45883635	-1.1228836	-8.498038	-0.7928189	-5.7734456	0.0065502482	-0.056296367	-1.3528365	-1.161496	0.20089713	-9.609052	-0.20128563	-1.0463039	-2.2328906	-0.22212458	-1.8225011	-1.745107	-2.0471427	-3.0604184	0.18631424	0.032243464	0.016553605	-0.74465203	-2.6810846	-4.537689	-0.32594654	-0.040801413	-1.4029822	-2.9524832	-0.8177778	-1.0351366	0.059396222	-0.22295502	-0.22405642	0.0040982347	-1.053943	0.14738964	-0.21601485	-0.69176537	-0.6167056	-0.3012962	-2.1718287	-1.8443149	
-1.1281995	-0.9541089	-0.88531554	-0.84623474	-1.434327	0.29539418	-0.6307167	-0.08778012	0.20727333	-0.58545417	-2.7475185	-0.3288959	-0.76409656	-1.1159163	-0.31553373	-2.0212095	0.29274306	-1.6051376	-1.934991	-0.12668261	-0.18416479	0.1030618	-1.8965309	-1.8983853	-0.16592805	0.031329177	-0.25666505	-0.50353044	0.28032422	-0.5465199	-0.2802528	-4.2954235	-0.5332646	-8.682903	-1.5689789	0.050081372	-1.3138957	-0.95061654	-2.6173291	-1.8853246	-0.1982868	1.1208843	-1.1561406	-0.061417576	-1.4375949	-1.2775471	-0.4358	-0.30738157	-2.6346045	-1.6395867	0.03318403	-1.9136605	-0.6329822	-0.8332134	-4.2014203	-0.070572205	0.7473329	0.00480566	-0.6314445	-0.47330415	-0.2995281	-0.47724453	-1.9664778	0.273102	
0.86711025	0.43169156	2.1040962	0.60678893	-1.0389898	-0.4240716	-0.27829424	0.21977891	0.20602775	-0.24659987	-0.18739673	0.32901466	-0.3824576	-0.59194607	0.048406914	1.2175678	0.8987089	0.28169712	-0.3421644	0.14953952	-0.46002746	0.24514802	-0.41612247	0.34792954	0.72871274	1.6841568	0.04329291	-0.80270195	-0.57055354	0.5798564	0.010831485	-0.95476854	-0.13663533	1.0031066	1.4431448	-0.22494201	0.1569169	1.5508751	1.0033357	-0.94025624	0.06932354	-0.46846592	-0.6502955	-0.39840877	-0.82131916	0.65939313	0.2852332	-0.04346346	-2.1068728	0.44998172	-0.014836076	0.46602425	0.07964992	-0.4916946	-1.1764752	0.059003107	0.83326364	-0.50166696	-0.827593	-0.30297974	0.47266448	0.024101963	2.3163533	0.20734262	
-1.2741416	-0.47679606	1.1894416	1.0885209	-0.31910923	0.039493594	-1.8601878	0.12621517	-0.23777851	-0.21568492	0.09421878	-0.21712165	-0.57898456	0.01024838	0.6108334	-1.1323969	-0.24497995	-0.36599407	-0.06849292	0.21231468	0.45860624	-0.40494666	0.87976503	-1.9478656	-0.41168767	0.8956325	0.06381962	-0.6741863	0.8666273	-0.22346553	0.55555695	-1.0803889	0.46908128	0.17564644	-1.1490046	0.21738699	0.13760298	0.8834461	-3.475585	-0.5210162	-0.30872008	0.33969375	0.3194398	-0.07505138	0.08447347	0.4700805	-0.113502935	0.44594774	-1.0814626	0.15629174	-0.27164263	0.15315986	0.03245507	-0.2084082	0.47942713	-0.16775885	-0.5747582	-0.17331044	-1.7670622	0.055683848	-0.12699254	0.43160588	-1.0984931	-1.3850516	
-1.8705423	0.31774503	-0.88787585	-0.48130202	2.3807914	0.31362236	-0.16685653	-0.13612953	0.25412518	0.45577002	-0.02126382	-0.30563244	-0.7500544	0.47579235	-0.22119612	0.85058	-8.556594	1.6520878	-0.9738743	-0.48621714	0.08070367	-0.26798823	-1.3076288	-1.2467663	-0.23307802	0.09009957	-0.12837152	-0.33651337	0.3049987	-0.4607663	0.17834148	-0.105431564	0.19280738	-0.6060064	-0.09852274	0.24013677	-0.52820957	0.58524495	-1.8164898	-0.14230886	-0.36476174	0.43033722	-0.06732099	0.29048777	-0.22216995	-0.8208659	-0.3132199	-0.7607245	-0.6307146	-0.10255862	-0.76745737	-0.5744779	-0.13153453	-0.17420167	-0.35821342	0.07236968	-0.41974276	0.07926305	-1.8582047	-1.3457685	-0.2698072	-0.71243095	0.7524218	0.5982203	
-2.0127296	-0.39571658	-0.486787	0.16899513	0.54161316	-0.074708834	-0.7512704	0.5795529	0.13570388	1.0802864	-0.7988137	0.40673792	0.44090667	-0.43015003	0.043428052	0.3017033	-13.652594	-2.189669	-0.23142974	0.50421697	-0.48234668	0.2872932	-1.4592793	-1.568492	-0.4869245	-1.2473015	-0.17826322	0.6967616	0.22216843	0.31831056	0.5959023	-1.1786814	-1.6038197	0.5584773	0.8557339	-0.23123057	1.3951441	-1.3230753	-1.2270011	1.3262593	0.07756282	0.8861692	0.42521998	-0.24764542	-3.480269	-1.1467948	0.32492018	0.6800774	-1.167314	0.21285604	-0.42603666	-0.61233	0.08966181	-0.6621119	0.6518585	-0.22179662	0.7415931	-0.6010593	-0.13836451	-2.3740232	0.5368667	1.1776683	-0.37805763	0.48343477	
0.5332242	0.2893297	-3.28178	-1.3028079	0.80406815	0.25204173	-0.56444967	-0.17941764	1.6307808	-0.5976767	0.03870258	0.006254426	-2.111649	-2.931421	-0.7135623	1.8715928	-1.9370115	1.7087877	1.239631	0.7646112	0.5182606	-1.0990798	-11.368462	1.5690386	-0.7931097	0.3776565	-0.2152895	0.23473248	-0.24003679	0.25272807	0.20422362	0.9904226	-0.8174654	-0.198696	-0.3844441	0.18325219	1.5116191	-4.7901435	-1.7620727	0.66221476	-0.57027256	1.7024065	-2.1606677	-0.01679557	-1.0634506	0.33783275	-0.61056495	-1.8878931	-0.68008363	0.7875275	0.99055034	1.5199683	-0.44425234	1.0111257	1.9880083	-0.25468835	-1.234111	-2.6434789	0.9512929	-19.529722	0.029774897	-1.1863749	-1.1511068	-0.65187895	
3.8514726	1.1185391	0.42738262	-1.2674859	1.5253935	0.2359235	-3.3026254	0.46635976	-11.034975	-1.2127174	-0.82172203	-0.2961763	0.026608048	-0.41453263	0.4795975	1.3213732	-0.21142945	1.3733779	2.0721464	-0.03265965	-1.1221151	-0.20720842	0.16958474	0.0734712	0.22360423	0.59573156	-0.050251104	-0.045337576	-0.19471729	0.32059067	-0.16118078	-4.4553127	-1.1751628	0.6956807	-0.51891404	-0.12428297	0.10995918	-0.60876775	0.54559433	-1.5580873	-0.4230702	2.075818	1.3697345	0.29152817	-0.6280462	-0.98718053	-0.6921944	-0.2919759	1.311994	0.73743033	0.68437314	-0.16933128	0.73449004	0.52084345	-0.79452735	-0.090231635	0.009746106	-0.34587017	-0.94202906	-0.13996376	-0.41444677	0.34164727	1.2033273	-0.31397432	
1.7418575	-1.2490066	-0.044992574	1.2678319	-0.625348	-0.975466	0.41080362	0.082752764	-1.9234262	-0.44999883	1.2720015	0.18579526	0.62811947	1.1162133	0.84164387	1.2913015	-2.1463652	-1.6453761	2.2155392	-2.4279687	-0.0865727	-0.57015383	0.9843554	-6.3416824	-1.8949789	0.14002715	-0.09230321	-0.72606605	-1.6387738	-0.83736384	-1.8870435	-6.985259	-0.41428217	-4.6526113	0.22156313	-0.28158206	3.9625587	1.4131786	-3.9152856	-2.9107745	0.6837839	-1.0654166	1.5107106	-0.75091076	0.017961916	0.97011846	0.37598297	-1.5515515	2.5127902	0.90195256	0.05882508	0.7880924	-0.037340306	0.4120399	-0.05995012	-0.07954535	0.9314713	-0.77753615	1.1770118	1.2963946	-0.50759643	0.7137425	-0.64337635	0.4512518	
3.0217743	0.07803417	-0.5489961	-0.53002	2.8014054	-0.002409446	-4.124401	-0.89390457	-1.1574396	-0.4738902	-0.32172734	0.20138699	-4.0888705	-0.1867373	-1.2606815	3.0361407	-3.7492478	1.1732718	-0.75584775	1.9560138	-0.5466808	-0.36185452	-0.56021595	-2.4611356	-0.9229643	-1.3039743	0.15617664	-1.8241899	0.39797223	-0.08029536	0.5706232	-1.7703075	-0.7426174	-2.1596723	-0.069895655	-0.34913138	-1.1354929	-3.298162	-2.9572618	1.6502743	0.5115445	1.6548264	0.8794621	-0.4322052	-1.1110147	1.2181134	-0.32070747	-0.044286415	-2.2585409	-1.0208863	0.4454695	0.45699686	0.92611504	0.66879225	0.9910976	-0.0787481	0.14098577	0.640072	1.8460879	-5.9777994	1.0560303	-0.3414864	-0.43361706	0.5261277	
