99
64
2
5
2
2
0.13799287	0.44198132	-0.13795334	0.038151708	0.025045915	0.028879814	-0.14691862	-0.14295447	0.11104354	0.09211348	0.071088284	0.20366344	-0.1310243	0.5371346	0.20001787	-0.28258315	0.23633157	-0.1690882	-0.13548264	-0.09741645	0.19872111	-0.038199037	-0.20270674	-0.34686974	-0.35696054	-0.6116286	0.25053954	0.074008375	-0.31478852	-0.07516287	-0.49208176	-0.10983694	-0.21371837	-0.052774373	-0.02676833	-0.5162659	0.17682278	-0.16982424	-0.059480634	-0.04885259	-0.21942843	0.1582063	-0.70869786	0.2969357	-0.301192	-0.44470662	0.131625	-0.28109476	-0.042161968	0.21305822	0.09723447	0.19356264	-0.24501856	0.19328447	-0.20072621	-0.008009351	-0.015565624	0.24983548	-0.24559806	0.029703751	-0.40760133	0.086978726	-0.4588432	0.69377106	
0.21733932	0.18035957	-0.01424154	0.11902926	0.10840045	-0.08214928	0.20175873	0.11225811	-0.006249203	-0.2829913	-0.154508	-0.22716655	0.08815567	0.233643	0.027936926	-0.24611613	-0.25367582	-0.2250829	0.27473608	-0.18176125	-0.16708994	-0.07002478	-0.043612517	0.20529573	-0.2288709	-0.08321794	0.19275336	-0.05174881	0.050993055	-0.332429	0.18895698	0.016100187	0.09519404	-0.15148158	0.032739546	-0.020480996	0.19166768	-0.112537034	-0.08347974	-0.32645833	-0.05545378	0.04073251	-0.17135753	-0.31971034	-0.0006088507	0.26640514	-0.35882178	0.013444382	0.12297192	-0.013484185	-0.08165744	0.14900161	-0.2724298	-0.12010276	-0.10347154	-0.21764779	0.1777583	-0.60565025	-0.3161889	-0.17116232	0.0073794425	0.29299948	-0.030721346	-0.30461273	
-0.17228426	-0.08411042	0.0915262	-0.08191001	0.01380965	-0.16712332	-0.2186649	0.047265183	-0.5280238	-0.050154552	-0.18971877	-0.11967168	-0.07919134	0.0053326976	0.32229272	0.046287876	0.0009131152	0.11213852	0.052197505	0.038965434	0.045310304	-0.07666395	-0.07832827	0.022132449	0.018869655	0.33960623	-0.16614634	0.05214821	-0.09923099	0.15283033	0.061438497	0.1231077	0.19731604	-0.08224635	0.10608457	0.09297347	-0.0055793836	0.42797783	0.029460767	-0.0046642236	0.033392157	0.13102171	0.036208443	-0.018027022	0.062380675	0.11571111	0.18752688	0.17401429	-1.4552991	-0.037472803	-0.08066322	0.20329143	0.024017625	0.009367344	0.05687547	-0.01360947	0.02645471	-0.019036599	-0.06808114	0.0036288048	-0.0084515195	-0.08744931	-0.018045418	0.12960076	
0.2638618	0.2101256	-0.43407184	0.1449575	0.004231922	0.14968307	0.1859709	0.20506692	0.062172186	-0.17523009	-0.28742075	-0.5814292	-0.123556435	0.32496047	-0.039315406	-0.09170051	0.59710354	0.21962197	0.36437368	-0.975364	0.15479305	0.57277167	0.34808746	0.13391599	-0.52828795	-0.4418359	0.481122	0.3404091	0.24935658	-0.8678035	-0.05902401	0.24692555	0.34476614	0.34656546	0.24645074	-0.3081032	-0.18950112	0.07454191	-0.7516641	0.03515309	0.11834175	0.012027874	0.34367296	-0.36354965	-0.20121597	0.39902735	0.26101458	-0.47708282	-0.19309877	-0.12740256	-0.3573988	0.0928544	-0.52653384	-0.4161561	0.18323594	-0.056142535	-0.44268644	-0.5876995	-0.31100163	-0.13443266	0.287601	-0.66591	0.29720128	0.29466674	
-0.18523502	-0.15127175	0.05516943	-0.15912066	-0.2362228	0.05945427	0.07482031	-0.07598677	-0.032913465	0.31242207	0.22106545	0.18743281	0.008348267	-0.40127406	-0.034403883	0.1560805	0.039809655	-0.24067606	-0.13009372	-0.0023476782	0.03363934	-0.01973301	-0.19669248	-0.32225212	-0.0005229027	0.26198182	0.11764658	-0.24739225	0.12149362	-0.16990127	-0.17790177	0.054828294	-0.3434154	-0.30598992	-0.14611232	-0.038186517	0.034458105	-0.35874587	0.01975176	0.051441472	-0.08670277	-0.43863544	-0.20910527	-0.066490225	-0.18420826	-0.014068859	-0.082761586	-0.019733638	0.45992348	0.057408266	0.07049595	0.19094822	-0.17005512	-0.24358124	0.070895	0.025204027	-0.018795425	-0.18280351	-0.120371886	-0.2141788	0.20664412	-0.13046464	-0.45281863	0.040808227	
-0.3692309	1.4054611	-3.2219703	0.89222014	-2.722302	0.8542977	0.28586346	0.30565295	-0.06856011	-1.1971552	0.56086	-3.6972308	-1.0916787	-0.3355616	-1.3416629	0.3909868	2.2935774	-0.9905653	1.66081	-2.9899702	-2.5953894	2.5859401	-0.25078067	-1.0675365	-0.57911986	0.0658059	-0.38776985	-2.2985723	0.2594737	-0.99369454	-0.030481739	-1.1464785	1.8478168	-0.0649786	-0.8562274	-0.95690274	-1.0649458	-0.08970163	-1.236516	-0.03793564	-1.6753424	0.58872086	-1.259628	-2.8808427	-4.4440384	-0.5290433	-0.1295253	-1.4872329	-0.1686554	-1.2355119	-1.9279326	-0.45765498	1.2272196	-2.5916026	1.4879576	0.10468085	1.0100214	-0.47381455	-1.5843498	-1.2844785	2.4252274	-1.3596103	-1.5575387	1.1439867	
0.27268448	0.2786236	-0.4317602	0.8589571	-0.28705916	-0.3372169	0.3777713	-0.60489887	-0.24518359	-0.1559113	0.09485403	-0.7882267	0.8449369	1.5797279	-0.08370071	1.0131705	-1.4663016	-0.69565886	0.04597833	-1.5764743	-0.44512057	1.1316032	-0.092579186	-0.5392731	0.33230564	0.5050339	-0.022906108	-0.18182477	0.19181581	-1.1263311	0.19909906	0.09418443	-0.98572224	0.0754925	-0.6425317	-0.86275876	0.5704294	-0.006002746	-0.38748047	0.27277324	-0.026184844	0.14055526	-0.7928977	0.24168976	-0.89397526	0.39914402	1.0763255	-1.0366532	-0.0058169495	-0.5837883	-0.20714985	-0.4612189	0.57355714	-0.37210232	0.3787681	-0.41260123	0.040450364	-1.1908482	-0.34564647	0.32619128	-0.41705853	0.4300193	-0.55309373	2.0278866	
-0.11513001	0.040997766	0.08903198	0.024503473	-0.12639327	-0.076537326	-0.1841304	0.021151794	-0.13904122	0.100025415	0.037565522	-0.15789925	0.2167696	-0.058236625	-0.12152856	-0.09422634	0.096884094	0.023316903	0.11894406	-0.17728056	-0.021036053	-0.03341665	0.120154835	-0.11838399	-0.092155494	0.09035014	0.16142525	-0.14717522	-0.05476815	0.0026456479	0.11106593	0.055623583	0.16806647	-0.061706327	0.022265827	-0.106590964	0.04631564	-0.22071397	-0.18484566	0.083433345	-0.076980144	-0.06925851	0.11442827	0.091234006	-0.071570486	0.20238519	-0.11469899	-0.1313405	-0.10573904	-0.08939176	-0.19464344	-0.09091458	0.071449175	0.045016848	0.030177863	-0.10492938	0.13369325	-0.09319873	0.120925196	-0.124756746	-0.048262842	0.11498088	-0.07865614	0.100723796	
-0.3501488	-0.27366838	0.435394	-0.61537355	-0.428189	0.036669906	0.2041602	0.097646706	-0.08123209	0.5596053	0.005263534	-0.20051438	0.32875615	1.059305	0.114819534	0.32244718	-0.7343022	-0.19733821	-0.32812995	-1.056774	-0.6143738	0.5237305	-0.8357459	0.13925144	0.3176572	1.2588573	0.38135415	-0.5223846	0.5375134	-0.30458617	-0.5425406	0.039389513	-1.5039494	-0.24978015	-0.03971128	-1.1675131	-0.37007314	0.14132428	0.12456291	-0.3262465	0.1937357	-0.29491717	-0.13467677	0.47731254	0.31876647	0.09535198	0.6386054	-0.26399392	0.56933475	0.17922454	-0.63197124	-0.12295276	-0.71241283	-0.1375644	0.27931213	1.3514816	0.67318994	-0.0043313443	-0.3329912	0.19137134	0.43514922	-0.13998547	-0.9242169	0.85873145	
-0.0815752	0.06791016	-0.097430356	-0.18928131	-0.03294309	0.18591805	0.20597391	-0.08464836	-0.1539923	0.21571918	-0.094367795	0.0039483	0.019138655	-0.42952165	0.005577946	-0.023262717	-0.097235486	0.17313884	0.09742748	0.10072118	-0.0049084644	0.027758123	-0.07519595	-0.31422547	-0.107225925	0.22372898	0.102412224	0.02980722	-0.10872216	-0.19266614	-0.2829905	-0.22038597	-0.19847679	-0.096510015	-0.33906192	0.099496014	0.050453674	-0.1851147	0.012772895	-0.18614507	0.10019182	-0.08342123	-0.08657669	-0.28515777	-0.09046386	0.26528034	-0.005945661	-0.2731333	0.050108165	-0.024350848	-0.086399846	-0.0923952	-0.04242476	-0.14402562	0.24022815	0.16942823	0.01113268	-0.21353555	0.06017588	-0.15768075	0.04781009	-0.008762267	-0.07066043	-0.16486116	
-0.6367138	0.021776237	0.035962887	-0.28791374	-0.009244524	-0.038953956	-0.018744132	0.01363944	0.24398683	0.11969423	0.39651594	-0.16518895	-0.29117072	0.05190149	-0.4904547	-0.024897277	-0.13541886	-0.19010328	0.08057781	-0.021739874	-0.12378615	0.11281384	0.010962575	0.017250989	-0.15024506	-0.03262339	-0.11461292	-0.029355431	0.41637325	0.015956784	-0.041515	0.18812725	-0.15053457	0.06204111	-0.195474	-0.13769212	0.074510425	-0.17874986	0.07519626	-0.12468626	-0.48180512	0.3212426	-0.19418502	-0.052961886	-0.104584	-0.026744116	0.0011103834	-0.08119105	1.1982117	0.08002438	-0.17941757	-0.10345401	-0.0588565	-0.028881148	-0.03784887	-0.0070456387	-0.19192933	0.16397528	0.0003786479	0.077484675	-0.16872379	0.09612528	-0.1755669	0.12204341	
3.797994	-1.7085943	0.101146154	0.6589799	-1.6924989	0.09891468	-0.27746373	0.57913584	-1.8791164	-0.12956388	4.0354424	0.6713819	1.1499789	-0.7071622	2.550164	0.13375051	-0.4422936	-1.4742174	1.5559307	-0.36615434	-0.86421067	0.29046813	-1.6265877	-2.1310968	-1.9906759	1.3784645	1.3685664	-0.5847889	0.39823276	-0.59835464	2.2436779	0.70612717	0.7083857	-0.2706685	0.4680031	-0.4224703	-2.6597629	-1.2651323	-0.8609676	-0.9993736	-1.0890679	-1.1804633	0.15990925	0.30921337	0.29305196	-0.14385524	-0.47048935	0.31426954	1.1003181	0.21566884	-0.7322206	0.30052248	0.595952	0.22293834	0.39359763	0.6828973	0.98651195	0.37553868	-0.07923075	-0.11084685	0.6641398	-0.3238751	-0.939673	0.39472413	
2.1829066	0.8221477	-2.6401908	-1.1815927	-0.799576	-0.5015109	1.3206859	0.7505682	-2.1502512	-0.4838651	-0.63083446	-0.22308293	-0.7656802	-1.090992	0.4889212	-3.8233542	0.52313507	-2.6433878	0.28632218	-0.72049135	-0.861308	-0.5650982	-0.9517201	1.8462669	-1.6724272	0.24324247	-0.47887376	-2.0552247	-0.0739646	-1.1850979	-1.0804901	0.24365936	-0.029694293	-0.34726363	-0.45792365	-0.64958614	-3.128115	-2.9513733	-0.11744481	0.4505786	1.0780796	-0.033026997	0.25473553	-0.5832546	-0.32194132	-0.59589076	-2.2150328	-0.49956772	1.9765514	-0.66086453	-0.6563032	-1.6158657	-1.1247866	-0.65177155	0.3822481	-0.38523656	1.6375617	-0.30059052	0.72503906	-0.64386994	0.50837606	-0.076792225	-1.817417	-0.7976332	
-0.13431223	-0.01588071	-0.26893097	0.06361615	0.10194676	0.20447487	-0.06516898	-0.24795951	-0.13019972	-0.20059028	-0.014095496	-0.00687983	0.16632228	0.09587339	0.06809628	-0.20036174	-0.30880082	-0.054164533	-0.06895589	0.14226931	-0.02309089	-0.106222965	0.11601902	-0.09630231	-0.28546286	0.15233348	0.20088582	-0.103489	-0.27211934	-0.3083236	-0.00041824355	-0.020873172	-0.18897575	0.041135535	0.368952	0.15450557	-0.0048268056	-0.04164154	0.1965633	-0.22609034	-0.015926525	-0.0027521078	0.08699495	-0.066788174	-0.16119032	0.1422052	0.13327718	0.080952846	-0.1060081	-0.2689717	0.0054368316	-0.06247325	-0.044748385	-0.09008989	0.14288852	-0.51177555	-0.00021053542	-0.10782967	-0.055139977	-0.17180832	-0.3210866	-0.08198238	0.26189572	0.024112968	
-0.104986385	-0.14428622	0.20293973	0.06532552	-0.05210996	0.17905314	-0.06980884	0.102163225	0.057906106	0.006058851	0.010445667	0.11132026	-0.15897414	-0.22922106	0.057613544	-0.120175995	0.03178777	0.20595884	0.011499897	0.2803955	-0.012055769	0.009638673	-0.1564892	-0.08603164	-0.0023039111	0.06702708	0.018865258	-0.23624876	0.008178919	-0.1569206	0.1531534	0.1324815	0.011269133	0.032619603	-0.12171721	-0.22958232	-0.22717702	-0.16545601	0.18405074	0.124312945	0.059558343	0.285236	-0.19695547	-0.02131624	0.07560707	-0.092959605	-0.124748364	0.06448925	0.049421526	0.14500895	0.013801299	0.070511594	0.020119522	-0.1604595	-0.04844349	0.13741109	0.22890422	0.16337551	-0.010476472	-0.0852901	-0.038015593	-0.045241505	-0.14925589	-0.0037895134	
0.29594716	0.30524364	-0.31944814	0.114413455	0.25284544	-0.4814679	0.13877882	-0.034581713	-0.36017308	-0.6880073	-0.08145556	0.14133719	0.2322705	-0.24225736	0.2146491	-0.038307916	-0.7136498	0.004884706	-0.051785715	-0.14276254	0.7712984	0.03893873	-0.78167003	-0.18264736	-0.43716633	-0.43818292	-0.07406521	-0.65823084	0.13248304	-0.92146283	0.5873962	0.11980237	-0.41100085	0.38359892	-0.09475135	0.11397629	-0.4675361	-0.08823831	-0.16741124	-1.0000366	-0.047874924	-0.57190156	0.16510646	-0.18419805	0.041828208	0.6617752	-0.8632757	0.5524401	-0.4007336	-0.32588345	0.19833018	-0.11432054	0.006544321	-0.20222512	-0.35499707	0.18594722	-0.17137527	-0.3402539	0.09354668	0.30184895	0.20136368	-0.20435412	0.4090275	0.34402213	
-1.1569226	-0.3010702	-0.1386406	-0.369451	0.117535986	-0.47419468	-0.18772973	0.23194292	0.25166693	-0.5922611	0.15222761	0.16297443	0.23322901	0.027848702	-1.4991573	-0.14580402	-1.0840505	-2.0007374	0.5692995	-0.26271397	-0.043514986	0.13158286	0.16539562	-2.9739845	0.2576599	-0.21265134	0.8027966	-0.04566674	0.887621	-0.29093787	-0.088083126	1.1013455	0.38973045	-0.12184136	-0.33282664	-0.111628644	-0.041494284	-1.2956051	-1.1301277	0.8866295	0.856414	-0.1678518	-1.5092943	0.065528885	-0.20061256	0.1889619	0.1665571	-0.7694293	1.9420453	0.38226262	-0.26180202	-1.0193505	-0.135861	-0.40831724	-0.28149092	-0.08200076	1.1971102	0.34337378	0.11063422	-0.5688722	0.04183811	-0.27793792	-0.08029826	0.2413147	
-0.3133382	0.1581647	-0.45379546	0.82151735	-0.56816846	-0.15120293	0.23524092	-0.50769955	0.057604272	-0.8360011	-0.050171353	-0.17360489	-0.04198228	0.57970065	-0.42889458	0.0060225106	-0.9512625	-0.22467743	0.61355895	-0.32376608	0.64991033	-0.3791319	-0.6472986	-0.30637357	-0.7035347	0.43786007	-0.31785026	0.106874496	-0.38998753	-0.52087	-0.1457424	0.07107862	-0.13907568	0.14470367	-0.3057119	-1.1074041	-0.0060230563	-0.15985468	0.17732969	-0.37541765	-0.3452795	-0.28279254	-0.7279917	-0.31432867	-0.8312613	-0.43430877	-0.13262972	0.04837832	0.17186457	-0.31096226	-0.23088284	-0.9526969	-0.012826075	-0.40583062	0.23197573	-1.3019232	-0.11815559	-0.28784376	-0.1515002	-0.22984001	-0.24044117	0.24450576	-0.49203664	-0.08843009	
-0.0008004217	0.082317695	-0.19923277	0.005257409	-0.060193364	-0.03673074	-0.0768744	-0.40345317	-0.21339005	-0.23692575	0.037374243	-0.09138331	-0.018616416	0.24529882	-0.17630139	-0.10272783	-0.09488689	-0.18824717	-0.28125194	0.40354767	0.031162553	-0.109379314	-0.114096254	0.07321872	-0.094544396	-0.17966728	0.054634705	0.057291027	0.15026854	-0.18727422	0.13116561	-0.13918273	-0.10653785	0.10024755	-0.065905765	-0.2973073	-0.012254823	-0.095825195	-0.07710724	0.21353076	-0.076547824	-0.2299367	-0.105119824	0.13040473	-0.16428855	0.09073601	-0.015983755	0.10000337	-0.08604334	0.1252707	0.25237095	-0.06185514	0.088158496	0.2139085	0.045135386	0.031383004	-0.15649252	-0.24029104	0.028724035	0.056937784	-0.018294424	-0.06780378	-0.19917044	0.007462079	
-0.081210814	0.13707806	-0.14397395	0.47370067	-0.32276332	-0.20710622	0.25853956	-0.6477895	-0.5426255	-0.54629797	-0.0011976361	0.23243591	0.2535709	0.17627007	-0.21494044	-0.19938444	0.0056329328	-0.497691	0.020524902	-0.30162156	-0.40749618	-0.47777575	-0.28577504	-0.29769024	-0.39611346	0.4066667	0.42053804	0.1081211	-0.08846577	-0.4887301	-0.38111615	0.17305826	-0.8614252	-0.08970324	-0.19316316	-0.41625932	-0.066748954	0.022488795	-0.25515145	-0.092975035	-0.15639265	-0.24761184	-0.49045527	-0.14218783	-0.5033417	0.057536013	-0.47884	-0.39846066	0.18146889	0.10983918	-0.27497438	-0.011516873	-0.3825868	-0.13730869	-0.09710252	-0.09731471	0.34632912	-0.16982158	-0.3131686	-0.4162567	0.31275386	0.47745356	-0.26093382	0.10287819	
0.09487513	0.07701259	0.041592143	0.24382855	-0.47436693	0.1635255	0.0049471348	-0.41259623	0.23984243	-0.14013562	-0.11868134	-0.14677112	-0.07010149	0.030535672	0.21912833	-0.043114666	-0.047525704	-0.008774226	-0.14484157	-0.11321655	-0.13568889	0.14692514	-0.13269347	0.22552674	-0.08971816	0.24515837	0.03349159	-0.20591208	-0.35582155	-0.123714656	-0.1783891	0.03125447	-0.22340281	0.010798644	-0.013352235	-0.17878544	-0.12228128	0.1683665	-0.12114757	0.06695877	0.1712114	-0.07671658	-0.08757607	-0.3813494	-0.08774113	0.24436636	-0.49973527	-0.32234275	-0.021773232	-0.1241665	0.18872276	0.09256036	0.089036174	-0.0444571	0.0497975	-0.26398724	-0.035399947	0.22580157	-0.023210295	0.023247698	-0.20106676	0.05610537	0.021326024	-0.013089216	
-0.19665983	-0.46040437	0.103952415	0.039179806	-0.09930853	4.4114386e-05	0.18759416	0.13720655	-0.1885595	-0.48767576	0.015038417	-0.36544517	-0.20344697	-0.00801068	-0.049117707	-0.19201663	-0.06435418	-0.20017985	-0.041690215	0.26173335	-0.1270262	-0.19663897	0.0056482274	-0.39259684	-0.24448326	0.04827908	-0.03582018	-0.46834826	-0.081887536	-0.15956661	0.3735448	0.015355656	-0.45308867	0.32433188	-0.039920032	-0.17067085	-0.17573729	-0.17131808	0.01995688	0.16068172	-0.39253533	0.32442346	-0.41785875	-0.18804285	0.024037305	0.6942673	-0.681465	-0.08647496	0.225145	-0.21054937	0.053363916	-0.57214886	0.08656401	-0.27568105	-0.12901658	-0.3990236	0.63419425	-0.14774668	-0.039550275	-0.041097116	0.35591435	-0.20814253	-0.23118505	0.20120674	
-0.013313641	0.15984282	0.029066833	-0.11487014	-0.13320939	-0.0063176956	-0.16145861	-0.016247924	0.12439822	-0.08812116	-0.23805803	-0.17745826	0.11110884	0.05294906	0.0503735	-0.10952192	-0.028083267	-0.022944845	0.16858028	-0.16046984	-0.095038824	0.08551844	0.1404346	-0.17563313	0.13831452	0.17692973	0.056975044	0.121236764	-0.051314093	0.10770318	0.29463553	-0.24732766	0.113791	-0.20054805	0.09394594	-0.39376295	-0.19365041	-0.21767138	0.19239523	0.03937581	0.06446664	0.0102578215	-0.14220825	0.13983257	-0.04463293	-0.08800988	-0.021679567	-0.07727146	0.004238107	0.07251495	-0.16604394	-0.17414646	-0.092668	-0.34668618	-0.12845513	-0.007127191	-0.21898592	-0.12200764	0.10809596	-0.23883513	-0.19650045	0.058971595	-0.27093175	-0.06378575	
-0.019842196	-0.18396962	-0.025491133	0.18353967	0.17839491	-0.059492357	0.054113008	-0.04493778	0.055055942	-0.09528906	-0.19262166	0.09843378	-0.09482587	-0.16225684	0.06908133	0.016554076	0.2500345	-0.36299828	-0.22482829	-0.052873116	-0.1162111	0.006018992	-0.08839032	0.14771527	-0.09825488	0.21470535	-0.11818583	0.1254898	-0.0018689161	-0.036241017	-0.10109586	-0.029687008	-0.33169475	0.06053642	0.1312097	-0.24346043	-0.19612579	-0.13091913	0.040771417	0.19036175	0.08938124	-0.20456083	-0.112311885	0.028978331	0.3514866	-0.10084817	-0.26302567	-0.050006907	-0.14027944	0.10762324	-0.049814384	-0.10071225	-0.18761861	-0.0906213	0.095411435	0.2230564	0.11840667	0.17815286	-0.23717353	-0.084868625	0.0041734916	-0.10633219	-0.11099213	-0.0054867305	
-0.119809486	0.25573844	0.012600924	-0.18062583	0.08366169	-0.108741164	0.1412581	0.10058366	-0.29649913	0.24694705	0.18081464	0.08067905	0.054715857	0.516846	-0.24767187	-0.088749036	-0.44871274	-0.28240743	0.03495928	-0.16239248	0.27204946	0.12635401	-0.6009087	0.033020366	-0.69308364	0.12131268	-0.06526434	-0.09152359	-0.114723474	0.08264817	-0.009847562	0.14027812	-0.09196248	-0.00045541313	0.14560793	-0.6655218	0.075106524	-0.26059338	0.10344023	0.018526109	0.31254733	-0.08654284	-0.5679813	0.13629103	-0.0039178594	0.042205617	-0.29258588	0.42291278	-0.09526799	-0.07142134	0.05056126	-0.06060856	0.09953193	0.019556375	0.14197706	0.054962207	-0.062422518	-0.17310178	0.12592742	-0.3145124	-0.052466422	0.07175613	0.11675458	-0.093862265	
0.5798163	-0.4924248	1.4906887	0.39010513	-1.2964686	0.02467508	-0.045872036	0.1254127	0.14513208	-0.5522763	1.8416415	0.23571932	0.32949457	-0.417661	0.6566027	0.3856123	0.2643286	-1.3002534	-0.4937356	0.3282648	-0.24947111	-0.35665062	-0.77280223	-0.5281331	0.04076028	-0.27392015	0.026243921	-0.80640304	0.6792716	-1.4321548	-0.04769454	2.4824536	-0.39729682	0.4095985	0.51560944	-0.15786536	0.4209708	-1.2195623	1.1753916	-0.346735	-0.50007766	0.1519661	0.07918746	-0.39331704	0.3885401	0.13509692	0.8677566	-0.8762695	0.14279884	0.0029413165	0.766121	-0.08714882	0.87542135	-0.057332374	0.14755726	-0.3288941	-0.54553396	-0.22631267	0.71238315	-0.3089959	0.35264233	0.65809655	-0.2526275	-0.5028513	
-0.68420655	-0.9304539	0.3233016	0.19013008	-0.51850003	-0.9503716	0.6056354	-1.1882914	-0.85761756	-0.9873567	3.1427069	-0.37913936	-2.018136	-0.42378002	0.11435266	0.41021112	-0.4381708	-3.7365334	0.3979323	-0.842159	-1.2451653	-0.12720469	-0.3133381	-0.24524377	-1.7365276	-0.2408512	-0.04347629	-2.744649	-0.9927437	-0.76856023	-0.54937726	-0.9809562	-0.5480682	-0.27404484	-2.0349436	-1.1518764	-1.9076587	-0.24738033	-0.23288685	0.3981503	1.7536945	0.18435884	-1.2449577	-0.6936661	-0.72790605	-1.1643062	-0.6363451	-2.7231584	3.91952	-0.9812171	-0.33144462	-1.5381422	-0.13767894	-2.4186783	-0.47275978	-1.1321508	-0.23733795	0.3865696	0.67872363	-0.44003677	0.04832957	-0.03436933	-3.2129426	-1.3453838	
0.15444084	0.1828201	0.119108155	0.008058884	0.16345245	0.15859233	0.07840736	-0.09599261	0.0078092366	-0.09319405	-0.057131097	-0.08917853	-0.11747712	-0.13039191	0.17994146	-0.1488574	0.051310953	-0.17999712	-0.1903753	0.0014783591	0.12992139	-0.02969095	0.04959839	0.049341112	-0.031542256	0.17924485	0.1543139	-0.031497926	-0.06377567	0.0633892	0.1414033	-0.14568542	0.0069588763	-0.039346263	0.17430557	-0.034887258	0.089007944	-0.002956763	-0.08140273	0.18692653	0.17577021	-0.04646993	-0.06891243	0.033741146	0.043015618	0.0028035173	0.03288714	0.13214833	0.18172882	0.16790237	0.16659482	-0.14820038	-0.029177994	0.044155583	0.13816968	0.017897433	-0.022201456	-0.027880834	-0.03781276	0.15138684	0.018635714	0.0439321	0.082800604	0.060939558	
-0.1489806	-0.127913	0.017903734	-0.07688472	-0.23536274	0.050800666	-0.120297894	-0.08095279	0.2605025	-0.027273966	0.017706126	0.12953748	0.26003346	-0.14138258	-0.10830152	0.17022859	0.24101734	-0.34283864	-0.40285882	-0.08120431	-0.19827123	0.27637044	-0.32182106	-0.04208052	0.0035292045	0.12163486	0.17817889	-0.06868956	0.09821813	-0.1419367	0.06625954	0.022799892	-0.36095542	-0.01381052	-0.054081105	-0.057281166	0.3595263	-0.11849724	-0.014990937	-0.25096625	0.096284755	0.062309697	-0.041720573	0.16444203	0.08132534	0.16570854	-0.19027282	0.17186132	-0.03615573	0.055865206	-0.21207517	-0.15340953	-0.16743833	-0.22534291	-0.19809788	-0.012262855	0.12647921	-0.17396523	0.09593121	-0.23571514	-0.1791962	-0.22779681	-0.048845485	0.17451067	
0.025796412	-0.33920822	0.00097329624	-0.29304993	-0.34436712	-0.178312	0.12808095	-0.28536487	0.3582147	0.69599944	-0.2676632	0.16511033	-0.036840186	0.6435657	-0.04038755	0.46043283	0.40086988	-0.1713635	-0.36719212	-0.83939797	-0.32299757	0.35415477	-0.7917858	-0.24188797	0.5823106	0.9893724	-0.1343216	-0.37765816	-0.1846213	-0.14330754	-0.31096223	-0.2125606	-0.55426276	-0.6862375	0.3064307	-0.3621386	0.13950586	-0.17270559	-0.19113831	-0.155929	-0.23721609	0.66395587	-0.04402013	0.78233635	0.6949739	0.10147598	0.5792879	-0.9125739	0.1682911	0.042891588	0.34073746	0.26196736	-0.6444397	-0.26897815	0.27104318	1.3874986	0.54225415	-0.53666407	0.17724481	0.44422862	0.31051582	-0.26158118	-0.5438542	1.0078382	
-0.6147331	0.11737638	-5.0826745	0.5101673	-1.0550485	1.1883633	-0.05251706	0.41931826	1.264723	2.0922093	-0.06274215	0.47584757	0.15659806	0.70322853	-0.9389828	-0.19942316	0.5024003	-4.4765763	-0.4658598	-3.9999914	-6.6429844	-1.4736897	-1.8655143	-2.678435	-0.9311315	2.2907605	-0.5245675	-3.2062802	-0.61028856	-0.011621655	1.3841999	-2.100946	1.4465771	0.05523246	-0.6959255	-1.6243283	-2.1273084	-3.600696	-5.007046	0.27071294	-0.59253156	-1.2776024	-0.73579746	-2.9334338	0.009866601	-1.6197835	0.6419154	-4.4771385	2.6435907	-0.90254253	-0.47353238	-2.3690243	-0.78388786	-2.7474217	0.44287145	-0.61547476	0.3080074	-0.489935	-0.13295643	-0.5525059	2.1510997	0.7762093	-0.051053647	-0.118364766	
-0.052286394	0.035074487	-0.12203044	0.17616294	0.0920959	-0.08515403	-0.07407945	0.003259624	-0.1154026	-0.14138159	-0.13730924	-0.11606084	0.08888977	-0.16776218	-0.0823865	-0.04684362	-0.06714767	-0.13925225	-0.09325063	-0.20673352	0.015843697	-0.1993967	-0.21176614	0.006545092	-0.12902905	-0.043149356	-0.17876506	-0.09510236	-0.24654317	-0.093290076	-0.057582043	-0.15716542	0.269083	0.08285713	-0.017615091	-0.016470367	0.035571422	0.13509995	-0.0747479	-0.011143849	-0.01841575	0.10283415	0.036223065	0.008724469	0.07683457	-0.13746491	0.025023172	-0.1880101	0.17594202	0.19478106	0.08261902	0.081474505	0.12019759	0.12810665	-0.03899592	-0.16401075	0.0931059	-0.042208403	-0.17824274	-0.09973585	0.07834961	0.03917101	0.07354205	-0.009538054	
0.29440987	0.06284788	0.039592788	0.15698315	-0.2939869	-0.07908529	0.0056103673	0.17230181	-0.30654487	0.42732245	-0.0817256	-0.10589716	0.2586683	0.63351804	-0.081754014	0.73863536	-0.47389686	-0.2455476	0.112208635	-0.5627497	0.049352758	0.43159255	0.13154522	-0.032141566	0.5028413	0.14846937	0.029729268	0.18059494	0.24061692	0.57645196	-0.16239074	-0.104728445	-0.77887726	-0.42496607	0.31536245	-0.07518793	0.51989853	-0.005716324	-0.03339186	-0.08470589	-0.07907877	0.031104116	-0.1594745	0.6225045	0.6478354	-0.12810193	0.3813759	-0.36145705	-0.037781883	0.30425233	0.06767758	0.024508528	-0.54700404	-0.24711211	0.030093618	0.83567566	-0.07472847	-0.12789397	0.17208643	0.39889827	0.021294842	-0.5618445	-0.33336875	0.6723517	
-0.01067335	0.08741534	0.100263596	-0.17001398	-0.25076082	-0.08549793	0.068331964	-0.001957289	0.019545643	0.0013485622	-0.032350514	-0.06792949	0.011434898	-0.013482489	0.12560114	0.13398401	0.020762363	0.092182964	0.037610397	0.056161217	0.08334152	0.14755094	0.061606336	-0.10644	-0.12876081	0.083728075	0.043531585	0.077017546	0.0006745587	-0.018809268	-0.18728189	-0.12520373	0.09545041	0.13924564	-0.21495312	0.1721182	-0.08862267	-0.076401584	-0.06679089	-0.1774621	-0.15832263	-0.044624083	0.03159077	-0.007240272	0.13628589	0.23262	0.11719369	0.07169126	-0.15842925	0.014641837	0.0059605725	0.07493513	-0.18585062	0.14986695	-0.12999658	0.18081863	0.04563766	-0.06900584	0.09946156	-0.21345666	-0.16880728	-0.015542434	-0.04552051	-0.02464059	
-0.09790171	0.20458487	0.09212622	0.18856761	-0.16159606	0.15989146	0.34319845	-0.11821698	0.18602513	-0.5566876	0.24612087	-0.092161015	0.1369494	0.13923654	0.008265787	-0.20775072	-0.26473838	0.014463153	-0.14167777	-0.2600482	0.008139989	0.071396865	0.056694552	-0.77012575	0.069314234	0.5249443	-0.053397033	-0.2948158	-0.4433194	-0.3843086	0.016543286	0.117032915	-0.27166927	0.28934935	-0.35244837	-0.011791041	0.12423404	0.14273795	0.12933534	-0.23022826	-0.25543922	-0.37321326	-0.15949474	-0.8688578	-0.07069389	0.4510717	0.053042013	-0.26446223	0.10999087	-0.16224866	0.27272838	-0.69627684	-0.12684855	0.016178558	0.2976781	-0.9821322	-0.40623888	-0.07558475	-0.292046	-0.24243346	-0.0048774593	-0.17517754	-0.12616684	0.026589597	
-0.14741227	-0.07139974	0.22939754	0.08603427	0.0669086	-0.04851438	0.098707676	-0.19137174	0.14646517	-0.16512138	0.108128235	-0.10554857	-0.041734286	-0.11688492	0.17704068	0.16970064	0.034365963	-0.19142868	0.0038708237	-0.1439757	0.043610863	-0.120565765	-0.098391935	-0.13697596	0.030920245	-0.0016359531	-0.08341183	0.04666514	0.03450808	-0.10644295	-0.000100584526	0.09597017	-0.09047101	-0.17903897	-0.053391535	0.013855159	0.22580324	0.097185425	0.018834176	-0.02985563	0.11470067	-0.03255598	-0.15602091	0.013627178	-0.195677	0.08077164	0.16752034	0.05648429	0.14127496	0.14419316	-0.08704524	0.17688899	0.07015231	-0.010288015	0.04696234	-0.16195525	-0.07063128	0.104926385	-0.10094949	-0.01632141	0.27926448	0.25028303	0.013958918	-0.24623488	
-0.107672125	-0.1682108	0.09492916	-0.13871166	0.037664235	0.17757276	0.18880986	-0.07308521	-0.23577166	-0.076837294	0.11686799	-0.17056766	-0.08181509	-0.017640568	-0.21819247	-0.009111498	-0.27951866	-0.23011184	-0.05443819	0.16120814	0.13251391	-0.24817812	0.2202448	0.120592795	0.096179426	0.065819606	-0.07514601	-0.2236341	-0.27481088	-0.118391275	0.26219994	-0.23901498	-0.0032960516	0.15747264	0.038323905	0.041427862	-0.008793446	0.0652851	-0.17080513	-0.16476022	-0.10726372	0.17992361	0.07402542	-0.08276239	-0.33201072	0.10337982	0.122283116	-0.13767155	-0.3381318	-0.036132034	0.07015077	0.04310642	-0.11397552	-0.008983492	-0.10088703	-0.14478377	0.08466203	-0.13389692	0.041462127	-0.07210158	0.040844064	0.36173403	-0.161233	0.033448737	
0.6744418	-1.5082684	-2.0370703	3.0046268	-1.1174791	1.2887253	1.7079316	-0.15266147	-0.8732519	0.13353162	0.079679035	-2.5871112	-1.5430655	-0.44760814	-1.2569987	-3.415627	0.3599046	-1.1395456	3.2103055	-1.6481196	-2.8633313	2.1802092	-0.6030421	-1.6511732	-1.3168572	1.1645982	-0.6044287	-3.0253305	0.268089	-0.65442777	0.2560848	-1.5145767	0.42293635	0.42598286	-0.3118744	-0.11363058	0.7091842	-0.29235294	-1.9129677	0.0936156	-0.5483369	-0.17475629	-0.82718414	-4.0234118	-2.1417074	-0.49938065	2.206724	-0.89550036	-0.32508957	-1.6733052	-1.5839676	-2.1438813	-0.29102978	-2.9097364	1.8949323	-0.29317108	0.3909248	-2.9899404	-2.4213357	-3.020265	4.7808237	-0.02775054	-2.2029672	1.5622449	
0.1077641	0.20319894	-0.064636715	-0.07170972	0.29422227	-0.18104507	0.17206472	-0.34004974	-0.16104291	-0.047979325	-0.0828224	-0.11251679	0.22158374	0.14791182	-0.21813338	-0.027079301	0.27707443	-0.1798399	0.09019278	-0.2219526	0.023005113	0.056372758	0.39562148	-0.006850254	0.1525809	-0.090438	-0.18248485	-0.15216027	-0.15912227	-0.027697189	-0.010736823	0.081971556	0.15518145	-0.034638345	-0.38379234	-0.03647883	0.11026909	-0.06419271	-0.12488138	-0.042873833	-0.06440338	0.045291714	-0.11538503	-0.08097375	-0.25463113	-0.14494872	0.011144971	-0.12003498	-0.10349728	-0.15848131	0.035065837	-0.05113974	0.012960459	-0.4755884	0.057797138	-0.12802352	-0.053234078	0.042262252	0.12415577	-0.18364388	0.039364453	-0.061271764	-0.14979215	0.26426324	
-0.30589983	0.356903	0.16248696	-0.01820829	0.045649778	-0.09340663	0.010431277	0.25042576	0.008690089	-0.17334132	-0.046375822	-0.122338966	-0.31827277	-0.116818234	0.241092	-0.18544148	0.023364045	0.036858972	-0.19031778	0.1203535	-0.06531852	0.19433007	-0.3823513	0.030729424	-0.1268849	0.40237752	-0.056702446	0.05509216	0.013080941	-0.2573625	-0.06627119	-0.009063018	-0.018933976	-0.6734872	-0.34944856	-0.020953765	-0.06287969	-0.08103861	-0.17215134	0.021578899	0.04691672	-0.25381306	-0.028289644	-0.18985896	-0.13180622	-0.11396042	-0.27484354	-0.13959868	0.056686245	0.009945729	-0.041043527	-0.0013151538	0.10267111	-0.20435192	-0.068251446	0.1919015	-0.0011400849	-0.4634284	-0.3642454	-0.15775982	-0.18460484	0.09937445	0.057041947	-0.5744799	
0.117929846	0.1811222	-0.02658008	-0.0074430737	-0.06944618	-0.0252235	0.21591851	0.18704633	0.036581457	-0.0815873	-0.025947466	0.028665543	-0.124006845	-0.12327607	-0.10378267	0.06699963	0.07321428	0.17192917	-0.11725441	-0.16399151	0.008197695	-0.14038336	-0.085840546	-0.014205858	0.072181	-0.16110955	0.14142874	-0.14563954	0.083712675	0.13807313	0.05780544	0.064746246	-0.12710583	0.08911951	-0.0067346096	-0.17034893	-0.10883721	-0.18449852	0.11305638	-0.021753863	0.15150453	-0.2022748	-0.14832307	0.16013463	-0.14560395	-0.20307831	-0.07053482	-0.05705808	0.08886568	0.12927394	-0.07356662	0.07803731	0.02912955	0.028430149	0.14160503	0.098100886	0.12111221	-0.14515164	-0.10602296	0.03956406	-0.15400091	0.20856102	0.046190664	-0.09964096	
0.18769346	0.37986982	0.18266283	0.1640823	0.08465984	0.14134367	0.2305667	0.2898638	0.21711902	0.06961021	-0.13747433	0.0005619843	0.100058794	-0.02305897	-0.051977098	0.00909462	0.15049267	0.003956463	0.11101554	-0.040267818	-0.006826747	0.25084606	-0.073626846	-0.1050268	-0.2539622	0.15706095	-0.12323859	-0.056699134	0.006721333	-0.08682049	0.31953022	0.14743067	0.046523824	-0.16322504	0.115809515	0.2506535	-0.17867836	0.10204974	-0.118722074	-0.27270913	0.03143935	-0.09943503	-0.13981988	-0.09481938	0.048211217	0.27466047	0.019134983	-0.08551308	-0.1777383	-0.20746703	0.0041189333	-0.1360626	0.10662939	-0.18203828	-0.15934387	-0.1305757	-0.024048936	-0.061492804	-0.42091095	0.20172793	-0.077189066	0.33322167	0.32207847	-0.36734712	
-0.35486805	-0.020749455	-0.10455877	0.10550233	0.12538978	0.07990588	0.022684759	0.049121536	-0.3129033	0.17062838	-1.74824	0.018870432	-0.24297963	0.19731273	-0.16656522	0.1549209	-0.100250065	0.14059834	0.060333095	0.033620216	0.04366928	0.11258132	0.07074864	-0.24542205	-0.018146193	0.9266704	-0.008788904	0.07702396	-0.19957998	-0.13428779	-0.01738411	-0.40746346	0.09640096	-0.11603212	-0.009056615	0.08689867	0.08330412	0.7815309	0.062233467	-0.09076789	-0.1712472	0.14248061	0.026618913	0.05075857	-0.03280629	-0.08226324	-0.115787126	-0.0035700048	-0.6742631	-0.08440617	-0.11902647	-0.053398043	-0.07549574	0.038041938	-0.078777604	0.020038389	-0.16541441	0.01308052	-0.13328712	-0.060044944	0.17780645	0.011341293	-0.0022937362	0.14682075	
-0.6626876	1.2938563	-2.2030318	-0.7190524	-0.07077761	-1.4190818	0.60665524	-1.5548669	-0.83032894	-1.2743874	0.14905593	-2.2838593	-0.9216966	1.02857	0.9392677	-0.1487651	0.2451769	-2.4265668	0.26531005	-1.4592879	-1.2918913	-0.026350088	2.0138907	-2.3353121	0.15041988	-0.94485605	0.65853316	-1.7625504	-0.19696803	-3.3328831	-0.23337352	0.023278005	-0.17067438	-1.0442327	-0.21118115	-1.765623	-3.249754	-1.1540861	-0.20956513	2.2268798	-0.27436352	0.2863471	-2.235011	-0.97384435	-2.075899	-0.7715229	-0.96971303	-1.4405882	1.3060749	1.8185099	-1.8530828	-1.9872366	0.31587306	0.1961256	-1.1092914	-2.0972161	0.79635084	-0.54767907	0.61841404	-0.19107611	-0.16728662	-1.8887482	-0.88975656	0.7555543	
-0.20063767	0.046862364	-0.054813523	-0.024476718	0.06357037	0.15060537	0.05477133	-0.11266608	-0.0066565876	0.016465321	-0.29417053	-0.021470984	0.22055113	-0.40123618	-0.05999409	0.11874558	0.21545544	0.011811158	0.04525858	0.091457255	-0.19841306	-0.4143396	0.27265415	-0.20819236	-0.24609216	-0.16618131	-0.019002818	-0.025364084	-0.24905737	-0.26187402	0.21068935	-0.07937788	0.09356587	-0.32479978	-0.0950265	-0.04276026	-0.20995435	0.049561244	0.33033678	0.3523116	-0.45214814	0.176177	0.28845796	0.11266657	-0.52480966	-0.30280304	0.46350598	-0.004137043	-0.01908241	0.24301304	0.23420109	-0.15545937	-0.04941063	-0.09573708	-0.4986227	-0.59773815	0.18964669	-0.73781115	-0.048650827	0.15252402	0.2984534	0.5031421	-0.21871547	-0.3768756	
-0.06222456	-0.00041744096	-0.16548273	0.12764642	-0.00061053823	0.0006057649	-0.0066868546	-0.13573654	0.29130095	0.16272567	0.06366197	0.017520979	0.05163631	0.051626462	-0.43276235	-0.041113473	0.012386128	-0.048717525	-0.07147896	-0.037118737	-0.028134158	-0.01846744	0.12251464	0.033505365	0.0037861215	-0.037204318	0.3658795	-0.027616903	0.079744905	-0.028554762	-0.122307934	0.027285064	-0.036669195	-0.07370904	-0.0247912	-0.037053097	-0.028650958	-0.16860929	0.053859614	-0.08265146	-0.2801658	-0.18346506	0.022896985	-0.062002853	-0.023909448	-0.0074059297	-0.16736753	-0.057458203	0.41793278	0.15953825	-0.062934555	-0.09370102	0.074005835	-0.06039829	-0.074411966	0.011121777	-0.045717414	0.017369064	-0.07418457	-0.06210797	0.1036358	0.04248266	0.042000923	0.0058423355	
-0.6176941	0.09628825	-0.1667341	0.08931221	0.12681675	0.09895064	-0.1284364	0.06219301	-0.15808824	-0.18573426	-0.27549905	-0.027122028	-0.019579293	0.05196595	0.16384047	0.054766994	-0.19214721	-0.033837326	-0.030554298	-0.01492864	-0.016608646	-0.035701357	-0.17466328	-0.061678596	0.11486744	0.94654745	-0.30895332	0.08077877	-0.16741933	-0.030681575	-0.041369904	0.12905268	0.44014314	0.10849956	0.08117344	0.08530014	-0.025220413	0.6763319	-0.35459983	0.06891867	0.001215611	-0.18144195	-0.010763607	0.06154288	-0.04978958	-0.039140217	-0.084075935	0.00067627773	-1.6698422	-0.13009374	-0.053708624	0.103163555	-0.09780063	-0.33704042	-0.25606614	0.07502477	-0.11574699	0.0243452	-0.03412166	0.15621914	-0.019357761	-0.06887622	-0.13644926	0.060017254	
-0.4653085	-0.07786333	-0.29799005	0.93564653	-0.13597007	-0.20959732	0.41074207	-0.12771174	-0.35183623	-0.67796814	-0.04769474	-0.34360382	0.3229829	0.76536393	-0.66424793	-0.4495582	-0.60631067	0.13718948	-0.12650752	-0.19880374	0.064374186	-0.20610836	-0.7858388	-0.22929202	-0.60798514	-0.13490225	-0.10444622	-0.17957382	-0.41133696	-0.78764826	-0.012037619	-0.12697105	-0.30475202	0.27138498	-0.17950666	-1.271117	-0.2286811	-0.40955737	0.051330104	-0.20411241	0.325708	-0.33440745	-0.85782003	-0.8104054	-0.4374216	-0.011521183	-0.7085048	0.22125325	-0.2002212	-0.19228353	0.08518192	-0.54212475	0.018465579	-0.34939617	0.030109685	-1.7823044	-0.5108929	-0.68268365	-0.4982909	-0.02233423	-0.08240702	0.016064081	-0.39056244	-0.027037194	
0.009333321	0.038698636	0.10578998	0.109078065	0.51655126	-0.03145093	0.080594964	0.31341937	-0.017142793	-0.11469773	0.27015096	0.36173573	0.2519013	0.0035327377	0.026392633	-0.033133782	-0.19594193	0.20064276	-0.034784038	-0.11499818	2.4940602e-05	0.04800814	0.008224716	-0.09130196	0.0087742675	0.03661346	0.2779078	-0.31242147	0.006170626	-0.05079922	0.36974326	-0.2666352	0.12614746	-0.01629714	0.006055534	0.20143166	-0.12921678	-0.00420175	0.19141807	-0.20340261	0.11005608	-0.14469658	0.108967096	0.23737247	-0.08083501	-0.004292735	-0.18696076	0.25360715	-0.022577595	-0.340555	0.035194356	-0.01856572	-0.023749705	-0.12234126	-0.20443507	0.031512883	-0.16407268	-0.29389066	-0.37559474	0.27868935	0.07397393	0.25107375	0.13180545	0.0007705461	
0.07627902	0.14870822	-0.017753776	-0.1261312	-0.066771835	-0.1270487	-0.09825853	0.16500683	-0.56739473	0.093059234	-0.2518474	-0.7476575	-0.023093734	0.58264554	0.0073057227	0.52462703	-0.69065034	-0.3237329	0.35628307	-0.6964437	-0.5510828	0.29144233	0.27399325	-0.16433288	0.9165245	0.43003738	0.404089	0.063691795	-0.019395223	-0.032118857	0.17268978	0.042385325	-0.4877453	-0.79146034	0.20162702	-0.23498033	0.4952952	-0.2750534	-0.39262807	-0.16260524	-0.14761345	-0.39951792	-0.11674376	0.93978184	0.15207087	-0.1870518	0.4714418	-0.52578866	0.5643057	0.19061518	-0.12614353	0.09935941	-0.89027256	-0.2841682	0.1809285	0.5892254	0.030354658	0.055596616	-0.2659261	0.590914	-0.21260196	-0.72666395	-0.9046081	0.3403779	
0.062035665	0.14230809	0.02986817	0.11417617	-0.06116366	0.0607761	0.0988756	-0.05479161	0.14722627	-0.1483431	0.15642047	0.025197802	0.22416106	0.29362246	-0.03254786	0.17949814	-0.17677118	-0.21508117	0.048643257	0.14234996	-0.18465348	-0.0947419	0.2235542	-0.20657247	0.073512904	-0.19876926	0.18732129	0.13241221	-0.08142173	-0.10418635	0.035392683	0.0748805	0.031631894	-0.16419299	-0.19972487	-0.23487817	0.082539625	-0.16188022	0.07696241	0.10945171	0.24019031	0.07160379	-0.064143084	0.20428693	-0.18622778	0.022410775	-0.0035553973	-0.032257177	-0.11929485	-0.0943812	0.08647289	0.03154951	0.112710364	-0.19588532	0.17721279	-0.14077997	-0.0968073	0.03868892	0.18837556	-0.046103645	0.12587395	-0.2115319	-0.12836823	0.09882659	
-0.15664892	0.24809645	-0.15703018	-0.043856222	0.9924821	-0.16187567	0.7923437	-0.170426	-1.0101879	0.050096378	-0.28617048	-0.29914045	0.018423915	0.20379043	-0.3582806	-0.032775115	0.07558561	-0.74973273	0.33590713	-0.3091741	-0.69323975	0.21415123	0.27262697	-0.28614113	-0.14612694	-0.3453329	-0.21107316	-0.042723518	-0.44757545	-1.3344345	-0.2683853	0.028287295	0.71320826	0.12127373	-0.31239933	-0.23881571	-0.9418913	-0.23672378	-0.19884902	-0.2876207	0.28183392	0.046010695	-1.0168546	-0.4336025	-0.20315659	0.6801697	-0.4999438	-0.54926074	0.3411198	0.2954462	-0.2572121	-1.3664889	0.28399646	-0.41985777	0.08649044	0.08811195	0.052568942	-0.76497597	-0.0038913076	-0.22060204	-0.08176943	-0.23522009	0.14528556	-0.11213683	
-0.018849565	0.18242814	-0.06732216	0.28759593	-0.2845546	-0.04667396	-0.13980913	-0.3321606	-0.14662378	-0.37179092	-0.19006962	0.13693994	0.4740666	0.46290076	-0.1598327	0.14087062	-0.37643778	-0.38296732	0.024444187	-0.103338115	-0.4292421	-0.13923544	-0.04285151	-0.33729818	-0.3019839	-0.07879039	0.055769123	-0.105357	-0.09360946	-0.46979484	0.020893328	-0.2284013	-0.65503013	-0.3249572	-0.10857696	-0.3415969	-0.5331009	-0.078173324	-0.29155263	-0.27184707	-0.021581246	0.04156959	-0.49996337	-0.32072452	0.09170316	0.29970893	-0.07939677	-0.2313057	0.11360908	-0.29990062	0.1349239	0.12906654	0.143872	-0.37768963	-0.3963096	0.20081975	0.37666655	-0.42396843	0.03521999	-0.12252521	-0.15106995	0.97110856	-0.045353144	0.3672989	
-0.109234445	-0.12237963	-0.016289849	-0.11637869	-0.01814363	0.060274698	-0.011733817	-0.18346156	-0.25042072	-0.05620827	0.059740722	-0.16485108	-0.12126302	0.117180265	-0.019915514	-0.29623777	0.1639728	-0.14813219	0.11374437	0.03895576	0.06384253	-0.30369246	0.17457345	-0.16273572	-0.025597759	-0.05108562	0.12776627	-0.25781432	-0.03418134	-0.37988803	0.3149548	-0.08258883	0.08606767	0.14441906	-0.07439555	0.103552364	-0.067106955	0.06137165	-0.03651041	-0.18792602	-0.056272604	0.31318474	0.15468195	-0.30629015	-0.08711628	0.37487784	0.053117976	-0.059467074	0.073112085	0.104761764	0.123321526	0.1384409	-0.021075388	0.17547219	0.17085093	-0.27297553	0.1489286	0.06570305	0.18152177	-0.14882873	-0.15912952	0.3755717	-0.18641151	0.047545835	
-1.3616345	-0.4690282	0.11029741	-0.2462889	-0.072081074	-0.2509391	-0.10390831	0.016902959	0.027285747	-1.154496	0.0056583975	-0.5829502	0.050714836	1.0388422	-1.4653071	-0.117286436	0.46944338	-0.36045578	-0.36446828	0.0058692493	-0.2409661	-0.27780756	0.15062545	-0.3867746	-0.020980772	0.035115853	0.80005926	-0.08297558	0.2484382	-0.22224465	-0.16072649	0.026639083	-0.21002136	-0.12959354	-0.6744682	-1.8878878	-0.9892715	-0.15344447	-0.25429374	-0.682899	-0.06308742	-1.3797498	-0.6787663	-0.06282283	-1.8548111	0.30247813	0.5122581	-0.265362	0.19420993	0.41945314	-0.18521605	-0.1630727	-0.11712818	-0.721926	-1.3446896	-1.7965134	0.97070146	-2.0410583	-0.37739083	-0.9179914	0.30119282	1.9573854	0.4184469	-1.0563678	
2.197792	1.0606757	1.580183	1.4746107	-0.9024327	3.121692	0.35506096	0.2567405	0.89669037	-1.8518776	0.057942513	0.4764028	-0.03942674	-0.39756343	-0.028341556	0.58925503	0.9510535	-2.2017736	-0.77613866	0.4325093	0.123386346	-0.67161715	-0.54722315	-3.555616	0.36766794	-0.9728671	-1.2042298	-0.21255173	0.49301335	-0.72127026	-0.16729657	-1.6801413	-0.5530245	-0.43448135	-0.84330446	-0.5945896	0.3723879	-1.0014158	0.60181236	0.5201029	-1.2887262	-0.19843629	-1.5028962	-0.22452506	-0.08060867	0.08595319	-0.6762223	-0.5730878	3.775737	-0.6848106	-0.107178204	-1.5337006	0.6843132	0.022189558	-0.3481678	0.18449341	-0.6402943	-0.6915227	-0.12624748	-0.66192234	-0.25958923	0.009988994	-0.36891812	-0.14310803	
0.026262337	-0.08877872	0.25216633	0.020056546	0.16917257	0.059002273	-0.16803043	-0.06655558	-0.19038618	-0.039178852	0.11682625	-0.14670567	0.037722465	-0.27318016	0.07640396	0.108607784	-0.116673246	-0.17111576	-0.07056971	-0.16467579	-0.13975912	-0.033419076	-0.13130707	-0.12513708	-0.014530056	-0.065335214	0.22489637	0.105693616	0.1008583	0.04229993	0.18936126	-0.107701905	-0.21061951	-0.08908978	0.10191056	-0.057793926	-0.249383	0.03330964	-0.12697217	-0.09194401	0.13642804	0.062497236	0.048837215	-0.16331758	0.14464557	-0.0043089287	-0.16448635	-0.11919833	0.06146213	0.040574957	0.06144317	-0.06945027	0.13785878	0.01857242	-0.24052039	-0.15685989	0.18944386	0.03697968	0.07132572	-0.13754152	-0.0023969011	-0.15173803	-0.08576417	-0.042368952	
-0.16386092	0.055147037	-0.27700433	0.21610759	-0.20937718	-0.07600325	-0.07794316	0.14313126	-0.62555397	0.044809327	0.18424077	-0.41954246	0.014823293	-0.039779115	-0.009603517	0.08322271	-0.13666794	0.20532763	-0.034605034	-0.13950658	1.209054e-05	-0.22366492	-0.051884867	-0.010611299	-0.29692593	-0.35707042	0.031184804	0.024242513	0.2571601	-0.12239479	-0.14222227	-0.06769327	0.039645974	-0.10829629	-0.092715465	-0.07420562	-0.1672932	-0.17078912	-0.26375878	-0.0050398163	-0.29781082	0.026573814	0.11415971	-0.068696566	0.30210453	0.18830976	-0.11436997	-0.07015335	0.11465141	-0.09057741	-0.014404648	-0.0075205546	0.10389281	-0.041800864	-0.252061	-0.38557854	-0.13449687	0.34615564	-0.18502192	-0.13439412	0.17506585	0.047422957	-0.037870698	-0.15577777	
0.08977182	0.05864124	-0.14677775	-0.06654435	-0.13003395	0.12997067	0.06007926	0.14462434	-0.12706928	0.16274069	-0.11181756	-0.11951816	0.07311115	-0.09442529	0.025269195	0.19086288	-0.14131896	0.080578074	-0.17285225	-0.1195188	0.18723558	0.07155545	0.15466309	0.021049052	-0.051505834	-0.14902893	0.18487649	0.09643896	-0.17954765	-0.1875395	0.077494696	-0.044710293	-0.13294436	0.09314589	-0.040648848	-0.034067914	-0.0942856	-0.16586156	0.15960868	-0.046635106	-0.05840361	-0.03798905	-0.16256416	-0.08714554	-0.14495704	-0.01761429	-0.11401971	-0.086647674	0.17716652	0.0637594	-0.17685345	-0.07580555	-0.09738383	0.14151482	0.0941703	0.140294	-0.14211653	-0.11597259	-0.031012444	0.047124505	-0.09743472	0.12450404	0.008934286	-0.11112351	
0.123556376	0.3869585	0.28046483	0.46816742	-0.19330579	-0.15539636	0.5070474	-0.47035196	0.25014928	0.028295722	0.00034755626	-0.12547296	-0.39529386	0.49657106	-0.073277034	-0.16956972	-0.17545693	0.11985217	-0.007421288	-0.03624833	-0.13559885	-0.035398208	-0.3965164	-0.03744007	-0.23842236	-0.24133472	0.38937253	0.25429294	-0.11158561	-0.22824378	-0.54124784	0.2072144	-0.12180908	-0.3996314	0.016889842	-0.32572648	0.33305508	-0.13545214	0.1443507	0.46530396	-0.21460155	-0.26317573	-0.32086974	0.17065781	-0.27956864	-0.71561974	0.17724188	-0.06101043	-0.43709353	0.2317531	-0.27486134	-0.13880578	-0.14034435	-0.006688097	-0.11953553	0.029703561	0.41832158	-0.16092302	0.17451395	0.056642324	0.11976261	0.21932209	-0.26685506	0.46083453	
0.22086464	0.12353921	-0.11496457	-0.010588122	0.12302185	0.07260816	-0.22584118	0.095236234	-0.06160932	0.02246631	-0.03664502	0.034192447	-0.08428396	-0.05313784	-0.1534115	-0.128067	-0.1602022	-0.12942277	-0.04793441	-0.023684124	0.037031867	0.07143238	-0.11193057	-0.21704449	0.06783901	-0.051921204	0.06162165	-0.11465545	-0.06725427	-0.13043481	0.16823198	-0.056636196	0.027969787	-0.117947884	0.17247023	-0.14734252	0.07506263	0.026157487	-0.090857826	-0.25893286	-0.10707468	0.025436435	0.15468769	-0.18878156	0.2025499	-0.00013540723	0.27956843	0.14695963	0.07024479	-0.19376661	-0.13325867	-0.14068474	-0.08006859	-0.23707066	0.08646612	0.15626903	-0.10980244	-0.15618756	0.013325737	-0.3662865	-0.10617511	0.023769	0.08090459	-0.14571966	
0.07482194	-0.10966797	-0.07756871	0.06001224	-0.24129893	-0.046176895	0.0024264697	-0.09753072	-0.09063715	-0.045290362	-0.022722553	0.0684369	-0.082636446	-0.33989108	0.19495474	-0.010146769	-0.023677524	-0.116114564	0.034648873	0.160186	0.054586165	-0.037486233	0.081496514	0.1319305	-0.1027993	0.47178927	-0.0122882305	-0.43411115	-0.36105144	0.0030335898	0.0688553	0.102832414	-0.103589356	-0.06810842	-0.14670692	0.0688287	-0.18212321	-0.33759767	-0.12455702	-0.25133333	-0.1641294	-0.33551306	0.04289456	-0.23518051	0.025615066	0.14900754	0.11461399	-0.37878615	-0.11733858	0.0320644	0.120894864	-0.01478304	0.19733877	0.15705559	0.03592671	-0.11939452	-0.16453862	-0.20418105	-0.24822944	-0.34164414	-0.109182045	-0.057564322	0.1583943	0.231549	
-1.3107494	-0.5521948	0.46919376	-1.3028526	-0.9275907	-0.10985434	0.7457486	0.11112061	-0.4205583	-1.0454416	0.21108009	-0.29071966	-0.15557107	-0.029956823	1.3513447	0.66590023	0.029261358	0.34487736	-0.3938743	0.54164505	-0.43676433	0.31892663	-0.39696628	-1.0328121	0.1670058	-0.09147562	0.39093617	-0.30742085	1.2001086	-0.56597006	-0.27644652	-0.28412232	0.15573834	-0.054203946	0.5049303	-0.0800335	-0.5409779	-1.0127618	0.53994334	-0.89800465	-0.40492538	0.5152965	-1.0732925	-0.47964796	0.26588723	0.24879754	0.53132385	-0.3970565	-2.3655982	0.23883177	-0.2532147	-1.2399336	-0.050806925	-0.084614746	0.24835736	-0.11235572	-0.9181753	-0.9188342	-0.41394308	-0.18289563	-0.14172289	0.2201057	-0.67984414	0.330526	
-0.09375531	-0.0770033	0.3106757	0.10634986	-0.52624124	-0.09833978	-0.30516425	-0.060663927	-0.16622578	0.17784688	-0.061160702	-0.009073759	0.07164064	0.009617778	-0.14255506	-0.063206375	0.55963016	-0.17643546	-0.11545537	0.15234432	-0.028364664	0.45024887	-0.41660026	-0.2978205	0.09299208	0.100016885	0.12416373	-0.058798987	-0.5218812	-0.072265305	0.17866564	-0.20751485	-0.4291019	0.22778298	-0.19716036	-0.2988253	-0.024157949	-0.2853597	-0.029349305	0.18675688	-0.0065660216	-0.27283952	-0.18470225	-0.1319964	0.10144471	0.18779945	-0.35220748	-0.18917795	0.0821441	-0.19134395	0.3617548	-0.24321511	0.11156026	-0.17506461	-0.19038983	0.06913169	-0.43259212	0.041146744	-0.34356037	0.14847982	-0.1158089	0.17319661	-0.18198928	0.06087299	
0.2263837	-0.094121374	-0.22811867	-0.5325189	0.038642883	-0.33239573	0.29768187	-0.10151699	0.010338264	-0.029267432	-0.56174654	0.010984549	-0.70705014	-0.014402861	-0.037959486	0.16931976	-0.02006849	0.5216603	0.03204807	-0.02157938	-0.030854303	0.2268051	0.1109138	-0.44695318	0.058061082	0.17819747	0.4697589	-0.01924523	-1.1115834	0.06547408	-0.0047005634	0.42388037	0.21622053	-0.15972939	-0.061454337	-0.18853441	0.07354853	0.26289067	0.13712609	0.36396623	0.07935416	-0.16421708	0.18159845	0.06984151	0.041836277	0.15314397	-0.08830608	-0.02866589	1.0446428	-0.5525322	-0.4081145	-0.18563193	0.23816954	-0.28859836	-1.3478373	-0.032807708	-0.0467075	-0.024823163	1.0217954	-0.059246894	0.108562455	0.0409993	-0.0066203247	-0.1275569	
-0.5621207	-0.033219848	-0.14267771	-0.7719881	-0.17429931	-0.23197207	1.0785043	-0.03257799	-0.1637725	-0.41974923	-0.96373993	0.13317613	-0.541604	0.13726224	-2.0963175	-0.18806593	-0.29942688	0.45564976	-0.10161673	0.2421202	-0.06418541	0.23554957	-0.013472219	-0.035669938	-0.30236796	0.16657403	-0.37338713	-0.11770639	-0.1093009	-0.052216172	-0.19450891	0.89233756	-0.099284634	2.3217816	-0.0300474	-0.039539754	0.044201232	0.11137456	0.47762328	1.3667595	0.087333485	-0.17171007	-0.1490947	0.101580925	0.051783483	0.43998322	-0.013214239	0.049381208	0.23126045	-2.5777996	0.27750075	-0.09056448	0.64183366	0.80882967	-3.7499757	0.11478879	0.5265628	-0.08882373	-1.9042988	-0.23790981	-0.101100124	0.0034052772	0.1490837	0.3422513	
-0.3349214	0.10609596	-0.0032781945	0.5713275	0.3988318	0.09735716	-0.76298124	0.40457466	-0.28631988	0.05066422	-0.28450766	-0.29225832	0.44421458	-0.21077287	-1.5436735	0.1123719	1.171867	0.31730977	-0.31732044	-0.1853046	0.049563754	-4.269079	0.18823314	2.1828587	0.040772274	0.12067825	-1.8683639	0.068448916	0.6969867	0.07966938	-0.30870852	0.24908403	0.24602334	1.5100336	-0.17805447	0.056428853	0.09170457	0.28149325	-1.0090784	2.0107272	-0.19049683	0.66877776	0.07778953	0.105399616	-0.120926745	-0.20755145	0.23072337	-0.049465876	0.17309284	1.9076886	0.2161848	-0.06291034	0.21112126	-0.31158364	2.2237537	-0.10650264	-1.2529619	0.0319484	0.055219796	0.4395086	0.17053312	-0.14731525	-0.23071186	0.5567168	
-0.4194026	0.7054337	-0.28081656	0.4197985	-0.22469778	0.0020981885	-0.35073355	-0.24064156	-0.12792696	-0.28353387	-0.4442821	0.18933873	-0.024556044	-0.028068408	-0.89076227	-0.096172616	-0.22168925	0.091077335	-0.2512233	0.12319114	-0.035827287	-2.1979935	0.057924327	-0.5153578	0.18039852	-0.19052212	-0.8463553	-0.047460914	0.9919168	0.06732631	0.032518353	-1.19769	-0.056955118	-1.1156693	0.07675864	0.022366755	-0.04812523	-0.010136014	-1.8079829	0.6661552	0.26342556	-0.614263	-0.08239926	0.11338408	-0.048631698	0.64124405	-0.032268737	0.23257768	0.31205288	0.5987241	-0.21141133	0.19777626	1.4571005	-0.26056078	-0.0725571	-0.031334184	0.1679338	0.08603067	1.1082716	-0.49824154	0.28986654	-0.034328606	0.102510095	0.3295073	
-0.24270745	0.2112783	0.16642742	-0.24824196	-0.3302099	0.21216647	0.27318114	0.023597341	0.1314044	0.0016866717	-0.32634595	0.028636744	0.26253724	0.17219262	-0.08384644	-0.018340345	-2.604874	-0.28373933	0.008958113	-0.16770904	0.028234385	0.18081458	-0.15455052	-1.2374933	0.18480323	0.16323407	-0.093907	0.22573955	0.6901387	-0.17946161	-0.16044717	-0.47370625	0.08444821	-0.68949395	0.12712668	0.049414515	-0.019837217	0.42669737	-1.0067031	-0.32379544	-0.057688344	1.182322	-0.20345937	-0.034423497	0.18152983	0.13892776	-0.106929176	-0.122592896	-0.72681844	-0.46886593	0.11847969	0.08416405	0.30537003	0.004553761	0.08969126	0.120148174	0.37373137	-0.10494197	-0.1594821	-0.35435626	-0.6278333	0.07873596	-0.004650176	0.016912844	
-0.1688256	0.13104436	0.20901883	-0.22573869	-0.17167413	0.12129783	2.6208048	-0.23217493	-0.030805094	-0.0011132701	-0.35225308	0.2511112	2.8509443	0.33430192	-1.5578213	-0.14932626	0.56442463	1.1121584	-0.2163405	-0.12543434	-0.0024184133	-0.3457591	-0.40584263	0.11906408	-0.29410076	-0.48381332	-0.36717194	0.07935642	-0.65335375	-0.017744465	0.066854216	0.5803286	-0.21031411	-3.1229978	-0.014237895	0.08844338	0.0016272357	0.23691884	-0.2808356	-1.6638657	0.9702519	1.0823443	-0.23559275	-0.07959286	0.10229952	-0.08556725	-0.026619362	0.057029217	-1.3472974	2.7188752	1.1836169	-0.013485576	-0.5014376	0.0898644	0.45237765	0.055730373	-0.6636055	0.031132644	-3.7493508	-0.15860659	-0.2840264	-0.04661819	0.19455558	0.19051883	
1.2496715	0.07824435	0.2274586	5.577767	0.28274912	0.77101064	0.14087911	0.03982294	-0.6052028	0.4235075	1.8479707	0.08283989	4.870923	-0.74542856	-1.2696121	0.15313785	-0.8533612	0.8966709	0.10156904	-0.066629976	0.10030994	-0.34054518	0.45775962	3.2508452	0.46383592	0.7042196	-0.4717357	0.05202549	2.0944698	0.09434874	0.49870148	-2.2740648	-0.21384966	0.14146677	0.38162047	0.09622537	-0.08729684	-0.79753727	0.5414661	-1.9607627	-2.662652	-0.8145113	0.044759423	-0.006948008	-0.105496965	-1.9607346	-0.5995911	-0.19485894	-1.0081954	-0.056787457	-1.1083838	0.052738674	-1.5738955	-0.9031371	-1.1742251	-0.30257702	5.2765737	-0.05198756	5.3162622	-0.22396867	-0.32147336	0.25461343	0.08523787	-0.14913198	
0.7089413	-0.46605626	-0.5755298	1.7258228	-0.07877757	-2.3950353	-2.2265873	-0.20968139	2.8677886	-0.3582543	-0.45928624	-0.36833307	-3.4384708	0.7180392	1.9314653	-0.19204082	-0.8156638	-0.3617385	-0.49390763	0.100397795	-0.09563113	3.3517556	-0.99924564	-4.0326324	0.55509466	-0.048629034	-1.9844592	-0.3345403	1.2040564	0.15614372	-3.0796373	-2.2905428	-0.30052504	0.60673785	0.08964978	-0.15881847	-0.21955399	0.4900499	3.7319672	-2.4567537	1.3114462	1.5991186	0.062473815	-0.27496538	0.2361362	-5.3899326	-5.891075	0.2005928	2.68277	-1.995583	0.07449199	0.08679886	0.9842395	0.43831	2.7808528	-0.13166153	-2.1647134	-0.40924454	-0.70855546	1.5548694	2.8060057	-0.21905357	-0.077652685	5.118017	
1.0490037	1.7926174	0.9307196	-1.5076662	0.34527	0.54904014	2.0226784	0.24304554	0.4450117	0.11713493	0.23060414	-0.2722658	0.48809972	0.03369781	3.029409	-0.026223918	2.3528688	-0.17100868	0.26658925	0.11845231	0.038845275	2.033197	0.6445784	-0.7580273	0.04151046	-0.4531468	-1.4186049	0.18646014	-1.4631962	0.09407133	-3.4137232	0.088139884	-0.084704265	-3.2823462	0.08735289	-0.015435479	0.011512287	-0.7121707	2.7535002	-0.5678398	-0.336613	-3.8635273	0.061537556	-0.043169294	-0.02780349	3.22637	-0.21698627	-0.028614553	-0.27804846	0.3720033	-0.13509208	-0.07904501	2.5750258	1.0534859	-0.6669857	0.13696223	-1.3272842	-0.047498625	-1.2156435	-2.409207	1.0389793	0.08474836	0.027699582	0.5479347	
0.9791228	2.7161841	-0.09733513	0.24660492	-0.03900748	-0.083773516	-0.16751818	-0.06358737	-0.06383725	0.116107956	-1.575805	0.19210799	-0.09223647	-0.14649218	0.9506936	0.02300433	0.43800157	0.18428312	0.16419426	-0.04792406	0.026915316	0.029417409	-0.12931195	1.757088	-1.3734528	0.6706135	0.31369242	-0.21822013	-0.38624108	-0.010032667	-0.011230311	0.6565401	0.096831985	2.319735	-0.22687495	0.1531417	-0.05627508	0.08131841	0.13281661	0.19193968	0.39706656	-0.3517165	0.10493504	0.05813158	0.19378942	2.5911922	0.19353142	0.038996227	0.84461707	0.049188934	-0.028050538	-0.02088967	-4.879086	-0.23467594	0.3161866	-0.050281517	0.42748168	0.14248799	0.23574598	1.4214454	-3.7118425	-0.0031407415	-0.020738816	0.0341304	
0.7768422	-0.16838586	2.8529904	-0.26064765	0.024708157	0.86883146	0.70761	-0.74232674	0.6573432	0.13933893	-1.1066315	0.46518034	-3.2798555	-0.35617125	0.6262651	0.029069895	-0.3115238	-0.16274954	0.101692185	0.08932312	0.0466631	-0.046539385	0.06819276	0.9942673	0.030819146	-0.08356336	2.7531292	-0.09743833	3.8121004	0.22068316	0.4536013	-2.5124068	0.038873333	0.3841234	0.04026977	-0.15351978	-0.1328868	-0.8200702	-0.13197884	0.3683205	-5.155471	-0.5136508	0.32704803	0.1604932	-0.10478818	-0.2353245	0.20132148	0.012958689	0.039088473	-2.2492101	5.391399	0.09967846	0.18840183	-0.025328862	-0.14837557	-0.17340416	-2.836725	0.022149174	2.8538916	0.17846192	-0.004479583	0.16053845	-0.5875343	0.0061913333	
-0.7348821	-0.14621137	0.59406453	0.5312785	-0.12715714	0.44437972	-0.23999235	-0.28130245	-0.10363489	0.86814207	-1.649944	0.17779827	-1.0245687	-0.543805	-1.5554384	-2.6671813	0.11920175	0.1575529	-0.19503883	-3.7430847	3.9535887	0.16177231	0.3048471	0.4536896	0.39572877	2.1794004	-1.2523568	0.8025624	4.21896	0.05532735	0.048477054	-0.35643497	0.3197663	0.03179569	3.298022	-0.36611238	-0.15854216	1.4561536	-0.4437323	-1.0526292	0.30609694	-0.2981481	-3.0887709	4.812211	0.33580363	0.09843232	-0.3279131	-2.9222255	0.4993726	1.5515033	-0.23476093	-4.264125	0.21582441	-0.27226573	-0.9737635	2.9829376	-0.19014643	0.44131455	1.2049136	0.78999925	-0.22340363	1.3922342	1.1541042	-0.25047877	
-0.15965348	0.3578716	-0.51708674	-0.38439715	-0.57862306	-1.4911307	-2.3674085	-0.1548169	0.32863575	-1.6235263	-0.53815013	0.18620239	-1.2154117	2.1884308	3.7394414	5.9336042	-0.64409566	1.07296	0.73316675	10.265528	-7.437221	0.40927956	0.11526559	-0.3243325	-1.0338346	1.1864362	0.6153502	-1.037037	-0.07238723	0.30402797	-0.17043671	0.9797292	2.6617947	2.0276368	-0.16496368	0.5737629	0.37489876	-4.072449	0.5505635	-2.3347604	0.30134517	0.062616765	2.3162017	2.4479494	0.27920663	0.61029077	0.17149541	-2.1954055	0.7292203	3.972135	0.4836215	-1.7115613	0.8160673	-0.036153547	-3.963234	-2.978227	-0.3672307	-2.700836	-1.1093678	-1.2823582	0.7244465	-3.383477	-0.98023397	0.42727602	
-3.763563	0.016795218	0.5137099	0.136724	0.50946355	1.473777	1.2446744	0.11863162	-0.63114464	-8.4609375	-0.030249134	-0.073529206	0.55162066	-2.2525036	0.7210188	-3.8285644	2.7227414	-0.18561177	5.078163	-8.901242	0.27194798	-4.649768	-0.6612095	-0.6683224	0.7682649	-2.4930923	2.4177868	5.734811	-1.227637	0.3265166	-0.24453795	-0.9723797	5.0941486	1.656183	-9.026812	-0.22255248	0.4892422	3.1147609	-0.39246583	-5.3989515	-0.42889157	0.39437234	-0.6402309	2.2424011	-0.504697	-0.084410824	0.18076748	7.655258	2.0754187	-4.5618773	0.10884809	1.7035726	0.02326221	0.9869952	2.4038067	1.6551462	2.6369407	0.35914326	-0.2719481	-0.51011765	-0.6487538	2.6536374	0.9748977	0.83376783	
0.64654154	0.78810275	-0.77291906	0.53531426	0.27643204	-0.45158863	1.2932057	0.059584733	-0.06413856	-2.1799388	-0.6413016	-0.035474714	0.2908167	0.29802272	0.83290124	-0.5271254	-1.0592977	0.28776497	3.5929346	2.3867877	7.329723	-2.3301163	3.7348666	-0.5704484	0.44750217	-1.5966103	0.51228386	-3.1862452	-1.6323358	-0.0499062	0.24702832	-0.16733229	3.2743678	-1.3309929	-1.6351243	0.5631128	0.08087802	0.15625471	-0.24191579	-1.4158118	-0.05943877	-0.01568527	3.3896132	-1.3363249	-0.63903725	0.6041744	-0.20624004	-4.560627	-0.8790072	-1.1127732	-0.434737	3.63885	1.3434438	-1.0010636	-0.019557923	-2.4434657	-0.51704234	-1.3413217	0.70109	0.7394711	-0.27879408	-0.88882315	-0.8470476	0.44286957	
0.15823297	-0.4585282	0.23313616	-0.36353147	0.18398094	0.08376014	-0.5959131	-0.055902023	0.088522606	-0.0723014	-1.5129204	0.013373417	-0.034725506	0.06862017	-0.70405906	1.0460498	-4.736248	0.058853656	1.8479357	0.32488027	-3.7581687	0.2852107	4.165628	1.1255206	1.8019712	-1.1385105	-0.7962662	-7.7399817	0.034931485	-0.299218	-0.13953465	-0.049820162	-0.285541	-1.065515	3.24647	0.13196759	0.3849778	-0.045104302	1.2934943	0.4736382	-0.078465946	0.82828987	0.05692651	0.32646266	-0.098822825	-0.267613	0.17206301	1.7394991	0.05432473	1.2935687	-0.00042127536	1.5681975	0.48968574	0.17976099	-0.06299151	-0.3314279	-0.96265954	-0.12911476	-0.46130878	-0.14615826	-0.79910165	0.18620734	0.26724562	-0.31455216	
2.6601245	0.30114907	-0.28502187	-0.22196054	0.01291747	-0.60538834	-4.253678	-0.52421844	0.35805267	-1.1643666	-0.49472642	0.54638195	2.9280922	2.6845732	1.533618	7.314933	1.1646297	4.326223	1.147321	-2.273038	-1.457725	-0.07381072	0.29149386	-0.5388826	0.1509272	-0.15585469	1.0546311	-1.4958276	-1.0628173	-0.7295267	-0.06976817	-0.74775743	0.41390225	-3.7442381	-4.3260584	3.6796186	-0.6520268	-3.171216	0.37925595	1.9262758	1.4544499	1.3192011	5.416926	-8.328562	-0.17465465	-0.22909057	0.71031266	9.51125	1.4828964	-5.6436753	0.915969	-5.182075	-0.420708	0.88507444	0.6788448	-4.068616	0.9928081	0.17237727	-3.2732484	-0.21960303	0.59598505	-3.6063938	0.6319963	0.09023246	
-0.34513754	-0.9882776	-1.138026	-0.029917289	1.4615927	1.6739172	1.2333806	1.0743463	-1.1229275	-4.3914776	1.454505	-0.8379013	5.97532	-5.30929	0.6133846	-13.723537	-1.1703676	3.840974	2.0107267	4.9163127	4.6595116	-0.14030974	-0.18369786	-0.8224403	-0.7865814	-5.8246384	0.6136035	2.4475136	-2.9336965	1.7077177	0.5818931	-1.0907747	-3.8187394	0.4836758	4.011908	-0.15522505	-0.85219127	6.0517955	-2.1466665	5.156251	-4.9423523	-1.2577916	9.958797	-9.856875	-0.90861076	-1.6739432	-0.17478286	-3.2511685	-1.140991	1.7193635	-1.3737779	3.0944898	-1.1885698	-1.2056949	-0.93966115	-11.507191	-6.6520324	3.982681	3.6740015	1.7283708	0.11323622	7.1129303	-0.51865923	0.8968831	
5.9677944	0.20258434	1.4044459	-0.11777374	-14.4883	-5.5283556	3.1250615	-0.49675414	1.2533268	-5.884639	0.73839563	-0.09113692	-3.3812122	3.7710938	-1.0530611	9.275262	-2.558843	-1.6311121	-5.5275674	-4.7920218	0.50640523	3.670629	-7.2890377	1.2956423	5.023178	7.8179164	0.024277264	-4.5797896	-0.7582942	-1.3449659	-3.1570477	0.5758439	-16.325314	1.3467553	9.711202	-4.1260524	-1.0091786	-4.723509	0.38586885	6.2131634	2.5892966	1.8516449	-10.622795	-1.5965061	10.412336	-5.648482	-0.11602809	-8.075851	-0.9341111	3.2984543	0.24530059	3.7820776	0.41726163	0.34615135	2.5546277	11.822708	1.9707766	16.113703	-0.31411853	-6.4967594	-4.650657	-4.7889767	-0.5927594	2.655253	
0.61235553	-1.245887	-1.4882913	-0.63303745	-12.530092	2.5753698	-2.9033725	0.2359106	-0.18026729	3.3200507	1.0788567	-0.18078262	0.42631328	-0.6944529	-2.8111527	-2.273104	5.6366167	-1.7465932	-3.677363	2.325561	-8.411431	2.223127	-1.8226081	1.0125465	1.4200267	6.1109076	1.7053522	2.8976278	2.4276102	-1.3165675	-3.1856925	1.0428585	-1.2007983	-3.2176754	0.8771834	0.3297246	0.64021784	1.1662512	-0.17220595	0.5994528	-0.19447637	-5.0114822	-8.146109	0.8766438	8.177898	3.2990005	0.15097062	4.67014	0.14526595	0.0027740416	0.07419003	-6.003666	2.622726	-0.28429496	-0.67539704	5.318694	0.97361124	-1.2407339	0.016707052	11.383981	-0.7079969	1.7978994	-0.1586826	0.24417005	
-0.16257046	0.9667565	1.0346495	0.34901306	-5.7398376	-0.9208072	0.12851875	-0.09279233	0.022700585	3.4318585	-0.048077162	0.17210828	0.058180742	-0.26752457	-0.104036726	-0.46746773	0.6160898	0.65477407	-1.8332214	-0.38826317	4.344988	-0.16216241	2.7026558	-1.0415564	-10.14035	2.3420057	-0.65108573	7.7239075	0.09563547	0.7659153	-0.07914254	0.22599071	1.0033826	2.4452026	-2.9136322	-0.39543384	-0.557148	-0.4354341	-0.85812175	-0.49561548	0.5975708	2.1833649	0.24994609	-0.19659364	4.1382236	2.5836308	-0.20745766	-1.7145386	-1.1357149	-0.5727284	-0.016313182	-1.2367612	-4.680088	0.6168217	0.07948788	0.18794246	-0.05364887	-1.0989559	0.34590045	-5.86619	6.2693634	-0.40264738	0.4577074	-0.019376742	
0.111048326	0.13288715	1.0473554	-0.15168992	1.0389817	1.9272046	0.09702979	0.2688114	-1.0524966	-0.8813289	-0.38966277	-0.19751284	-3.4061053	-1.6775144	-1.4397597	-2.9683762	-0.51652	-1.6014326	-1.2183897	0.49130493	-2.347518	-0.27855372	0.94902897	0.7617991	-1.3444973	-10.919401	-1.2561731	1.3489237	-4.0230427	-18.172583	0.294261	2.4557915	-1.4138069	0.5328365	1.3891151	16.282516	0.41036892	1.6842906	-0.5498918	0.091479756	-6.2454906	-0.25058478	-0.1767744	3.3164556	-1.2029861	-0.3512427	-0.3388487	-7.083459	-0.037638593	3.0662105	5.9098406	10.902404	0.036951263	-0.09654797	-0.2801477	0.49407408	2.7137542	1.1223745	2.4044645	-0.050674092	-0.12056756	1.8941622	-0.6456836	0.32640794	
0.2483626	-0.2642964	-0.2198194	0.1301121	-0.0242455	0.64975053	-0.16463338	-0.1263643	0.08093845	-0.112415485	0.2350497	-0.05891804	-0.08678271	0.28347164	0.24212766	0.124152526	0.15923177	-0.3353007	-0.09961268	0.3772074	-0.030733583	0.01438539	0.36572593	0.102671385	0.35330603	-0.50526774	0.1431697	-0.0332144	0.21519335	-0.18775605	-0.046116415	0.024735669	-0.08170578	0.058161378	-0.17610575	-0.33842188	-1.0269952	-0.2287495	0.32423273	0.19287235	-0.30082345	0.21238515	0.26789698	0.15337653	0.09501022	0.19326718	0.122322716	-0.22063152	-0.6904697	0.14079002	0.06510729	-0.3414223	0.1356937	1.2569293	-0.16509339	-0.045898885	-0.49023268	0.034886245	-0.7939368	0.29058483	-0.56757426	-0.24107048	-0.7642474	-0.10363888	
-0.09659897	0.33670166	0.5159609	-0.37497428	-0.13960285	0.3173031	-0.1143813	-0.26866376	0.2346532	-0.25132573	0.27054194	0.16335523	0.45491067	-0.17454414	0.13174613	0.038171712	0.1893126	-1.6444683	0.4487095	-0.40568784	0.373414	-0.22994085	-0.25151315	0.5252867	-0.14726824	0.0036492203	-0.17994462	0.3280244	-0.34414935	0.0038296524	-0.103952214	-0.8632676	-0.21347824	-0.004393451	0.15269966	0.22584382	-3.535131	0.65353864	0.76324767	0.019257322	0.21919926	0.013021916	0.29645538	0.21772572	0.099008195	-0.16695316	0.3947063	0.03609494	-0.27829367	-0.36350086	0.17235029	-0.16816933	0.059161585	-1.5008867	0.2682416	-0.4828319	0.4105802	-0.104681134	0.17325015	-0.34445512	0.23673335	0.21467641	2.568072	0.022827588	
-0.05093278	-0.2491738	-0.46438837	0.73874974	-0.6484631	-0.124193005	0.18397953	-0.07583579	-0.22595157	-0.46229103	-1.0561618	-0.10135756	-0.1283655	0.22463013	0.21521628	-0.16443338	-0.17798345	-2.0150762	0.28733832	0.48502046	-0.06341588	0.17117086	0.2684877	-0.5682982	0.7227151	0.567024	-0.7487343	-0.078333326	0.4564198	-0.12564696	-0.13404003	0.9548584	-0.20160575	-0.363062	0.5814097	-0.07330846	-2.4476266	0.026096938	0.5670939	0.43366584	0.035901155	0.10971928	0.01401868	0.63646156	0.2951896	-0.020885086	0.31433553	-0.13551104	-0.21860641	0.26382002	-0.10810465	-0.11546889	-0.036194805	1.3873653	0.005421988	-0.06579146	-0.41813627	0.63870966	0.3383694	-0.3757374	-0.3755954	0.15519789	-1.0767773	0.041829016	
-0.3383934	0.14190477	0.044333708	0.15943103	0.07956152	0.29425642	-0.31944767	-0.009968232	0.014960466	0.33612347	0.8374368	-0.07459994	-0.15777312	-0.03476784	-0.14576268	0.15274638	-0.0315328	-1.3657192	0.006729442	-0.012210889	-0.66333663	-0.105741665	-0.44761437	-0.016010532	0.5556556	0.1558898	-0.2040695	-0.6966462	-0.1614186	-0.015207792	0.09282747	1.5232043	-0.3780944	-0.08081635	-0.5372057	0.057157896	0.517549	0.057954058	0.34149367	-0.39240584	0.08995166	0.2862353	-0.73145866	0.28548616	0.19062419	-0.101291664	0.049899086	0.027541215	1.1733408	0.15135266	0.28539947	0.31316596	0.14249535	-0.58846563	0.21780661	-0.002156789	-0.26917505	0.082729734	0.033419576	0.16237347	0.025445245	0.10639113	0.5367293	0.045661647	
0.3445004	-0.067925155	0.13041362	0.24449489	-0.77780807	-0.24039316	-0.025573561	0.07820299	0.12567857	0.22401357	-0.09320891	-0.049690105	0.14618337	-0.008576271	0.08818858	-0.07059281	0.10934576	-0.5588179	-0.22375925	-0.031760868	0.37283427	-0.14744014	0.08559815	-0.2729759	-0.7070756	-0.077014536	-0.025602123	-0.24630313	-0.37792656	0.029414343	-0.032797743	-0.86422956	0.24711739	0.06210441	-0.17682973	0.035382345	0.36008155	0.5114051	0.12133221	0.083914675	0.06922673	-0.25200146	0.118243456	-0.13436714	0.3078013	0.08504333	0.008773586	0.102199644	-0.53531575	0.08094884	0.07034008	0.64173603	-0.112055585	-0.16088846	-0.10038313	0.10025846	0.36853927	-0.06562105	-0.030601436	-0.058098476	0.12930173	-0.011118006	0.08194641	-0.19652553	
-0.48194095	0.37422627	-0.5286822	0.19370037	0.5099343	-1.0457627	0.43852398	-0.058824003	-0.044216536	-0.236437	-0.30657226	0.024800178	0.25226915	-0.53191435	0.7178181	-0.31594306	-0.14309244	-3.6179392	0.05570116	-0.667977	-0.73713875	-0.23118246	-0.36163685	0.06276322	-0.125555	-0.584812	-0.038475975	-0.09039811	-0.38213643	0.07776887	0.13599072	-1.5887214	-0.5167142	0.60236484	1.3020524	0.24945536	1.9597394	0.3628886	-1.5335491	-0.070553645	-0.7527581	-0.25810507	0.16269252	0.053243276	-0.09519643	0.13651952	-0.12445395	0.37224734	0.20588768	-0.24922626	-0.038523745	-0.8563272	-0.2642669	2.1825123	-0.13745575	-0.5424687	-0.110837854	0.07465179	0.5509424	-0.4391518	0.44065726	0.38098958	0.7521563	-0.054645546	
-0.6555056	-0.36369374	1.4984047	0.012835633	-0.036223456	-0.47642496	0.59651697	-0.20737404	-0.4182654	-0.5287768	0.22871603	0.4619444	-0.89520115	0.33233944	-0.46657673	0.111438975	0.20788565	-3.2504473	-0.71416473	0.82931745	0.32937986	0.34483683	-0.2744805	-1.5982028	0.3444579	1.2705716	-0.70523393	-0.57835597	0.48951015	0.1444244	0.06868567	3.0895479	0.32104513	-0.22384557	-1.0310829	-0.053098444	11.8262005	-0.8555051	-0.91436857	-0.8390189	1.4528414	-0.012780775	-1.7368183	-1.8047168	-0.057079423	0.1498293	-0.51326525	-0.21893115	0.12262419	0.42661658	0.08847516	-0.78644145	0.13499992	-9.062593	0.135203	2.8859243	1.1619952	-0.36692297	0.09394356	0.31346527	0.45357338	-0.05881954	2.526398	-0.17461352	
0.87769395	0.08356689	-1.2471772	-0.24772663	-0.13392408	1.2062275	-0.17377426	0.32727218	0.0012260803	-0.01991555	1.3115556	-0.35695288	0.22121386	-0.40091962	0.032737896	0.31967834	0.61980873	2.9004295	0.12645827	-0.28943646	-0.18943776	-0.42285293	-0.5563387	0.44374347	-0.7483606	0.050344747	-0.57634234	-0.010755516	-0.009413156	-0.14730991	-0.06918815	-2.260907	0.634753	-0.36551365	-0.6353846	-0.32384235	3.1735218	-0.31375563	-0.757117	0.072066866	-0.7775164	-0.27518085	0.18610172	-0.8109614	-0.16431189	0.58214885	-0.12623282	0.010983321	0.1731958	-0.4778072	-0.20489296	0.5340082	0.19998501	6.5573144	-0.30442712	-0.2571553	-0.19637571	-0.68807983	-0.23646332	0.08353559	0.7186873	0.10396242	-3.300992	0.13264118	
0.0128868725	0.17835781	0.4858708	-0.0805789	0.27237195	-0.41084898	0.40232697	0.13306683	0.1483018	0.23783031	-0.87633747	-0.024674246	-0.016317435	0.14314355	0.03100612	-0.19597548	-1.0651083	1.8862493	0.0593108	-0.3153903	0.46457955	0.0027304238	0.39060315	0.45730168	-1.0319695	0.15630583	-0.20350826	0.37432158	-0.45197877	0.479119	0.044287518	-0.6263837	-0.37243074	0.47871104	0.78234327	-0.8300591	-0.58625865	-0.5120097	0.32865912	-0.060142193	0.30191237	0.5905538	0.41308385	-0.15326905	-0.33114532	-0.32291713	0.014061954	-0.35048163	-0.17879838	0.025352104	0.075296074	-0.6335698	-0.30984375	2.1923661	0.2024119	-0.3315846	-0.6018379	0.13693559	-0.23698562	0.072525956	-0.010676258	0.073605545	-1.4221845	-0.010533404	
-0.2577133	-0.051446434	-0.17792153	-0.48647505	0.6254277	-0.044124298	-0.12869492	-0.20943525	-0.24804491	-0.7261527	0.5991865	0.14995185	-0.21347652	0.012762301	0.099662654	0.11382476	0.44135058	1.489323	-0.24381647	0.42055055	-0.29058886	0.04910359	0.08003085	-0.16186474	0.6991754	0.004634409	0.21876128	0.5012832	0.6096379	-0.2241785	0.07657728	0.38010797	-0.13471071	-0.20136495	0.036689818	-0.23973669	-0.5154124	-0.11922486	-0.16955268	0.055019	-0.27311385	-0.5336041	-0.090690404	0.16084155	-0.2001895	0.108306415	-0.27451122	0.18845893	0.04861948	0.34120083	-0.12930608	-0.7566232	0.28534895	-1.735707	0.09407484	0.21071851	0.27130353	-0.0026813084	0.29815412	-0.044298798	-0.81860566	0.12410693	0.44366252	0.1378677	
-0.17714763	0.07202329	-1.7857795	0.07026647	-0.34153825	0.66481143	0.28478837	-0.38145587	-0.23993388	0.6869011	0.74951386	0.23185612	0.031841677	0.1904916	-0.45015615	0.14519514	-0.56426376	0.32823017	0.35385242	0.09657378	0.5135624	0.09351472	0.2209263	-0.34371695	0.69694954	2.2661264	0.42367753	0.30479947	-0.3347426	-1.7133874	-0.11302175	-0.19396558	0.30651537	0.06668898	-0.8546007	-1.568067	-0.90914816	-0.6784701	1.625066	0.49688837	0.63371104	0.24181192	-1.018885	-0.13395675	-0.2401682	0.1837257	0.013478375	-0.19347544	0.5240554	-0.19735439	-0.35920346	1.0090518	0.040008087	1.884379	-0.036213204	-0.027444638	-0.6695863	-0.36618853	-0.35464182	0.4873341	0.09630311	0.0097281	9.499274	0.13636227	
-4.613442	-5.525569	3.6791387	-7.897927	-0.07844783	-1.8660331	-0.48837548	12.07485	-8.025017	-0.40408623	1.7374948	-9.353203	-0.60628307	-0.24077804	0.4868276	0.07543415	0.59572417	-0.1252508	0.37679204	-0.048720434	-0.086037055	0.7328177	-0.0097704055	2.4550433	0.07334748	-0.26713744	0.3475409	0.18859528	-1.2852718	0.22400801	-0.16072327	2.1927273	-0.5066281	0.16785021	0.28862602	-0.013050555	0.012552873	0.45076224	-2.056442	-0.0020154594	1.1795785	4.5740514	0.20758651	0.18745582	-0.035674773	0.21943425	7.2459	-0.11966544	-1.1320767	0.009293749	-0.3494706	0.053419303	0.13023613	-0.49649796	0.26459596	0.08959822	-0.42355222	0.09753597	0.3563119	0.08327355	0.20720324	0.16088028	0.24141562	-2.4427378	
-0.85623264	0.22036633	0.0901335	0.13329655	-0.1602491	-1.1186235	0.31274694	-0.23526238	-0.38426793	-0.15716101	1.5879282	-0.3937023	0.2497271	-0.17224605	1.2355299	0.24632722	-0.6078402	-0.74611175	1.1028479	0.24475989	0.23340648	0.082950026	-0.059238736	0.4115846	0.21696712	-0.4256831	-0.13264592	-0.021162659	-0.60884506	0.83332217	0.50757265	1.6834273	-0.017480744	-0.44844526	-0.26334196	0.27702412	0.40278	0.108968	1.5809773	-0.800684	1.2473093	1.1202512	-0.24246591	0.22207429	0.23208839	0.37534243	0.36751255	0.83829254	-1.499303	-0.6637193	0.24795383	0.4288918	-0.3623928	0.6565542	0.45628366	-0.15029177	0.014420496	0.29736876	1.1101693	0.85263497	-0.22190374	-0.0154447835	-0.3981675	0.12436857	
-2.1102648	-0.1512941	-0.66080844	1.488963	-0.68955547	-2.1647458	0.5723648	0.36042577	-0.13208176	0.8932168	-0.5972807	-0.98115736	-0.7341508	-0.074374884	-0.2146767	0.55201083	-0.90116024	0.70596445	0.88849145	-0.6259572	-0.076815724	0.50162995	0.8233187	0.667476	-0.2123398	0.24185205	0.43960306	-0.5877863	-0.58595514	-0.03068967	-0.418238	0.23875394	1.4079993	0.9060191	-1.71105	-2.3516598	0.6531917	-0.6227517	0.048795454	0.29768562	0.069156155	0.882358	-0.31516916	-0.48638824	0.56000376	-1.8776724	-0.87026733	-1.4913205	0.08864113	-1.7923582	-0.8923331	-2.4121447	-0.5547553	-1.0092313	-0.31818217	-1.864562	0.5783796	-0.8144036	-0.6916041	0.7989156	0.9330648	-1.2669196	-0.026592722	0.38183004	
1.023641	-0.56068575	-0.5260008	0.15893178	0.63284683	-0.3621595	-1.6601528	2.0404148	0.76280993	0.5299121	2.0690694	0.022875488	0.8844862	-2.2002277	-0.27232933	-0.6351487	-1.7146044	-0.2449158	0.26116344	-0.028198803	-0.3268042	-0.18035766	-0.9866834	-0.17497136	0.20346041	-0.1571554	-0.25011137	1.2521915	-0.35501868	-0.32886013	-1.1684349	-5.2252765	-0.83631366	0.29531395	0.2909355	0.15217032	0.92574275	-2.9875455	0.09705185	-0.16597265	-0.08404977	0.45074424	-4.797923	-0.06301777	-0.017616378	-1.0235411	0.34373114	0.8557297	0.47433326	-1.1074159	0.90360147	0.31981054	-0.23937999	0.4650305	0.081651114	-0.1573504	-0.4570132	1.4794903	0.17693724	-7.9920044	0.6342986	-4.357881	-0.5425112	1.5628734	
0.5289871	0.36954278	-0.35747597	-0.3637378	2.1779783	-0.99997044	0.5654422	-1.1207873	1.9666543	0.34495384	2.532072	-0.10063817	1.8109658	-1.5496026	0.42729947	0.8689029	-0.58086765	0.39795852	0.21061993	0.83547086	-0.20667572	-0.2826536	-0.989427	-0.35403636	-0.04088794	0.3514027	0.12997079	0.21398278	-0.048576027	1.5343044	0.745645	-0.00929119	0.7615322	-0.37331462	-3.8832088	-0.22548631	0.1712301	0.5044147	0.45769873	-0.86384624	-2.0295148	-3.9634655	0.21919832	0.653415	0.53988904	0.90711474	-0.67762387	-0.5976878	0.9567156	0.21030167	1.6456866	1.1043637	-0.47306213	2.0789604	1.2750088	-3.12699	0.4305289	1.8968027	-2.189358	-1.9907138	-0.3030887	-0.2588209	-0.62641877	0.4480776	
-0.10591532	-1.3921942	-0.5598	0.5897461	0.117808126	1.4197392	1.0505185	0.75203884	0.899231	-0.14593224	-2.3348527	-1.4798548	-1.9811852	-2.8305678	-1.6079487	1.2823262	-3.3361459	0.038158275	0.15420228	-0.29080203	-0.034723777	-0.1659021	-2.2711704	0.5017043	-1.7713614	-0.18546738	-0.074256815	0.5995721	0.19806585	-1.1788207	-0.475285	-2.943134	-0.79649526	1.0851028	-1.0297176	-0.38678932	-0.16295177	0.8168904	0.20695429	0.26829627	-3.5528746	-1.4463558	-0.48232046	-0.19435243	-0.55654514	0.23205023	0.13852602	-2.5528018	0.26698762	-0.64339453	-1.3880702	0.8639244	0.036114924	-4.702031	-0.24244477	0.106439605	-1.6945603	-2.288754	0.49365658	1.0087756	3.236347	0.0026519396	0.030469364	-3.9255552	
-0.1187707	0.046031665	-3.5872955	0.067257866	0.084725246	-0.122147135	-1.6607245	-0.39032045	0.03585258	-0.31382412	0.30661708	-0.205107	-0.12533486	-0.48300162	0.007491087	0.04275189	0.31324318	-0.14657985	-0.33295664	-0.03481462	-0.26135325	0.16170244	-0.23432657	-0.25791883	-0.2679306	-0.6284782	1.1443831	0.4734219	-0.547488	0.32458407	1.0240895	-0.14403239	0.9809421	0.23320505	-0.5096269	-1.3412074	0.26973233	-0.6149822	0.6132534	-0.59830374	0.37072566	0.26150742	0.5587983	0.5358719	-0.013498893	-1.0252453	0.061676476	0.23368515	0.5566399	-4.20617	0.062758684	-2.1168902	-0.09564319	0.512254	-0.7082987	0.07432182	-0.12120778	-0.21589299	-0.4473991	0.5940317	0.3326518	-2.4424443	0.8908448	0.5024353	
-7.315357	-2.9829395	-2.8766515	0.8033076	0.805807	-3.1600082	-0.7854294	-5.0251384	0.62284863	-0.17893322	1.6397837	-2.8240016	1.732554	1.824834	0.88419765	0.21711168	-0.1993221	-1.6074713	0.57427996	-0.21747383	-0.12936398	-2.730269	3.7101808	-0.044546545	0.96499383	0.26004565	-0.21619985	-0.94501495	1.9726632	3.9164586	-2.3208327	2.4943402	3.085123	0.07060917	1.0510538	0.32764688	-0.74625826	0.10646752	1.6418656	-0.0032187472	0.28714964	0.20292176	1.3234248	0.29934245	-3.671777	1.3163683	-0.07339724	0.67692745	0.77517563	-4.4462976	1.9274819	-3.7380893	-0.109675504	1.7054224	-0.70712113	2.577995	0.1750707	1.8193923	-0.648309	-3.3777704	-3.1630871	0.6748279	-1.5009943	1.270479	
0.23607391	-0.7303771	-0.6152787	-0.4462676	0.2849456	1.503853	0.53959507	0.58667517	0.091220625	-0.4803174	-0.23880465	-0.7559551	-0.68415934	0.2910519	-1.7770497	-0.5579774	-2.3288934	-0.51563984	0.15383996	-0.33534232	-0.12934689	0.95130026	-0.11101572	0.35468328	-0.5057077	-0.35033178	-0.062131245	0.119477846	-4.69351	-0.5887734	-0.28725934	-1.9356786	0.51947635	-0.51461744	-1.6989985	0.23710011	0.40553933	0.37684178	-0.078734025	0.21984507	-0.6211739	-0.96956766	0.34055695	0.10956815	1.0446876	-2.6524098	-0.29385513	-1.1157069	-0.37334314	-0.17379831	-0.0709585	0.33936468	0.17916068	-3.3981767	0.19764112	-1.3796022	-0.42137823	-0.615444	0.19910926	0.52667534	0.017747069	0.3375353	0.11256136	-2.8549693	
0.33780316	0.5221935	-0.2881739	-0.094039805	-0.21747226	0.6453358	0.6890509	-5.4747963	1.7904174	0.28946713	0.38743973	0.27764553	0.17776772	-0.9887426	-0.36143914	-0.0818856	-2.1842299	-1.5372996	-0.14361174	0.14632545	-0.31025025	1.2975063	-3.2716813	-0.41155493	-1.189959	-0.0004368825	0.6650217	-3.905515	-2.9798753	-2.1706798	-1.0219136	0.16881648	1.2762456	0.16665623	-1.1175443	-0.38372335	-1.4038659	-0.19814605	0.051817942	0.040645625	-2.2439673	-4.117094	-1.0938898	0.46611962	-1.4550763	-0.010509947	0.3574726	0.353944	0.5627727	-0.06063094	1.3002018	-0.1705503	0.24011086	-1.5402093	-0.5339612	0.3521001	0.8435799	0.8186872	0.46838057	-1.5096321	0.27197507	-0.8555858	-0.07981287	-0.3535917	
-0.8768143	1.3668538	0.82135105	0.8860757	-0.014254516	-2.47883	-0.5952647	0.68501866	0.24827467	-0.36828062	-2.3992364	1.0221982	0.07439563	2.4612358	1.9996908	1.7872083	1.4190124	0.77182513	0.678109	1.7977297	-0.25276893	-0.15560144	0.7038482	0.5684722	-1.9506501	-0.47490153	0.07746121	-1.2758166	1.5032785	1.4789449	1.6762674	-23.525644	-2.6315403	-0.6595181	0.2695368	0.11540443	0.3940658	0.19645727	1.3375105	0.3926296	2.8223426	-1.5202448	0.2197691	0.59590036	-1.1738325	-1.1462154	0.14640568	0.09678782	-0.34286916	0.43527782	-2.0676098	0.20652828	0.60457927	0.3599328	-0.053235013	-2.3222148	-0.7492252	-1.4700809	1.1299441	0.21037588	-1.5732043	0.8087676	-0.4449596	0.99291545	
0.3301694	0.26407158	-2.6189775	0.3617882	0.09806124	-0.3585876	-0.17419414	0.39452374	-0.034078974	0.09972416	-0.22456819	-0.27788365	-2.3389933	0.9247873	-0.46963626	0.15974618	-0.06981891	0.6475959	0.3039142	-0.16549727	-0.11771522	-0.5386311	0.29956126	0.65379995	-1.0392796	-0.8202899	-0.24198714	0.17056179	0.14841583	0.27524197	-1.9346386	-0.050608255	-1.1081717	0.836159	-0.18052348	-0.60498005	-0.40277612	-0.26555243	0.5057877	0.45433402	0.042688437	-0.05557085	-0.1863615	-1.1009576	-0.43431994	-0.06267495	-0.21572253	-0.31948417	0.92238504	-6.084891	-0.15827069	1.4242358	-2.7452536	-0.2733976	0.08274195	-0.59993035	0.63237953	-1.6556357	0.9915893	-0.086989164	-0.22353382	1.244248	-1.019396	-0.44390142	
-7.787994	9.54538	-4.7731047	-1.3264372	-0.96207535	0.960948	-0.032218136	1.8206855	-0.40963426	-1.7293638	0.8202518	0.20428523	0.48496878	0.29850668	-0.26988813	-1.550506	-0.41508102	4.0560308	0.13744009	-3.1877105	-0.25895256	1.7305313	-2.3408356	-0.27981204	1.7298362	0.4725708	1.2170829	3.0421793	-0.83971465	0.17096524	-1.9478415	-0.58442754	1.8317847	-1.4522772	-2.6144078	-0.2882354	3.3218293	-0.65918934	-0.12083927	-1.2502586	1.5654535	-0.56973875	-0.7650001	-0.1173695	1.966461	0.008169048	-2.1057575	-0.11413344	-1.464815	-3.1674201	-0.31916493	-2.694323	-0.42436045	-0.6826934	-1.3176612	-0.5212571	-2.4664004	-0.079728074	-0.4444156	0.8391426	1.5255978	-0.24251089	-0.65400517	-0.82494754	
-15.951193	-0.4707725	0.7329946	-0.6747228	0.08244447	-1.3515683	0.14912312	0.1829396	0.30142364	-1.7320504	0.36705446	-3.9134667	0.4189701	-0.44768947	-0.49505684	-0.41201416	2.0517275	0.55227065	0.5438327	0.47815657	-0.13187414	-2.5231404	-2.2152252	-0.7039313	0.75020653	0.0415787	0.39134428	-3.9762037	1.757392	2.9630642	0.64322335	-6.3755007	-1.1136695	-0.065010905	1.4923091	0.08409218	1.4755816	0.12627837	-0.4574836	0.34915504	1.3142616	-4.41724	1.4647813	1.249339	2.4037383	-0.8102074	0.31830484	0.049141746	0.09310979	0.9243762	0.509165	0.48555464	-0.2263137	0.8162162	0.051788088	1.6940444	-4.7146077	1.3871272	-0.9853805	0.5228225	0.88887256	0.9102761	-0.16313013	0.5358318	
-2.547579	-4.487121	1.1310576	0.9235998	0.11994644	-1.7154261	-0.27461532	-3.8392758	-0.061090946	-2.4299216	-0.36257684	0.58556217	-0.6876281	-0.14197859	0.94267535	-0.1683947	-2.3181608	-1.6523863	0.07732135	0.29367808	-0.22273776	-2.9629188	1.3736013	0.44949085	-1.187804	0.3480864	-0.66734165	-1.4836683	2.3482163	-2.0771224	1.2576902	2.0401638	-1.675398	0.44802862	0.7631835	0.38039932	-2.08436	0.07951825	0.3935876	0.2859969	-0.7803586	1.1199956	0.5105998	-0.37130994	-3.0999968	1.4969105	-1.5762478	0.6203914	0.28833327	0.60382855	-0.17316827	0.15890594	0.058009125	2.000666	0.372567	0.38759264	-1.2209238	0.41534573	0.47851226	-0.31267446	-1.6436388	0.07947195	0.6930364	1.6291664	
-0.9189447	0.6571529	1.0124184	1.392555	-6.38837	-0.23128621	0.327111	-1.4102321	-1.6514527	-2.856191	-1.5800525	-4.954232	1.3826001	-8.799654	-3.436981	-1.1204572	-0.8104615	-0.44678655	-1.6760745	-0.53821737	-0.24373826	-0.5123433	-8.707584	0.13045853	-4.571959	2.892456	-1.5702417	0.5073062	-0.31731632	1.0539049	3.6194117	-0.25738302	1.517347	2.0402157	-3.2493396	0.94501936	0.7470365	-0.48420718	2.8750916	-4.1633773	-5.3575478	-1.6426442	0.462	0.4969997	-1.1215873	0.6289952	-1.0794713	-2.5597324	-1.0293	1.5614953	-0.81496876	-0.21278471	0.65145886	-4.8602486	1.0407403	-5.1894455	-1.6911185	-0.050881974	0.4175683	-3.063119	-5.2577386	0.6170055	2.0029182	-4.5736666	
-0.2528942	-0.1531684	-0.31962988	-0.5476659	-0.3402842	0.64033043	0.1851721	-0.8403314	0.008965687	-1.9941864	1.0632014	-0.57636994	-0.70431554	-0.5950466	-0.77773607	0.006210599	0.50687486	-0.54555154	-0.0558442	-0.18013333	-0.29876336	0.93384326	-2.038523	0.6017032	-0.33875275	-0.43265387	0.009942934	-0.62925845	-2.1100862	-0.36524752	-0.6490886	-2.6750112	1.1595591	-0.023530254	-0.31687835	0.0022858358	1.0833137	0.2810153	-0.31234497	0.1570927	-0.5712616	-0.71309716	0.078497164	-0.22165744	1.0778215	-2.215236	-0.39825454	-1.492081	-0.624723	-0.27592713	-0.2705328	0.22185996	0.40814334	-2.6303065	-0.091056846	-0.57476413	0.006113346	-0.0031394842	0.35350305	0.35117024	-0.38097748	0.11932827	0.29209107	-2.1064532	
2.97778	1.6535397	0.82004577	-3.9325042	-3.8632004	-0.2348447	0.24446149	1.3028748	1.5781671	0.69698566	3.7224905	1.1554445	-0.974324	3.497264	-5.3134093	0.9746845	-0.3976316	1.1326196	2.6396952	1.8715014	-0.30256873	2.0613751	3.8901243	-2.8651042	1.3851027	-0.34085822	0.030115396	1.2840737	1.8039837	1.582149	1.653451	1.9091607	0.7780307	-4.230027	1.2029037	-1.2350454	0.8640032	1.7894748	0.20267935	-4.6296396	0.43540692	2.3448434	1.997023	-2.0364745	2.2666075	0.43846402	2.856885	0.50155497	-2.2500262	-0.6473259	-0.18857229	0.6708948	-1.0312229	2.1000924	-0.34762114	1.5245799	2.4282165	-0.20978771	-2.1072857	1.8139493	-0.73040676	-0.36903384	-1.2827342	-1.8484972	
-0.26136923	-0.3222141	0.58914614	0.58061165	0.47985253	-2.0307353	-0.9092915	0.64618987	0.5546324	0.058132228	-1.167066	-0.40917042	1.340143	-3.1539621	0.14546654	-0.03181197	-0.19701071	-0.81065077	0.08500877	0.3073564	-0.039271526	-4.1137624	-1.4132836	0.14551088	-1.2124468	0.3807498	-0.7658659	0.1565787	2.2757301	-0.89022225	-0.017532436	0.42354387	-1.8018227	0.5526127	-0.9620413	0.5239897	-2.6979144	-1.4410741	0.25881878	0.49826548	-2.7084324	0.4151682	-1.4870781	0.6543454	-2.7958646	1.9041679	-0.77724004	0.23729612	0.8857492	0.7085522	1.370353	1.0185659	0.035705112	1.6448619	0.56128156	-1.0922943	-0.63160586	0.8083301	-0.22523361	-0.99615914	-1.0805601	-1.20355	-0.033946995	0.60960406	
-0.28153536	-0.43593588	-1.5843446	0.44705456	0.16336206	0.5381252	-0.01940368	-0.11277992	0.08622059	-2.9519	-0.32101494	-0.24818382	-0.9701617	0.0004933918	-0.19471358	0.70664	-1.0161057	0.15934871	0.24276374	-0.008257719	-0.13189276	-0.7224002	-0.10531333	0.76029795	-2.4926429	-0.16414297	0.3109089	0.030873895	0.23928423	-0.37251946	-1.6645465	-0.7043031	-0.7606367	0.26897168	-0.3626862	-0.54978067	-0.5323898	0.3036112	0.22062954	0.20217578	-0.49746847	0.080542624	0.20139022	0.01595345	-0.8160206	0.08203699	-0.2738191	-0.40432572	0.7633773	-0.5136906	-0.8191244	-0.71603745	-0.7991088	-1.3771269	-0.13533384	-0.13541014	-0.19207513	-0.24933043	0.30469596	-0.4596006	0.18490626	-0.12636454	-0.23776929	-1.2736737	
-0.0031324744	0.26568532	-0.09574031	0.7613662	-0.32186615	0.5224429	-1.0789022	-0.0026192674	-0.9852629	0.35149458	0.08437674	-0.41512802	-2.7174754	1.2532817	0.395723	0.1714839	0.33366525	0.8143113	0.065901704	0.29677582	-0.07908898	0.012843868	0.4034159	0.6789058	0.36708042	0.6379702	-0.4348165	0.119449794	-0.32767263	0.49635446	-10.685781	0.7732516	0.72271466	-0.048855532	-0.2419444	-0.13108347	0.39927074	-0.19628397	0.73092514	0.20275344	-0.7966625	0.6433875	1.1701732	-2.6113508	-0.44990757	-0.54028314	0.39185452	0.59289646	-1.4036613	-1.8376944	-2.8230753	1.4142544	-2.0684083	-1.0795131	1.0322847	0.9131902	0.046707027	-0.19663991	0.40082228	0.6802839	0.46779776	-0.24282445	-0.7936419	-0.040331002	
0.54828095	1.4823415	0.11149343	-3.3176777	1.3862975	-1.1970605	0.63068277	0.5631505	2.8166256	-0.695863	2.2659092	0.77963406	1.0984179	0.6556084	-0.1541439	0.94285315	-0.45935306	0.8700481	1.3514016	1.9714013	-0.11082822	0.61161995	0.94463545	-2.5416028	0.29399025	-1.0510083	0.15069146	1.080549	3.7813406	1.8177824	-0.034028474	1.8942177	1.4808077	-2.2618556	0.3273591	-0.55935663	0.63023555	1.1355516	1.7410642	-1.5108896	-0.8371879	1.6832993	2.1310186	-1.004724	1.3262469	1.9321964	0.7268609	-0.6125722	-3.862082	-0.6335152	2.26141	1.4933362	1.4344039	-0.9073142	-0.82802933	0.8082575	0.998308	1.3290665	-1.8621447	0.54443526	-1.8642082	0.83696413	0.13233735	0.48500392	
1.3837394	1.4657952	0.32917255	-3.4623299	-0.4692434	-0.3524207	0.38793057	1.2405299	0.54038876	1.2515177	1.6426865	1.6471232	0.90448904	2.0902863	0.23260148	-1.3119565	1.3806822	1.7229108	0.930003	1.9965192	-0.10290384	2.0295455	2.0317981	-3.828721	0.89556783	-0.5625405	0.42675668	0.6035269	2.465392	1.5986011	-0.07253704	2.1509438	0.75976205	-6.844141	-1.9425691	-0.977018	1.0053302	1.4985706	1.7366899	-1.4676272	1.204964	2.2500107	2.1819296	-3.4614925	2.1665635	1.2249662	0.83127725	-1.295766	-6.3579216	-0.7442592	1.460009	-0.62822896	-0.29944146	0.8948496	-0.2818875	1.3452731	1.3540257	0.3617816	-0.85751736	0.60433877	0.43050417	2.0316825	-4.096485	1.8828244	
-1.5024083	-3.9352021	0.55239904	1.4415551	0.7357373	-0.5085134	-0.46339816	-0.5260772	-0.64432037	0.9126774	-6.380278	-0.22359459	-1.6911169	-0.5610725	0.65709996	1.0755452	-0.9353875	-0.57457936	0.6705345	0.1616874	-0.2055194	-2.2330241	-0.24807678	0.12045737	-0.17530616	0.079125956	-0.32564205	0.22107664	2.357214	-8.320048	0.78207207	1.7909821	-3.9238954	0.570279	-0.20775135	0.16180949	-2.3894181	-0.17096613	0.60975283	0.68391514	0.13528286	1.5385833	0.13937305	0.39456242	-1.9663407	1.4327574	0.74544895	-0.07335431	1.1389452	0.28092983	-2.0501435	1.2959414	-0.32266384	0.72765124	0.7446202	-0.96088946	-1.0429403	-1.0186372	0.18642187	0.05228007	1.5242573	0.59946156	-0.16558729	0.44645858	
0.8173572	0.4922532	-0.13956095	0.35232353	1.1310704	-0.8316995	-1.956429	0.4516404	0.16255191	-1.125657	0.6124724	-2.5866764	1.283706	-0.75645745	-0.36136118	-0.37130797	-0.35972142	-0.0006617864	0.3928401	-0.39372692	0.003102651	-0.4765614	-1.0392933	0.10473688	-2.0196142	-0.027578875	-0.40907764	0.9785888	-0.47767517	0.585812	-5.228954	0.6594863	0.29963776	0.4778873	-1.5298704	0.5854481	0.35836986	-3.1400092	0.6857763	0.33074605	-0.91465384	-0.2524264	-6.5112443	0.69452786	-0.3033741	-0.21896282	0.38183537	-0.87556225	-0.14841531	-0.60142934	0.6597864	0.12185138	0.0526051	1.2965814	1.2298323	-0.694656	-0.19255924	0.78765506	0.25685787	-1.0106231	-0.51768404	-3.3130887	-1.443597	1.0054077	
-0.025856413	-0.4072433	1.1780497	-0.14245878	-1.8489659	1.8814012	0.8326192	-0.3522107	-1.0258415	0.39378735	-0.23706694	-1.6597967	-0.6836639	0.7727389	1.2584064	2.8790934	0.7842688	-0.6318378	-0.32923573	0.0046562576	-0.052520975	1.3750023	-0.13435045	-0.389746	0.31393364	0.38685825	0.46449515	0.21800481	-3.3215795	-0.77465504	2.4350934	-2.0096896	-0.630176	-1.1340761	-0.11714971	-0.0382923	1.242319	1.2919432	1.1519225	-0.12108021	0.14097655	0.36014855	2.4117165	-0.21352386	1.0301331	0.24070427	-3.009673	-1.2568924	-0.033971906	0.36918458	-1.336918	0.34222725	0.9981139	-1.298993	-0.22281075	-0.95663327	0.26298344	-1.0876747	0.56013775	0.15683593	1.6191645	2.1871173	0.1638243	-0.70205873	
0.03462685	0.51716584	-1.763999	-0.5178859	-0.35335264	0.08890189	-0.15758708	0.12860675	-0.055796996	-0.25128004	-0.42827135	-1.1902095	0.04412031	-0.116885625	-0.6292785	-0.13716716	-0.8020314	1.1240034	1.1638452	0.33719942	-0.08812763	-0.37962747	0.10614647	-1.300786	-0.08657295	-0.64019537	0.13828713	0.009227572	0.90418214	0.7347561	-2.7114294	1.0745312	-1.938714	0.6256775	1.6459091	0.22346951	-1.2464129	-1.1626158	0.6300683	1.0772191	0.32719922	0.3144288	0.14231753	0.6885051	-0.72987884	0.908973	-0.13209318	-1.1569451	1.4537987	-0.08816814	-0.101333916	0.5505323	-0.114516556	0.48634365	1.0385165	-0.4565262	0.33058783	0.42832482	0.030157275	-0.08410586	-0.15402994	-3.4027843	-1.5053961	0.3203083	
-0.38024634	-0.6104948	0.15358001	0.3430772	0.51294273	-0.21714504	0.07028472	-0.69167453	0.19774465	-0.05405321	-0.16976936	-0.53922385	-0.08033709	-0.3151644	-0.24552637	-0.099158004	-1.8377866	-0.859448	0.5376237	-0.23078924	-0.10347738	-0.062326383	-0.98688537	0.4594207	-1.4912641	-0.039682277	-0.121308535	-0.19333766	-0.5002265	-0.6145103	0.9730414	-0.71864873	0.07208402	-0.23638122	-0.45527706	0.73719364	-0.22789688	0.16209483	-1.199355	-0.3054507	0.00075269095	-0.8661693	-0.27497572	0.25132254	-0.93283796	-0.8344937	-0.46653208	-0.7489194	0.42159125	-0.251724	0.3839087	-1.8922099	-1.0075237	-0.27283445	-0.09491907	-0.8545694	-0.8462845	-0.5623646	0.331262	0.0774079	0.2983809	-0.48891115	-0.45231697	-0.018620282	
-0.1729803	-0.19092934	0.031291995	-0.09321613	-0.27567104	0.07814279	-0.6951829	-0.57023245	-1.1238929	-2.168138	-0.67518437	0.96993965	0.65391755	-0.43180665	-0.15120201	-1.2955335	-1.8616302	-0.8363245	-0.18861412	-0.47007534	-0.023846399	0.8955715	-2.0601666	-0.59973	-1.825787	-0.21358976	-0.1851371	0.69848216	-4.0205493	-0.11335404	-0.2860835	-1.7704161	1.2777439	-0.42195505	-0.8231427	0.5814204	0.40320587	-0.43527666	-0.32132947	-0.62045276	-0.61915976	-0.12055709	-0.6799242	-0.18332316	0.56241083	-2.0636902	-0.49432752	0.73848486	-0.32554528	-0.04447822	-0.32818407	-0.10142938	-0.29975843	1.1285461	-0.041850314	-0.6633454	-0.4862694	-0.5737139	0.084945545	-0.31986183	-1.9182879	-0.5292012	-0.07002434	0.66740847	
0.9615271	1.5758817	-0.20684889	-0.47435942	-0.027919425	-0.0365879	-1.9062978	0.5062632	-0.76899487	0.84178305	1.1523271	0.8621025	-0.69041765	1.2367492	0.26822934	1.0414858	-0.32037383	1.7000113	1.0857676	0.3659369	0.1293679	1.6416178	1.198061	-1.1047399	1.3072654	-0.3740931	-0.002458116	0.8290037	0.24452081	1.5117255	-5.427165	1.3323959	1.0503277	-4.406162	0.6505764	-0.16610229	0.9962258	-1.7582798	1.2662033	0.5846608	0.85330194	1.0679084	-1.8256999	-2.8069396	1.3347088	-0.7300937	0.9971559	0.8813073	-1.1626937	-2.056219	-0.32717508	-0.02180541	-1.9104687	0.26653984	1.0622437	0.90445226	1.0663646	-0.16220048	0.9642347	1.6085886	-0.117973976	-0.18614748	-5.401824	0.37927946	
0.06636311	-0.17379095	-0.14047156	-0.54527485	-0.23133253	0.53172946	0.05534821	-0.045336142	-0.32466856	-1.8392158	-0.30180177	-0.9614484	-0.05774333	1.0640929	0.2820486	0.44659904	-3.0585587	-0.3807652	0.25505993	-0.9241385	-0.25324467	1.2494233	0.76350623	-0.90172696	0.67172086	-0.13748622	0.027559275	0.58795637	-4.1368065	-0.25949875	-0.58265316	-2.129018	0.73801917	-0.7916627	0.4798012	0.25127438	0.64140826	0.17538828	-0.025781859	-0.05571226	1.2304604	0.8513298	0.42006555	-0.2859031	0.82150424	-2.0607233	-0.22673757	0.37580305	-0.5246912	-0.89423496	0.7795612	-0.7997442	-0.61470693	-0.89074785	-0.12929115	0.66126984	0.67621815	0.32992497	-0.09490277	0.43016562	-1.4946989	0.58178866	-0.19081537	-0.35338792	
0.34223297	0.7210205	-0.86978084	-1.5996417	1.089506	0.21373439	-0.31574884	0.31021577	-0.8631438	-0.07329667	0.42772248	1.0692023	0.69171613	0.01972569	-0.59330344	-0.44567993	0.7305446	0.9329726	1.4140524	-0.41055822	-0.01033106	0.12414904	-0.29594135	0.018365065	0.7847781	-0.34954605	0.14301202	-0.089030854	0.0925498	0.4023824	0.8207782	0.24613723	0.65174466	0.6855039	-1.8257126	-0.18986635	0.33144656	-0.041024968	0.30128264	-0.064120956	0.67847556	-2.0041416	-0.6438346	1.0381817	-0.17955026	-0.12142366	0.7291757	-0.28120023	0.911726	-0.070516564	0.32821718	-2.103888	-0.10981906	0.06671399	-4.6982193	0.72232383	0.67842054	1.3561763	-0.03808989	0.026396692	0.7033797	-0.45110542	-0.23864177	0.7464748	
-4.9070253	-3.7242568	0.121429734	0.3636902	0.60484415	-0.47714788	0.4074308	-4.1606803	0.293369	-1.8017907	0.20920022	-5.645211	0.3096544	-0.88947123	0.6232998	-0.35255253	-0.44714037	-1.4915857	-0.057602014	-0.0520369	-0.18212381	-1.3273295	0.22254859	0.65964335	1.9732306	0.11137874	-0.15232418	-2.3220143	1.0009055	-7.107201	0.27956402	0.6901195	-0.5690459	0.5651396	-1.395278	0.13309951	-2.112079	-0.23386304	0.26330087	0.28121352	-0.23642927	0.28429198	-1.5336349	0.41167367	-3.0283406	1.4056482	0.4637896	-0.056645446	0.53352225	0.43091744	0.46401304	0.21293111	0.29957893	0.42041293	0.08614549	-2.3638208	-0.6968664	0.6586061	0.40297547	-1.0070666	0.051706042	-1.5036589	0.28464133	0.298679	
-1.3857964	-0.31073043	-1.9205348	-0.23386537	-0.33640617	0.39630416	0.95577854	-2.1399827	1.514988	0.28709775	1.0312319	1.4047596	1.0191336	1.5105475	1.0151455	1.0280753	1.5939077	0.2567172	0.07875993	-1.1220334	-0.15658797	-0.58700776	-3.6163616	-0.7699331	0.4245082	-0.5058228	0.27274513	-1.8729811	-0.38050315	-1.5444247	-2.6611388	-2.129416	-0.75053155	-0.44579256	0.77880955	-0.7552238	0.4229091	0.38899517	0.53557557	-0.80038375	0.99592096	0.20053558	1.4716463	-0.5522787	0.40997255	-1.4992982	-1.3868225	-1.105289	-1.1302081	-2.6165886	1.1046336	-3.1391463	-1.1579156	1.2164129	0.006612047	-1.330228	-0.99921465	0.94963396	0.45612448	-0.70827156	2.2783287	0.77634764	-2.0478675	0.5181116	
0.1461167	0.025801774	-0.4410196	0.61965215	0.3388355	0.28470802	0.0913866	0.18720332	-2.89373	0.5260286	-0.3734681	-1.8869131	-1.1082133	-0.38880023	-0.83279496	0.19443582	0.54077864	0.40135735	-0.3284698	-0.7318919	-0.010747161	-0.2997186	-0.5949375	0.52092993	-0.72320837	-0.60690516	0.9993368	0.2740731	-0.30494392	-0.0047238166	0.5784123	-0.37582198	-0.96460617	0.83576286	0.21418087	-2.099814	-0.42496884	-0.5120173	0.56044513	-1.0837272	-0.41923377	0.056755234	-0.36965683	0.33746478	0.0037248489	0.3894979	-0.86625516	0.7092687	-0.88079864	0.19225164	0.32652777	-1.4043597	-0.0049199937	0.59011334	-0.09113532	-0.4897588	0.5768244	-2.1551437	0.45922834	0.113757335	-1.4815803	0.26364365	1.4410498	-0.5721759	
-0.71701795	-4.5443864	0.4974941	0.46666664	0.48776817	-1.6018748	0.28165606	-0.56290317	0.4447222	-1.7449027	-1.2721033	-0.29507926	0.3697901	-0.35256445	-0.014374014	-0.04219525	-3.2455382	-1.77767	0.21429831	-0.09263388	-0.035295255	-2.519635	0.1297465	0.15473805	-4.0483623	0.09030159	-0.0057327524	-0.3234892	1.5429022	-4.110359	0.093804546	1.6347301	-2.5455055	0.25186053	-0.1932576	0.10566635	-1.7969424	0.25419453	0.46873367	0.014436786	-1.5193834	0.6944166	0.0059491983	0.74781734	-2.3946013	0.8176846	-0.5305634	-0.7541832	0.8663087	0.4598116	0.43765795	-0.18416362	0.13568386	0.51255316	0.33515143	-0.68385196	-0.8996449	0.5580261	0.37894875	-0.10030203	0.32287934	0.2866157	0.09107926	-0.24211964	
0.0645324	1.0144839	-0.22672153	-1.246509	-1.4524987	-0.23302941	0.07716992	0.17109029	0.2747966	1.006653	1.2753202	1.8088226	0.46440795	0.9673196	0.07727883	-0.058947105	0.78450346	0.9322354	2.0121272	0.5527723	-0.10711054	-0.14192946	0.98239696	-1.006184	1.0404104	-0.7732165	0.008283195	0.05918098	2.6575227	1.0902267	-7.1086855	1.1409596	-0.07861065	-4.868817	0.8696539	0.13616492	-0.2879274	0.8010741	0.88861614	1.667255	-0.013216294	1.1942385	0.67192745	-3.4863205	0.3464104	1.813243	0.64585733	-1.4751402	-3.0268085	-0.8148092	0.48026064	-2.7009103	-2.701212	1.7266642	-0.37560305	0.78958046	0.7466948	-0.5807041	-1.1649874	0.22547747	0.4994234	-1.1127687	-5.523056	2.3888752	
0.10097603	0.2734316	-0.7853998	-0.54353845	-0.11060831	-0.101229854	0.672668	0.40812665	1.120959	-0.046823867	0.33721706	-1.1280441	-0.23556587	-0.09870717	-0.45666426	0.669535	-0.22438523	0.18228433	0.3240934	0.570828	-0.250349	0.098815165	-0.5706081	-1.4350555	-0.516514	-0.572486	1.2045841	0.17267461	-0.47670937	0.4372985	-1.8412502	-0.068223976	0.128018	-0.03049883	0.37182096	-0.38561964	0.31152377	0.7505946	0.8078376	0.80824095	-0.51972127	-1.1282288	0.28186136	0.62102765	-0.02321446	-0.14348766	0.40655768	-0.17470992	0.48911336	-0.6199564	0.1508559	-0.6173413	0.3488206	0.3705341	-6.661726	-0.06745496	0.012258698	0.8378733	-0.9696515	0.2270041	-0.8482109	0.34263822	-0.21252424	-0.74329484	
0.1694925	0.45097387	-0.79363716	0.72390735	-0.5669878	-0.5785075	0.26278737	0.4906675	-0.9772489	-0.5571196	-0.3951289	-0.4741737	-0.12903795	0.33738047	0.45553043	0.6000922	-0.51339006	0.68018824	0.690157	0.1753639	-0.17248218	0.0977285	-1.7224427	0.14302905	0.08168882	-0.20060799	-0.616243	0.6942711	0.6253175	0.32944036	-0.07689192	-0.081561066	-0.0749672	-2.205287	1.3850852	-0.125447	0.36061847	0.14329442	1.2117738	0.6849662	-1.1076825	0.9025622	0.23851988	-1.9479023	-0.54439867	0.6034211	-0.79075176	-0.07513864	-1.7025434	0.6152348	-0.5589049	0.7482048	-1.7011517	0.47074467	-0.30474406	-0.49938497	-0.7687524	-0.5700232	0.8978922	-0.22873788	-0.23868123	0.22671418	-2.7010162	0.523461	
-0.10468846	-0.8750974	-0.25473893	1.0133963	0.88824767	0.06669626	0.5109145	0.49237975	-0.6289499	-2.4242544	-0.9555039	-0.5434105	0.16001105	-1.6270354	1.6126698	-0.012886413	-1.6600597	-1.0997204	-0.33632734	0.31286958	-0.16157284	0.6573693	-1.0891035	-0.45998725	-0.7933174	-0.15133353	-0.271458	0.9461341	-0.25794077	-0.6581538	-0.14576232	-3.1795404	-0.2525918	-0.23333134	-0.21905315	-0.039759237	0.060286816	1.4639448	1.4916282	0.9200272	-0.5931691	-0.58764416	-0.13017924	0.4175888	1.5838109	0.64456457	0.03547042	-0.19875544	0.7327323	0.13351265	-1.0217468	-0.37872598	0.24990734	0.46111846	0.38408238	-1.270928	-1.2041328	1.2678967	-0.68444896	-1.1911705	0.97948295	1.1629184	-0.15338905	0.47812358	
0.60746294	-0.58831066	0.5623063	-0.24046654	-0.13444951	-0.08019374	-0.0121066505	-1.2662535	-1.9519112	-0.25275558	-1.0687168	0.7329147	0.1714577	-1.0245461	-0.043383367	-1.491706	0.576154	-0.9374301	0.12952216	-0.24385367	-0.14853258	0.74138266	1.1690785	-0.2318343	1.6719899	-0.090053655	-0.5588702	0.30199602	-1.4938829	-0.76061517	0.75753254	-2.4802568	1.0064359	-1.1797737	1.788759	0.39771396	0.7791097	0.2118972	-0.119405046	-0.39504066	-0.10917948	0.49865025	-0.4029426	-0.8286524	0.83951676	-0.9919376	-0.5438423	1.5982978	-1.5394858	0.5822	0.18605877	-0.49788663	-0.06162024	0.9354606	-0.056136377	0.92835563	-1.4841659	0.53055346	-0.24398382	-0.3339312	-1.8844012	-0.73519117	0.22229315	1.8255748	
