101
64
2
5
2
2
0.07982078	0.22454642	0.14503667	-0.013422751	0.035744745	-0.15700944	0.27826625	-0.09816409	-0.047077615	-0.2926678	-0.24801128	-0.19019361	-0.2890175	-0.27990645	0.13274555	-0.334871	-0.050590996	0.12356612	-0.047880016	0.10012605	0.3149343	0.21167852	-0.12480197	0.33352184	0.094622724	-0.3776444	0.1898405	-0.040378332	-0.044348903	-0.12492577	0.14502937	0.25631556	0.009522336	-0.030059507	-0.32926756	0.29064053	-0.07659159	-0.21611689	-0.21099755	0.0650498	-0.26248175	0.08062	-0.009661855	-0.28002003	-0.0066614156	0.041308872	0.38152733	0.04810207	-0.030131262	0.32842678	0.20794408	0.0077824644	-0.10769309	-0.38580576	-0.04215521	-0.009843116	-0.32719555	-0.1966588	0.1848647	-0.25466633	-0.0025986976	0.11165133	-0.22132012	-0.024682991	
0.059550393	-0.13477264	-0.14875755	0.059398245	0.10140649	0.042842228	0.14623678	0.19946425	-0.007164001	0.08287231	0.10491586	-0.21807979	-0.18684602	0.04351964	0.012297131	0.14705166	0.086575694	-0.023770142	-0.21952927	-0.15788977	-0.1697005	-0.17215295	0.027600568	0.022031654	0.17319794	-0.08062133	-0.11230029	0.075415455	-0.048672788	-0.011537273	-0.13898513	-0.19417216	0.08877766	0.027014397	-0.11150046	-0.049083486	-0.17105456	0.0059724348	-0.060725916	0.04394861	-0.1623541	-0.03585681	-0.10259275	-0.073070854	-0.048833486	-0.15616082	0.15921302	0.1215413	0.13361531	0.024784354	0.13321865	-0.0027693552	-0.1607543	0.060522426	-0.1732244	0.05804933	0.055232536	-0.2002854	0.074902594	0.043885846	-0.0021980086	-0.0070089125	0.030457737	0.002504616	
0.04455773	-0.23447378	-0.18519785	-0.14768682	-0.10188094	-0.014755167	0.0012589546	-0.0074041933	-0.107910216	-0.029103972	0.05248822	0.1535816	-0.10484676	0.028358892	-0.009130488	-0.09171368	-0.20460156	0.038933046	-0.04303886	-0.18927802	0.20314519	0.07708093	0.21125804	-0.1995599	-0.040734176	-0.10393398	-0.17619698	0.11645641	-0.14316702	-0.07105026	0.08107835	-0.14148182	0.18260828	0.14324631	-0.0341627	0.07914063	-0.120789975	-0.10005447	-0.05995953	0.062171675	0.11685201	-0.065435044	-0.04166	-0.08643619	-0.18394336	0.019148104	-0.069435865	-0.03119184	0.15096217	-0.12247469	-0.11033319	0.17103921	-0.16071828	-0.21063781	0.16767982	0.0086216675	0.10864844	0.10151628	-0.15046509	-0.044023637	0.072659165	0.077793576	-0.03846756	-0.03311879	
1.1854926	0.71303123	-0.98675704	4.2648067	0.47841313	-0.23125769	0.09469668	-0.14977965	-1.393473	-0.083095245	0.23492047	-1.0495849	0.88067025	-2.3670654	0.9411023	-0.4623291	-0.32591337	0.4458812	-0.81912655	1.0256516	0.061119616	-0.9458752	1.2046669	0.34031653	2.8776388	1.7530891	0.20881456	-0.3297841	-0.3883406	0.25918522	0.17124078	1.5549526	-2.323929	-0.90059316	-0.21582985	-0.4126435	0.7646959	-0.040621236	1.4022346	-1.0639268	-0.72125804	-2.120457	0.035528112	-0.1796292	0.78004473	-0.94601357	-2.027361	2.767389	-0.8273973	0.30288193	-1.2266821	1.499977	-0.31545803	-0.374336	-1.8731011	0.3108665	-1.311678	-1.237639	-0.0821472	0.77839035	0.2434251	1.0690318	-0.18488461	-0.29537395	
0.06966904	-0.07875133	0.16306946	-0.15080644	-0.01751309	0.10788335	0.16230364	-0.056119107	0.028283348	-0.0638825	-0.16522963	0.19052166	0.040653113	0.15569985	0.004590747	-0.10737021	-0.17116575	-0.061434727	-0.21438286	0.09669279	-0.21957593	-0.04631176	-0.13565698	0.114796855	0.0022275175	0.023002176	-0.2186837	0.18124947	-0.15212673	-0.19301112	-0.1614303	-0.0083809495	-0.14932242	-0.044959933	-0.036755014	0.10482507	0.090013914	-0.02459178	-0.11726001	-0.05747312	-0.1422517	-0.16770703	0.062581874	-0.20182776	0.023836631	0.11108379	-0.043743838	-0.17534009	-0.048700985	-0.06604836	-0.029909017	-0.12098491	-0.15326312	0.08106421	0.12939286	0.10308469	-0.16326474	-0.096778624	0.0628742	-0.14250152	0.1497604	0.05299045	-0.20712446	0.033399537	
0.17324713	0.067379415	0.074604444	0.0052503496	0.13481502	-0.18506554	0.02500336	-0.14210418	0.19500062	0.018075734	0.04734756	0.06266778	-0.15440783	0.15216342	0.16475627	0.066931486	0.12329367	0.11601353	-0.06466107	0.10580923	0.055244997	-0.03958565	-0.03304861	0.16850364	-0.12316202	-0.00652954	-0.114848286	0.13315204	-0.13716012	0.17039764	0.16516766	-0.11013881	-0.08994876	-0.18542983	0.115871005	-0.11777696	-0.016138421	0.15862465	0.028443992	0.18899441	0.087664425	0.03880058	-0.055341512	-0.18795031	0.07140148	-0.06068274	0.08063066	-0.07521952	0.13996659	-0.10643686	0.0071875006	-0.1326309	-0.05698943	-0.013667539	-0.12019458	0.13497512	0.07177785	0.07284799	0.17090547	0.087600626	-0.06615014	-0.044280723	-0.05093904	-0.1877779	
0.10218665	0.08109133	-0.20354126	0.14063409	0.16278973	0.06269091	0.1285558	-0.07228874	0.082197435	-0.13365097	0.10925022	0.18772423	0.18713057	-0.18061025	0.054701	-0.039461844	-0.1035629	0.17337705	0.1271906	-0.045840435	-0.14636439	-0.055928603	-0.025100887	0.08316543	-0.0045489715	-0.13087296	-0.12730965	-0.16810624	-0.17580248	-0.018283913	-0.009767166	0.061406165	-0.07261177	-0.05897577	-0.19170578	-0.15022115	-0.20717557	-0.089607276	0.14032403	0.15524372	0.09913192	-0.11519177	0.031726316	0.11758617	0.052362893	0.077030785	-0.0047070384	-0.18315156	-0.070068404	-0.09294277	0.118059516	0.09730169	-0.12063053	0.15401918	-0.03670989	0.15190205	-0.106810115	0.0010166789	0.017520692	0.04422195	-0.1175248	-0.20606658	0.007845789	-0.10539717	
-0.20816703	0.10131125	0.054587625	-0.17399253	-0.21530002	-0.14587018	0.35715786	0.54348	0.12744844	-0.03327498	-0.0245151	0.44953534	0.38740313	-0.17002818	-0.19672827	0.46690112	-0.14825897	-0.16564052	-0.075460374	-0.006168586	-0.016700182	-0.11852146	-0.46640477	-0.0829759	0.024215601	-0.40710264	-0.21281375	0.05221149	-0.16507396	0.9700034	0.11757606	-0.20350377	-0.21879674	0.17925462	0.44568974	-0.11492887	0.14668016	-0.025261093	0.12092889	-0.2380308	-0.2107942	-0.34240195	0.04625221	-0.6212232	0.13439703	-0.5111415	-0.22731963	0.47411275	-0.21115187	-0.1293607	-0.08991352	-0.09522772	-0.6797159	-0.2177788	0.22851558	-0.3136933	-0.3534209	-0.3352647	-0.12953667	0.4342534	-0.13679785	0.34899655	-0.049562447	-0.09080486	
-0.06469539	0.087443866	0.15428725	-0.07325107	-0.021887003	-0.040149342	-0.051580057	0.10362116	-0.14198521	-0.13945572	-0.17510834	-0.20603861	0.18200502	-0.1835999	0.045975626	-0.11967944	-0.040088356	-0.038125105	-0.10252858	-0.19458038	-0.06909823	0.052203894	-0.086257145	0.134395	0.054807153	-0.21689479	-0.08942004	0.06731322	-0.01846015	0.12840101	-0.07172892	-0.11249838	-0.021291867	0.093455985	0.10127852	0.023380835	-0.24682553	0.018026225	-0.05296333	-0.018135507	0.08163922	-0.19445424	0.0802458	0.04438557	-0.18270521	0.061182685	0.06657336	-0.2121517	0.082410686	0.09726487	0.066969916	-0.09239886	-0.16572066	-0.03513747	0.21747144	0.04437614	-0.04652828	0.03882307	0.022902597	-0.2112587	-0.050644714	0.1648539	0.1465445	0.0007992453	
0.11216835	-0.13056101	-0.13144226	0.1000824	0.08529325	0.050207928	0.123412505	-0.12604925	0.1407378	0.12552038	0.11710903	0.12589188	0.22994277	0.104325384	-0.24685319	-0.015524001	0.14828916	0.09131921	-0.18693878	-0.1513538	0.008271747	-0.027748566	-0.00020696223	-0.014136544	0.09222201	0.11675537	0.0151002845	-0.1640134	0.1801689	-0.1370231	-0.00041140616	-0.19113229	0.01853384	0.08335659	-0.10412071	0.115637206	0.12765256	-0.21050565	-0.098319106	-0.10589835	-0.08235936	-0.0055016396	-0.21706475	-0.03533793	-0.095327966	-0.098454565	-0.016001496	-0.13667887	-0.12299263	0.16511977	0.041693702	-0.2279097	0.13932121	-0.033280507	-0.08249258	0.15532863	-0.020478962	0.07612434	-0.10567666	0.15769358	0.1767106	0.14561784	-0.08009397	-0.026221108	
0.022932896	0.350058	0.07926685	0.5143911	0.015881417	-0.0026613283	-0.19009052	-0.061078887	0.13393866	-0.02048126	-0.011310062	-0.29795733	-0.29274324	-0.582169	-0.05914542	-0.06888655	0.41129088	0.12969273	-0.051874988	-0.028012205	-0.29006398	0.12680794	-0.08135592	-0.17860569	0.20172328	-0.24916525	-0.16590053	-0.15221098	-0.1617833	-0.13862261	-0.13482343	-0.005114947	-0.09223779	-0.1710072	0.016269552	0.44262937	-0.062652215	0.029295592	0.45676014	-0.33071846	-0.12908253	0.14855495	0.120368555	-0.039263777	-0.03127343	-0.23968345	-0.112245664	-0.5621034	-0.124265715	0.15209414	-0.09079789	-0.06915896	-0.18158449	-0.30518037	0.15777412	-0.11696748	-0.13964067	0.15709838	-0.08234245	-0.36314908	-0.33113667	0.10962942	0.12578279	-0.16080263	
0.08038609	0.15070073	-0.09074187	0.48875225	-0.18360628	-0.07696531	0.17084812	-0.60724664	0.61251825	0.13560395	-0.0632404	-0.4427892	-0.4896606	-0.36427292	0.21640645	0.030407503	0.26697132	0.048092548	0.06875778	-0.04316386	0.31900638	0.0038025237	-0.23286334	0.26205578	-0.10467243	-0.22451845	0.07891663	0.2654905	0.29584318	0.25893748	0.39066157	0.65913093	-0.045785267	-0.4386798	-0.41533664	0.11181236	-0.40343744	0.2563239	-0.4393101	0.47489056	-0.381234	-0.099138424	0.20207202	-0.19768563	0.05660351	0.05022111	0.41816548	-0.04874481	0.01526164	0.29089576	0.16977689	-0.18509822	0.37670362	-0.22507027	-0.14626615	-0.18466038	0.16650239	0.06397555	-0.547695	0.17479368	0.15422136	-0.25068337	-0.14025232	-0.15532546	
0.009201511	-0.0749692	-0.08848395	-0.588785	0.0036942363	0.007991359	0.26263675	0.59388185	-0.02688117	-0.08176262	0.24189119	0.4281409	0.14545721	-0.18312259	-0.11960823	-0.15135987	-0.16679071	0.12686798	0.4702598	0.45985645	0.5228563	-0.084962755	0.088498235	0.18479334	0.026854878	0.13840298	0.15506624	0.03533962	-0.05499827	0.50604355	-0.13517582	-0.10432211	-0.009326743	-0.03925903	-0.04318614	-0.066541195	-0.16517776	0.5573433	-0.023130136	0.28433454	-0.06838159	0.047420748	-0.14004262	-0.6712139	0.073301926	-0.19507806	-0.29484996	0.38945997	0.23050782	-0.077913895	-0.18421775	0.135297	0.0152715165	0.26096964	0.6997047	-0.30505037	-0.04529049	-0.03453567	0.15531908	0.21196295	0.103642344	0.12240584	0.077239096	0.17554307	
0.0050302143	-0.094679505	0.07751243	-0.56346834	-0.18385263	0.16337132	0.6018102	0.4570387	0.077488214	-0.042424142	0.123374104	0.31730193	0.26105478	-0.11293162	0.096263506	0.045632135	-0.5322464	-0.06536766	0.7276614	0.7178322	0.5255155	-0.13895828	-0.11295503	-0.1653381	-0.02890955	0.23402466	-0.1713106	0.15241836	-0.10759884	0.60184026	0.01638037	-0.13574433	-0.18192129	0.16710347	0.046648413	-0.1041932	-0.013574418	0.5838328	0.16382678	0.46252793	0.0025880828	0.110902585	0.012243613	-0.5620716	-0.023887385	0.10012353	-0.0361256	0.32979792	0.18333654	-0.25969064	-0.166417	-0.20054068	0.07051328	0.22893526	0.4807394	-0.11057313	0.08001618	0.09754068	0.1861291	0.44840133	-0.048004773	-0.11582497	0.14747073	-0.1394257	
-0.10768313	0.16336155	0.15973473	-0.35803	0.21538123	-0.0069387998	0.47352815	0.383521	0.08798376	-0.16650268	0.13637015	0.14910626	0.19410767	0.05346586	0.15340628	-0.26495308	-0.18127534	-0.19857146	0.46662134	0.6535686	0.5701715	-0.076176025	0.06409063	0.099097125	-0.03255957	0.29354468	0.060656127	-0.03199586	0.024313685	0.4415878	-0.0914172	-0.15229258	0.12111995	0.18171386	0.089861855	-0.12857623	0.14421965	0.61285794	0.12572163	0.30692822	-0.02497525	-0.010437264	-0.030901376	-0.5542005	-0.08044181	-0.12624004	-0.27097112	0.3327663	0.20629112	-0.3395077	-0.009879506	-0.088497944	0.090612054	0.11886075	0.4873501	-0.35222012	0.34117803	0.04339794	0.114050075	0.30677813	-0.0469432	0.013292979	-0.052970298	0.26843995	
-0.1482951	0.1877248	0.16035002	-0.51102555	0.17542139	-0.15924327	0.47291306	0.6925663	0.1761997	0.11464509	0.11688834	0.22764695	-0.024700334	-0.23545721	-0.13650802	-0.33093137	-0.20616086	-0.08251836	0.6534834	0.51868886	0.36673272	-0.20941761	0.14594811	0.1190207	-0.088085294	0.42034912	-0.09891022	0.22035342	-0.10551851	0.32198927	0.17630255	0.12905538	-0.19916007	-0.12947711	-0.1852675	0.14648923	0.1187641	0.4978414	0.061687954	0.23778293	0.085896164	0.12125196	0.025117634	-0.5930817	0.09425348	0.003639087	-0.26726645	0.3139216	0.10305625	-0.20429523	-0.1455571	0.1605129	0.18421759	0.16430467	0.53762126	-0.17585959	0.29390684	-0.109679654	-0.004410106	0.28841415	-0.124314666	-0.11822326	0.13043076	0.055147156	
0.00012698233	0.094178356	-0.09571025	-0.08229159	-0.14340793	0.15323325	-0.03137085	0.1439591	-0.12337457	0.17557648	-0.06027825	-0.09179411	-0.15325929	0.18351239	0.11950413	-0.027737796	0.18558887	0.055791803	-0.11272775	0.08398819	-0.08584269	0.09875047	0.08804867	-0.14342397	0.032083392	0.10993335	0.18170106	0.030981382	0.13038793	-0.0015978203	0.01391764	0.025525987	-0.03623791	-0.0031086951	-0.106313884	0.050356034	0.079188615	0.11687322	0.0916663	0.05967596	9.134412e-06	-0.11581908	0.09579539	-0.12060993	-0.08257225	-0.17721207	-0.006076561	-0.012978926	0.12423056	-0.056978036	0.066194706	-0.048567742	0.0717778	-0.18938614	0.121329315	-0.21383156	0.010360738	-0.13768175	0.045307312	0.16024756	0.1559968	-0.057346214	0.16214225	-0.1013868	
-0.16500688	0.003549512	-0.022865942	-0.3161168	-0.19958337	-0.03175613	0.49897146	0.57865155	0.16913363	0.12074705	-0.058918722	0.56902677	0.26390976	-0.28430238	-0.106548615	0.2313239	0.008042257	0.15279223	-0.24130087	-0.17420948	-0.21324573	0.046374716	-0.65768564	0.051037848	0.12593086	-0.3239404	-0.21063225	0.26973298	0.17236072	0.7840234	-0.07575213	0.0028846774	-0.07433207	0.12159863	0.6854825	0.11685085	-0.18352857	-0.08868603	0.10049584	-0.23611137	0.063628525	-0.56220853	0.37070873	-0.56915945	-0.2365414	-0.68816316	-0.0625607	0.46717334	-0.19413039	-0.1322224	0.074424185	0.05731774	-0.7604371	-0.23932399	0.20673986	-0.2860231	-0.549366	-0.1858136	-0.23003039	0.42063186	0.0393691	0.08599436	0.13306156	-0.1622152	
-0.47739676	0.30490598	1.5092701	0.7673598	-0.64892095	-0.19636802	0.80295205	-0.07416258	-0.43969074	-0.4455581	-0.39259976	-0.35308173	-1.9392719	-0.23262225	-0.1772282	-1.5175996	-0.19150606	-0.10417791	-0.9461356	0.07787886	-0.08192931	-0.98378146	0.0621997	0.47472358	-0.53234947	-0.029542029	-0.8364816	-0.23982047	-1.8479431	-0.2393239	-0.6501553	0.19456613	-0.94261074	-0.52611965	-0.39154467	-0.13734326	-0.24560867	-0.01185714	0.09983324	-0.1937943	0.19428657	0.18625757	0.7581292	0.26816568	-0.2794775	0.2732181	-0.7696707	-0.962547	-0.8900548	-0.20453669	0.22698501	0.33364138	-0.27072012	-0.7259251	-0.042089205	-0.3521957	0.057689287	-0.28649405	-1.163739	0.34081125	-0.3537724	-0.7518121	-0.61961615	-0.7615257	
0.17676286	0.8680085	-0.42708525	-2.2160375	-0.061054092	-0.09135071	-0.036528196	0.0446742	0.10660807	0.09324991	0.24994764	0.009519659	-0.07917118	0.3470343	-0.12323633	-0.051060814	0.029879438	0.09239545	0.5963979	-0.036213182	0.19046418	-0.0790799	0.21795398	-0.21942964	-0.52267647	0.09180341	-0.034691427	0.19240095	0.21418905	0.09232717	-0.012474151	-0.08749118	-0.01933353	0.049028583	-0.07925876	-0.06735099	0.19456504	0.13787745	-0.44007093	-0.03051207	0.031829078	0.23689252	0.88785505	0.043284196	-0.23425987	0.042263657	0.02910164	0.2737401	0.4507482	0.008388332	-0.11104645	0.18914264	0.051059097	-0.013563039	0.20133527	0.02394264	0.032433625	0.006885752	-0.023165848	0.058436647	0.033638757	0.049316224	0.2968652	0.124031976	
1.1982728	0.8765481	-1.0343344	-0.057387188	0.8010036	0.004832313	0.68518704	-0.22136542	-1.4766592	-1.504524	-0.74510485	-0.12757753	1.8633903	1.0537859	-0.43202376	0.49409598	0.0806519	1.2831031	1.5860555	-0.13267134	0.8183978	-1.2676066	-0.19856544	0.0025978875	-0.31855044	0.4131735	0.4490083	-0.34952575	1.5154594	-0.33207858	3.3491251	0.64527565	-0.9753173	-0.8130308	-0.3592139	0.52899104	-0.13447516	-0.44127464	-0.81775606	-1.1960944	-2.8114822	-1.0087005	1.9500647	0.4696052	-0.30596668	-1.2849927	0.771195	2.2856967	0.048158113	-0.398117	-1.0835508	0.44535536	-0.07814126	-0.80065423	-0.8670111	-0.15452763	-2.017801	1.121562	-0.2323994	0.24453378	-0.77991503	0.37612954	-1.0351363	0.5889679	
-0.027898356	0.04045897	-0.23090848	0.066076264	0.071863845	0.38283446	-0.034196626	-0.039623916	0.65012884	-0.0221156	-0.078861065	0.23918974	0.3272507	0.05158816	-0.28409728	0.19344096	-0.1419955	-0.010633317	-0.3046135	-0.49902764	-0.14651339	-0.15773083	-0.04618142	-0.39416477	0.24558468	-0.023948137	-0.27407786	0.010018426	-0.16056122	-0.04567544	0.15536469	-0.14439368	0.18793155	0.21355903	-0.071716	-0.113370456	-0.124524124	-0.009228178	0.15448049	-0.15530273	-0.050763343	-0.29906222	-0.14077316	0.016101725	-0.06618405	-0.100585796	-0.14472985	-0.19046985	-0.24089853	-0.32412836	0.2514585	0.0468612	0.07305167	-0.23257576	-0.5451388	-0.09022455	-0.21912847	0.28300843	-0.39064604	0.022996573	0.16361038	-0.1273933	-0.17660321	0.08912402	
0.04673415	0.0074208523	0.63642347	0.30232507	-0.21587437	0.29415375	0.072243415	-0.18537976	0.5629958	-0.27647963	-0.33772063	-0.2893707	-0.27279282	-0.46576187	0.28221202	-0.33147126	0.10603157	-0.2672461	-0.21378309	-0.32016835	0.091144	0.53008455	-0.45735747	0.30458203	0.032144096	-0.37654158	0.05557538	-0.26536345	-0.2859867	-0.56764	0.07417095	0.19399674	0.002280481	-0.4263065	-0.28631783	0.7352313	-0.5380339	-0.16771051	-0.23739529	-0.37798604	-0.40866122	0.37525436	0.16804796	-0.6629387	-0.35281426	-0.7163638	0.50857884	-0.36351115	0.13590263	-0.32238623	0.28936598	-0.08534814	-0.33768567	-0.54461366	-0.15240273	-0.033095025	-0.4552756	0.20519495	0.010064237	-0.9478684	-0.50767523	-0.08456826	-0.40359795	0.16656034	
-0.10738943	0.11782502	0.17275268	-0.14122549	-0.1775792	0.060252246	-0.15642923	0.18739438	-0.11177932	-0.083491944	0.109883904	0.081496395	-0.20704998	0.09919274	-0.12500325	-0.048126638	-0.111707665	-0.18947016	0.20352505	-0.16448846	0.14424166	-0.15330398	-0.11100121	-0.18376274	-0.017175585	0.043134898	0.009638593	-0.14587586	-0.12607881	-0.18636689	-0.06684466	0.15421265	0.056843713	0.18452865	-0.033722766	0.052315246	-0.019440457	-0.017530879	-0.094773285	-0.11046811	0.14711607	0.09003495	-0.038229853	-0.0642395	-0.12554394	0.017020898	0.033409677	-0.05503972	-0.13526434	0.0806712	-0.015615586	-0.101833016	0.052546512	-0.2115693	-0.03364041	-0.17326231	-0.06501719	0.04387894	-0.15778154	0.09727115	0.09024525	-0.12610333	0.024900783	-0.12201905	
-0.14776981	0.093589775	-0.09211113	-0.009833911	0.16279428	-0.1863685	0.051130835	0.013995359	0.015672995	-0.06918227	0.17291328	-0.019147513	0.077155024	-0.008827463	0.042565268	0.16396229	-0.07845278	-0.11630622	0.03500171	0.021148847	-0.1659101	0.15376128	-0.079954065	0.13988721	-0.05627953	-0.112913996	-0.055950116	-0.12032985	-0.029633582	-0.17506364	-0.032933354	-0.07162277	-0.010046792	0.08946845	0.014595927	0.08966194	-0.061428234	-0.23235752	0.027972467	0.05094793	0.1474946	-0.12912542	0.070639566	0.091059685	-0.16972838	0.0566538	-0.11783199	-0.010587421	0.041030616	0.10702201	-0.093091324	-0.21328509	-0.1542096	-0.2017085	-0.05869253	0.06749644	0.046939336	-0.13915226	-0.118652344	-0.03972728	0.16004235	-0.08343039	-0.094770215	-0.11213084	
0.11465827	0.14135897	-0.032443196	-0.17638688	0.042398185	0.09677279	0.050364226	0.05643703	0.12058991	-0.0109974	-0.04170972	-0.008695751	0.05637683	-0.057186693	-0.16464646	0.11934519	0.0845536	0.05968669	0.087828666	-0.10688641	-0.18498248	0.07979381	0.10990596	-0.093783595	-0.123323925	0.11803651	-0.065856166	0.04380159	0.116588056	0.0061930567	-0.081301734	-0.1253132	0.089171976	-0.035218954	-0.099232934	0.06502202	-0.14017703	0.13038602	0.061038017	0.13504183	0.03736043	-0.029822841	0.09535444	0.108018756	0.12423858	-0.036916286	0.09453848	-0.03427866	-0.043567404	-0.17404018	0.06861395	0.1569905	0.10200533	-0.10224401	0.1451751	-0.076265976	-0.049017385	0.042913347	-0.015929043	0.02850683	-0.14262216	0.18733472	-0.11816482	0.17171976	
0.5386156	1.3549572	0.9139507	1.2682295	-0.27659437	-0.16761015	0.30908504	-0.6349974	0.683778	0.24421088	0.3602232	-0.056917027	0.8795116	-1.0703294	-0.21755359	-1.1496245	-0.43143687	-1.2076427	-3.2439797	0.36986333	-1.1685523	-0.16462262	-1.4194558	0.8343954	-0.9196206	0.35293314	-1.43552	-0.26764125	-1.9786258	0.22939232	-3.106143	0.16239135	-1.9982815	-1.7465302	-0.91012657	-0.05897132	-2.1613717	0.07898808	0.31900913	0.470466	-1.3390498	-0.91557884	-1.6399009	-3.0544944	-0.6587701	0.08831243	-0.6783149	-1.7576157	-2.266421	0.25590155	-0.4026608	-0.16156255	-0.2975292	-1.2993647	-0.841438	-0.37705603	0.08879899	-1.1349592	0.017825006	-0.9182464	-0.34424183	-0.8560963	-0.9845323	-0.9288455	
0.1723425	0.16292998	0.025281113	0.07650911	-0.29861885	-0.18157345	0.34139812	0.014704919	-0.0633145	-0.24060439	-0.17228107	0.061213695	0.000447544	-0.19016206	0.05628079	-0.014682638	-0.15591644	0.18362506	-0.113341294	0.11222105	-0.013479505	0.20238823	0.012734189	0.144613	-0.19070564	-0.067731224	-0.023875427	-0.14130639	0.10536471	-0.25206456	-0.25158152	-0.20817253	-0.09723338	0.007850383	-0.06537279	0.29838848	-0.15027627	0.09358563	-0.20700084	-0.25547743	-0.18385805	0.00095813186	-0.06452745	-0.014525574	-0.28778982	0.0732324	0.036460295	-0.12651975	-0.034681376	0.10698019	0.3299675	-0.019673893	0.1161234	-0.05337726	0.0418177	0.11195257	0.062210508	0.12244331	0.10247499	-0.18138622	-0.15515187	-0.042776786	-0.17578258	0.025440801	
0.092613935	-0.019169448	0.08555415	-0.51569235	-0.0926277	0.12413543	0.5538804	0.42670098	-0.093559936	0.059280578	0.21964005	0.37280193	0.09938618	0.16784312	-0.05412845	-0.14635147	-0.42760238	-0.07325763	0.31934723	0.819817	0.5034525	-0.09879013	0.033681393	0.22304218	-0.22336799	0.31906572	-0.041374758	0.06408659	-0.14904045	0.3438683	-0.021261742	-0.19999248	0.14172393	-0.23364174	-0.17527214	-0.1366859	0.05239215	0.5943364	-0.08567884	0.39616677	0.22154173	0.2681632	-0.15121569	-0.57853115	-0.04384893	-0.097178295	0.06206495	0.52766925	0.025828477	-0.33188692	0.052152827	0.21657318	0.11424467	0.0022799564	0.40950575	-0.26868853	-0.020874012	-0.12989426	-0.021005947	0.46108267	0.05687943	0.0035899575	-0.07052335	0.17436272	
-0.060046826	-0.0019332682	0.07070988	-0.011466319	0.047168426	-0.049043924	-0.13744608	0.013620319	-0.022657715	-0.052784123	-0.108742364	-0.032934334	-0.31332177	-0.124279566	-0.018728714	0.08961026	0.11956556	0.19135298	-0.03176695	0.042674314	0.15275095	0.01857583	-0.17338835	-0.008587406	-0.098824345	0.01060576	-0.094110586	0.20227301	-0.06669216	0.001726652	0.12412127	0.060290966	-0.29997122	0.2847619	0.14898892	-0.12961546	-0.046439033	0.15225096	-0.0057955077	0.07840211	0.1408397	-0.041090727	0.06904526	0.30165073	-0.19258669	0.22531496	0.13444652	-0.15032496	0.11703267	-0.050158318	-0.15071803	0.057021935	-0.02008586	0.15939504	0.06679608	-0.005079095	0.030611759	-0.1655812	0.17204782	-0.015887043	-0.10270128	0.18578038	-0.082252994	0.16674204	
0.0016120995	-0.009770125	-0.025060406	-0.17270897	-0.25984102	0.112224124	-0.0996187	-0.07855202	0.0682442	0.044821307	-0.11077959	0.0074905283	-0.114107415	-0.019648686	0.077214606	0.056942955	0.18395409	-0.1176182	-0.17336288	-0.15481076	0.10495532	-0.1841769	-0.063961655	0.20687072	-0.011960903	-0.055452675	0.17087889	-0.15788963	0.14121053	-0.018716432	-0.19931626	0.10340137	-0.008381128	-0.17719167	0.15873927	0.103460774	-0.026107546	0.24997362	-0.12809978	-0.14062391	-0.20099877	-0.07679527	-0.21775886	0.013564736	-0.10900983	-0.08633013	-0.055132233	0.13001135	0.11812686	-0.13452607	-0.06715321	-0.1083278	-0.10747131	-0.08705578	0.105020404	-0.07080221	-0.07861276	-0.000577271	0.07979956	-0.08107395	-0.124637425	0.07327521	-0.15305103	0.18699835	
-0.10639898	-0.12050137	-0.020535648	0.0030962368	0.066013336	-0.16129144	0.13288552	-0.041160583	-0.1321256	-0.20668547	-0.12917158	-0.024106408	-0.011134276	0.18214574	0.08670598	0.07520461	-0.017819796	0.08395429	-0.11720035	-0.11401963	0.19580793	-0.037984226	0.179806	-0.051731482	0.12089437	0.11411774	0.15820894	-0.11878469	0.047911525	-0.14547156	0.11745117	-0.057129394	0.17500243	-0.108840205	-0.10295355	-0.1288086	0.20062962	0.1313678	-0.038142983	0.10686432	-0.0562969	0.07954657	-0.05211877	0.18468106	-0.10630532	0.05345517	-0.080896415	-0.14176928	0.06070103	-0.003359196	-0.05715838	0.037118036	-0.07042601	-0.040180344	0.0498512	-0.012304712	-0.18644844	-0.07494277	-0.082095794	0.22107711	-0.09758438	-0.07599505	-0.053606316	0.11633501	
0.12406264	-0.09594141	0.08148335	-0.30810204	-0.1531351	-0.018398685	0.5365728	0.5066982	0.06560444	0.2185315	0.1371577	0.406918	0.24455148	0.017613003	-0.0004792562	-0.055329148	-0.22739203	-0.062076163	0.5666976	0.66991407	0.4400922	-0.19807355	0.21180964	0.10188801	0.0030745217	0.022450926	-0.08442242	0.11103837	0.1485122	0.62566847	-0.14047879	-0.09798587	-0.27662358	0.15071113	0.030810082	-0.11564444	0.083125934	0.69110924	-0.14081319	0.23505317	-0.19145615	0.07683184	-0.03608378	-0.71856815	0.10843948	-0.23179679	-0.009965742	0.14520139	0.3419361	-0.3133729	-0.35455507	0.07762846	-0.16079414	0.2920686	0.47402644	-0.080331504	-0.044743836	-0.18366201	0.12588058	0.03432422	-0.29065037	-0.051804338	-0.07200123	-0.14310132	
0.18341303	-0.12414798	0.060838997	-0.18621838	0.057319686	-0.09089472	0.13170788	-0.08060044	0.117084354	-0.038658902	-0.032690622	0.12311886	0.18947369	-0.071825035	-0.025498599	-0.016678974	0.08451018	-0.06906134	-0.18145105	-0.09932519	0.08692449	0.057529178	0.08999634	-0.12797982	-0.083224565	-0.072127014	-0.10897092	-0.012664572	-0.15295136	-0.08794665	0.16854373	-0.080912784	0.058412373	0.14559555	0.17503458	-0.18462871	-0.051435187	0.030422136	0.08748467	0.16854009	0.039415255	-0.18613122	0.081024885	-0.1484093	0.10089618	-0.09725544	-0.1483323	0.09279254	0.042463332	0.08823022	-0.09773213	0.10183346	0.043528885	0.1556471	0.17256403	0.17988764	-0.0022162686	-0.03869641	-0.07914002	-0.082105726	-0.15792716	-0.052193422	-0.080616556	-0.0024655666	
-0.070429996	0.031406023	0.043785546	0.149465	0.1740488	-0.22383983	-0.04103284	0.22470374	0.05497765	-0.004559323	-0.08829589	-0.009413175	-0.07298669	0.04120396	-0.10710902	0.056950696	0.06907004	-0.07003729	0.1386927	0.014556531	-0.081594445	0.12141807	-0.1031626	0.13424288	-0.11253305	0.053037185	0.039952997	-0.12345236	-0.043430507	-0.1917626	-0.1811719	-0.16487765	0.047696367	-0.08032433	0.23772581	0.047529846	-0.04436451	-0.06693085	0.057204567	-0.058513135	-0.20855585	0.09590405	0.04798835	-0.24667571	-0.1199921	-0.11135941	-0.15192752	0.012681746	0.08785396	-0.013679604	-0.027461048	-0.17824335	0.0151831275	0.041671447	-0.07718217	0.009731295	-0.046026148	-0.017603027	0.091731	0.18831217	0.04299982	-0.013677388	-0.03311275	0.14612061	
0.059888925	0.15184876	0.081610985	-0.19875559	-0.14846323	0.1479058	-0.06337308	0.004788191	0.14909068	0.06922591	-0.13144712	-0.012587997	0.13692924	-0.17202005	0.052782208	0.0016747557	0.07567361	-0.14609171	-0.04532494	0.06952	0.15304694	-0.13448755	-0.1267557	0.02650514	0.016210778	-0.013305525	0.122634366	-0.16181569	0.05808276	-0.08272216	-0.01883991	-0.0072913915	-0.20186925	0.067890964	-0.024574006	-0.026923837	0.12210137	0.1641693	0.11758245	-0.12742719	0.08581296	0.10453947	-0.02496551	0.038194038	-0.05210192	0.059412982	-0.13154775	-0.1734069	-0.12304914	-0.23625001	-0.13634314	-0.06262417	-0.11541929	0.1110366	-0.11959235	0.109932296	0.17687215	0.0015738927	-0.123552985	0.15310444	-0.11830902	0.03231769	0.13922039	0.09931598	
-0.15742663	-0.07344298	0.049663667	-0.10643034	-0.18517083	0.29272118	0.085099615	-0.06953774	-0.14522396	-0.06597655	0.07087039	-0.027188329	0.0052259946	-0.074154004	0.0628036	0.005010392	0.033556443	0.15002283	0.15525758	-0.24369851	0.11209709	0.04853211	0.03654047	-0.17229958	-0.6892469	-0.09425513	0.0016577982	9.372484e-05	0.07913315	0.42594245	0.1467696	-0.1239749	0.0115369605	0.32744458	0.0016615413	0.024138888	0.25952443	0.16098085	-0.009113169	0.08859821	-0.09640679	0.01938607	0.8192748	0.2644406	0.082428716	0.059798315	0.05224357	0.15714143	0.39291814	0.10957183	0.057949796	0.09866996	0.021321129	0.17286117	0.39711726	0.021099318	0.06604742	0.034754857	-0.023837844	0.011368329	0.03502657	0.035540823	0.2817479	0.07693086	
0.056866046	0.111875884	0.012993485	-0.42950484	-0.055426262	0.078152984	0.45210883	0.35321888	-0.09871287	0.3218404	0.05159772	0.37575507	0.25072217	-0.056893956	0.17179182	-0.1811986	-0.34390083	0.047261275	0.6207479	0.6078779	0.44954875	0.05796768	-0.14686368	-0.24266954	0.23008537	0.35689312	-0.09443798	0.15564862	0.23535106	0.36334586	-0.01690818	-0.0692522	0.15265356	-0.21844944	-0.08414216	-0.07841506	-0.07022829	0.38879952	0.43555057	0.39979523	-0.13727963	0.1459873	0.036785588	-0.31743082	-0.29040727	-0.05813993	-0.11427851	0.24604382	-0.013062841	-0.40154812	-0.21206854	0.1400629	-0.04142073	0.18682232	0.54303455	-0.3205217	0.2843116	0.040844616	0.18458797	0.3931167	-0.009796256	0.21018882	0.010968019	-0.0006454478	
-0.30465057	1.2779475	0.15111578	-0.44968855	-0.9365455	0.39767343	-0.28932932	-0.9867195	1.166372	-1.543447	-0.97161865	-1.1255852	-0.29087314	-0.52968335	-0.14822163	-0.29051185	1.3704916	-0.45040148	-0.42205667	1.7241075	-0.23990528	-0.07732542	-0.7176755	1.2980801	1.5826544	-0.830056	-0.10688316	-0.18961628	-1.6686811	-0.16307639	0.57899624	-0.020181267	-0.44378173	-0.73476213	-0.78860617	1.8501035	-0.2143748	-1.1374192	-0.65692556	-1.5431677	-1.357028	-0.63070273	0.6321772	0.29514518	-1.1545389	-0.24460918	0.931961	-1.2967513	-0.71420234	0.18177652	-1.0928617	-1.6578501	-1.387212	-0.89078844	-0.30989078	-0.16356285	-0.7748089	1.4364922	0.28726512	-0.51707274	-1.1307755	0.071964	-0.5573733	-0.29982805	
0.0011899227	-0.18956874	-0.1342639	0.066166505	-0.16416956	0.070367195	0.043659307	-0.14824341	0.066193834	-0.18696342	0.03393432	-0.1597493	-0.13950807	0.052013636	0.07190575	0.10458699	0.12156586	-0.23096189	0.033433598	-0.18759099	-0.14467895	-0.05061874	0.11042328	-0.1354364	-0.024963997	-0.12017093	-0.051652983	-0.020884275	-0.050654907	-0.22786401	0.0990462	0.013735324	0.15187344	0.09994596	-0.07212833	0.020790372	-0.13416365	-0.17306326	-0.16919161	-0.030143438	0.046069264	0.14492539	-0.059587434	-0.14992051	-0.23297925	-0.17397998	-0.074268065	-0.21448778	0.13221988	0.09721504	-0.095717385	-0.11858898	-0.11216872	-0.11313682	-0.11654912	-0.037390906	0.14674987	-0.039793923	-0.04439017	-0.21280181	-0.16017474	0.18434235	0.0019315373	0.17808896	
-0.11855158	-0.0033155906	0.65457064	-0.103371106	-1.0766658	-0.9891461	-0.34699333	0.1882601	-0.48434195	-0.1323798	0.12076027	0.13485895	-0.03831476	-0.4223257	-0.45896333	0.028811187	-0.435039	-0.14308886	-0.20258509	-0.3146762	0.27990842	0.4726602	-0.5184593	0.5640269	0.109050855	-0.4252738	0.28314674	0.31839547	-0.50720894	-0.87050086	-0.028090287	0.1593129	-0.267662	-0.44874066	0.04513401	0.29413164	-0.6205483	-0.62138546	0.30830082	0.13138305	0.03698071	1.117003	-0.4505598	-0.045066427	-0.10244962	-0.20175019	-0.35581377	-0.70243955	-1.0951319	-0.69298935	-0.03817199	0.15735084	0.2668402	-0.7417346	-0.6520096	-0.053817153	-0.7648366	-0.17717268	0.07623629	-0.07585666	0.17600523	-0.52261907	-0.23357278	-0.15335013	
0.1019066	0.5045574	-0.12818344	-0.4329778	-0.11025129	0.41173434	0.50652266	0.34910092	0.6336118	0.076508656	0.012136156	0.43068093	0.36112222	-0.34881434	-0.12823112	-0.100257285	-0.34756184	-0.14071324	-0.24739505	-0.1706905	0.2403264	0.20985205	-0.11052262	0.081709765	0.22823326	0.2974046	-0.29233822	0.13754518	-0.20994173	0.45237726	0.074304	-0.10527316	0.02997111	-0.22682595	-0.032555904	-0.19158436	-0.09016147	0.65313464	0.19256446	0.13427998	0.025015	0.04509883	-0.43446872	-0.56515443	-0.15439433	-0.44433972	-0.3401916	0.10745823	-0.2775647	-0.3424852	-0.072851695	0.41617882	-0.100385055	-0.080440365	-0.047989026	-0.44774178	-0.25411916	0.11411064	-0.28177112	0.20948546	-0.29432943	-0.1770442	-0.08549322	0.16003072	
-0.014775917	-0.112135805	0.036474645	-0.056210756	-0.008553132	-0.16363946	0.07452345	0.15493605	0.12292111	0.12069237	0.0069122612	-0.1310606	-0.07814744	-0.14034511	-0.16578117	0.122814775	-0.07157603	-0.15380456	0.07497081	0.11030635	0.08496392	0.18572241	-0.09056729	0.112360954	-0.04580313	-0.14742222	0.104307234	-0.07716709	0.016125262	-0.15164948	-0.02710633	0.16355485	0.18601692	0.15790668	-0.123732835	0.025846511	-0.14261125	-0.098496504	0.13707015	-0.0033077747	0.011684373	-0.07356088	0.055549607	0.12507749	0.011647999	-0.0254782	-0.16897042	-0.003377661	0.09882158	0.15845513	-0.15992728	0.16611296	-0.18354252	-0.056053996	0.08011705	-0.02937065	-0.07555854	-0.0603182	0.03143893	-0.13557032	-0.056217298	-0.0098121315	-0.17986788	0.18432581	
-0.04046768	0.057942353	0.21052146	0.0077777253	-0.0811876	-0.06424722	-0.0072448924	-0.056564238	0.07895951	-0.04133148	0.124014735	-0.019990236	-0.10596041	-0.13338707	-0.112789325	0.046578746	-0.064280435	0.15033585	-0.100781605	0.08119156	0.16531587	0.32695156	-0.07931502	0.15191159	0.05896001	0.07156632	-0.012700107	0.03823034	-0.108658105	-0.046880733	-0.09448294	-0.045660127	-0.019826086	-0.092766024	-0.16133949	0.11513701	-0.14015578	0.02021425	0.044760454	-0.06511522	-0.19930081	-0.13344584	-0.20461701	0.08786228	0.038993645	-0.10589828	0.24859956	0.09958182	-0.15088859	0.15765236	-0.0378575	-0.0011206678	-0.038998682	-0.34910205	-0.024526821	-0.04511123	0.08505997	-0.041675683	0.07730708	-0.004815097	-0.18927665	0.038310084	-0.2545665	-0.060413703	
0.17030686	0.35454428	-0.1952416	0.0077244537	-0.12097995	0.5708792	-0.19786647	-0.05851551	0.14140332	-0.07752378	0.055568114	0.19963267	0.26630646	-0.20130761	-0.31439057	0.23705657	0.052580234	-0.078769796	-0.2798748	-0.5030949	-0.18048245	-0.094634995	-0.29584828	0.047611177	0.26370108	-0.12079835	-0.4377992	-0.11988356	-0.28130865	-0.11956641	0.10388773	0.14515848	-0.15818371	-0.17563008	0.24092928	0.026786692	0.10063829	0.0840422	0.0441502	-0.1566721	0.05086872	-0.2550052	-0.13389122	0.014880948	-0.18334378	-0.14329888	-0.25543392	-0.12098014	-0.35488713	-0.36713153	0.20039289	0.41171822	0.17408487	-0.093562104	-0.40499085	0.14045234	-0.19956098	-0.090869375	0.18844886	0.043616384	0.12128157	0.023909803	0.07969103	-0.07106432	
-0.14188668	-1.224052	0.22839306	-0.05393146	1.0424185	0.17311871	-0.028314136	-0.14274998	0.821456	0.19632374	0.19111985	-0.060342364	-0.06364917	-0.37023944	0.39875165	-0.22518297	0.15844333	-0.7379127	1.2395235	1.4995744	0.23690875	0.06893119	-0.2464137	-0.12072192	-0.7121349	0.04706778	-0.1236012	-0.17053443	-0.4754894	0.8438605	-0.99833834	-0.0762275	-0.3345922	0.21037257	-0.054226745	0.1385634	-0.67500955	1.1003745	-0.68385047	0.054699678	0.20212644	0.11138957	0.31093684	-0.49861282	-0.594939	0.15205649	-0.4036784	0.39595753	1.6855267	0.14278758	-0.59988296	-0.49914625	0.3690103	0.44561183	0.29050583	-0.0547082	0.6500144	-0.006513152	0.011212585	-0.43139955	-0.2963156	0.30389684	0.5014497	0.1068755	
0.08808295	0.058313705	0.08171193	0.077091955	0.040110383	0.081049934	0.09936512	-0.09329566	0.103058435	0.12580508	0.12405996	-0.16455054	0.03320038	-0.066377915	-0.11179528	0.16860369	-0.18115765	-0.033718187	-0.05866898	0.11873998	0.08521836	0.11176658	0.12792736	-0.052659355	0.17492199	-0.20708907	-0.15117367	0.16772975	0.059132177	-0.15614185	-0.1892128	0.0007430368	-0.017445382	-0.006059419	-0.026829427	-0.010584378	0.06651231	0.051624365	0.16708167	0.0050490005	-0.14379394	-0.089343905	-0.007099022	0.09071252	-0.14207505	-0.017402506	0.13054135	0.08359871	0.05827476	-0.023111401	0.07154623	-0.15412574	-0.17951772	-0.24131005	-0.16975303	-0.10115051	0.1360059	-0.033953026	0.05858341	-0.016732393	-0.061270148	-0.07661391	0.08064922	-0.15397185	
-0.036817566	0.27159467	-0.59408635	1.19311	-0.15452714	0.43276435	-0.11496508	-0.5461337	0.29665846	-0.24493189	-0.13236205	0.069682315	-0.5570602	-0.25142336	-0.19476615	0.068108976	0.2262313	0.08165729	0.597819	-0.40258533	0.17345384	0.5811377	-0.37614712	-0.22233231	0.048867345	-0.3367725	-0.16759545	0.02577672	-0.102690116	-0.60420024	0.10823008	0.45851925	-0.13344537	0.20324965	0.17475282	0.31985426	-0.03224859	-0.22506367	0.4133438	-0.23510651	0.1466353	-0.17812668	0.018234974	-0.111059815	-0.005652153	0.15027091	0.022543464	-0.08648189	-0.2652998	-0.28336942	0.8340218	-0.025934996	-0.60124516	-0.48916525	-0.16507433	-0.18191533	0.022070419	-0.14420804	0.36774233	-0.58705026	-0.5209972	-0.20598346	-0.10849088	-0.062364545	
-0.20915039	-0.124339916	0.12239363	-0.35536444	0.05374837	-0.2117651	0.50421757	0.29777375	0.11212108	-0.17677268	0.124166325	0.28870082	-0.10463676	-0.14998868	0.18163843	-0.28163874	-0.39342776	0.2522264	0.48623762	0.56117123	0.25378767	-0.14187837	-0.017994532	0.15815847	-0.12859546	0.33504802	-0.26193672	0.06234285	-0.23052646	0.4227198	0.20805882	-0.07207452	-0.00037381606	0.09175603	-0.20548116	0.037574854	0.16865878	0.589525	0.08202167	0.30711535	-0.19730817	0.13716845	-0.12736183	-0.34799168	0.029273942	0.05613157	-0.20616673	0.39390814	0.27284896	-0.32973343	-0.27214125	0.10881916	-0.059922308	0.19113095	0.38241342	-0.29603994	0.23850995	0.009109868	0.16248761	0.32450703	-0.17040966	0.13769826	0.090158574	0.019875465	
0.9381203	-0.5737508	0.15482855	1.5883253	0.2942696	0.5658117	1.0867516	-0.81969225	0.4426167	-0.51588845	0.19990222	-0.07744869	0.0059840144	0.28560412	-0.28306764	0.257282	-0.07259703	0.2853012	-0.33996233	-0.4447913	0.4366437	0.2962441	0.21976326	-0.13808618	0.12856402	-0.4438094	0.050284427	-0.022062527	-0.15733156	-0.908829	0.15635441	0.9500973	-0.034714866	0.39744294	-0.5060094	0.67139286	-0.5090236	0.025147256	0.40450013	-0.39474732	-0.10837625	0.059654362	-0.21097682	0.0869368	-0.4316307	0.08829541	-0.033563957	-0.23754638	-0.884655	-0.07588117	0.4401044	0.15142676	0.17691955	0.03107825	-0.6627286	0.7545955	-0.09658545	-0.19961707	0.5317924	-1.1642649	-0.38990214	-0.508749	-0.79694843	-0.21524855	
0.22792599	0.103117116	-0.17345878	0.7771061	0.039094485	0.1551329	-0.07627437	-0.046831258	0.15491636	0.08402192	0.10019763	-0.10647128	-0.50326693	-0.5424425	0.026360255	0.2540472	0.4596345	0.008907561	0.17194475	-0.0114094615	-0.48091865	0.4494294	0.20732275	-0.26116192	0.34735227	-0.17439	0.040277105	0.14024861	-0.11909794	-0.15086456	-0.12978792	-0.18906787	-0.020217614	-0.15430781	0.33996138	0.6486627	-0.003956085	0.26029015	0.37297162	-0.21055679	0.26667643	-0.18653792	-0.124405384	-0.20072469	0.21793737	-0.3336615	0.15615316	-0.2651106	-0.089681186	0.52952915	0.29509467	0.026947888	-0.4511229	-0.16362476	0.19126348	-0.12318343	-0.45920554	0.1294197	0.09436669	-0.3852967	-0.1045522	-0.24002531	0.1430049	0.041795004	
0.124961115	0.059310112	-0.11904102	-0.08536054	0.10940608	-0.11096223	-0.0063561196	0.06372342	0.040616617	0.112670965	-0.2389854	0.15455136	0.16127826	0.023391409	-0.17412643	-0.05276353	0.18721382	-0.013694019	-0.0004351719	-0.20759952	-0.05505835	0.022648286	0.12997714	0.1187868	0.08566146	-0.13055481	0.18838301	0.054311153	-0.03683593	0.21498092	-0.062275603	0.15032627	-0.16888481	0.029308058	-0.10448415	-0.21466994	-0.14464222	-0.12140668	-0.036012426	-0.04019646	0.04551763	-0.1737105	-0.0017178933	-0.01860649	-0.1673981	0.04745321	0.10328193	0.21254608	0.22745542	0.062419917	0.1695786	-0.10960924	-0.06601418	-0.066257596	-0.053251214	-0.107455134	0.12124768	-0.14282075	-0.098694324	0.16662106	0.09024634	-0.11868499	0.11325476	-0.11298879	
-0.12481957	0.149272	0.018761877	-0.28736183	-0.05962856	0.2237363	0.28033686	0.6240806	0.030931024	-0.085813046	0.313312	0.41664678	-0.018907517	0.015843185	-0.032632124	-0.10723688	-0.15807055	0.12630402	0.6593438	0.581263	0.5909694	-0.1489246	0.030958142	0.023058496	-0.00031233003	0.3809738	-0.084642395	0.10542294	0.13356318	0.40609935	0.023058578	-0.1464273	0.085912205	-0.08284431	-0.042860944	-0.06828211	0.1223512	0.43557942	0.034904342	0.22183998	0.01761033	-0.008937694	-0.20769468	-0.3650688	-0.012192895	-0.009198535	-0.048865225	0.44892597	-0.05925618	-0.25061128	-0.26232126	-0.17806971	0.08581961	0.26353616	0.4847984	-0.39203826	0.01528125	0.07343357	-0.013802079	0.5041307	-0.0022077975	0.050024517	0.040252034	-0.12949854	
-0.0958844	-0.06830683	0.13423605	0.0126397265	0.019945674	0.053292666	0.17348425	-0.07614948	0.03974078	0.18563262	-0.03875038	0.012542329	0.13314934	0.15866837	0.031500906	0.11457178	-0.21036895	-0.03601801	0.009922696	-0.11835565	-0.031245155	-0.09936311	0.030788243	-0.036955394	-0.15506808	-0.019987606	0.12997551	-0.05778742	0.15831119	-0.18591896	0.071109205	0.079993844	0.082573295	-0.1034316	0.063978165	0.022247199	-0.037708543	0.12231942	0.09468011	-0.17240918	-0.18470912	-0.060935948	0.07788531	0.015176556	-0.11522459	-0.18328106	0.17097211	-0.0643077	-0.10807972	-0.04256526	0.021528665	-0.19419166	0.06283203	0.029666856	0.085127085	0.09871175	-0.0004225779	-0.0775268	0.037137613	0.13304804	0.1882728	0.093489446	0.047264297	0.05322569	
-0.14779343	-0.046630222	0.11345767	-0.13062821	0.0961485	-0.1699775	0.30445835	0.068217926	-0.021661779	-0.299685	-0.20226806	-0.20795721	0.070886366	-0.30070844	0.025741234	0.14000371	-0.09770792	0.09986602	-0.031046271	0.044136625	-0.17270966	0.2295243	0.15990566	-0.08269366	-0.44529545	-0.2542636	-0.2657913	0.20815323	0.1404055	-0.2823177	-0.16064282	-0.11525292	0.13755132	-0.003817111	-0.39241448	-0.05195425	0.1567415	-0.07626106	0.13546424	-0.2673514	0.019117014	-0.11043845	-0.031942055	0.12418821	-0.17135635	2.4404412e-06	0.047547042	0.06868102	-0.03555873	-0.13874473	0.045914035	-0.164325	-0.32664746	-0.029328989	-0.15160398	0.13447103	-0.26368508	0.16000053	-0.045761652	-0.20567106	-0.07095394	0.040868133	-0.1136945	0.17836982	
0.15681478	0.0653811	-0.6156711	0.8499448	0.15482002	0.5514568	0.095731355	-0.2750157	0.31285134	-0.16986719	0.13738549	-0.040054925	-0.56504273	-0.34623227	-0.24204648	0.37672287	0.07875426	0.21435419	0.39071786	-0.21681765	-0.105650485	0.20016664	-0.12995416	0.03764432	0.44730893	-0.22904499	-0.20406012	0.04184681	0.010028773	-0.34904945	0.2042013	0.43346342	-0.07961754	-0.09061113	-0.044808675	0.46260527	-0.24931261	-0.1005971	0.11066688	-0.27834386	0.036754966	-0.22055869	-0.12684204	0.013101257	0.16165239	0.025461337	0.1135743	-0.09663265	-0.40396142	-0.20808649	0.5845006	-0.19449037	-0.08334979	-0.16404554	-0.082493685	0.054559324	-0.041528787	-0.1109127	0.26468468	-0.6234795	-0.17759097	-0.13122545	-0.20584367	-0.29692858	
0.1996824	0.043477815	0.18497567	-0.16110297	-0.25474676	-0.11704118	0.6176041	0.47647238	-0.025988823	-0.33536872	0.33726686	0.015060931	-0.26307002	-0.03823858	-0.09647903	0.0025919625	-0.23267421	0.20981398	0.44392133	0.36638707	0.38714677	0.15218443	-0.10081489	-0.09200492	0.014833353	0.29569232	-0.23840173	0.23379666	0.052445672	0.45515272	0.042937897	0.18915693	-0.06070204	0.016118255	-0.10361429	0.16971426	-0.10005967	0.5750449	-0.11896925	0.1527949	-0.040030573	0.09983287	-0.33525455	-0.6286563	-0.3262107	0.008277367	0.035459556	0.45450795	0.22786634	0.023559304	0.055545494	0.17431046	0.13636541	0.103289574	0.41303954	-0.030231323	0.2938545	-0.016347546	0.2630549	0.19176453	-0.025422072	-0.13495591	-0.17149863	0.15405203	
-0.009514204	0.88493514	0.085782744	0.38471615	0.116742186	-0.20760979	-0.101045825	-0.07399928	0.06020982	0.13020508	-0.14028211	-0.09763566	-0.09487583	0.15147536	-0.30915108	-0.045310628	-0.1283941	-0.27940372	0.04929353	0.31404796	0.134034	-0.20679972	-0.14104809	-0.07941437	0.97651565	0.050521456	-0.0057778833	-0.2092352	-0.104362264	-0.82980514	-0.13700329	0.008083695	0.1031238	-0.44911882	-0.13887773	-0.10883292	-0.15378314	-0.09911529	-0.5958677	-0.2714746	-0.17288803	-0.054191757	0.051025406	-0.21162319	-0.37196547	-0.11561389	-0.101910174	-0.09313893	-0.020193484	-0.15281735	-0.10930954	0.011704126	-0.091482446	-0.50406355	-0.37568673	0.068994276	-0.067830436	-0.062153816	0.13101444	-0.020306222	-0.0012418153	0.002025861	-0.09142336	-0.097961575	
0.40059415	0.75603086	-0.037974827	-0.07311328	0.05254154	0.31524888	0.75900793	0.36240086	0.27852753	0.35315472	-0.14286068	0.2772416	0.16143252	-0.23195782	-0.050810315	-0.18484971	-0.46280873	0.19550595	-0.6375067	-0.29818025	0.23355727	-0.19066334	-0.083129585	-0.24240755	-0.114477664	0.2600472	-0.19126932	-0.33854568	0.18051001	0.5177064	-0.07967701	-0.0050693606	-0.1987487	-0.32585266	0.14887823	-0.1421406	-0.18663454	0.16329002	0.079732046	0.7271028	-0.18817899	0.18239807	-0.07084412	-0.42150956	0.48497087	-0.24599421	-0.32312477	0.31016713	0.016577037	-0.22835931	1.0216976	0.05880443	0.083495	0.20663933	-0.5620052	-0.3067829	0.06922501	-0.31674808	0.2178648	0.3020636	-0.28235883	0.2937185	-0.05985663	0.0075738747	
0.49594522	0.8047943	-0.17653087	-0.35478985	-0.2247189	0.50945574	0.48760837	0.051464885	0.43160143	0.089921266	0.01175032	-0.15705389	-0.7151143	-0.6552103	0.27462438	-0.23364308	-0.0638168	0.77722865	0.23431256	0.3238774	0.44232234	0.30528727	-0.10205212	-0.45231605	-0.2870477	0.33620694	0.5609796	-0.030281942	-0.2733118	1.0644032	0.92215097	-0.1448878	0.35932505	-0.14421362	-0.29796562	-0.19024117	-0.2854955	0.45931867	0.4280139	0.6025362	0.1844982	-0.13471867	-0.5551212	0.21893156	0.47764832	-0.18885083	0.49678627	0.072855406	0.0041768807	0.18349564	-0.0029591105	0.2648727	0.10064426	-0.18123333	0.21780547	-0.31445488	0.18813115	-0.194559	0.12895815	0.11974438	-0.062337022	-0.36117926	0.6000513	-0.17805834	
-0.026252434	0.20857337	-0.036498785	-0.005025876	0.08935633	-0.022171289	0.11700479	0.09335475	-0.107525535	0.0020907796	-0.15391867	0.14342992	-0.14588484	0.12216121	-0.057062425	-0.18285573	-0.1462993	0.09292592	0.09833896	-0.05807607	-0.11590008	0.1189322	0.021258717	0.16641238	-0.023675734	-0.04877025	-0.063177496	-0.17569473	0.021159513	0.016987458	0.14335349	0.15642932	0.14366797	0.06724839	-0.065453365	0.13874362	0.18078512	-0.040274844	-0.21201251	-0.071964286	-0.13940123	-0.21106936	0.098560385	0.065173775	-0.038119078	0.011190166	-0.17212474	-0.017486526	0.10553407	-0.17905766	-0.1291962	-0.03598731	0.17605856	0.011239215	0.0040196422	-0.0094323605	-0.0013108978	0.14743176	-0.061149795	-0.19473939	0.09481922	-0.054565802	-0.09301692	-0.10829004	
-0.09366123	-0.017981717	-0.11635678	0.08865526	0.12659237	0.09953771	0.100845665	0.09201887	-0.07225995	-0.009969115	-0.095075354	0.0792332	0.11482844	-0.15394868	-0.18906888	-0.036173627	-0.10569587	-0.16837402	0.105446994	-0.027867012	0.07575931	0.06618363	0.027779356	0.112349994	-0.08579139	0.18105824	-0.15794742	-0.032246124	-0.09911737	-0.065305084	-0.14093179	0.08409485	-0.18133827	-0.12612468	-0.03652051	0.13929008	0.08130854	0.114051685	-0.15469646	0.1814349	-0.03479509	0.09739536	-0.036901698	-0.17609282	0.009709969	0.027423877	-0.052731663	0.07241568	-0.04754746	0.16097778	-0.09077422	-0.10127844	0.064620286	0.1717401	0.00047579408	-0.038148843	-0.13204736	-0.15079972	-0.13599806	-0.053277284	-0.11322882	0.13331734	0.026648294	-0.16033499	
0.20428228	0.20156479	-0.009543894	-0.02681111	0.089111626	0.3779723	-0.104452014	-0.18529664	0.37307498	0.0034917188	-0.1666241	-0.053336706	0.08607299	-0.013894306	0.057017013	-0.022486335	0.11921013	0.18382253	-0.43857193	-0.2882043	-0.16928113	-0.03536621	-0.010269592	0.09547341	0.060102433	-0.073619016	-0.181937	-0.06996533	-0.30672225	0.08532027	-0.118622825	0.05411193	0.24665423	-0.11407101	-0.19076742	0.11887647	-0.026789378	-0.22280373	-0.0712094	-0.13085912	0.04613547	-0.18502931	-0.2610452	0.034964085	0.069550216	-0.2543681	-0.0515593	-0.18731165	-0.31344277	-0.06929818	0.33025104	0.19185413	0.011590712	-0.010426801	-0.45281503	-0.07460253	-0.10631541	-0.18520924	0.11890204	-0.20271057	-0.08686915	-0.049577016	-0.082118385	-0.17425865	
-0.07378253	0.3092495	-0.11329751	0.063124284	-0.26998594	-0.1056077	0.16441864	-0.20147589	-0.097537145	-0.06717627	0.010426698	-0.06442014	-0.22850823	-0.024358455	-0.33566833	0.18282942	-0.19279625	-0.16659679	0.017886257	-0.039715298	-0.05363401	-0.002723055	-0.28153372	0.23890528	0.2682712	0.09541012	0.03795019	-0.12834407	-0.03853615	-0.25089005	0.061659817	-0.17454536	-0.07180536	-0.119911455	-0.1484972	-0.0062656165	-0.26228613	-0.19570465	0.07498843	-0.15353218	-0.38555616	0.011720695	0.09246653	-0.0033833645	0.018456578	-0.35267043	0.076862834	0.05253864	-0.15001987	0.13112646	0.170352	-0.29683065	-0.23529889	-0.32901785	0.017639782	0.2552547	-0.18268354	0.049799543	0.10175712	-0.1770761	-0.2679559	-0.021747904	-0.1661806	0.14455171	
-0.0028691604	0.017450467	-0.08887708	0.59150946	-0.05830039	-0.015616727	-0.08364409	0.097830884	-0.0715716	0.145139	0.37744987	0.20156118	0.06609327	-0.6343556	-0.020496884	0.30082214	-0.97972643	0.065176025	0.106266476	-0.028454922	-0.022435812	-0.23634808	0.09614792	0.057276677	-0.3414111	-0.17846458	0.21516024	-0.043530647	-0.1982803	0.051913746	0.58690214	0.040889643	-0.09211432	-0.06460605	0.14354222	0.032305166	-0.03725261	0.084733404	-0.15017237	-0.0017834838	0.037350707	0.028227892	0.008764498	0.16175775	0.066259414	0.16483177	1.3762301	0.03290176	-0.12871264	-0.25083297	0.057244148	0.11827186	-0.065647274	0.0050560934	-0.041164838	0.19879642	0.0152556775	0.4848445	0.073326744	-0.004274905	0.06566635	0.29412383	-0.1480334	0.09256562	
0.07774231	0.09582364	0.13727516	0.014312676	0.053060487	-0.27380174	0.18664521	-0.0017527074	0.22286996	0.011779997	0.16585447	-0.08402581	0.6311274	-0.19338757	0.09337812	-0.23029259	-2.9344473	0.10677719	0.055274826	-0.042239495	-0.20665488	-2.4413812	0.074048266	0.2791537	0.15398692	0.14280067	0.8228684	0.14075196	0.004337329	-0.006488218	0.74083626	-0.03354214	-0.40843865	0.033907957	0.52581483	0.89028406	-0.056470674	-0.040772043	-0.06270742	-0.070111625	-0.14960702	-0.24631304	0.15905826	-0.014648207	-0.03162676	-0.073579006	0.2944537	-0.20231701	-0.040196683	0.1887017	0.0006269085	-0.10530221	0.11323113	0.0398367	-0.046176594	-0.004230284	-0.07758686	1.2668695	-0.2082141	-0.070401125	0.054162655	0.025418399	0.081195906	0.001358254	
0.019441392	0.024615861	-0.015417143	-0.8993016	0.11467328	-0.001535607	0.1806596	0.00012362104	0.102703035	-0.3116089	0.027966833	0.25832668	0.044002913	1.0802786	0.08591299	-1.7913888	-0.90049356	-0.09976911	0.024875488	0.060884245	-0.356621	0.06080583	-0.0139967445	0.22114792	0.046818476	0.06703166	-0.6326173	0.12258311	0.15561049	0.09541135	0.6032091	0.07886208	0.5411213	-0.06372092	-0.5036339	-0.023700943	-0.015293769	0.07994434	0.25516686	-0.07846347	-0.007975983	-0.119324796	-0.14705195	0.014170688	0.011104464	0.121322066	-2.2930865	0.064430386	-0.078673884	-0.31904233	0.109623834	0.066044785	0.03175786	-0.04514619	0.21008712	-0.24828868	-0.078702465	1.8533635	0.06513775	0.02069094	-0.35364136	-0.15889245	0.07083088	-0.16178417	
0.08418549	0.082510866	0.07746191	-0.040319867	0.11492487	0.08833561	-0.15930004	-0.03447478	-0.100525826	0.058445737	0.06484967	-0.4357699	-0.414079	1.0327053	-0.055083595	-1.6069965	-0.5358756	-0.039431654	0.015148064	0.0048829317	-0.36938873	0.7445363	-0.018509375	-0.20055492	0.33392414	0.1269509	0.022144286	0.103608765	0.34949064	-0.030828811	0.22686869	0.02480345	-0.37673733	0.13813353	0.27203697	-1.1128687	0.08908063	-0.017530495	-0.034526836	-0.20337078	-0.036685858	0.021593742	-0.21128498	-0.24666566	0.078111395	0.09099847	-0.7051252	-0.094240636	0.07554675	0.034545917	0.036321662	-0.115428284	-0.0755107	-0.057262473	-0.050733864	-0.08522708	-0.05100854	0.5957972	0.09830164	0.014972308	0.22011243	-0.055218287	-0.013432416	-0.06347077	
-0.05788061	-0.012517243	0.15100516	0.32622993	-0.070208915	0.006031765	0.17799562	-0.064750925	-0.13030471	0.1466336	-0.17661364	0.10351278	-0.3629042	0.40027335	-0.11128578	-0.50329393	0.25455466	0.025742404	-0.058429226	-0.026938813	-0.70759326	0.84753686	-0.07325357	0.110438704	-0.03568735	-0.2707094	-0.062279023	-0.042812753	0.31639248	-0.026133155	-0.06403176	0.17979646	0.10360277	0.09575307	-0.008019855	-1.4507608	-0.09541149	0.124491304	0.10359122	0.12272384	0.117644906	0.12102408	0.18374453	-0.20945884	0.049057208	-0.0293657	0.11141183	0.06755906	0.028027873	0.1811101	-0.02229701	-0.05642588	0.0053871684	-0.104114	-0.017611932	-0.13529326	0.048322544	0.062504314	0.35427687	0.041362684	-0.050204273	0.07778077	0.045928128	0.0453756	
0.13340214	0.030563757	0.01862391	-0.20431213	-0.015166713	0.36823484	0.09486443	0.15761556	0.016908519	0.39114353	0.1693868	-0.19098994	1.338656	0.21801837	-0.15660311	0.54590964	-1.1134843	0.052924406	0.0506636	-0.16338997	-0.08358634	-0.74781287	0.06925517	-0.3127863	0.42031467	-0.05375193	0.065663435	-0.061715905	0.08156846	-0.06355779	0.16387461	-0.0025616162	-1.2343866	-0.06878089	-0.5424732	0.4108266	0.015843388	0.12534729	-0.04204394	0.011136491	-0.08004632	0.38244656	0.32708654	0.01499788	-0.07493731	0.05275315	2.5501356	-0.04581571	0.004303059	-0.3724	-0.07270087	-0.2360404	-0.071725965	0.1489835	0.07803908	0.13214646	-0.03800399	-1.4542897	0.010469097	0.015841708	-0.028148575	0.059161115	0.050106604	0.07148705	
0.11633776	0.035174742	-0.43044862	-0.04485718	-0.14128035	-0.4102528	-0.268232	0.30513272	-0.2815265	-0.23293725	-1.5369884	-3.0674174	1.6511041	2.2706106	0.020440452	-0.48663318	-0.5560033	-0.20260866	-0.112594336	0.292732	0.50151694	1.4906648	-0.124537684	-0.49878514	0.6608861	-0.0639929	2.4819853	-0.29651657	2.7423854	0.041617658	-1.0030042	-0.19414893	0.40545523	0.13301925	-1.4446691	-0.1701455	0.0927105	-0.12533186	0.13754064	0.10869653	0.18883567	0.12725632	-0.4206159	0.089969896	-0.18942252	-0.11015464	-0.4283321	-0.17886856	-0.045378145	1.0307904	-0.1708116	0.005655195	0.010788203	0.05253102	-0.012277413	-0.10778479	0.088033356	-7.325776	0.13087204	0.02760199	-0.14313787	-0.33253753	0.2521091	-0.46067068	
-0.059899423	-0.28978768	0.31379133	0.9255355	-0.04495684	-0.08033944	-0.20653677	0.008002063	-0.31222185	0.6701357	0.3905434	-1.005428	-4.992934	-0.64959943	-0.11344085	3.2991362	2.0378506	0.2944545	0.15868719	-0.34508318	0.9996146	0.16738516	0.024106594	-0.2767978	-0.95689356	0.08867192	1.532879	-0.26030347	3.9871051	-0.19559704	-0.75389546	0.22347534	3.51256	0.014321593	1.8305434	2.5524497	-0.22015141	0.16889846	0.12487071	-0.21026507	-0.08895773	0.27568585	-0.17692702	0.25282103	-0.005958022	-0.14340807	-4.689044	-0.036996875	-0.078238845	-3.731582	0.0574094	0.27909958	-0.01196547	-0.045150798	0.019326137	-3.770787	-0.24396776	0.8509815	-0.21246569	-0.005795093	0.2267678	0.23799028	-0.085193306	0.42832175	
0.621589	-0.1450109	-0.018877523	-0.25285766	-0.13347389	0.28794873	-0.3972794	0.1804284	0.10005783	-0.107477106	1.7236496	0.8534682	0.103802934	-1.7842329	0.04939931	2.5512555	1.0923872	0.18739428	0.012413273	-0.065473646	-0.7833265	-1.9464488	0.18418826	-0.05400544	0.47353843	-0.012643225	-1.3436643	0.04736019	-0.68508935	-0.006503349	-0.24706179	-0.14044471	0.6853619	-0.031184811	-1.2210635	0.738262	-0.12574665	-0.028577363	-0.273972	0.23263225	0.2943464	0.41470277	0.58072114	0.1265066	-0.06728412	-0.04971211	3.9964712	0.026009042	0.019417416	-4.475475	0.019402746	-0.06719539	0.11343904	-0.32103014	-0.15359685	-1.3204075	0.34214127	0.5524242	-0.055198032	0.016792452	-0.0921795	0.13460949	0.05328055	0.19031693	
0.27474245	0.059947763	0.013997171	-0.36178836	-0.030500595	-0.23026633	-0.27722234	-0.11719856	0.38309658	-0.39932823	1.2603858	-0.11695187	1.0883087	-0.7523376	0.15347306	-0.15744475	0.15807049	-0.0032742044	0.061998807	-0.008414628	-2.0644538	0.31960735	0.02637731	-0.097155765	-0.50121635	0.002848662	0.6715689	0.027450535	-0.33893687	0.079977915	-0.38624156	-0.14536445	-0.511148	-0.026571255	0.232057	-2.7348306	0.032202248	-0.2210564	-0.12804529	0.0550649	0.06541822	0.7854161	-0.29570892	0.012473601	0.05333054	-0.04191738	0.6488621	-0.011913447	0.17534153	0.8506884	-0.035096828	0.06751225	0.005443874	0.094480634	-0.042256996	-0.00196441	-0.22653344	-0.24629964	0.14082123	-0.06227911	-0.010050312	-5.531388e-05	0.114623085	-0.18021911	
-0.15034784	0.22311418	-0.09222747	-0.11146916	-0.09456167	-0.06926119	0.020147592	0.058391746	0.028723193	0.9789289	0.15583678	0.92129666	-0.96992254	2.1044276	-0.5045653	-0.68320465	0.2159326	-0.13718088	0.077876285	0.0749995	-0.24296647	1.7375762	-0.06685915	0.31203514	-0.52025443	0.25068375	-6.5215297	-0.014682857	0.027697027	-0.05612539	0.21326853	-0.040689718	2.810684	0.05457577	-4.4436326	-0.024104485	0.019385677	0.028473096	0.10717867	0.18957198	0.0027338339	-0.31801516	-0.59916914	0.24370058	-0.14187896	-0.09463748	-0.1740966	-0.10583305	-0.1455517	0.2372132	-0.19881971	0.04787957	0.110645935	0.32967404	0.24225065	-0.35872072	-0.09336139	0.33808464	-0.0025443933	-0.13196133	-0.062450547	-0.3424036	0.030247305	-0.20948651	
0.017026132	-0.29973015	0.40960857	-1.1365663	0.28165132	0.37200305	0.44454753	-0.70445734	1.2824785	0.2731542	0.32717118	0.095368765	-0.71526945	0.6052673	-0.9671948	-0.38895112	0.101749204	0.17270799	-0.43922713	-0.21582492	0.23492925	0.83962417	0.118574016	-0.6493214	1.7136611	-1.1378992	-0.23339748	-0.2033717	-0.094072394	0.12378538	0.5758683	-0.50891644	-0.43421474	0.032368198	0.20038664	0.32054448	-0.57337946	-0.18351889	-1.1464844	0.11652068	-0.30440593	0.2791693	-0.39647585	-0.22849712	0.28387055	-0.13206209	-0.20070349	0.71027184	0.32961956	-0.011381661	0.41988897	0.2896001	-0.68851787	-0.14207794	0.20684022	-0.14451255	0.045587335	0.0003240591	0.4731468	0.050082322	0.699193	3.001821	-0.19068062	0.4478745	
0.8104762	-0.17801045	0.10850913	0.31239253	0.0076761236	-1.2098801	0.7336982	-1.1269944	-1.9412471	-0.2326276	0.074313216	0.15350132	-0.1614368	-0.4706239	1.1038841	0.1506368	0.68929213	-0.1568026	0.18054928	0.22561523	-0.45764077	-0.17178442	-0.33368874	-0.47872344	0.008852946	-0.3570493	-0.14584222	0.71792537	-0.00719255	0.21704683	1.1123271	-0.44823396	0.677741	-0.32272077	0.4068753	-0.11202103	-0.18185557	0.32652298	0.22398755	-0.35591003	0.5900236	-0.35187247	-1.62192	0.057755627	0.006876677	-0.15155692	0.09273469	1.0274585	-0.40808353	-0.13223286	0.35099217	-0.63984585	1.2457484	0.22671977	-0.42894	-0.20991571	-0.19028197	0.040165722	-1.2639835	-0.9687927	-0.54177976	1.0625657	0.20913568	2.8871334	
-0.07140302	0.35826537	-0.5139914	1.2577066	0.5242957	-0.10654785	0.3843325	-2.8650634	-0.37199646	0.3388696	0.41293535	-0.080819815	0.9133047	-0.07239059	0.76142174	-1.2555891	0.11877381	0.08521954	0.30216223	0.12393702	0.40176463	-1.3686379	-0.79004014	-1.5136901	0.0092727505	2.844123	0.03975286	3.3569365	-0.2313068	0.11904509	1.2160039	-0.6252411	0.13331142	0.037394922	0.0715504	-0.10148184	0.8825368	-0.006161394	0.15145001	0.04975321	-0.81898195	1.0482752	0.12798332	0.10498042	-0.09035165	-1.0068772	0.2795437	-0.558713	0.32896742	0.06774562	-0.013607572	0.11705099	-1.1139034	-1.4177988	0.23622924	0.31471545	0.5146888	-0.17424785	-0.6941449	1.081791	-0.7360126	-0.5101253	-0.11640263	-0.26757473	
-0.5193661	-0.15953732	0.2842317	0.85837317	-0.68900573	0.042221118	0.39330545	-2.036405	1.8620763	-0.22576326	-0.7446953	-0.18018131	-0.387284	-0.09201568	-0.4162547	0.6458363	0.09730857	0.058968846	-0.0052099265	-0.10860693	0.46752393	0.3026948	-0.044122122	-1.0632722	-0.3062595	1.1492531	-0.02514069	2.0171642	0.14046268	-0.6458286	0.340231	0.040200513	-0.24206589	-0.095350526	-0.21884799	0.17787379	-0.0015717668	0.23329465	0.24486424	0.34177682	0.087205514	0.55262136	1.3669456	0.35813108	-0.24685393	-0.7058259	0.08271216	-1.0302899	-0.28997087	-0.23623301	0.02178097	-0.14556767	0.05704366	-0.34107736	-0.17642567	0.19324708	-0.30027857	-0.039907567	1.5880758	-0.102160014	1.4483311	-0.82286245	0.14094321	-3.1058753	
-1.3824153	0.15693049	-0.26999962	-1.191886	0.29670563	0.43510324	1.2445047	-1.1613741	0.0813907	0.009755532	-0.34559146	0.044709936	0.17232266	0.16008653	-0.6023791	0.15358025	-0.026126672	0.28866035	0.22590357	-0.21476904	0.10258569	-0.20124899	0.8913746	0.15125594	0.38724637	-1.2436167	0.18084629	-0.28361845	0.113536246	-0.35112083	0.06558087	0.89321387	0.2864754	0.12238564	0.084490955	0.23948543	-0.27389216	-0.099039845	0.633574	0.046530828	0.09698246	-0.5436138	-1.0890691	-0.2007147	0.16053905	-0.33588222	0.18498172	0.2460548	0.20382027	-0.10569222	-0.224838	0.1802758	-0.12464444	0.63104814	-0.03426176	-0.013755695	0.17746949	0.01722639	4.15269	-0.19473587	-0.7366261	-0.17216577	-0.27458218	0.14608404	
-0.5506296	0.061915662	-0.07233066	-0.14654596	-2.0188837	2.2066572	-0.09568211	0.34322676	-1.9420239	-0.24213699	0.6522317	0.01230069	-0.31488714	-0.81382	-1.5782434	-0.1096628	0.23449057	-0.14931037	0.79441714	-0.08443668	0.20346928	0.8951601	-0.18624666	-1.3140259	1.3688427	-0.9827068	0.29593763	-0.21820226	0.031105742	0.41365337	1.7463729	0.6602126	0.20203508	-0.053736743	0.5435478	-0.2084561	-0.39475122	0.27681038	0.31515655	1.2394915	-0.68506414	-1.1557475	-1.369637	-0.1635755	-0.14059444	0.15861493	-0.14021678	0.43532994	-0.2278865	0.07442926	-0.5752109	-0.5945372	-0.09525414	-0.34479454	0.20581988	-0.05542556	-0.33360654	0.31367886	0.1789285	0.6540552	-0.85998285	1.978705	0.3011147	2.3814812	
0.4183063	1.2007396	0.7147773	1.6015716	-0.21915066	-5.507135	-1.1424327	1.3526379	-2.0726333	-0.07239531	-1.8672483	0.11814598	1.6093775	-0.22889651	0.04188809	0.6357768	0.12041673	0.30207744	0.0612268	-0.2177851	-0.12620519	1.3706557	-0.08511073	-2.9943638	-1.8745259	-1.2919731	-0.41655675	0.07339194	0.22878826	-3.9321861	0.1553026	1.6936725	-0.27731213	0.36062732	-0.8005017	-0.21495812	-0.14160694	-0.26911864	1.3511659	-0.9729231	0.47441217	-0.083643235	5.059103	1.6975245	-0.06968842	0.50050795	-0.010414705	-1.6813232	-0.9375448	-0.3143739	-1.1559446	1.3080603	0.70075065	3.4332178	-1.0169263	0.21630159	0.698938	0.75725585	-1.0355664	0.42949072	0.8575005	1.3390406	0.26007757	-11.892514	
0.4211517	0.1528556	1.4762244	2.2190907	0.4626249	3.5274708	-0.053775318	2.7770422	6.4882903	-0.014754044	1.351514	0.18444173	-1.1921264	-0.010134573	1.422366	1.8374959	-0.54753464	-0.3107958	0.10931827	-0.2262658	-0.49664554	0.16040668	0.7724114	-2.952738	0.4164755	4.017082	-0.0533008	-10.158501	-1.0924038	-3.0473678	-1.4279176	9.321595	-0.33726624	0.5630106	0.32252374	-0.11058504	1.0432252	0.05107377	-0.28046027	-0.6681013	-0.25978848	1.4713981	-1.1813103	-1.567617	0.61840636	1.2106173	0.40965226	0.12113804	0.11232881	1.0524768	-0.76353717	-0.2237906	-0.5486407	1.599884	0.9641056	-0.27563965	-1.4611256	0.10013489	-0.86823034	-1.2039554	0.36768213	-0.94213116	-0.2596978	5.793909	
4.1377864	0.75492305	0.27181143	1.7164671	0.6283464	2.1806843	-1.2874053	2.0469582	-1.7326591	0.036052316	1.5073419	-0.24239805	0.6410396	0.56475896	-0.3821519	-1.3654752	-0.31403968	-0.19753593	-0.40262002	0.0029659125	-0.58041185	-1.4033045	0.097511455	-0.80640507	-1.7414032	0.5845854	0.2501582	-2.0111957	-0.3556666	1.5182157	-0.7363825	0.04224092	-0.8062828	0.14888325	-0.3191076	0.019976601	-1.4943156	-0.748833	-0.9856596	2.856259	-0.32081196	-3.1554682	1.0779923	-0.3912456	0.5178529	0.6434435	-0.5353686	0.25033754	0.39895415	0.48860216	0.46809977	-0.07908192	0.2188791	-1.4137878	0.8268533	0.35414442	1.5471113	0.0047805104	-2.6465158	-0.13728938	-1.0980883	-0.35124528	-0.17719	3.8053386	
2.9795904	0.017808395	0.20335156	-0.39138988	0.15852171	-1.3352146	-0.29987398	1.0826529	-2.5633943	-0.07126512	0.6105037	0.32721603	0.16107813	-0.13127035	1.6464163	0.060907368	0.10707004	0.08568169	-0.009204012	0.09499759	-0.83341414	0.89655334	-1.0443482	-0.7974371	-1.0893908	-2.2693577	-0.10485076	0.09767165	0.12329884	0.47209337	-0.192528	-0.9007154	0.2332696	-0.12747265	0.00843042	0.26586017	0.6334098	0.01726767	-0.16908284	-1.3606502	0.60752386	-5.099334	1.0161071	-0.02190229	-0.42051223	0.4199303	-0.08594907	0.089852355	-0.2792299	0.15065877	0.09386841	-0.1751637	0.25675458	-1.029878	-0.2783945	-0.20485121	-0.7426362	-0.17556639	1.2249414	0.3265565	0.6332227	-0.05636266	0.31845245	-0.61643875	
0.18924561	0.9825828	-0.126415	3.431387	1.7680627	1.238038	-1.9855622	0.75841004	-2.326058	-0.1944207	-1.3275918	-0.42170691	0.49870127	0.025269903	-7.167992	0.13895403	0.09172444	-0.23842719	0.25835338	0.20227827	0.17121702	-3.124443	-0.19575067	4.264617	-0.39922908	2.787365	0.6812584	0.051715948	0.31887728	-0.35930684	0.76432055	-0.51350516	-0.84593445	0.50667566	0.19277105	-0.1330228	0.5773092	0.20859885	0.35953808	-0.29263157	1.0288087	-0.9617688	0.3472793	0.7848722	-0.35883528	-0.13419539	0.17029856	-1.3639034	0.4586128	-0.11497734	-0.23860778	0.48168436	0.19122839	5.154719	-2.403298	-0.14529811	0.3088881	0.062232833	2.2427888	-0.5666696	0.22475645	-2.087369	1.3875915	-2.7056441	
-0.066003405	0.30314678	0.2396059	1.7106588	-0.7564408	-0.85491717	-0.69927746	-0.8181764	0.033698075	0.38448274	-0.58706653	-0.18530993	-0.04272872	0.0046849465	-1.6327277	0.23061219	-0.66291267	1.1665673	3.6618364	-1.1118945	0.0051208865	0.10437355	0.057155944	0.3755007	-0.7470127	-1.2358302	0.16783807	0.22362754	-0.13406505	-0.35636026	-1.6833773	0.07173216	0.22943115	2.322519	-0.13654585	-0.009143377	2.662658	1.0363156	1.5802855	-1.5011137	-0.66427493	0.19238694	1.3211069	1.7731334	-0.5995054	0.53193974	1.1215955	-2.8591113	-1.2372252	-0.10655359	-2.272257	-4.086837	4.004924	-0.52027607	-0.8843836	0.074182786	-0.826251	0.275422	-0.58545136	0.026269402	-3.0658083	2.9536858	1.0809083	0.8832303	
0.23326579	1.7971115	0.081347406	-0.8002039	-0.33177578	1.3135113	-1.7702432	-2.1108882	0.05610856	-0.044236165	0.13920681	0.047098465	-0.49980366	-0.26936847	1.8572468	0.20279327	-2.4971654	0.039406206	-6.272774	0.054271918	-0.3086636	1.984738	0.031166576	-0.71492976	-0.5727777	-0.5558711	0.61890024	-0.15598474	0.23000045	-0.050851204	-1.5537853	-0.11803083	0.5566519	0.17963248	-0.07585	0.63569117	-0.06381177	-1.1805228	0.7714712	1.4437059	0.505651	-0.6039677	-4.244429	-2.1238732	0.841429	1.474205	0.3201375	-3.6855001	1.6515198	0.08003681	-0.65938026	5.8806643	-8.934846	0.5566326	0.8330433	0.047675002	1.3517816	1.092931	-1.2291365	7.140877	1.9318082	1.6563686	-0.86989677	-0.48412946	
0.54219025	-1.687838	-3.8366537	-2.919301	-2.084562	0.61122775	-1.8489025	-5.4894876	0.10710201	-0.42141336	0.3241311	0.51784366	-0.68133247	0.18067467	1.1150085	0.7294112	-0.5917334	-2.059868	1.9898832	2.048742	0.6059146	-0.062713616	6.243426	0.45121855	0.6972982	3.8956788	-0.5229085	-0.0388841	0.071496576	0.22183098	-2.131765	-0.28448474	-0.35934493	0.9225763	0.043464515	0.16431771	-5.6412396	0.5166019	0.7470334	-0.9909207	0.21713997	0.61355674	5.5557876	0.18909499	-0.40804905	6.637354	-1.6482724	1.8601007	-0.46971294	-0.098941326	-0.69226	-3.947128	7.1101446	-1.0989939	0.015485571	-0.89801514	-3.3803787	1.597048	-0.50712746	-8.330375	3.9107623	-1.0717183	-0.18034413	0.45457748	
-1.0216075	-0.3633332	-1.0355622	-1.0708603	2.1809583	-0.59900767	-2.5410159	-3.2954726	0.1870856	-0.06885299	0.7632376	-0.14521496	1.3579847	0.2374798	-0.11805937	0.61983997	-0.42906928	-2.3276727	0.07417215	2.5212603	0.30663434	0.110956684	-0.8438763	-1.5231854	-0.37177134	0.69952	0.0048249396	0.20705244	0.24152961	-0.17909744	-1.1522633	0.0137706455	-0.21293147	-1.7809196	-0.038247213	-0.8130933	0.90808785	-1.0412817	-1.3845094	1.8016834	-0.22070092	-0.27447554	-1.1035932	-2.0410666	0.55001193	4.1150126	-0.726101	4.6525474	1.420679	0.044796985	2.1841137	3.504526	-2.004096	1.1300898	-0.68530065	-0.37808922	2.8234115	0.2892089	1.7579634	-0.1164034	-7.545991	-1.0715793	-0.103388846	-0.39876404	
0.28289428	-0.21218391	1.3643614	2.1752446	0.42769995	-0.74382603	-2.4365492	-1.3888055	-0.35634995	0.1519588	-0.36378857	0.018606618	0.14229614	-0.09197175	-0.75519955	-0.023517221	0.1662052	0.1726835	-0.3718602	-0.47076213	0.16829027	-0.74671173	-7.082143	-0.112423815	-0.47505707	-1.2938168	-0.20098728	0.108938985	0.062523656	0.10967759	0.22636126	0.042193975	0.18856142	-0.10740663	-0.056613456	-1.0528808	0.7175791	1.0166761	-0.4062325	-1.6675192	-0.029619535	1.4548104	-0.91626453	0.18186118	-0.32210353	2.6062646	0.09562813	0.74065214	-0.05989792	0.042137172	0.40209442	-1.31115	0.14712186	-0.6107045	0.30568674	0.010854822	-0.9893642	-0.0124933	4.980436	1.5591592	4.2183995	0.2512098	-0.05750245	0.013919791	
-0.07706615	2.4346063	0.3337618	0.7288907	6.555347	-3.3959055	0.6683342	1.2863157	0.32460973	0.16361938	0.2452267	0.14695704	-0.7075829	-0.25822124	-1.7394644	-0.44430107	-0.89820546	0.119186416	-8.089589	-0.24475257	-0.41859788	0.29672566	-0.46352604	-0.02799287	-1.7874709	-1.9986724	0.3066233	-0.14868583	-0.17486282	0.41168544	-1.6051927	0.064831786	-0.07598013	-2.4259765	0.24514055	0.27702114	2.5162685	-0.4815481	-1.7810885	2.502006	0.5917206	-0.028136095	-1.3822793	-3.5497806	0.2074674	-0.23137105	1.8482153	-1.7713981	3.4281323	-0.20006901	2.3751864	7.877287	1.1928324	-0.0077795684	2.1744714	0.40987846	1.3749876	-0.8595359	0.20738135	-5.0020685	4.614626	3.0203001	-0.52212757	-1.1030933	
-0.8668009	-6.8859186	0.52030617	-5.0356636	-0.94319576	8.946512	1.4524298	1.9177724	-0.4183274	-0.4736762	-0.3044012	-0.65475947	0.47447503	-0.6687619	2.0240233	-0.54755324	-0.6326496	-3.8819513	13.140826	4.7745814	0.7647187	-1.0311506	-0.53512394	-1.1564319	0.93766683	-0.934042	1.4104818	-0.7161635	0.90516376	0.17643964	1.1387709	0.21784844	-1.0590842	-13.523253	1.1026009	-0.08572885	3.2451324	-1.4845903	-2.879632	-2.9137661	-0.06917599	-0.3143758	2.1529331	-8.344462	2.0393004	-1.8819954	-0.40592027	5.8724117	4.0561957	0.8390785	14.042413	-9.126106	-4.355183	0.0018365122	-0.5627947	-0.75393575	-2.0726035	-5.6883526	-0.82656544	-2.6555333	-3.1639214	1.0016768	0.61213434	0.18901038	
-0.011970264	4.4747233	-6.0812545	6.034499	-1.505039	-3.8244116	2.1405673	6.265218	0.20965788	0.40745226	-1.1692017	-0.4976619	1.5086112	-0.30344045	-1.4771203	-0.703052	1.945713	17.69032	-5.017595	-18.43774	-1.2071022	-0.1437775	-5.8640323	0.48071682	1.2450118	7.0203724	1.3289144	0.22809987	1.001676	0.31676152	2.7320657	0.0032628789	0.919172	-6.7875943	-0.6845484	1.7909722	-6.7144833	3.8226674	2.1874065	-2.2162268	-0.40213972	-0.14216302	-4.834129	10.082169	-5.043503	-7.373351	-3.678548	-1.4600106	-8.4868145	-2.7541702	7.3075805	3.7345343	4.920205	0.10028706	-0.50079316	-0.07594048	7.951184	0.57045376	0.09418052	8.092515	-3.1144512	-0.25127366	0.11114599	-0.39816862	
0.045557458	-1.0121272	-0.94244826	0.8915107	-1.6949594	-3.0445633	3.2228174	2.8931105	-0.10570517	0.22399093	-0.22504133	0.053539842	-1.4824415	-0.6082232	-0.6824284	-0.6689125	1.1329631	6.351401	1.9981973	-5.894429	0.5028497	1.7035656	-0.11304976	0.08722806	1.6621015	-0.9219253	-1.0476203	0.10971556	-0.49163264	0.47589585	1.0573543	0.047087714	-0.035163026	2.7574785	0.3782324	0.6653041	4.9323874	-2.2536964	3.7553377	10.218034	-0.32016408	-2.430632	2.1049929	5.6456776	3.9053545	-3.8921926	3.4314554	-4.298158	-6.616854	-3.350689	-2.3715374	-3.3052893	-2.1790915	-0.7773131	0.51733303	0.06328673	-10.110119	0.6169087	-3.402444	0.54732716	6.1863403	-0.33025208	-1.4068546	0.8074641	
-0.06058882	0.6113433	1.2938582	-0.46430352	-0.4394651	1.7621956	0.40624198	1.7462635	0.3216108	-0.043065082	-0.06625507	-0.14542666	-0.3062166	0.43756256	1.9300638	-0.08661685	0.21720715	1.054869	-0.1674946	-1.0339488	0.6019591	-0.50152326	7.385923	0.17491847	0.25619113	-2.2131643	0.8087487	-0.32190245	-0.21619439	-0.2434904	1.6373515	-0.20761018	0.083297424	0.6850917	-0.10648004	-2.0448327	-0.70961386	-9.090479	-0.5971616	-5.314966	0.33719823	0.94249344	0.29157454	-0.001477048	8.635285	-2.5847793	0.20956221	-0.72734505	-0.28440967	0.8811961	-1.2451999	1.1398813	-0.0101973815	0.9687342	-0.41513345	0.028383955	4.598412	-0.25330636	1.319699	-1.703419	-3.5693161	0.25621885	0.26491758	-0.33316305	
0.3275937	-2.4392638	-1.3772063	-1.2944126	-7.0232677	-1.9816538	0.82468325	-0.054545864	-0.46410766	0.06886869	0.3346003	0.295967	1.0395398	-0.09136381	-7.792381	0.05410205	0.26939365	-2.5832858	3.7258828	2.444666	0.36428553	-0.70950395	0.06085847	2.102234	0.8056235	2.9627252	-4.761745	0.09819251	0.26228374	-0.10421247	-0.47061434	0.019986508	0.61636007	-0.46867323	2.3644977	0.2492827	-6.846242	-0.4218467	-0.46642208	0.49257174	0.32991245	0.9624288	0.7393735	-0.27049583	0.7669222	-0.2754104	-0.40519145	5.015498	-0.07498273	0.11286848	0.6685238	-3.4778807	-0.7213915	-0.28240207	16.24795	-0.5604217	-0.34276685	0.16047035	1.186137	5.76161	-1.8698096	-3.9276385	-16.18915	0.4874256	
-0.8975241	0.04280967	-0.17454952	1.0745735	-0.060732927	0.16230376	0.085528664	0.057808634	0.17745434	-8.434367	-7.994823	9.58112	3.716238	4.0526896	-0.55504215	-2.446742	0.4085234	-0.4231773	0.06430558	0.37284017	4.140605	0.814378	-0.07906716	0.11648204	0.19953763	0.11963418	0.8242033	-0.04572723	-7.354922	0.12752914	0.7753447	-0.3112918	4.305426	-0.029130453	-1.3431472	0.14860705	0.17593086	-0.09242947	0.19219819	-0.33133608	-0.30598405	-1.7701936	-0.11627158	0.009380249	0.10853374	-0.05742203	-0.024411973	0.28999206	0.13322464	0.11381895	0.15447903	-0.09901687	-0.09934646	0.5527715	0.16286416	6.0558023	0.073007755	0.1574485	0.2574927	0.010906248	0.06493206	0.23192433	0.029040193	-0.23963816	
-0.21719134	-0.24787055	-0.3497285	-0.82763106	-0.09031204	0.06499888	0.31050712	0.21166429	0.0032913312	0.62092924	3.1843028	-2.1338878	0.58898675	-2.423484	0.45306337	0.97004193	1.6455405	-0.02550045	-0.2304338	0.16661413	-1.5762177	-1.0570873	0.07199463	0.21110551	-0.20652123	-0.180431	0.14301816	0.14031802	2.1050465	0.32751054	-0.25369424	0.0071551967	0.48250586	0.22236751	0.04281595	-0.09481606	0.11661709	-0.10568764	-0.11262989	0.17076027	0.2507023	0.1915129	-0.28612015	-0.31427193	0.29927155	-0.038188294	-0.23243017	-0.2016149	0.06849667	0.05573904	-0.18883654	-0.1403394	0.101875134	0.040117662	-0.12251557	-1.4314462	-0.09236769	0.38829216	-0.4105375	-0.07016341	-0.07184403	-0.25218192	0.21406627	0.019730438	
-9.766031	-0.2153373	-0.91429454	-2.464985	-1.4228514	0.2259978	0.7129138	0.9151599	-7.3392096	-0.14976664	-1.8309101	-0.015951458	-0.21372424	-3.356653	-0.2985302	-0.52741235	0.45401	0.9803579	0.5738557	-0.8907279	0.7048832	-0.11836841	0.43096665	2.9648921	-2.245908	-1.7179351	-0.3035025	7.8114023	1.4585643	16.638227	-1.2024764	-11.041561	0.4566944	0.76443154	0.38685986	-0.00047303684	-0.15029325	0.06870908	3.4226613	-0.52100074	-20.378176	9.208369	2.972876	2.1543646	0.4792564	-0.518559	-0.16589448	1.1622907	-2.3640304	0.15763058	0.25666484	0.19508271	0.36613077	14.625974	0.793395	-0.25742525	0.070604615	-0.25194764	0.24337901	-0.30811754	0.20863245	0.15819333	-0.40114948	-6.4166503	
1.8995408	-6.0736012	1.4936674	-4.47263	-3.1997082	2.2483742	0.41848987	0.4978974	2.8383517	0.3950817	-0.045062654	0.63883835	-0.62709445	1.9869188	-1.425736	0.3717822	0.9872164	0.6318385	0.09906646	-1.4214724	1.3591834	1.495141	0.90990925	-4.1540027	-7.2724686	1.2144568	1.0837123	0.29124847	1.3126272	3.4613276	2.0419161	1.1575358	1.1273526	3.1396651	0.57779294	1.3488054	2.4131048	2.094762	-3.1254413	1.2326845	4.382803	1.4355327	3.3400846	3.0288773	2.2171159	1.0862013	1.4702812	0.8764163	4.3413057	0.9369445	1.8756106	1.6383884	0.38278556	2.1706579	3.1570337	-0.48925018	0.31108057	1.0909593	0.455408	0.66625434	0.3547932	1.2036872	4.0441227	1.5460566	
0.54281926	1.5464818	-0.5316236	-0.5127949	-1.697991	0.6619283	0.62084055	0.034527328	0.9986126	-0.58271396	-2.2796154	0.13372041	-1.6025563	0.26979226	-0.10283859	-3.6383488	-0.765172	1.6302055	0.34320304	0.7985484	0.82112014	2.129525	0.24753164	0.14836173	0.4552234	-0.48358858	-2.0970824	0.7826057	0.7870582	-3.218762	0.5850671	0.23736762	-4.6451583	0.0009092871	0.7747131	-0.5776921	-0.2914545	-0.36474806	2.0477474	-1.6455462	-0.10916628	2.8296332	-1.7605348	0.07016877	-2.2346823	0.16740732	-3.745962	0.89013535	-2.0107	0.59726804	-1.2707708	0.9264184	-0.5825203	-1.4289435	-0.91389805	1.3659341	0.6245742	-0.20958894	1.9163066	-0.085785694	-0.34089655	-1.4502352	-0.0937236	-0.16851307	
0.9001069	-0.7667629	-3.642995	-1.23557	-2.2494547	0.66646206	-1.3922291	-0.0388338	-0.2487927	-0.33369595	-0.30328315	-0.03475922	-0.17104359	-0.5703829	-3.7402074	1.6779944	-3.4338639	-1.5685661	1.0482522	-1.081191	1.5353605	-1.4658601	-1.3038086	-0.7341804	-1.4683311	0.18398014	0.8036878	1.6076729	-0.5301955	0.78731894	-1.5192	-0.54279834	-2.510706	0.81798697	2.7304814	-0.6405493	0.10762155	0.67717385	-1.0575029	-3.1984916	0.7101718	-1.0917894	-2.067391	1.481263	-0.6148997	-4.3111033	-0.13617861	-2.4516358	0.26159763	-2.909765	-2.8049102	-0.20407677	1.210264	-1.3862203	-4.0251617	-1.6374794	0.9240298	-2.4372253	-2.4899702	0.00042174413	-0.93318576	0.11576054	-0.4036931	-3.1387565	
-0.010666319	1.9667532	0.49508032	-0.495063	1.6895072	-1.6684641	0.28938365	-0.4071822	0.96017027	-0.8958499	1.2667431	-0.4625949	0.16489187	-0.5025997	-0.7562087	-18.73264	0.59057003	-0.23578656	-0.43597376	-2.5034168	-0.7618431	2.1673682	-0.05660855	0.045228343	0.33339995	-2.0891902	-1.1567774	2.0083442	-0.33430263	-0.36961964	-0.21820949	-0.35143065	-0.33921748	-0.038057577	1.7407002	0.51503277	1.2216007	-2.0739791	0.88020706	-0.13594162	0.30301237	2.0191686	0.6170458	0.55362886	-1.0876448	0.43872672	-1.3149705	0.31532803	-0.3426365	1.854381	-0.2618411	-0.26580998	-0.7527466	-0.8730864	1.0743291	-0.7615172	0.4445629	-0.69769657	-0.017637435	-0.5937942	0.9674341	0.8286491	0.813493	0.57735515	
-1.0931878	-0.42192772	-0.8713934	0.04517996	-0.19723305	0.4542114	-2.049232	-1.24431	0.03108164	-0.6431611	0.6597957	0.3634391	-0.64203614	-0.21749853	-1.5301477	0.6511508	0.72624326	-0.41057432	-0.6927307	0.90886974	0.10500916	0.69889975	-1.2946323	-0.35582182	-0.80852634	-0.031001572	0.89478683	-1.2234106	-0.9379358	0.7411008	-0.5176454	-0.024431951	-1.4114498	0.88826483	0.89902633	-0.5123673	-0.35349703	0.8673408	1.2242894	0.9033914	-0.5656081	1.1976836	-0.02587697	-0.20060334	-0.10378839	-0.004715607	0.9711565	-0.962581	-0.39546838	-0.9259987	0.33635348	0.9355723	0.6970979	0.9991937	-0.5572706	-0.6031706	-0.5878429	-0.09233686	0.06056141	0.98873556	0.88367134	-0.8737032	1.0391504	-2.157073	
0.21961157	0.8611223	-0.15740247	1.4896879	-0.03354091	-0.56785196	1.7081401	-4.581834	2.4445946	0.58940357	-1.620539	-0.067620225	1.4186122	1.3100046	-0.21136227	-3.6710935	-1.4630237	-0.46148401	1.0157439	1.2738217	1.1740869	1.35934	1.7134135	-1.3021432	0.8722485	0.6988304	-0.21853454	1.7299831	1.0347492	0.32750034	-1.0654207	-0.6469185	1.3708135	-0.19452375	0.1864169	-0.31169373	0.8024992	1.365907	0.4518	-0.9916319	0.61690944	0.97023886	-0.6216496	-0.9532829	-1.1311008	1.0880755	1.7600613	2.1051645	0.8888751	1.4495145	0.15553512	1.6454482	0.27239057	1.1807054	-1.6264256	-0.5430958	-2.3268275	0.53310794	-0.8110255	1.4832901	-0.19316475	1.1882325	0.025626477	-1.1066263	
0.44823617	-0.40271145	-0.59066105	-0.5942588	-0.7370721	1.1010535	-0.3450932	-1.1068451	2.8171875	-2.5457015	-1.6308473	-0.09619603	-2.2134109	-0.06156835	-0.5432154	0.48617214	0.009380142	-0.15314615	-0.20501174	0.71906674	1.396053	0.17224412	0.6332009	0.86184853	0.26717615	0.65778023	0.75485367	0.7357555	0.7464644	-0.59932464	-0.24640465	2.0594707	0.5802847	0.30221838	-0.23148926	0.25058955	2.6329064	-0.49555233	1.2143854	0.0726041	-2.3900356	-0.9782082	-0.47752756	-0.809325	-0.49373153	-1.2388908	1.4731259	-0.80499303	-0.034525786	0.20157866	0.07503949	-3.5256104	0.40054154	-0.87183833	-0.68482035	-3.925982	-0.03431354	0.3886376	0.3582864	-0.9140094	1.1632031	2.307445	1.1058671	-2.8909025	
1.0391046	-0.73542255	-0.110428885	0.05740492	-1.1463814	-1.1956428	-1.3386946	-0.1686287	2.1365383	-1.9798136	-1.9691297	1.0887922	0.31259227	-0.3181475	-1.7070074	-2.0543032	-0.61475724	0.6553469	0.4000233	1.7533711	-0.1741468	1.2501365	-0.21147996	0.2478789	-0.078042455	-1.228737	-1.2949433	0.3275829	0.62928486	-1.0166321	0.42420432	0.02012382	1.3746748	0.28299507	0.9996709	-0.44415763	2.1779885	-0.06662686	1.8290259	-0.8446015	0.63114446	2.4412196	-3.5692666	-0.13257763	-3.317042	-0.1027169	-1.7176222	0.89185476	-0.9361412	1.437417	-3.242833	-0.49722472	0.08277738	-0.56624895	-0.23193197	-0.45105067	-0.045236405	0.39207208	0.64904	0.42045638	1.1742547	2.1763854	0.7345849	0.14109442	
-0.29549873	0.50602955	0.5487319	1.0689842	0.1751103	-1.1006383	-1.3370281	0.7982374	-4.5258856	2.3593245	-0.46941403	0.3305924	1.380893	0.6432297	-0.2079214	-3.1892385	0.103447504	-0.12641138	0.22276805	0.3891297	-3.3405967	0.71524984	0.8618246	-1.4183751	0.9237448	0.2628209	0.2811256	0.5805353	0.619391	-0.043699168	2.253434	-0.9912577	-0.58756113	0.08382841	0.9394925	-5.051028	-4.197269	0.46333396	-2.3491075	0.1847507	0.4561558	1.8168215	1.4684749	1.1074553	-0.7617407	-0.31348842	-0.43842462	0.39148134	0.15325595	-0.26214346	0.28846422	1.1157842	0.31247172	0.6907111	0.93015355	1.0387434	0.6227769	0.16356504	-1.5227904	2.2645147	0.63386756	-2.1371024	0.068126746	1.147547	
0.31567454	-0.23906168	-0.14691025	-0.6107484	0.36035916	0.14087641	-1.1404433	-0.95985854	0.39066833	-0.090350285	-2.3663332	-0.40923944	-3.87829	-0.32797214	0.024450636	-0.47353286	3.0800202	-2.9916778	-1.0343751	-0.07059705	-0.50551504	-1.1663535	0.23327993	-0.20034002	-0.3808497	-0.4173979	1.6623404	1.9541788	0.32473698	1.8834951	-0.4640363	1.319228	-3.8114974	-0.4863578	1.7588433	-0.6865243	0.1893036	0.1352698	0.30297396	1.7200373	1.2191806	0.9285155	-0.9774334	-0.4056378	1.469123	-1.9884505	2.376889	-1.4488491	1.4088612	-2.030082	1.0596294	0.80849653	-0.23515409	-0.24877535	-1.4309921	-1.2766196	0.30076596	-0.41138172	-1.5380285	-2.556742	-0.8105626	-0.80996436	-2.488226	-0.007639294	
0.26445335	0.3128471	-5.117086	-1.467022	0.3011224	0.2572291	-0.51458144	0.106886156	-0.077870116	-0.09559892	-1.0421917	0.48521727	-5.282352	0.41763026	-0.035943463	-0.25396863	0.0732079	-0.2260263	-1.9359598	-5.331631	0.14908472	-2.9191086	3.274284	1.0206847	-0.6577268	0.35733548	0.3156321	0.22714415	-0.43811253	0.8422386	0.24585636	-0.6137585	-0.6518657	-0.49796203	0.70054865	0.6281152	-0.18467489	0.12470927	-0.059524145	0.18415834	0.14769875	0.35320804	1.9696797	0.06688124	1.3161604	0.56986445	0.96398324	-2.005088	1.8925024	0.52546144	2.8240144	-0.49785215	-0.3372926	-7.2107368	0.010361543	1.2927	0.49040553	0.22462271	0.010729091	0.69405603	1.4666599	-0.39324415	0.4667259	-1.8295208	
1.4488392	-0.36356276	0.4155381	-0.32825854	-0.92883694	0.5535755	-0.14306997	0.23291455	1.2476368	-0.08271042	1.194238	0.27225524	-0.12587206	0.27240592	-0.39827096	0.987079	-0.20206183	0.95320666	0.010719455	0.19596843	0.18055667	-0.46365133	0.84309316	-0.21321422	-3.0314496	0.57742625	-1.0823882	-0.044058878	-1.3640441	-1.2175148	-0.078393444	0.5623661	1.4605744	-0.30917576	-0.595393	0.6050518	0.97991675	0.11632987	0.26753426	-2.8227944	0.044067923	0.61061937	-1.8173944	0.026259001	-0.76273566	1.5699787	-1.2731539	-0.43503526	-0.93572867	2.079259	-2.5461555	-1.9572994	0.31884953	-5.1486588	1.3876603	0.97670645	-0.48905447	0.3005925	-1.2762095	0.16169111	0.017403807	-0.14357257	0.081959985	0.7328578	
0.8358867	-0.05679246	-2.3975966	-6.170264	-0.8646531	0.51387274	-0.13170499	0.7910846	0.045859564	-0.34348974	1.3039865	0.34493905	-1.7255303	0.58103555	-5.4033365	0.6401991	0.95135456	0.81032056	-0.52672	-4.407768	1.5030471	-2.1101744	-2.3555825	0.4636503	1.334293	0.42479226	0.6255746	0.56913334	0.64290506	-0.20670107	0.9988425	1.0170244	1.0700603	-0.1843207	-0.13236338	1.5455859	-0.18607886	0.15325607	-0.08869264	0.700364	-1.7907617	0.17126189	0.14049724	0.22616027	2.028435	-3.0739877	-0.06416658	-0.68737674	-0.4883038	-2.6734366	-1.3423197	0.5493587	-0.21864766	1.1109304	-3.0972314	-1.2728752	1.04905	0.05046174	2.1073227	-1.6187167	-2.6362002	1.0070518	-0.9005862	-1.0669767	
0.41004333	-1.2432295	-0.9798727	-11.336379	0.9526363	-0.64033026	-0.7692115	-1.024374	0.56952804	-0.71842784	1.4635994	0.7760391	-0.09501386	0.084050804	-1.9662412	0.68391776	0.9668978	-3.0539865	-0.6351896	-0.25578356	-0.8451323	-1.4400709	0.57139796	0.27257693	-0.07397935	0.33471408	1.4207575	-0.12697487	0.8169136	1.4543108	-0.3069295	-0.72954595	-0.39934412	0.06790269	0.57443863	-0.9191293	0.99200886	0.071089104	-1.2003858	0.11693529	2.40369	0.3721088	1.4141383	-0.31426647	2.2775688	-0.22086854	1.5249283	0.5567514	1.1088781	-0.34113646	0.62828	0.81760806	-0.065774165	-3.616081	0.760263	0.32501993	-0.2639335	0.053440638	-5.472868	0.6343668	-1.5509706	-1.0028497	-0.4559052	-1.546928	
0.8590547	-0.76845866	-0.19983606	-10.363163	0.4997934	0.023618536	1.0647215	-0.4134527	0.25895563	-0.8860941	1.0023506	-0.6134257	-0.5601824	0.24408145	-2.6975548	1.5799512	0.92758775	-0.24046917	0.0030883148	-0.28499654	-0.42258832	-2.0473483	-3.4215324	-0.091804326	-3.8567362	0.6950555	0.1944452	-0.17732902	-3.00718	-0.16700004	-0.26176727	0.3324785	0.45621783	0.024027206	-0.057213407	0.4870359	0.31555593	-0.09561271	-0.43459892	-0.09245193	0.28292102	-0.40301582	-0.5259202	-0.61693203	-0.12991656	-0.6192666	-0.35363355	1.1462452	0.18887323	0.14776558	0.116832934	0.20669542	-0.01588942	-0.2741846	0.6565108	-0.1710554	0.076173514	0.27603737	-3.709353	0.5685299	-3.1627345	0.06118734	-2.1218965	0.24080278	
-0.40426764	1.1486672	-0.77585334	1.1617309	-0.31644943	1.0594419	-0.898405	0.90747666	-4.6714244	1.9174832	-1.1528246	1.0141593	0.9608074	0.17050841	0.2740555	0.6172816	-0.37824988	0.8428933	-0.35532248	0.82982373	1.0523472	-0.17346595	0.43729076	0.30857056	0.6129253	0.63118285	0.2724929	1.8127947	0.23572305	-0.0381576	-0.13660096	-0.15103032	-1.1100539	0.46377367	0.934672	0.5410728	-4.0175195	0.00512858	0.81050235	-1.0545924	-1.3034729	-1.5992181	1.4822922	1.0546932	-1.0453057	-0.048381437	0.14296599	-1.6588149	0.11289132	-0.22367707	0.64696676	-0.17648014	0.28331164	1.1024358	0.4531835	-1.3452367	0.25034538	0.32731616	-1.0466877	0.85463244	0.9201394	-1.5681063	0.1382426	1.9267484	
0.4791503	-0.17014267	0.68168306	-2.2683396	-4.033306	-0.84492916	2.3851783	0.34459692	0.36140323	-0.27952898	0.796038	-1.4569416	0.5706157	-0.018872263	-0.60470927	-0.92747676	0.30914164	-0.94306964	0.8142929	1.5123956	-0.62608296	-0.52787584	4.4828186	-1.1224729	1.4223976	0.55259144	-0.5456155	0.23842648	2.7137039	0.5378094	-0.13609262	-0.77662295	-0.19126676	0.39382887	0.30564454	-1.4444883	0.68055284	0.017376972	0.49726602	0.8833414	-0.51830536	0.56450564	0.36812574	0.20150173	-1.5085703	-0.9403208	0.1364651	2.4451158	0.43657377	-0.024983838	-0.6255961	-0.3888	0.210585	-9.197912	-0.9146951	-0.029324962	-0.930285	0.19586001	-1.1673163	0.67974335	-0.65521646	-0.4219195	-0.41018915	0.9431501	
0.48011783	0.573756	0.25308964	1.7010185	-0.3164156	-0.17919719	0.058030963	0.118932925	-0.45199203	-0.17807128	-0.15714851	0.033300716	0.4305555	-0.32958367	0.05068122	-0.40431842	0.032765582	-1.129548	0.0036364335	-2.1500933	-0.31830767	-0.04735379	-9.162881	0.19150995	-9.2377	-1.0843977	1.1567627	-0.021271093	-4.137843	0.60147166	0.102614515	0.17785724	0.12362867	-0.117128864	0.23173316	-0.7041194	-0.27998686	-0.4073983	-0.25310206	-0.19674182	-0.6888969	-0.17876287	0.5434968	-0.18540373	0.7038821	-0.96042806	0.25817657	0.39964595	0.56635445	-1.1985255	-1.7635795	0.25162375	-0.08879525	0.5017619	-4.4041605	0.2096429	0.57084703	-0.23630293	0.5173417	-1.8487645	-5.0365634	-0.45194474	0.94982845	-0.9046914	
-0.46559194	-3.6325915	1.5656135	0.023377417	0.67166257	-1.8434196	0.22331296	-0.76810485	0.42995593	-0.664749	-1.0103508	-0.5661492	-1.3685352	1.7872876	0.966653	0.28055114	-0.06920684	1.1337723	0.13484539	-0.43478134	1.2020129	-0.20235193	-0.82969165	-0.9813607	0.41303617	-0.95586944	-1.4927502	0.45576143	-0.67133176	-1.8303678	0.8970847	2.0834217	0.370563	-0.58701056	5.564121	-1.746919	0.91834724	-1.3799394	-2.6238732	-1.0915067	-0.7842009	0.07692392	0.8491939	0.29380363	-1.4501795	1.3311408	-1.6095365	1.9711374	-1.7185932	2.7232416	1.1316592	-0.05851151	-3.1902719	-0.15762828	-0.1289273	-0.56759685	2.6521428	-2.0813887	0.10122672	-0.21489821	1.1884757	0.5537023	-0.77020514	1.1807492	
-0.38417953	-2.4431584	1.4403702	1.8788487	0.30297235	-0.46411458	0.09072328	1.7702869	1.6833704	1.4000347	0.55922824	-0.9457422	1.2016141	-3.9957395	-0.74110806	-1.9526577	2.2693586	-1.7637694	1.0059763	-0.43572098	1.202651	-1.5486139	2.4863572	-1.355735	0.8099502	0.86956805	0.7877109	0.17588133	1.7124048	1.224087	-0.3390697	-0.9477781	1.3672298	0.51532274	1.1552347	-0.5126357	-1.3572447	-2.8526223	-0.1506639	-0.76461875	0.91999155	-0.8996348	0.0019632962	-0.98872745	0.24022883	-1.1319314	1.1401222	0.7979274	-0.46739852	-0.13930851	0.10859332	-0.47626457	0.1591188	1.6452905	2.002408	0.5726914	-3.4081643	4.7539344	1.5129958	0.97035384	-0.36180404	0.46232948	-0.8268427	0.64337164	
-0.9479959	0.2529637	-0.376037	0.17296055	-1.8526671	1.899678	-0.09879192	1.2331706	-0.69671655	0.74091953	0.35837176	-0.93428355	0.45805013	-1.6449373	-0.6664888	-11.553438	-0.013958037	-2.593008	0.029602287	-1.0341771	0.57847446	0.724186	0.6717678	1.4997557	-0.38044202	1.2351362	1.0640019	4.5957994	0.42929652	0.82516664	-0.5720024	-1.3318803	-0.27881953	-0.43149036	-1.1787689	4.0871487	-0.4789628	-0.31359804	0.56402504	-0.20739055	-0.12736882	0.7173178	-1.2005712	-0.07362596	0.81714416	-1.2345067	0.8281313	-1.793387	1.0439047	-1.191848	-1.0620608	-0.564741	0.8835044	-0.19929227	0.31867066	0.16608761	-2.3472757	2.174723	0.023288073	0.8264533	-0.6404209	-0.5076492	-0.007869412	-2.6499846	
0.5309766	-0.13741453	0.5708414	-16.193449	0.91624665	1.0808741	-0.7872768	-0.17763786	-0.27270314	0.75936776	-0.18511218	0.4313064	1.5877638	0.28915498	0.35048234	-0.047842756	-0.69080156	1.7648311	-0.38185367	1.5772408	0.70362824	-1.456816	0.97115844	-0.40485016	2.4707263	0.10944003	-2.6139214	-0.18581584	2.2944486	-2.2881079	0.7116608	-0.38518462	0.26335096	-0.08815173	-0.53287935	1.5297405	-0.25975296	-0.28995267	0.1115557	-3.1220605	0.45022395	-0.75489646	-1.1097577	0.5091315	0.23671351	-0.28050435	-2.7801795	0.35594448	-2.243942	0.23478809	0.18556273	-0.64695686	-0.17702964	-1.0484645	0.20246902	-0.62471074	0.3891272	-0.09889419	1.0946352	0.49468738	1.2283285	0.415279	-4.3483295	0.10176685	
0.046218075	0.24392615	-0.12445599	-6.905687	-0.65466434	0.4900454	-1.3482095	-0.3746968	-0.20920543	0.06474717	-0.9972042	-0.060495216	-2.544946	-0.051845394	-0.5151936	0.21594279	-2.2939024	-0.5903698	0.29684547	1.8747202	0.4703612	0.3914027	1.0867201	-0.29880986	0.31920168	0.78425777	-0.52801484	0.0013421797	1.363099	0.076265626	-0.4833083	-0.31655788	-0.6815054	0.21440925	0.6262967	0.45823687	0.64639115	0.07292594	-0.796911	0.18139046	1.1686312	0.5051048	-2.6747177	-0.28636003	-0.65681624	0.37787765	0.06969312	-0.8109419	-0.8056852	0.9316857	1.0290669	-0.5759821	0.15711151	-3.383954	0.09065338	-1.1155963	-1.1219027	-0.03785967	-1.6203185	0.5487401	-0.55554193	0.07646395	-0.7612589	0.27116108	
-0.6077411	-1.8081045	0.68702006	1.4764328	1.827868	-0.40504184	2.5868974	-2.1521425	1.1037858	-2.1978633	-0.7972987	-0.6608986	0.959004	0.99819744	0.10067098	-5.659262	-0.4072338	0.36222288	0.5050244	0.7552077	-1.8778478	0.74957067	1.2470032	-1.3528335	1.219442	-0.9490718	-1.3009244	1.6249071	1.5664381	-0.58659595	-0.36623436	-0.87296265	0.6574108	-0.023270449	1.5197058	-1.6333311	0.5450398	-0.059484642	0.24587914	0.25513405	-0.34052914	3.1459088	-4.4182115	-1.370538	1.1615176	0.85625404	-0.3906233	1.3594496	1.903719	-0.2254976	0.35017776	-3.3981135	-0.18905851	1.7691413	0.11932135	3.9234316	0.20048372	1.3326795	1.7305045	-1.4583545	0.946873	1.3095826	0.7606354	0.2486591	
0.6094377	0.5080747	0.4606907	-0.81733155	0.5839149	-0.08709426	-0.266621	0.15642275	-2.807009	0.6722482	0.5256989	0.63827926	-0.39616516	-0.2200307	-0.26927215	-4.2974324	0.37148333	-0.30650485	0.1465981	0.7137725	-1.4541832	0.9231118	-0.6159259	0.2813406	-0.73002374	0.09980743	-0.56880754	0.4958423	-0.6656416	-0.7038015	-0.97410685	-0.47973958	-1.049484	0.52091074	-0.3713187	-1.961951	-1.2710168	-0.2123178	0.51823306	-0.7835919	-0.24265032	2.719338	-1.3189144	0.009010516	-1.125189	0.6405653	-1.0045394	-0.49098042	-0.36239678	0.90958285	0.14475334	-0.34437862	0.39887482	-2.1085417	-0.03832182	-0.43244377	-0.13134643	-0.07087904	-0.69355184	-1.3005348	-0.45999447	-0.25369453	-0.5006424	-0.17425805	
-0.15173759	-0.76337093	-2.0218434	1.2605238	-1.153911	0.58157074	-1.2355626	1.2391002	0.5425321	-0.35323113	-0.13212991	-0.52463263	1.6788018	-1.403087	-1.4614931	0.58670914	-2.0935566	0.2626002	0.3184221	-1.4910458	1.2595569	0.78606206	-0.84531766	-0.6128361	-0.7569701	0.2702802	-0.2900972	1.0184844	0.50706095	0.43430337	-0.92633593	-0.2424951	-2.0437505	0.6370388	2.2273989	-0.43158072	0.9790282	0.9987614	0.6995332	-1.1649727	1.2963449	0.90063286	-1.1145577	0.4552245	-0.6118635	-0.77661324	1.004972	-1.7906599	0.49789453	-0.28303567	-2.619307	-0.39305553	0.8053062	-0.7115621	-2.2278013	-0.25073248	-0.46460417	0.48368895	-4.3426976	-0.3578399	-0.27526665	1.2939272	2.3462665	-2.9419568	
0.6705987	0.75331724	-0.26764038	0.72268516	0.32118464	0.25903186	-0.1341601	0.6495922	-4.912873	2.1419156	0.20430964	0.7023005	0.94780606	0.65087324	1.0373143	1.6270547	-0.9951919	-0.074725546	-0.24870159	0.544987	-0.8331674	1.2249411	-0.15006104	0.79603094	0.59507984	1.1100153	0.6144687	0.29945335	-0.037464913	0.18220653	0.43794987	-0.8782859	-1.5578266	-0.5294286	0.44874746	-1.2259759	-4.781352	-0.5926033	-1.9425328	-0.28233927	0.69419533	0.9984086	-0.7532748	1.1638579	-0.01343618	0.36372402	-0.3638661	0.25792792	-0.24394615	0.86209697	0.7567589	0.32415035	-0.022377921	0.42983523	0.16034631	2.5151696	1.1342239	0.19001578	1.4782678	1.3744134	1.1973727	-2.6631575	-2.307951	0.83792573	
0.18625699	0.41475126	-0.8153717	1.0598897	-1.958783	0.02114625	-0.9495358	-0.18773808	0.117802896	0.09221844	-1.0564198	-0.12759551	-0.7359276	-0.12115336	-1.5576934	-0.17439315	-1.1814942	0.3112134	0.34230223	-1.675159	0.36488742	0.11958341	-6.9309273	0.11241417	-7.651553	0.1760261	-0.5007188	0.08834273	-3.2795641	-0.1617227	-0.29645398	-0.7213119	0.41858572	-0.39125633	0.21828203	-0.1038094	0.24036184	-0.13873307	-0.5365314	-0.57241285	-0.06582648	-0.20966485	-0.6317637	0.060252823	-1.5709456	0.731696	-0.2202404	-0.7276089	-0.5645097	0.76775795	-0.12967007	-1.1474915	-0.09085631	2.6217773	0.8757807	0.90492517	0.17755042	-0.17029496	0.34226015	0.5870281	-4.6974263	-0.15625899	-0.012631334	-0.46076706	
-1.092284	-0.7193803	2.0150402	0.3466807	-0.04490132	-2.794369	0.26741543	0.24627315	-1.7388291	0.83078074	0.68065476	-3.4380836	1.9229852	0.7239782	0.6325306	-6.6265388	0.21773742	-1.714425	1.3156484	0.293	-5.154669	1.8506466	1.1779046	-2.4321382	0.41388297	0.40968668	1.547543	1.0350868	1.0369825	0.38634378	-0.054918986	-2.084947	0.8309947	0.4788345	1.6371883	-6.8712497	0.5392467	0.19810572	-2.0893795	-0.3502602	-0.112969026	3.1400616	1.3382103	-0.31101692	-0.8555171	0.87958556	1.0668619	0.6641586	0.7789768	0.024646558	1.090659	0.40447283	0.23304185	-0.4579823	1.2124424	0.4491911	-1.0506421	0.41242734	-1.796354	1.5802301	-0.3395297	-1.0477312	-0.93634945	0.99628377	
0.8194524	0.6560095	2.9487684	0.9669035	-17.965908	-1.0769349	0.6757861	0.053752348	-0.22618671	-0.21894203	0.6364277	0.38221967	1.6628445	-0.08691829	-6.503457	-0.49473503	-0.14598224	-1.2648406	-0.13399	-3.1480558	-1.7107106	-0.04468318	-5.283631	-0.23234059	-10.966191	-2.3145704	1.6487458	0.1656557	-7.9455705	0.46802506	0.55307764	0.26982763	0.21655005	-0.2113683	0.34558016	-2.1313605	-0.17701413	-0.44327733	-1.5080838	0.065231204	-0.76873267	-0.49520138	0.025615726	0.101662256	0.9718653	-2.6870282	0.60191584	0.8946063	-0.049096607	-3.2121737	0.630918	1.5976456	0.0030589749	-5.456946	-2.428526	-1.0212932	0.22715415	-0.076892674	0.4427133	-3.0280523	0.40062812	0.12503704	0.74130017	0.95321494	
0.54097676	-0.44097054	-1.9188259	-1.1762952	-1.5739465	-0.20684393	0.30392846	0.2496675	-3.2230675	2.1062965	-0.27216762	0.4106427	0.4866119	0.1599166	0.031239836	0.98432356	0.43985572	-0.14945497	-1.2804714	0.052389313	-0.7038497	-0.6207796	0.12710193	1.0742314	-0.9018288	-1.3938843	0.8062861	2.4171057	-0.09736487	1.4872193	-0.14115423	0.10820089	0.7643528	-0.781164	1.6473416	-0.23725313	-0.6800407	0.18729459	-1.5682752	0.87677866	-1.084652	-2.9409618	-0.15191375	0.23404628	1.4233086	-2.4215448	1.0542265	1.2168578	0.8156439	-2.6913404	-0.46247673	2.0214903	-0.38013452	-0.966367	-3.16645	1.4085232	2.270947	-0.24979813	1.6353636	-3.4228005	-0.6932965	1.0243666	0.17654102	-2.9439628	
0.3784349	-1.219892	0.16503225	-3.4003239	-0.4249972	-0.53879243	0.07859413	0.31583592	-0.84839755	-0.045876976	-1.0377934	0.30300537	-1.4927045	0.01883578	-0.3101717	-1.7416157	0.72643024	0.19908573	0.17702806	1.7745727	0.5929009	-1.6651214	-0.37751013	0.43460563	-0.16552247	-0.82110894	1.1578187	-0.07388802	-2.04308	0.30373695	1.4575802	0.40862542	0.02167069	0.18505585	0.18061066	0.30911973	-0.66573787	-1.3497944	-0.06572576	0.75596744	-2.3030586	-0.5509845	-2.4394703	0.1979757	-0.18080635	-1.8878014	-0.055255573	0.27967066	0.7053729	-0.19851916	0.16956706	0.6366149	-0.45477262	-1.9469581	-2.3370044	-0.7918063	0.14238752	0.06563136	0.9607673	-1.6401404	-0.4328331	1.2359108	-2.354836	-0.5037726	
-0.8539851	1.7120665	2.0197794	0.8584153	1.3605242	-2.7922847	0.5020695	0.1745393	2.007162	-0.9996206	-1.1191069	-1.289337	1.1355819	-0.06428706	-1.1642599	-9.34543	-0.7155719	-0.17319164	0.24089976	-0.7200792	-4.9443445	2.7311573	0.07265964	-0.6749373	0.31645083	-2.1575496	-0.17867337	1.2001822	-0.029910274	0.7425172	0.56083703	-0.14442614	-6.079928	-0.31984043	1.691099	-8.423663	-0.64828765	0.08422242	-8.762991	1.019379	-0.4032264	3.5549152	1.8652815	-0.3634654	0.09422033	-0.013084436	0.3938194	1.580847	0.6660152	-0.601749	-0.114457116	1.514296	0.14308491	-0.96145195	-0.21577907	0.59897405	-0.2445327	-0.023581143	-0.5526854	-0.19010594	-0.071877904	-0.3272285	-4.331802	0.92712706	
-0.034608025	-0.3287168	-3.194937	-1.623115	-8.932602	0.28671628	-2.493068	-0.2785112	0.17425233	0.22225906	-0.32027265	0.24854577	-3.4750938	-0.009128498	-8.351091	-0.27984184	-0.48373863	-0.006905633	-0.33773938	-0.93430775	0.10651633	-0.44694522	-0.645914	0.024140038	-2.0963233	0.6280212	-0.76904535	0.17738831	-0.31699327	-0.023787552	-0.17105977	-0.62135434	-0.9768547	-0.092447944	0.11267694	-0.32776707	0.41501772	0.18135317	-0.028287109	-0.65706986	1.0942388	0.05240354	0.29934373	-0.01431135	-2.2395642	2.5291696	-0.11941659	-2.2979102	-0.2511744	2.3479276	-0.12390427	-1.6236396	0.022571111	-1.8720119	2.0584548	0.7204292	-0.13548173	-0.28700742	-1.5076735	1.5741048	-2.901006	-0.03627975	-2.0254908	-2.3015525	
0.21132286	-1.4261221	0.8410199	0.6059336	-0.017416803	0.07985658	1.3969473	0.2087016	-0.77333677	0.9920678	-1.6673521	-1.6836127	0.5909268	1.9854307	1.865394	-5.7484164	0.33574983	0.8163202	-0.09940696	0.33094275	-2.0763552	1.6386458	0.6868119	-1.1142771	2.4512277	-5.2603936	-0.3565251	2.4678001	1.2887783	-0.4020622	-1.882293	0.5146453	1.164377	-0.48502803	2.767704	0.0052109077	0.01731823	1.1652908	-2.3344312	0.6851763	1.092031	0.41933474	0.6132848	-0.7207969	-0.31839126	1.7216325	0.6704562	-0.9401575	-0.5366665	-1.6678869	1.3567117	1.0090344	-1.1057801	0.7353115	-0.8643374	0.34417155	2.1853013	-0.52324384	0.17018805	0.4811532	2.3116767	-0.6591382	0.08055457	0.8899846	
0.052041173	-0.97419506	-2.94278	-4.4713798	-0.5396621	0.66862464	-0.8514201	0.06287455	-0.15837999	0.10073403	1.9844804	0.3682079	-2.9178164	0.18224835	-1.1135833	1.3579324	2.8232138	-0.21531774	-1.2123858	1.1639527	1.1566687	-1.6528592	4.020631	0.30653843	2.9371681	0.9832023	1.0808563	0.45593515	2.6110253	0.29150674	0.20462416	1.2103732	-0.6511931	-0.37979355	0.338117	1.5316782	0.024473634	0.3882779	0.9261248	0.4852527	-1.2494887	0.4401296	-0.57675326	0.116563715	0.87253	-1.0951916	0.3195853	-0.5723823	0.48754576	-1.514672	0.0726029	-0.24118322	-0.08440792	-4.963464	-1.0030172	-1.0172298	0.20125397	0.2504744	-0.7332078	-0.22509927	1.8282267	-0.016452892	-1.5239294	-0.15775709	
0.16962941	0.5465895	0.2218684	0.8453083	-0.78296185	0.6108585	-1.1086072	0.014506859	-0.042518854	-0.10764774	0.10051132	0.21254578	-1.207497	-0.23578507	-0.50651366	0.99255484	0.13347021	-1.047459	0.34833798	-0.2635693	0.17058215	0.8029767	-7.702591	0.20365049	-9.032848	0.07446767	0.42051864	0.43693885	-4.394965	0.30068767	0.043993343	0.16641584	-0.33167836	-0.0077458676	0.47657338	0.087500356	0.18954286	0.027799038	-0.5569099	0.27227578	0.09180259	0.23247576	-1.1880311	-0.13936251	-0.24749593	-0.005959411	0.92044866	-0.67288166	-0.7188533	0.0011020193	-0.81857425	-0.63731796	0.12928139	0.7884074	0.05163634	0.24652976	0.42266396	-0.23234192	-0.2900002	-0.18915264	-4.037726	-0.4299176	-1.462307	-0.08740924	
-0.6268327	-2.2255633	0.78745884	0.37244618	-0.45626706	-1.0302917	-0.9739295	-4.62786	1.5850356	-3.341799	-0.83846694	1.0160697	0.5979096	1.7516599	-0.19162706	-2.1161046	-0.1833096	-0.85602254	0.01859591	0.17735292	0.30680656	-0.0295803	1.3325262	1.5701364	1.206315	-1.4654375	-1.0190477	2.2615802	1.3482692	0.045111027	-1.3129547	0.7522499	1.3017167	0.04772629	2.449592	1.4445779	1.4545931	-0.50375473	1.1708356	2.5227509	-1.6279126	-0.254493	0.40433186	-2.0049078	0.15778027	0.18757892	0.59790045	0.4569697	0.4193961	0.41435766	1.2986919	-0.7673231	-1.0117624	0.72411144	0.058948543	2.1188765	0.1522594	1.3198953	1.3130652	-0.49506503	0.85948575	2.2492285	0.25954816	-0.12075609	
