99
64
2
5
2
2
-0.064673655	0.114216246	-0.0065704053	-0.03783545	-0.09562984	0.10561624	-0.07413635	0.0644783	0.0026294282	-0.046182413	-0.033114854	-0.02613139	-0.08339977	0.058312	0.10819173	0.07573821	-0.14536546	0.005368893	0.11738571	-0.15901884	0.0046645147	0.057580058	0.08997797	-0.045122676	0.020512518	0.117100276	-0.056898396	0.12234601	0.016277492	0.10689122	0.114466265	0.0751931	-0.32879412	0.03406625	-0.023496216	-0.030939255	-0.009115621	0.03824971	0.16408327	-0.026244948	0.06675919	0.07580901	0.061404448	-0.013652663	0.032183643	-0.017806029	-0.15681125	0.06297436	-0.11905374	0.02349123	0.010098219	0.058837775	-0.013854569	-0.0014114452	0.0220918	0.03211585	0.007993575	0.014512101	0.16074485	0.09307331	0.14273085	0.08746432	0.06966051	0.095649876	
0.039393593	0.10436436	0.11998796	0.082681224	0.06349813	0.059074968	0.17705882	0.025250005	0.10991187	0.083237454	-0.04267165	-0.0014057506	0.046210658	-0.22162524	0.024289599	-0.071179	0.15542127	-0.059216026	0.15697013	0.12291171	0.0005515335	-0.074623905	0.22011954	-0.041544814	0.123372644	0.06143245	0.10327829	0.057309546	0.056513738	0.13779105	0.12694323	0.072104864	0.08870276	0.18526179	0.013232581	0.042893954	-0.0024655506	0.024329351	0.02010376	0.0005773883	0.07160671	0.013142698	0.20796959	-0.09018352	0.037352916	-0.045751356	0.053220432	-0.014553311	0.033248983	0.006071389	0.02817848	-0.05058743	0.015482575	0.018150415	-0.21630748	0.13674305	-0.057390273	0.2628098	0.287202	0.087763764	0.1454254	0.23764709	0.28318965	0.10251093	
0.046070367	-0.042199384	-0.099380314	-0.028859567	-0.16416931	-0.07727442	-0.07185074	-0.076414056	0.07629859	0.14477874	-0.03352765	0.17935884	0.0061812634	0.067158215	0.15038869	0.053979103	0.09274696	-0.000108044966	0.10438166	-0.0947591	0.13523819	-0.023164058	-0.0810423	-0.021137051	0.0392245	-0.002838569	-0.029529385	0.11184724	0.12519239	0.18322755	-0.015762877	0.18084896	-0.044936936	0.024943678	0.16148429	-0.17225914	0.06289339	-0.010668019	0.18355806	0.023894306	-0.27302092	0.09024294	-0.1686824	0.1752951	-0.12540488	0.20827256	0.16071044	0.03720776	0.16706294	-0.07590087	0.0054368135	-0.021894747	-0.058096003	-0.066974685	0.000834427	-0.1222	0.0020333927	0.059034165	-0.013940784	-0.049181465	0.20932196	0.12434963	-0.035787594	0.12948617	
-0.09324561	-0.0036025397	-0.0102029275	-0.028676137	0.10659656	0.06756339	-0.12159971	0.033818986	0.121327296	0.16230804	0.069198065	0.019364625	-0.44518492	-0.44667476	0.06767378	-0.14107117	-0.10334099	-0.00012230131	-0.12465247	0.29399145	0.1861116	-0.1575728	0.053035114	-0.038754787	0.076595254	-0.028430572	0.048531257	-0.04292537	0.14585894	-0.21018362	-0.02005405	0.16418757	0.10724357	-0.19262087	-0.38600963	-0.11589287	-0.10554459	0.3383823	-0.07277806	-0.06373641	0.34117696	0.14051123	0.013508074	-0.027705539	0.06934355	0.0955867	0.24094377	0.5735221	-0.49333352	0.2452558	0.04301292	-0.18554324	0.04854615	0.32048565	-0.12987925	-0.1649493	0.07903448	-0.073075145	0.2658745	-0.048809588	-0.12650904	-0.21654914	0.13077024	0.16081488	
0.28458574	0.058556203	0.042214517	-0.058933306	-0.029418183	0.07220327	0.10836394	0.0058023822	0.08976745	-0.19626577	-0.022264712	0.0017331531	-0.16083932	-0.11786256	0.00781685	-0.014719826	-0.17520002	-0.055138696	0.027906748	-0.17812853	0.014619464	-0.04937644	0.15916303	0.09810141	0.020599898	0.03996537	0.09445985	0.059348907	0.045022476	0.06090231	0.15765437	-0.0069726044	0.08453129	0.19080396	-0.08854949	0.023228534	-0.026872601	-0.087102465	0.05836358	0.004397544	0.033326656	0.0871595	-0.010078815	-0.1187118	0.11790523	0.0376599	0.088747665	0.017510692	-0.14274189	-0.015930634	0.011816992	-0.016044872	0.0039033492	0.026902774	-0.10488609	-0.13751553	0.05033156	-0.01502499	-0.03493529	-0.02849109	0.21117467	0.08177481	0.10434052	-0.12770995	
-0.12065731	-0.17524786	0.0704283	-0.1888743	-0.18524797	0.154056	0.012958621	-0.15068246	0.008723768	-0.076898254	0.066354536	0.08569383	0.16089083	0.070437826	0.0680068	-0.126735	-0.075627804	0.0136645045	-0.14246476	-0.12378934	-0.017484175	0.070865385	0.026600314	-0.11488989	0.16975039	0.04797111	-0.1323423	-0.15180938	0.07912037	0.0027940173	-0.19679128	-0.17543365	0.13909076	-0.12998116	-0.19452207	0.069426745	-0.0707976	-0.05640341	0.11848084	-0.098403335	-0.04146587	0.17822318	-0.12632938	0.06729654	-0.10756309	-0.037814263	0.03938818	0.106671795	0.042806603	0.06340999	0.079141885	-0.11693606	-0.178999	0.06355756	-0.040606845	0.09114893	0.09631313	-0.0009243945	0.08602294	-0.005020637	-0.024754489	0.09593271	0.16240937	0.057483237	
0.050390713	-0.09690394	0.029199818	0.04544135	0.059998192	0.04612223	0.021589108	-0.11792425	0.2267851	0.063495986	0.062237576	0.0213861	0.013464908	0.04507214	-0.016853342	0.03523308	0.19361588	0.027325647	0.038965657	0.18567094	0.22549781	0.004937205	0.18344614	-0.015984418	0.1599536	0.00018337724	0.029639265	0.05695691	-0.015286569	0.010888645	0.08966766	0.2721976	0.28186524	-0.14001049	0.06730542	0.11049612	-0.09460006	0.041778978	-0.13395683	0.02115341	0.069506	0.24566032	-0.09560738	-0.023655476	0.0038156642	0.06231454	0.027039364	0.10414204	0.10962428	0.02155131	0.047572326	0.028074095	0.05019492	0.09397167	-0.039482705	0.22059402	0.04890849	0.12862238	0.21798244	0.0115442	-0.0074684	-0.08802996	0.20887236	-0.030627511	
0.0065244385	-0.0056666187	-0.07072911	-0.017335247	-0.03012865	0.0017507301	-0.2233819	0.09228448	-0.13455622	-0.106927745	0.022236723	-0.033085454	0.07616969	0.002106158	0.02851628	-0.03595087	-0.11563643	0.0042331032	-0.01209723	-0.106276385	-0.09943151	0.0116549935	-0.0644109	0.034294	0.028081076	-0.001860051	-0.059046805	-0.017037602	-0.08332968	0.028609116	-0.023760771	-0.19670604	-0.094804466	-0.0891208	0.05822168	0.04754446	-0.036332227	0.04367257	0.07393685	0.008141625	0.009150833	0.06773881	0.06526058	-0.039970726	0.02718547	0.02387586	0.013643504	-0.07992085	-0.11948629	-0.030335093	0.11855458	-0.053246435	-0.016693156	0.008093365	-0.08169298	-0.05942216	0.054850154	0.11303414	-0.11436835	-0.1349217	-0.03612656	0.01915625	-0.09821167	-0.032449722	
0.013033615	-0.14066438	0.011244602	0.036027506	0.050073754	0.03012907	0.019146834	-0.033599332	-0.16074339	0.09496553	-0.0018447601	0.045388836	-0.08550356	-0.031111078	-0.016355714	0.087188445	-0.02890575	-0.021773795	-0.016130242	-0.15355024	0.19012217	0.04076546	0.08641606	-0.09272257	-0.050058648	0.060739297	-0.006801001	0.0018215763	0.06502392	0.05483738	0.08414264	0.09651726	0.1331269	-0.10123257	0.014407131	-0.0021059327	-0.0008548144	0.051200952	0.007798079	0.0061576325	-0.0018841159	0.08640198	-0.12716383	-0.048990984	0.053248353	-0.036692847	0.14448039	-0.014642365	-0.08281056	7.656845e-05	0.2851163	0.006326012	0.009404185	0.106966354	-0.06493346	-0.10187084	-0.02495876	0.031907056	0.043084342	0.045818064	-0.054238997	-0.05341529	-0.019183112	0.007913027	
-0.119989604	0.26402432	-0.04365941	-0.029820735	0.08671177	0.14679049	0.1121628	-0.008721207	0.044192504	-0.18438452	0.04084794	0.03980923	-0.072632656	-0.1467966	0.019693833	0.08757963	-0.14659533	0.017483285	-0.3295018	0.16353899	0.100843236	-0.24192958	-0.21281138	0.061918538	-6.0911883e-05	-0.03486913	-0.03350166	-0.113873415	0.16528796	-0.048277587	-0.07495532	-0.051577795	-0.11506526	-0.17099065	-0.06949872	-0.019401584	0.05141532	0.23526365	0.06762587	-0.03927886	0.067686036	0.27862996	0.017817628	-0.019343622	-0.10465786	-0.049617946	-0.013648769	0.232575	0.3089247	0.004025585	-0.34107727	0.10112549	-0.015005025	0.1005993	-0.20543186	-0.08375412	0.18536827	-0.077207245	-0.11901837	-0.04007439	0.10326271	-0.076315716	0.09767679	0.2806308	
-0.057411116	-0.099733286	0.2297919	-0.022269862	-0.20668107	-0.050453514	0.11189645	-0.18515168	-0.022741579	-0.0084855715	0.0038064462	0.16848755	-0.26147005	-0.002124772	0.0042330474	-0.0083100535	-0.045057654	-0.14303741	0.016526962	-0.055228535	-0.044025082	-0.0735105	0.08098894	0.030317588	0.20778538	0.05869969	0.13691434	0.13650176	-0.011659591	-0.037878286	0.08595376	0.09334962	0.08856354	-0.033702806	-0.088961445	-0.31157464	-0.018513115	-0.12861116	-0.024226205	-0.044109493	0.18586703	0.105256096	0.19866788	-0.048291977	-0.0068497043	0.13763042	0.044291448	-0.082114436	-0.2095408	0.03566033	-0.13512917	-0.0044868863	0.012442992	0.07910967	0.038227573	0.19658704	-0.15347144	-0.15879883	-0.12334292	-0.14388499	-0.017157877	-0.041038014	-0.14827265	-0.14954486	
-0.13623412	-0.12634735	-0.2026	-0.08985061	0.21092635	-0.078083865	0.19290128	0.021126814	-0.23120342	-0.20509517	-0.077534504	-0.042773973	-0.22799438	0.18806927	0.02672335	-0.08435974	-0.29475376	-0.03403752	0.0077985395	-0.17416538	-0.012770617	-0.00855659	-0.03581854	0.00882392	0.098418556	-0.09417902	0.04437456	-0.239568	0.30844352	0.06512902	0.21029817	0.127286	-0.17817359	-0.10607748	0.028889542	0.074412756	0.039160684	0.3189415	-0.097471096	0.01060963	-0.045854326	0.18993683	0.16033313	0.07569533	-0.16825342	-0.005454946	-0.24117236	-0.15088679	-0.053976223	-0.020023346	-0.18943764	-0.06005427	-0.061243124	0.21457805	-0.07350519	0.09678874	0.095977195	-0.14918788	0.04748729	-0.19231395	0.011967215	0.2658048	-0.06282185	0.21701144	
-0.072925374	-0.04129265	0.08224805	-0.01619401	-0.022856446	0.04108181	0.052429505	-0.11382922	-0.028118158	-0.08256332	0.019393561	0.22931917	0.07651398	-0.13106318	0.033484545	-0.34772977	-0.110971764	-0.026462527	-0.12080972	0.0149087645	0.17685196	0.056878313	0.064582445	-0.08920073	0.2228914	-0.023901833	0.05039081	0.113677464	0.13239457	0.0026713798	-0.09108214	0.18383157	-0.08894522	-0.020214321	-0.02481403	-0.051730365	-0.0357758	0.044190172	0.09753715	0.02749546	-0.097262874	0.05419922	-0.007559764	0.106544465	0.11037771	-0.00727757	-0.14785482	0.120871596	-0.09572951	-0.007141599	0.018443948	0.10308782	0.035531443	0.16040048	0.050491665	0.057146337	-0.03543921	-0.09037059	0.09564923	0.021103688	0.10601183	-0.009729348	0.08519753	0.007975718	
0.10771277	0.055404473	0.11511159	-0.025422001	-0.045961197	0.060363095	0.18484984	0.1340715	-0.124666944	-0.07125413	-0.039469734	0.049359135	-0.17939284	0.07460238	0.030892123	-0.006344282	-0.02291345	-0.04252079	0.041726816	0.06485801	0.026998058	0.00094732305	0.18639608	-0.020891242	0.11026802	0.056587525	0.032997396	-0.019786734	0.21249422	0.10956606	0.08060309	-0.122821145	-0.043036126	0.08327659	0.010683794	0.28045997	0.023892315	0.060249984	0.18584387	-0.040063545	0.057344906	0.057196002	0.066610835	-0.04268351	0.046989564	-0.07214565	0.13495696	-0.015021407	0.041649964	-0.036461346	-0.16930498	-0.10082025	-0.047837052	0.044199076	0.14074671	0.09239061	-0.14829811	0.14126588	0.02689313	0.17666656	0.23771556	0.13003066	0.08064341	0.07068822	
0.025656577	-0.1055327	-0.15210643	0.010138375	0.09241737	-0.077983916	-0.07517164	0.23435272	-0.0658105	-0.11105697	-0.0067515424	-0.008758261	0.032093927	0.027927365	-0.02945427	-0.15603952	0.011694309	0.017987832	0.075325705	0.023683237	0.06062189	0.008051631	-0.21283825	0.017657682	-0.06536651	-0.10462638	-0.12421457	-0.02968084	0.09808708	0.01759069	0.09719981	-0.020321405	0.070758976	-0.056125157	0.09647487	0.028911518	0.03207612	0.122577325	0.031073598	-0.012105536	0.029818999	0.21233582	-0.08750005	0.020950409	-0.048747312	-0.018656414	-0.044320386	-0.01317012	0.09913229	-0.03653641	0.042026464	-0.035436854	-0.027293071	0.013023112	-0.08906781	-0.09751096	0.058289036	0.019132331	-0.046743874	-0.046695966	0.087850526	0.016855936	0.10608234	-0.047972698	
0.08678816	-0.09302278	-0.007796263	-0.017560953	0.036857575	0.0043445434	0.17129177	-0.08900509	0.18486811	-0.03941113	0.02426047	0.06794267	-0.09756396	-0.19663201	-0.10612097	0.09075419	0.05801235	0.009115657	0.09158982	-0.07158263	0.055366226	-0.008513689	0.04207103	0.07501922	-0.030633759	0.07771545	0.013724124	0.032449044	0.10923634	-0.066472344	0.14507829	0.003174662	-0.108932905	0.12439723	0.0524837	0.094157115	-0.050725367	0.03476462	-0.035288624	-0.006585295	-0.0060678083	-0.016349709	0.046542317	-0.0770414	0.09057398	0.012275963	0.00052837376	0.22016919	0.013244541	0.028326241	0.13841686	0.051997777	0.04359435	0.100241475	-0.119175054	0.090804644	-0.029543458	0.063480996	-0.03021941	0.01807721	0.14251941	-0.1534048	-0.035400737	0.017116783	
-0.082458094	0.032817464	-0.070973344	0.035443343	-0.1568086	0.09662194	0.06372107	-0.12467439	-0.0085070245	-0.07395849	0.033090834	0.07702589	-0.09958159	0.08478549	-0.044034466	0.0041596405	-0.099161886	0.0063778753	0.098787986	-0.17898189	-0.12286159	-0.046401974	0.074797474	-0.033925455	-0.041518632	0.0029781598	-0.105537206	0.092457876	0.022720842	-0.048674986	0.04858038	0.009123571	-0.3063085	0.09570604	0.020505901	0.11152742	-0.013849395	-0.25920975	-0.06128195	0.045886725	0.0075625987	0.14517285	0.051467683	-0.049838178	-0.025861446	-0.042203315	-0.09614936	0.03427364	-0.08450144	0.03478181	-0.00058621564	0.037314486	0.039224945	-0.085810706	0.034966152	-0.06018095	-0.113187626	-0.10602535	0.043523815	0.10335583	0.0010523136	0.1305005	0.03713759	-0.051616337	
0.0072982814	0.06989693	0.07367938	-0.033326436	-0.020081935	-0.031782806	-0.09599947	0.080053225	0.040923957	0.027065374	-0.0005728075	0.095183335	-0.058145337	-0.14731196	0.05827783	-0.035968047	-0.0044670436	-0.02838568	-0.026429659	0.08086018	0.20135675	0.05030505	0.017465625	-0.0710334	0.056094337	0.074916795	0.08914975	0.1715039	0.041071575	-0.040384185	-0.04917866	0.073187314	0.041156996	-0.10918615	-0.124734096	-0.039685108	-0.060605913	0.0856357	0.15300111	0.055647746	-0.1706307	0.25169578	-0.09630967	0.06497555	0.060238343	0.0413898	0.037998244	0.008283019	0.07390876	-0.04604627	0.12586357	-0.08580814	0.037687436	-0.115588926	0.02217265	0.010011331	-0.076540574	-0.015649669	0.008246799	0.063677706	-0.019600349	0.07608804	0.122467615	0.043646187	
0.03556826	-0.046105813	0.002768866	-0.041063067	0.11200988	0.058947988	0.19549142	-0.03552151	0.040661726	-0.039263975	-0.03503133	-0.05635329	0.07120893	-0.14070062	-0.010494089	-0.13557139	-0.11436069	-0.03882621	0.007516209	0.079513274	0.08204984	0.10698347	0.07880663	0.119633086	0.007598777	0.024066854	0.046922658	0.021408958	0.08263324	-0.083934605	-0.0058066826	0.04860175	0.23467356	-0.014137826	-0.1380813	-0.003311473	0.013573879	0.13184357	-0.07394579	-0.039579466	0.037394922	0.10094341	0.051097665	-0.002443849	0.039889973	-0.022687389	-0.07038907	0.13044235	-0.123669565	0.0060785725	0.009113039	0.026140762	0.028404709	0.15925138	-0.030170163	0.25088128	0.039970614	0.008267468	-0.016512852	-0.11151808	0.11277083	-0.08395464	0.051283427	-0.020999571	
0.17835663	-0.16692881	0.06582664	-0.013901779	-0.005494378	-0.1878908	-0.0045308033	-0.1513415	0.088465735	-0.009397503	-0.017898021	-0.027208325	-0.013129995	0.06892887	-0.091316506	-0.034944404	0.04837768	0.018790388	0.0561455	-0.048261378	0.076245666	-0.021405695	-0.022255795	-0.12247987	0.019328753	0.011713457	0.0115671065	0.099765174	0.14603549	0.0038963766	0.09400548	0.12760495	-0.09353854	0.09702664	0.10850389	0.11641308	0.053802326	0.046817888	-0.02878222	-0.015065447	-0.11234948	0.07745155	-0.10888022	0.0043884595	0.032020755	-0.009529337	-0.17478482	-0.031951465	0.0060930494	0.030970814	-0.14498073	-0.026847316	-0.035039723	0.03852081	0.03896506	0.15487197	0.06327734	-0.051941074	-0.037860256	-0.0048532174	0.13935864	0.09350112	0.020328762	0.17105284	
0.0697719	0.02686776	0.033801783	-0.013816486	0.045737278	0.019141167	0.15596132	0.069362886	-0.019545529	0.024327207	0.025156032	-0.027429497	0.114480935	0.117003895	-0.040356126	0.0498086	0.042014375	-0.0063411403	-0.07284245	0.2264014	0.029890783	0.01697349	0.0065988568	-0.06256121	0.01679908	0.09329028	0.054918863	0.07561458	0.11436146	-0.050105974	0.025689334	0.1117501	0.23503011	0.15554003	-0.06856449	-0.035829365	-0.004436322	-0.087546505	-0.19177206	0.014997607	0.03216822	0.12598854	0.06580717	-0.0051597347	0.08862596	0.10881731	0.20420165	-0.032201476	-0.041008823	-0.0097587705	-0.034620494	0.02539983	-0.013188529	0.05939749	-0.09373415	0.11630866	-0.060580894	0.12083634	0.14056593	0.050061796	0.061810616	-0.12678726	0.20335488	-0.060895354	
0.040693436	0.1494061	-0.01005062	-0.03756704	0.12752046	-0.03460003	0.2522462	0.078395374	-0.003602246	-0.09814298	-0.02158354	-0.13054267	-0.31207138	0.14046195	0.123617664	0.034224443	-0.20523524	0.020996856	-0.060212467	-0.12543352	-0.0589118	-0.082887486	0.16677955	0.033583976	0.0033997737	-0.0660423	0.023784565	-0.10016497	0.105755426	-0.0844415	0.085785665	-0.018729268	0.07316786	0.05471469	0.19578913	0.14256379	-0.0049215294	0.03281062	0.04903929	-0.022181218	-0.15422767	-0.025180543	0.12901504	0.07877191	-0.023181314	0.041797694	0.04515355	0.08841823	0.09668004	-0.010038422	-0.21942942	0.04056384	-0.011650239	0.1287197	0.012870351	-0.16960165	0.024191845	-0.20104456	0.029197412	-0.013751024	0.0131947715	0.069771424	0.05592165	0.061883092	
-0.084477454	0.12638167	0.037810497	-0.007945649	0.050511643	0.277748	-0.10559957	-0.072109155	0.0023253062	0.04409645	-0.0018739805	0.09053763	-0.03633706	-0.11028976	-0.013070574	0.08167225	0.15637589	0.007848587	0.071080774	0.07894454	0.11820818	0.0365861	0.019631527	-0.04642116	-0.03122046	0.01959012	0.019109339	0.09685356	0.06420742	0.13344844	0.033056222	0.07403587	0.08146446	0.052104436	0.061731767	-0.108748436	-0.041801006	-0.09209616	0.11907005	-0.0066526183	-0.031288646	-0.10469252	0.10673347	-0.0079279905	-0.022375798	-0.09357974	0.11994756	0.020735467	0.1001295	-0.016355483	0.34448913	0.07857967	0.006147918	-0.07758184	-0.05675782	0.03813573	-0.08284989	0.1413989	0.07066302	0.06816506	-0.07501321	-0.07519303	-0.05862901	-0.107103445	
0.23460151	-0.068508945	0.067506574	-0.03974874	0.08338879	-0.13204622	0.09953527	-0.04063955	0.025345288	0.15135995	-0.00100358	0.07314442	-0.09427597	-0.051871635	-0.018411698	0.10894141	0.050691698	-0.033015467	-0.026133198	0.048196845	0.13515599	0.046722047	0.13731658	-0.06443351	0.08178604	0.014075187	0.119218804	0.019197745	0.0073594623	-0.015050308	0.14506076	0.1687217	0.19706689	-0.010924385	-0.051405177	0.029090181	-0.07198448	0.05593301	-0.11857057	0.034632646	-0.092897035	0.023495045	-0.056236565	-0.016639428	0.10638265	0.018283581	0.21114506	0.15032843	-0.03008129	0.015097021	0.07523614	-0.0076797428	0.015321912	0.1031462	-0.11548891	0.039403126	0.058067985	-0.058732983	0.09960875	-0.015122285	0.07121416	0.025838489	0.11433336	-0.083310686	
0.08042496	0.03801482	-0.035664283	-0.016157543	-0.012804729	-0.042770516	0.14373839	-0.07542759	-0.08244584	-0.041466665	-0.0143591985	0.025336428	-0.018858908	0.15721431	-0.028816745	-0.028768184	0.011711169	0.02187185	-0.015794652	0.1264528	0.08682766	-0.068999976	0.14502765	-0.003792793	-0.05235317	-0.033503044	0.0054203887	-0.032062847	0.1899389	0.08529751	0.14711127	0.0923261	-0.011169913	-0.006401158	0.012776587	0.0284604	0.06812896	0.047542553	0.14642131	0.010370254	-0.010437857	0.21023117	-0.024178842	0.11423402	0.008308542	0.0006792513	-0.036879458	0.01625435	0.012577208	0.009419647	-0.009941211	-0.027408186	-0.0135343475	0.05114965	0.05677486	0.015009574	0.12680167	0.045434017	0.04486675	0.0042554727	0.19661725	0.05562281	0.13370812	0.100012645	
-0.09977813	-0.0126392385	0.021244017	0.027838286	0.10820271	0.0065915924	0.24071193	-0.10664689	0.1450222	0.08557673	0.025435627	-0.06603127	0.13758545	-0.123550564	0.09549539	0.058385924	0.11514917	-0.014246566	0.085631125	0.047188383	0.15074842	-0.0146183055	0.13833892	0.0051352144	0.098291226	-0.115891	0.1118754	-0.029900927	0.22457978	0.026407447	0.25920212	0.13869849	0.21493007	-0.0075407447	-0.018095663	0.118845485	-0.05779836	0.06353864	0.14126362	0.053227674	0.05884304	0.07009222	0.18219224	0.07560782	-0.03359126	-0.060561705	0.15197538	-0.14764032	-0.012552075	-0.07079958	-0.11593921	-0.040365096	0.0009835835	0.15424983	0.018059261	0.040413737	-0.05874619	0.20035626	0.22989936	0.06840498	-0.014598635	0.12647389	0.035817284	-0.054345198	
0.004046441	0.11371435	0.11918291	-0.042819053	-0.040578417	-0.18890324	-0.042964693	0.14379942	-0.03434009	-0.06664977	0.0046903077	0.023169652	0.06937911	0.09354011	0.09461873	-0.01941787	-0.12909174	0.004847863	0.021327313	0.05461445	-0.036399323	-0.0070873243	-0.0014204303	0.1430119	0.028467001	0.08490069	0.04360989	0.07818462	-0.00050014845	0.04473675	-0.21069527	0.06916473	0.004401954	-0.019517586	-0.119049795	0.04210578	-0.0034068811	-0.12431689	0.03244023	0.023770742	-0.13779007	0.09444703	-0.08560537	0.0464611	0.016692115	-0.035649702	0.184873	-0.12436847	-0.04980846	-0.05159126	-0.048775565	0.007439221	-0.016897636	-0.045267433	0.03131699	0.0012172572	0.13021578	0.033120397	0.015686013	0.0049891886	0.016904358	0.07479274	0.045087185	-0.05855	
-0.03517053	0.034413632	-0.018576566	-0.05152748	-0.008844863	-0.09502065	0.06281639	-0.07278131	-0.05535988	-0.03311384	-0.03288593	0.03717259	0.15358084	-0.1338497	0.09000303	-0.0022946768	0.0019210542	0.017196922	0.074839406	0.05625433	0.1416513	0.001937165	0.116347775	-0.042927735	0.08934914	-0.09035036	0.02725538	-0.10303526	0.205343	0.008466917	0.20008135	0.09612871	0.081681676	0.039695892	0.05709731	-0.057506386	0.04257925	0.1055966	0.11177961	-0.017863039	-0.075951435	0.12393197	0.021180002	0.04108296	-0.04200405	-0.026741512	-0.046947774	-0.162897	0.116202116	0.016072555	0.06096907	-0.019243607	-0.0066914246	0.04708056	-0.051196616	0.048726164	0.106801935	-0.0038872524	-0.058533452	0.022370908	0.1733426	-0.060641628	-0.036366735	-0.013326663	
0.108213134	0.11307536	0.04569523	-0.02981492	0.032021556	-0.041037906	-0.024411075	0.027379086	0.074723855	0.12101187	0.004642458	-0.0017409626	0.15513438	-0.07972531	0.095546685	0.049279884	0.0512935	-0.007540266	0.031333394	0.06824269	0.23214202	0.00813696	-0.009645679	0.002879379	-0.023772841	0.00027462063	0.0875584	-0.030400256	0.051977392	0.007672427	0.07805349	0.14353667	0.2074513	-0.102182515	-0.08218012	-0.115329236	0.00262061	0.19781098	0.0026560666	-0.006338333	-0.1248741	-0.012106754	-0.0374049	0.0141261155	-0.0902845	-0.022554938	-0.04983671	-0.04735285	0.06503092	-0.013181767	-0.09838423	-0.084633715	-0.015649963	0.12599404	0.034860045	-0.025743874	-0.03726181	0.23500499	0.009207472	-0.060477845	-0.051080823	-0.014057959	-0.09702072	0.06461696	
0.07644112	-0.055587176	-0.24119595	0.009112547	0.053539336	-0.07339671	0.06315241	0.1673755	-0.019635266	-0.13553657	-0.0019668909	0.122245036	-0.049901444	0.1764443	0.0927913	0.020945244	-0.24451788	0.008950494	-0.0804559	-0.045356013	0.074092075	-0.16965848	-0.14588422	0.013059407	0.05412642	0.013016882	0.027887318	0.09016796	-0.07952101	0.009621273	0.16525176	0.020805314	-0.09097996	-0.1968319	0.035238527	-0.070011295	-0.011737825	0.17590709	0.17355509	-0.011181088	0.35076836	-0.05290438	-0.0063165287	0.05125729	-0.019238973	-0.0816917	-0.057644587	0.15224601	-0.03853695	-0.04899101	0.023025656	0.0069233184	-0.016799279	0.09035515	-0.07416186	-0.12896255	-0.028926106	-0.036533806	0.12613729	0.03273082	-0.05985511	-0.12630965	-0.0748811	-0.050315663	
0.015141968	-0.10338301	-0.0110319145	-0.02705109	-0.09008779	-0.0027136274	-0.079408	0.050274007	-0.08790826	0.092107035	-0.02117818	-0.11213768	-0.06007963	0.121917516	-0.010556277	-0.06018465	0.08677089	0.004037848	-0.07866918	0.0662274	0.13512404	-0.0933977	0.0175705	-0.037345726	0.059574373	0.09389129	-0.04635136	-0.00704753	0.033324085	0.021695307	-0.07191034	0.156445	0.36770666	0.1283666	-0.058800504	-0.108323425	0.13929968	-0.08276858	-0.059257355	-0.05848229	0.01815846	0.095773466	0.046638843	0.04048252	-0.18893574	0.037999064	-0.15316111	-0.010222915	-0.04167995	0.05125701	-0.015332315	0.08322833	-0.02122132	-0.050126527	0.043551918	0.1254443	0.0023380336	0.19159159	0.06989118	0.006573834	0.22459316	-0.13937964	0.1601721	-0.040289026	
0.062169604	-0.09706814	0.119149365	-0.047148358	0.01965749	-0.062581405	-0.07266029	0.045014936	0.15300417	0.13898055	0.037974045	-0.025090124	-0.035641026	-0.038769055	0.0037437335	-0.03323664	0.016334534	-0.026231423	0.11993399	-0.0036443993	0.1252077	-0.07050108	0.09963687	0.104395695	-0.018599622	0.016379198	-0.0131257335	0.039446477	0.20118298	-0.0701373	0.02833489	0.14014272	-0.027066557	0.19248258	0.014051021	0.11691957	-0.050314188	0.2307178	0.05414102	-0.037964087	-0.19148353	0.08815711	-0.034647375	0.065178245	0.05389838	-0.09988556	-0.044556092	0.169938	-0.09564582	0.036916476	0.09367089	-0.03149793	0.011213679	0.16109502	-0.051653918	0.10991652	-0.0024537258	0.060746707	0.106088586	0.02512889	0.055010796	0.05597013	0.06390982	0.045702953	
0.04212422	0.01443399	-0.061480805	0.023870867	-0.06849839	0.09293521	0.07535836	0.17062084	0.15919249	0.06134137	-0.02171393	-0.07264687	-0.056822166	-0.06962835	0.08034367	-0.030940088	0.13554676	-0.0021113642	-0.16727486	-0.03640142	-0.08302478	0.024691047	0.16156971	0.042529207	0.20895849	0.013169192	-0.017369123	0.03748291	-0.019555155	0.030546388	0.31143373	0.23701817	0.06311161	0.15136646	0.025257256	0.1555125	0.017793443	-0.027507043	-0.12514454	0.019079039	-0.09815142	0.11053568	-0.03823961	0.012536725	0.030670762	0.04134039	-0.066427164	0.078126006	0.017706536	0.0053693466	0.07669201	0.03989127	0.006238265	0.040864814	0.06089318	0.025545795	-0.07084185	-0.018753652	0.3131506	-0.062492926	-0.001248993	0.20364901	0.18018238	0.037276242	
-0.02661037	0.080113925	0.013409663	0.041839853	0.046313472	0.12330364	0.25688794	-0.12180323	-0.01097527	-0.0011865465	-0.0013500967	-0.0025017725	0.009100671	-0.017968517	-0.07740507	0.0055570123	0.038614575	-0.0067635463	-0.10393995	0.054631203	0.08962125	0.070526734	0.13732572	0.05233639	0.005359207	-0.011430794	-0.065522544	-0.043171324	0.10318846	-0.043283902	0.10972299	0.04939214	-0.04864724	0.022989105	-0.07622456	-0.0091645755	0.019786986	0.13149832	-0.182669	0.03273688	-0.031448495	0.21078032	-0.021503085	0.031168504	0.017174646	0.022030527	-0.046562098	0.061549276	-0.010104003	0.01100188	0.11948303	-0.0051360135	0.025227869	0.11583105	0.054375034	0.15838735	0.18536466	-0.022498066	0.086355716	-0.011321467	0.11046965	-0.08903519	0.1637067	0.17366266	
0.13842297	-0.048940215	-0.04917535	-0.04062678	0.15199964	-0.30066073	0.10770662	0.09388365	-0.107353374	-0.24979031	-0.07705488	-0.0048645176	-0.11280262	0.33931237	0.0044262186	0.03025169	-0.20600499	0.03112479	-0.2105438	0.04093182	-0.012493678	0.19849838	-0.17499334	-0.026758127	-0.048608102	0.049070295	0.09637574	-0.05864278	0.06820442	0.025251271	-0.3336761	0.013012334	-0.06844764	-0.12444637	-0.146472	0.045445878	0.06653928	0.093565404	0.053647704	0.044660635	0.19709648	0.0551848	-0.02072402	0.04900148	0.0041128225	-0.17901787	-0.061491527	0.015034092	0.05886286	-0.08054336	-0.24118097	-0.032203652	-0.079306655	0.01078416	-0.1219791	-0.0012164159	0.1919171	0.16146705	-0.21905349	-0.038987182	-0.21868557	0.14625748	-0.035503898	0.15716924	
-0.056508582	0.10127177	-0.049975526	-0.049071662	-0.10129835	0.10155482	0.06753325	-0.11513855	-0.13531634	-0.096641205	-0.018618781	-0.19682063	0.080932595	-0.025985878	0.016346311	-0.1769844	0.031146111	0.02227214	-0.07841375	-0.03309437	0.17565699	-0.11381218	0.029094825	0.17674328	0.0989997	-0.10140847	0.078815676	-0.02823569	0.03342267	0.027087783	0.1469924	0.13533972	0.022271166	-0.15125306	0.019394383	-0.13026415	0.056624062	-0.04438796	0.12274911	-0.009239936	0.007915997	0.03475736	0.09062969	0.272275	-0.15278442	0.002176031	-0.067226514	0.3400167	0.061419614	0.015203006	0.06622702	-0.10743482	-0.010524046	0.009085955	-0.015685946	-0.013515957	0.023369271	0.03305628	-0.03400414	-0.06516498	0.059656374	0.0047371844	-0.112279706	0.016097868	
-0.45488498	0.25145784	-0.07379723	0.2245081	-0.257667	-0.009678721	-0.4465138	0.0078574605	-0.076663986	0.058516275	-0.026851064	-0.020044621	-0.016707545	0.0068687666	-0.14915426	0.010469385	-0.13458462	0.05108262	-0.024367183	-0.022960957	-0.21303791	0.041625272	0.17478247	0.25744003	-0.50004756	0.12779897	-0.065865606	-0.02044993	0.1441622	-0.0026704718	0.07471525	-0.31491062	0.009831678	0.5160811	0.54651314	0.07757312	0.33728376	0.24754806	0.03808039	-0.31182092	0.38507494	-0.12939721	0.1717348	-0.07233771	0.2507677	-0.04137714	-0.23866694	0.09845282	0.36657456	-0.05965466	-0.121343575	0.026201552	0.0013414408	0.13432452	0.019569075	1.0612203	-0.01891132	0.5186681	0.1549926	0.3602599	0.31701392	0.20376635	-0.19065507	-0.29092574	
0.14522798	-0.0920568	0.09895432	-0.041188154	-0.0133931115	0.03096188	-0.13157716	-0.018105986	-0.09049274	0.20961006	-0.015867239	-0.18604368	0.11434909	0.029393641	0.11581508	0.10844173	0.005803021	-0.0019258896	-0.08719786	-0.09428903	0.0065302295	0.10196495	0.15333924	-0.048952743	-0.009532969	-0.015584646	0.08110718	-0.020009307	0.015450784	-0.02269027	0.14122927	0.16203374	-0.062429264	0.04272851	-0.056464452	0.19433013	-0.008067458	0.16546556	0.044252437	-0.0062942444	-0.031010373	0.03787658	0.09637045	-0.0075941165	-0.002128658	0.05831209	0.075715065	-0.16081603	0.03463031	-0.029236773	0.0068481974	-0.03544887	0.011483767	0.09194131	0.16290157	0.039758854	-0.029438304	0.12143027	0.095913164	-0.077898614	-0.044441592	0.17654374	0.030382743	0.059329096	
0.05704997	0.080306984	0.030469377	-0.028586594	0.077446364	-0.108873405	0.15726286	-0.04800337	0.09888828	0.057237078	0.02092407	-0.051865943	0.013537933	-0.00943716	-0.022169042	-0.016775962	0.07015844	0.05440972	-0.031255227	0.18789083	0.19606543	-0.032103393	0.32237574	0.020031799	-0.13334328	0.06687334	-0.010777948	-0.033525027	0.25664762	-0.08061043	0.15833364	-0.017135978	0.3831634	0.13148929	0.16070235	0.14853168	-0.04844494	0.04859131	-0.007009439	0.012390694	0.18071544	0.20160115	0.09590101	-0.03186818	0.0032882446	-0.031319022	0.12679449	-0.0015340472	0.022300992	-0.01605204	0.19204819	-0.10997345	-0.031500358	0.05715339	0.060107645	-0.09517514	-0.05745964	0.11465887	0.12232235	-0.034133572	0.21940272	-0.30983722	0.11077978	0.20609492	
0.030463204	-0.049888384	-0.0155218905	0.076652564	0.2576087	0.005898316	0.1998396	-0.015067321	0.19906257	0.083272815	0.004450009	0.13641131	0.06104488	-0.10511505	-0.102436244	0.009922724	0.11118324	0.023111485	0.08453011	0.046663895	-0.076074526	-0.0688585	0.022329092	0.037191276	0.12654999	-0.016391939	-0.085911565	0.073683634	0.2646209	-0.04290454	0.07207215	0.07699066	0.101873405	0.20688947	0.029854596	0.13655353	0.028294593	0.11253191	0.043923166	0.043249972	-0.016210582	-0.0006630104	0.07008966	-0.001322165	0.11246214	-0.080352336	-0.08394877	-0.019554412	-0.0566003	0.027724944	-0.101971984	0.036252793	0.010128014	0.1655249	0.084283076	0.22133078	-0.06985831	0.15084708	0.39388907	0.05045314	0.24479464	0.002245362	0.30135322	0.028279804	
-0.022184392	0.047930673	-0.10350979	0.022607949	0.06766069	0.075910404	0.021852707	0.078305945	-0.04740977	-0.0066400156	0.011176158	0.08317134	0.0839187	0.16039512	-0.04126796	0.08624916	0.047089774	0.051854964	-0.061438188	0.13619865	-0.04951877	-0.00874654	-0.08705227	0.043003257	-0.023756552	-0.08332136	-0.107343294	0.09730303	0.1115186	0.07758261	0.020289168	-0.06593135	0.040074162	0.0011149647	0.028973605	-0.0916266	0.03959713	0.040042058	0.081801906	-0.003856507	0.11891254	0.0109282965	0.052501705	-0.12673031	0.043403126	-0.017583186	-0.032913707	-0.027721282	0.16171417	-0.008336789	-0.015937068	0.06325743	-0.06485576	-0.010931341	0.08115242	-0.070299424	-0.12287259	0.079722665	0.072688244	0.043620847	0.02674035	0.015999295	0.014451536	-0.043375958	
0.15716504	0.00084643625	-0.06900927	-0.008742531	0.07705286	-0.026307778	0.1669338	0.04831816	-0.14222035	0.050016217	-0.03224195	0.020653214	-0.08129855	0.109894946	0.017307948	-0.064981505	-0.1863814	-0.005761256	-0.28729078	-0.126552	-0.030347316	0.1716676	0.09779921	-0.10165377	0.11027987	0.026972894	-0.006301519	0.014957772	0.33782527	0.043868657	0.31628582	-0.029828513	0.13150086	0.116295055	0.017669711	-0.0634583	0.08377248	0.23765172	-0.07296817	0.04692654	-0.048462052	0.33058366	-0.044078827	0.0777916	0.21663524	-0.013587178	-0.020496981	-0.1362016	0.083972245	-0.008893662	0.0765637	0.0658876	0.007890536	0.1141461	-0.024117567	-0.0432218	0.12136377	0.24145538	0.16038865	-0.122454785	0.3228968	0.40222284	0.121110134	-0.07651972	
-0.089533605	-0.022921635	-0.004570062	-0.07348839	0.12601219	0.11983622	-0.048198994	-0.03271812	-0.03824495	-0.11124287	-0.0077594435	0.017019482	-0.19319123	-0.20541494	-0.04257004	-0.09153362	0.03999046	-0.01184641	-0.16200499	0.0018088045	0.13818365	0.14492868	0.07444676	-0.17831112	0.08074047	-0.07231844	0.085711	0.074868105	0.0793679	-0.022855394	-0.17465918	0.108229585	-0.040345706	-0.265756	-0.12568218	0.19566421	-0.09377651	0.07422266	-0.17168553	-0.014760748	-0.05011783	0.024311764	0.07452608	0.0009569776	0.14679933	0.13299829	-0.09838678	-0.07815444	-0.29032788	0.01953462	0.12428387	0.18012396	0.016410781	0.15236604	0.12110819	0.062224828	-0.21187042	-0.008546422	-0.085166395	0.0011863419	-0.047859643	0.020758258	0.021014988	0.21595664	
0.2116034	-0.20863768	0.03580907	-0.0864278	-0.06895466	0.15851562	0.10678997	0.21441185	0.1311812	-0.049818806	-0.042218454	-0.07716913	0.21083906	-0.1396012	-0.122681335	0.21239796	0.14733504	0.11410868	-0.19776453	0.19082639	0.28158805	0.32169127	-0.22858709	-0.07500928	0.041166496	-0.07115059	-0.08525386	0.116305105	0.3444345	-0.10675113	0.011543218	0.29378322	0.055687103	-0.27472985	0.02991225	0.12738764	0.12230455	-0.06466832	-0.2675794	-0.058607783	-0.6855015	0.19930913	-0.14980185	-0.2686362	-0.071275875	-0.15117148	-0.016140873	0.08168447	0.023888785	0.11758704	0.12317249	-0.12483943	-0.09482714	0.045459114	0.0010941806	0.04546892	-0.23321064	0.28552404	-0.10086605	-0.010772626	-0.023467638	0.030228132	-0.056914307	-0.3142375	
0.041816447	0.048471473	0.012119076	0.020892937	0.051095784	0.0865094	-0.04160475	-0.049090452	0.034694143	0.063461326	0.013509395	-0.053277645	-0.078990474	0.23272239	0.11448552	0.07199554	-0.033809427	-0.029382972	-0.05215666	-0.05972174	0.0019543872	0.0013247872	0.08250696	0.0021179595	0.12493236	-0.014724704	0.06792233	0.09542336	-0.009346786	-0.015708428	0.03679887	0.16474536	0.09732582	0.056054205	0.030711742	0.1121213	-0.016586503	-0.0018367935	-0.062190603	-0.03516982	-0.130346	0.03600465	0.062798984	-0.017397048	0.045576178	-0.0528354	0.08594331	-0.01629351	0.25537062	-0.008086833	-0.049738534	-0.0070078173	-0.021096721	0.08896703	0.05947458	0.03478815	0.048938442	0.014639196	0.266161	0.044367902	0.06877524	0.03484056	0.21651353	-0.047889635	
-0.15675381	-0.07168488	-0.03462617	0.022111138	0.0011096124	0.21313746	-0.16898757	0.06655508	-0.37646002	-0.0024260136	0.03888914	-0.054055717	0.051918894	-0.1293726	0.014877031	-0.1535107	0.16860062	-0.025909528	-0.18144672	0.10874644	0.21914776	0.19570263	-0.03114948	-0.05022689	0.07209412	-0.018572	0.13785924	-0.043034196	-0.095540196	-0.064390965	-0.22306208	0.03629178	0.097175986	-0.20197836	-0.13866273	0.03191462	-0.0064090746	-0.018781852	-0.27179527	-0.004969973	-0.13916892	-0.13398524	0.16104794	0.046449143	-0.09028412	-0.030577112	0.013872172	0.0863867	-0.026871966	-0.03355081	0.24142362	-0.07055707	0.012444659	0.02456275	0.10023276	0.084878914	-0.054643	0.2132056	-0.20655999	-0.08793714	-0.18074927	-0.043384716	-0.20132641	-0.15768273	
0.1267431	-0.19630992	-0.24480605	0.006761956	0.14943388	0.05497159	-0.15426852	0.107848965	-0.13485885	0.20885989	-0.040235426	-0.030136095	-0.057005167	0.022701861	-0.02034271	0.012140338	0.11657949	0.004892646	-0.037748903	0.1732144	-0.07377479	-0.102904074	-0.07286035	-0.105736	0.011456719	-0.05406402	-0.14379491	-0.026329707	0.14573601	0.019572161	-0.054918677	-0.1666348	0.020399481	0.16777055	0.08756519	0.13550127	0.044555113	0.2689507	-0.048032355	-0.014228411	-0.11031315	0.07489452	-0.06412375	-0.17211103	0.07129645	0.2679231	0.02836846	-0.07445885	-0.00018785147	0.031010522	-0.015699733	0.047120597	-0.007170241	-0.0546549	0.115224354	0.030412972	0.05863192	0.1259892	0.1036478	0.022449613	0.15722659	0.008639116	0.23591135	0.056256	
-0.17418781	-0.14870733	-0.043278877	-1.21520025e-05	0.032463584	0.18527097	-0.12166342	-0.16587539	0.122547954	0.011389994	-0.025457148	-0.11276017	0.24047567	0.10473014	0.043912165	0.20180401	0.028881775	0.022932513	0.011944109	0.12404007	0.07936336	-0.014044362	0.09053067	0.0009587757	-0.06460104	-0.13192843	-0.04696908	-0.03512974	0.07181279	-0.05474651	0.13454948	0.03503717	0.059802543	0.010297922	0.008633869	0.06643655	0.04028552	0.096657716	-0.09252032	-0.007933845	0.027274247	0.1013657	0.14821833	0.120225005	-0.1774078	-0.026356623	-0.06296928	0.113676175	0.2988957	-0.033106714	-0.11015456	-0.0501267	-0.013621129	-0.1231172	-0.0058183423	0.13170181	-0.11071111	-0.06823176	0.051113494	-0.016481524	0.025196986	-0.06656423	0.052963752	0.0802959	
-0.06955325	-0.11433329	-0.04163238	-0.031044656	-0.12041367	-0.22576867	-0.05060212	0.15329412	0.06545757	-0.032394156	-0.028571537	-0.050780106	0.10566161	0.1934701	0.035525598	0.076734334	-0.17522703	0.025650332	0.039433133	0.17242531	-0.08447564	0.1086094	0.07039493	-0.033152346	-0.092674024	0.038902327	-0.04017238	-0.09504548	0.10410367	-0.019535579	0.070269786	-0.051691454	-0.28391817	0.074752174	0.0281358	-0.044868648	0.028984696	0.081717506	0.040983062	-0.018896416	-0.1441157	0.2940802	-0.0038542626	0.062559135	-0.055395667	0.08341784	0.1021496	-0.053381674	-0.04701061	0.031207707	0.0029543897	-0.018212186	-0.008522013	-0.090098806	-0.16362797	0.010078104	0.048838846	-0.022554958	0.036858063	-0.05786172	0.15741223	-0.016669493	0.0854365	0.27399835	
-0.22149473	-0.018084973	0.16918813	0.045710105	0.002555163	0.2599733	-0.010155328	0.17652258	0.029451951	-0.004912788	0.041451063	0.1514264	-0.17929983	-0.030482473	-0.01885841	-0.16506642	-0.1807766	0.015592436	-0.14597218	0.02367806	-0.059940603	0.15255316	0.13192604	0.085357875	-0.08603604	0.14579779	0.056129925	0.007994414	0.13828659	0.11185862	-0.06240227	-0.05113166	-0.06584077	-0.065537944	0.16832402	-0.06796325	-0.055202726	0.015538672	-0.08421857	-0.018385874	-0.11694847	0.07342528	0.08272478	-0.019577758	0.1124305	-0.060231365	-0.1437763	0.06407313	-0.029752918	0.087864645	-0.2784549	-0.21136874	0.030708287	-0.09106167	0.10136391	-0.13742276	-0.12090535	-0.20691724	0.07855448	0.022462549	0.00096213707	-0.06870707	-0.036323298	-0.10309068	
-0.13861904	0.15639688	0.013581815	0.006543664	-0.01773525	0.006075503	-0.005589699	-0.019114256	0.021042144	0.03225199	0.015991798	-0.023704436	0.04499248	-0.24430823	0.035273083	-0.111657485	-0.043402307	-0.02937462	-0.08906082	0.0342609	-0.021360539	-0.16792884	0.13886358	0.049151283	0.0759099	0.022606857	0.033272583	-0.020864448	0.025742233	0.031517476	0.1422872	0.05344381	-0.010779406	0.073562585	-0.026665924	0.041592844	-0.016777355	0.016067319	-0.10688992	-0.06578205	0.10534719	0.15800951	0.11928582	0.020466307	0.064746015	0.06989693	-0.254895	-0.12474882	-0.13397104	-0.012240351	0.16397935	0.103268385	-0.009199282	0.045164805	0.09899072	0.04052007	0.025572024	0.003594146	0.13240968	-0.023610678	-0.02362457	0.08360158	0.05901622	0.019308014	
-0.1460622	0.06119414	0.05137757	0.003741759	0.10329084	0.030029297	0.09337614	0.09827974	-0.009069368	0.21478072	-0.0012900752	0.0021097325	0.02294617	-0.14063671	-0.009412046	0.029311338	0.1177439	-0.033045582	-0.022646355	-0.117227815	0.10947931	-0.016252223	0.17186277	-0.05732109	0.13265161	-0.026490726	-0.10839349	-0.21227731	0.040475104	-0.06783955	0.20677817	0.05867033	0.15860832	0.047087688	-0.031865943	-0.049990457	0.00814671	0.32651478	-0.16198213	-0.053404108	-0.18001355	0.033988357	-0.03518065	0.03132377	-0.0053217863	0.07914433	-0.07589032	0.011485954	-0.27551213	-0.0071497774	0.0527914	0.015990598	0.062850684	0.15347217	-0.020366697	0.113118805	0.03181802	-0.15172203	-0.03967302	0.0056800814	0.04197715	-0.1810554	0.036038406	0.14798094	
0.05809316	0.07694231	-0.15807009	0.04562234	0.04876756	0.26444206	0.16332135	-0.007271153	0.01293556	-0.0380848	0.03185924	-0.055589627	-0.029275307	-0.22118782	-0.026703458	0.018698301	-0.004665976	-0.016021151	-0.027520292	-0.081711106	-0.09299503	-0.010808939	0.0752829	-0.084541954	0.20296463	-0.046766233	0.011782845	-0.070596926	-0.12204485	-0.15908426	0.1759441	-0.11009144	0.07307734	0.068580024	0.13958502	0.13008338	-0.059962865	0.023707684	-0.007474219	-0.04916252	0.023963807	-0.021929767	0.041872185	-0.07800171	0.041993707	0.14757973	-0.19740897	-0.066040024	-0.20696643	0.019692058	0.09271544	-0.04801463	-0.0006320947	0.12120495	0.053089045	0.08051392	0.0069256024	-0.09504601	0.058191583	0.037358314	-0.069288224	-0.10026491	0.03370968	-0.025080683	
-0.15620562	0.11558496	0.08464844	0.07627961	-0.0380547	-0.25487807	0.11708211	0.04634986	0.045806397	0.23031199	0.0350892	0.19689906	-0.035778355	0.10506313	-0.064390704	0.33106992	0.052941244	0.11441413	0.19381818	0.0072932537	0.0968914	-0.23971641	-0.0017041519	-0.042618364	-0.06317362	0.0077397674	0.046003826	0.08808365	0.15469179	-0.1777103	-0.112843215	0.123851605	-0.2339477	0.21530336	-0.15885763	-0.059161704	-0.08545761	-0.10686873	-0.19719762	0.002543143	-0.14014077	0.038331483	0.061075334	-0.41242552	-0.07488985	-0.04944247	-0.21431284	0.15469015	0.355284	-0.0022785752	0.028023668	0.15537922	0.074226595	0.1695289	-0.028589498	-0.17723233	-0.21707976	-0.08699301	0.07656775	0.03355179	-0.2805996	0.103102595	-0.1088095	-0.025732787	
0.084136374	0.03341627	0.06762302	0.028618596	-0.0043279207	0.051834766	-0.07228986	0.0067337863	-0.010855904	0.112666525	0.043097343	0.08601906	-0.07722911	-0.112304606	0.04815587	-0.09525371	0.031668376	-0.001604617	0.12466116	-0.05979073	0.13578168	-0.04375663	0.1586379	-0.054076217	-0.06205604	0.04645128	0.09331482	0.01635228	0.1397572	-0.11588773	0.11442236	0.13612221	0.07872676	0.19090201	0.13314335	0.08243172	-0.044697512	0.074053675	-0.008836531	-0.01711103	0.09761626	0.17035611	-0.0016485584	0.023832217	0.05957146	0.027697157	-0.022930114	-0.11352249	-0.038700312	0.022706695	-0.13679567	0.026030306	0.028023234	0.0066632368	-0.06332749	-0.0057181213	-0.025852721	0.16249843	0.21667895	0.050513763	0.14496979	0.03261515	0.20228715	0.08438686	
-0.09336681	0.1373737	-0.19416338	0.060299277	0.03696649	-0.099781536	-0.33854708	0.039755385	-0.102317534	0.014128386	0.026931152	0.044199005	0.021836815	-0.0638013	0.036364723	-0.12347816	-0.20041132	-0.03269341	-0.21539587	0.029441264	-0.16197169	-0.054290887	-0.21439448	-0.073852696	-0.12580898	0.12815213	0.1269101	-0.25816646	-0.17868142	-0.09941707	-0.09555366	-0.1764419	0.014958859	-0.12872338	0.055751655	-0.10067374	0.0045720707	0.25992703	0.048845056	-0.026178302	-0.08987408	-0.11225898	0.013116665	0.1877348	0.06876618	0.047592234	-0.07219562	-0.22321555	0.013423171	0.025537219	0.09974355	0.08978787	-0.01281142	0.0056858207	-0.0048269504	-0.100843966	-0.03972081	0.21759246	-0.03285933	-0.023552237	-0.27966255	0.15337265	-0.17899345	0.2425713	
-0.0051193563	0.009761003	-0.105678566	0.048859682	0.08673088	0.48793644	-0.16074558	-0.2090571	-0.13161379	0.0021941315	0.014794089	0.0072630644	-0.24826658	-0.021704962	-0.0594345	0.014661384	-0.16007829	-5.174197e-06	-0.016122162	-0.0597189	-0.056931578	-0.07381818	-0.1300215	0.13634327	-0.20905425	0.021358693	-0.017395196	-0.016437875	0.04122156	-0.18089926	-0.13646288	-0.16639619	0.051411074	0.07836406	-0.064800836	0.016640939	0.0136882765	0.08000575	0.061989095	-0.019370565	-0.059229318	0.002820946	-0.09755368	-0.02951775	-0.023118874	-0.0005908564	0.16923414	0.029361736	-0.3147031	0.0018878495	-0.16338918	0.0076333084	0.014061814	-0.1284611	-0.061904408	-0.21372731	-5.889777e-05	-0.085328355	0.011686373	-0.05151834	-0.06127638	0.07987812	0.04537914	0.16825639	
0.0061883456	0.0752923	-0.12453305	-0.091081105	0.11960389	0.05920401	-0.018083025	-0.09719647	-0.36158204	-0.39882088	-0.028074015	0.00813804	-0.19855167	-0.14231645	0.23263317	-0.029164257	-0.16959132	-0.03889489	0.03378739	-0.0027621915	0.096332915	0.032856695	-0.16401275	0.07158506	0.22156033	-0.15750149	0.069438085	0.27927515	0.010403966	0.06054711	-0.07434907	-0.03479975	-0.1482587	-0.34806448	-0.0074693714	-0.07139487	-0.06393258	0.22294568	0.44725016	0.031072753	0.046051126	0.035005964	0.15863565	-0.008788708	-0.042116147	-0.022387605	-0.20288764	-0.08992975	-0.08282542	-0.09135775	0.013907789	0.010223168	-0.011456605	0.09990683	-0.13926595	0.090142034	0.34034193	0.24253158	-0.23092072	-0.3162711	-0.04168125	0.32720596	-0.26804268	0.29309562	
-0.049105402	0.1358717	-0.05021084	0.04382846	0.04209645	-0.13466151	0.045075208	0.01811886	-0.22879519	-0.055898953	0.0025239892	0.0724669	-0.18195677	-0.036046233	-0.009652626	-0.055613607	-0.04102829	-0.0122209145	0.050376195	0.14616695	0.057715815	-0.10675424	0.09166682	-0.004607489	0.013793549	-0.026498605	0.0077947853	0.04882226	0.058900613	-0.05685803	-0.08792303	0.074645415	-0.035984945	0.0029479654	0.0052000997	0.037441567	-0.027227776	0.08525008	-0.27420142	0.040976103	0.028566249	0.0055275126	-0.002841126	-0.078772485	-0.09186396	0.019919569	-0.020129012	0.034957714	-0.02632506	0.010590725	-0.07714705	-0.008790208	0.057891805	0.13806362	-0.025612855	0.16064677	0.08707653	-0.08840969	0.043273542	-0.071952164	0.044445276	0.04703124	-0.0016193562	-0.06897978	
-0.0750997	0.16847323	0.009562808	-0.023710787	-0.12723744	0.006639055	0.07976865	-0.21160339	-0.11038673	-0.13727978	-0.022028329	-0.0359421	-0.15412998	0.017996019	0.051342342	-0.19616593	0.015940264	-0.0002811123	-0.050413173	0.08048461	0.07447536	0.0940539	-0.20548607	0.023128947	0.031176843	-0.0101754395	0.055794604	0.13037804	-0.010240859	-0.031554624	-0.082011804	0.062115226	0.016635165	-0.19221088	-0.044155236	-0.16738261	0.029739005	-0.008789716	0.042818654	-8.3593564e-05	-0.0914479	0.03646538	-0.07270556	-0.024563786	-0.00847445	-0.0093233725	0.03912576	0.03669668	-0.026497563	-0.006703513	-0.04297065	0.19132487	-0.0057970067	0.13566905	-0.0085064275	0.05492165	-0.034949277	0.14197579	-0.13486211	-0.026804717	0.117001235	0.07991704	-0.13221857	0.10684838	
0.076560415	-0.039772112	0.030522026	0.048076425	-0.049495894	0.047013804	0.116924115	0.11806632	-0.073419	0.17620312	-0.030075807	0.0054061837	0.029014686	-0.08547805	-0.008967157	0.09489031	-0.043680523	0.018214183	0.07552075	-0.115742765	0.09298621	-0.060571153	-0.034031607	-0.121956095	0.074278355	0.09750482	0.070643276	0.008178851	-0.06675449	-0.08071766	0.116483875	-0.09886887	0.1345436	-0.0070257303	-0.033421468	-0.22844386	-0.10693824	-0.057840504	0.20652272	-0.003968817	0.022029324	0.1312709	0.020685198	-0.22201	-0.14522563	0.04979807	-0.19667737	-0.04066948	-0.21542598	0.0058884094	-0.15333949	-0.06741741	0.029626828	-0.12836118	-0.009710781	0.00590886	0.08625348	0.1491269	0.12204751	0.157162	-0.19880825	-0.06889475	0.011436399	-0.22983237	
-0.03612022	-0.30320388	0.036278404	0.08462495	0.04457411	0.03873305	-0.15470779	0.051295653	0.013434283	0.054178696	0.035143085	-0.010242286	0.078133814	0.06968451	-0.03640973	-0.008289902	-0.01982986	0.02328944	0.021640163	0.11249179	-0.019167699	-0.15727569	-0.028467823	-0.03458081	-0.16220973	0.15161434	-0.027274322	-0.026638495	-0.040044244	0.034602482	-0.11787603	-0.08347121	0.14147569	0.058474123	-0.0043012914	0.0401398	0.012987331	-0.023762317	0.00625228	0.023786793	0.015963744	-0.08306708	-0.017535731	0.013623547	-0.007871518	-0.00078325224	-0.06781819	0.1697189	-0.057533726	0.03279609	-0.11691391	0.056512475	0.02047816	-0.1643272	-0.04271917	0.09062579	-0.048011526	0.2139127	0.118138105	0.07708155	0.010266476	-0.05757137	0.044135343	0.17383756	
-0.04057245	-0.010237634	-0.07110605	-0.005551985	0.13634607	0.09835043	0.0035228615	0.03926151	0.08909158	0.04528619	0.009739898	-0.0062612486	-0.03063973	0.02373873	0.032174796	-0.06496997	-0.13843343	-0.034675006	-0.010767571	0.144337	0.01615561	0.09012809	-0.010601384	0.076337405	-0.0046796263	0.025183134	-0.04057022	0.023073452	0.14569901	-0.06887745	-0.041943043	0.041713513	-0.033452205	0.0879699	-0.0779385	-0.10074061	0.0044186357	0.12634842	0.009799254	-0.0041733584	0.036015548	-0.02862211	0.024441697	0.024149597	0.08630108	0.043876227	0.05284307	0.027543042	-0.15315591	0.013384925	0.05599183	0.0565749	0.031410392	0.07110565	-0.01764083	-0.10486548	0.17049374	-0.026992397	0.2319795	0.026444923	0.14202532	-0.07177662	0.15171304	0.034947313	
0.20690945	-0.13342638	0.04971364	-0.05884531	0.013101007	-0.008636773	0.10688818	0.06556265	0.06399598	0.055274084	-0.024078388	0.08268209	0.018349856	0.09746673	-0.02426502	0.097376555	0.17650463	-0.00050729467	0.022250324	0.1450607	0.18684392	-0.0031663156	0.01350062	0.05891531	0.012658655	0.0033625818	0.02116239	0.047411986	0.21957591	0.066799924	-0.026346743	0.13996509	0.04483477	0.0038152928	0.033429347	0.07679876	0.045300227	0.010385821	0.017841307	0.0023173112	-0.0588406	0.13508514	-0.17273596	0.026155787	0.05663105	0.0037308366	0.07161171	0.13585134	0.12860131	0.042772036	-0.062919155	0.019006243	-0.029952351	0.027511133	-0.020712523	-0.06572765	0.02692636	0.07483246	-0.007514924	0.048380613	0.07800344	0.08424273	0.10265963	-0.067765154	
-0.019727213	0.050901078	0.0093519455	-0.004977977	-0.00088716595	-0.008501569	-0.036741152	0.02425636	-0.03046204	-0.004287502	0.0004849026	0.060852714	0.009347529	0.016531188	0.012683907	-0.02327448	0.0118511645	0.0034859485	-0.010496308	0.043101884	0.0028511735	0.12515469	-0.0017292495	-0.021781726	-0.024347471	-0.0012957227	0.012366782	0.009446393	-0.022658816	-0.0051752254	-0.04545451	0.019706916	0.02658844	-0.012217274	0.005347654	-0.010134968	0.00071920856	-0.014244559	0.012837898	0.0062337806	0.0005479044	-0.0072127497	0.008671654	-0.09758941	0.0045101736	-0.07623813	0.03974674	-0.09125067	-0.026003638	-0.0028920607	-0.018519718	0.03347614	0.0068238205	0.0014796088	0.023468925	0.017308678	-0.008813931	0.018976282	-0.0109921545	-0.0048577012	-0.014511437	-0.01713447	0.0033208854	0.007395382	
-0.008546168	-0.028021548	0.0035709965	-0.0018255365	-0.028779956	-0.0072367107	0.05168692	0.047169667	-0.017237326	-0.0011548107	-0.000900001	-0.029705064	-0.04342908	0.011909343	-0.017131409	0.27650708	-0.061128728	-0.0018149771	-0.038405415	-0.113167025	-0.036610223	0.01327286	0.048677508	0.005800556	0.05150834	0.038471144	-0.003789608	0.0023607002	0.034610033	-0.018457647	0.087349944	-0.011546025	-0.007847167	0.03254453	-0.012407528	-0.0040679686	-0.013227101	-0.017940404	-0.15733524	-0.0112324115	-0.042236067	0.06403071	0.017059306	-0.03788965	-0.00046372888	0.048834484	-0.013134035	-0.08373777	0.019839138	-0.004961703	0.01690181	-0.2409406	-0.0018881672	-0.024699843	0.0008432521	0.039111577	0.040157426	-0.064487904	0.02675359	-0.003955474	-0.0996787	0.050332367	-0.042694505	-0.027830366	
0.011074943	0.07257951	-0.013733716	-0.005593419	0.023597624	-0.034424994	0.00430064	-0.035533514	0.051181074	0.010511183	-0.0058698626	0.052315913	0.01744383	0.059529956	0.056368824	0.08893489	0.025097432	-0.004225438	0.05987109	-0.013039767	-0.023876332	-0.29218814	-0.09237147	0.02361087	-0.0020043554	-0.037021164	-0.001557466	0.02899627	-0.013941374	0.023288386	-0.014474916	-0.0010667511	0.017868945	-0.01845182	0.05857057	-0.077611946	0.00030651846	0.0033534383	0.07056609	0.004572006	-0.04244678	-0.07545088	-0.019308593	-0.30512804	0.011038196	0.19500072	0.017384155	0.012187096	0.0017606051	-0.00936817	0.0013356797	0.24858326	0.00212062	0.035427947	0.010295116	-0.107708335	0.073181584	0.0057539805	-0.00014836852	-0.00836064	0.11579605	-0.0013951338	0.020015009	0.027476056	
-0.031797856	-0.06458281	-0.012475531	0.012725271	-0.022236986	0.01941628	0.030791404	-0.050429676	0.08491522	-0.052817713	0.0038282562	-0.073202156	0.0033837922	0.011092496	-0.042823553	-0.045550734	-0.020608196	0.004495748	0.03294524	0.041218944	-0.030524243	0.2048779	-0.04386976	0.007983673	0.00042871144	0.030465808	-0.00699391	0.011532036	0.0045762677	-0.008859977	0.02683769	-0.024263969	-0.01717083	0.01907665	-0.04672202	-0.057559986	-0.001743724	-0.04868013	0.17096741	0.006580636	0.04035037	0.028567424	0.006292637	-0.22970174	-0.001368444	-0.030097673	-0.011546839	0.278455	-0.04831051	-0.0070662466	-0.023355482	-0.09759023	-0.0053832904	4.9271788e-05	-0.034505	0.012531905	-0.073083445	-0.05379117	-0.009461155	0.014310148	0.0019725547	0.017474756	0.0047215526	0.020060172	
-0.007850265	0.016455801	-0.02543254	-0.0010873338	0.033955913	0.018339915	-0.029196559	0.018248724	-0.02499836	0.021596648	0.00339353	-0.04455131	-0.006150064	-0.040592045	0.0130405985	0.09853762	0.0003654118	-0.0047173398	-0.011812509	-0.0010218605	0.016124057	-0.028685581	-0.0075887633	0.0035448524	-0.03579556	-0.02094432	-0.005371442	0.01075585	0.009768891	0.009619427	0.014387446	0.022445839	0.040043756	0.015209632	-0.0891802	-0.056866534	-0.0028510515	0.011279698	-0.10460653	0.0032481512	0.092546016	-0.020619	-0.0072709974	0.063576005	-0.004183963	-0.25937214	0.022652004	0.105642706	0.032644875	0.0028858897	-0.0034962434	0.022553477	0.0016717296	-0.022795068	0.01603142	-0.04682189	0.055948783	-0.0069422354	0.03901644	0.00022433697	-0.047079157	0.0046733893	0.0031436183	-0.04371229	
0.079659276	-0.11153695	0.01466354	-0.0042918143	0.026719317	0.04883667	-0.068616286	-0.12133747	0.0024664016	0.048811197	0.00090103305	-0.0686177	-0.039887033	0.0053202542	-0.01305274	0.04920084	-0.046948295	-0.0029537033	0.0055805384	0.000442334	-0.024178047	0.010207262	0.00051490625	-0.0056896317	-0.031247254	-0.0087814955	-0.0101086125	-0.010573003	-0.01768102	-0.02263518	0.011381595	-0.047111545	-0.018446699	0.00037296937	-0.024917616	0.01952544	0.0049859476	0.05707684	-0.21549603	-0.011298059	0.004486649	0.07612109	-0.025600078	0.10055477	-0.018900434	0.036154225	-0.042888507	0.06793272	0.0672569	0.009789626	0.01900087	0.21600592	-0.005802377	-0.071728356	-0.11588756	0.04936382	-0.1257662	0.004902054	0.0244289	-0.017585935	-0.027255872	0.012582733	0.054108847	-0.059101894	
-0.093474016	0.02156506	-0.031371254	0.010288328	0.0112858405	0.15297753	-0.011120404	0.091038235	0.07806304	0.055122495	0.009732117	0.110492826	0.11509728	0.03915935	0.058646325	-0.049207434	0.02973955	0.008016523	-0.025074301	0.12012652	0.0037785324	-0.08379663	-0.02103093	-0.029571809	0.08220453	0.008118856	0.000626289	-0.006880217	-0.03413803	0.02682899	0.036498394	0.05160332	0.06232664	-0.018318191	0.052540127	-0.16883492	0.007009787	-0.03054456	0.08487443	0.02315192	0.06621258	-0.12629575	0.028334273	0.26187012	-0.025439506	0.018785123	-0.14863175	0.09576911	-0.22745359	0.012219337	-0.10050084	-0.055475324	0.0022619483	0.06417334	0.13760087	-0.12671576	-0.59161454	-0.11817006	0.15512015	0.036632415	0.06909067	-0.085486114	0.03263427	-0.08377774	
0.058371395	0.2965722	0.16877082	-0.0029738569	0.0051422287	0.057531912	-0.09006987	-0.022331579	0.37418553	-0.110630855	0.013095084	0.039296113	-0.0027402758	-0.4600456	-0.09177552	-0.12725678	-0.0515671	0.010623601	0.11213891	-0.18520465	0.050007436	-0.12665972	-0.029974626	-0.014061046	-0.11063521	-0.026437135	-0.025339492	-0.043031666	-0.090294346	-0.04898886	0.09851922	-0.017127683	-0.05844144	-0.072223894	0.024020284	-0.18400928	-0.004920585	0.03487916	0.18624231	-0.024298515	-0.122619234	0.044843107	-0.002891512	0.237044	0.0063572726	-0.315926	0.0689232	-0.23410614	-0.083011515	-0.015458408	0.2892088	-0.092667125	-0.0072883815	-0.051847585	-0.055899914	0.2527332	0.046727818	0.17474554	-0.061172083	-0.0086301705	-0.14164388	-0.063258655	-0.06923141	0.025231555	
-0.052647915	0.23611206	-0.11524788	-0.007119379	0.03184337	-0.017323254	-0.04597808	0.04921674	-0.13602705	0.08908741	-0.0021844367	-0.35348538	0.0126562165	-0.0778864	0.0339225	-0.033855274	0.07531563	-0.009470583	-0.11772237	-0.016280578	0.10917989	0.20148306	0.064757474	-0.015755108	0.02346448	-0.019679353	0.015785363	-0.05717904	0.07022156	-0.007986944	-0.082694	0.10472266	0.05336428	-0.0136906365	-0.16983348	-0.0730571	0.0065758834	0.07174077	-0.09658437	-0.005060082	-0.056259256	-0.036031824	0.020788439	0.2190484	0.0093169855	0.20969251	0.021209257	-0.15417854	0.1759935	0.023657536	0.22584544	0.03815135	0.0070335614	0.02481315	0.04732382	-0.018780498	-0.005108868	0.08241233	-0.0074316356	0.007854538	-0.12165884	-0.08920335	-0.05919576	0.08656198	
0.028128099	-0.037649367	-0.34363797	-0.0040040696	-0.02755359	-0.03574871	0.036998473	-0.018113924	-0.022071054	-0.025711913	-0.0010013573	0.3574695	0.00021962264	0.109458596	0.01054306	-0.0887549	-0.02497172	0.009051717	-0.016509378	-0.025066473	-0.02019721	-0.035101563	0.058784846	0.0018247623	0.05018895	0.011237598	-0.006117648	-0.0060611484	-0.025859242	0.023550924	-0.031475816	-0.059823994	-0.08388441	-0.037081197	0.19812533	0.036898136	-0.0009803126	0.0015858938	-0.007788184	-0.0072705913	0.22647439	0.03133254	0.00072513253	-0.025523128	-0.0017295543	0.15136322	-0.051740427	-0.04454386	-0.035641506	-0.006077334	0.026257876	-0.02904955	0.00038714497	0.0094020385	-0.043223504	0.0018230977	-0.010787348	0.006055614	-0.026832294	-0.0028333555	0.033472788	-0.01081701	-0.0037461815	0.008710315	
0.0028731572	0.084973	-0.010071381	-0.0011486419	0.00856644	0.08561056	0.12611027	-0.30496183	0.065302394	0.011134855	0.010186894	0.0082773985	-0.05948883	0.024061412	0.016214147	-0.052240904	0.043083478	-0.0029594707	-0.033683773	0.038972225	0.01822408	-0.021059306	-0.08099828	0.02784435	0.046042994	-0.025085693	0.014202623	-0.012855797	0.028537555	-0.00050072616	-0.062235057	-0.07147482	-0.028284885	0.009876492	-0.0041380986	-0.09468019	-0.0029565934	-0.011086598	-0.0053293905	0.00920006	-0.018630354	-0.11019835	-0.04068908	-0.011338408	0.012004508	0.00066124694	0.017765874	-0.020843478	0.051878754	-0.0070785866	-0.01158483	-0.15831974	0.0059531406	0.045308184	0.49261305	-0.18096325	0.1769816	-0.07539833	-0.07699836	-0.010063916	0.15809032	0.015382115	-0.003370276	0.23981076	
-0.17965865	0.073557734	0.026397906	-0.046385054	0.25515437	0.0005496387	-0.107189134	0.0541937	-0.055487003	-0.031573873	0.03227687	0.08861609	-0.012000246	-0.003772856	-0.036168765	-0.070692554	-0.041868195	-0.044239517	0.026312955	0.026088022	0.2092258	0.159968	0.06638484	0.5420767	0.18366855	0.32784003	-0.02422436	0.019875066	-0.13452756	0.041650176	0.10432037	0.008138158	-0.10950906	0.12591152	-0.05072161	0.00083647884	0.04716654	-0.12303084	0.043937307	-0.31737846	-0.01524399	0.040757716	0.021532845	-0.09995658	0.051593807	-0.09488915	0.026792895	-0.09086179	-0.005945104	-0.027928563	-0.0037507543	0.06915253	-0.27241078	-0.12965845	0.01900276	-0.0054524806	-0.00017373454	0.10711428	-0.15311758	-0.32593358	0.027905228	0.09668509	-0.0074512763	-0.06306101	
-0.0066825417	-0.07228016	0.0257146	-0.24215561	-0.47590786	0.015941633	0.026613764	0.06734733	0.021527141	-0.07123504	-0.03257355	-0.05404254	0.0036506723	-0.01908942	0.18353991	0.49504465	-0.05791227	-0.10715752	0.043911554	-0.0679054	0.09137119	0.04303159	-0.121319965	-0.18069355	-0.5095581	-0.65731776	-0.06393039	-0.1134262	0.049542308	0.27174374	0.04977298	-0.21919641	0.14575331	-0.050620828	0.117195785	0.023820981	0.15773007	0.25635234	-0.21753612	0.7632742	0.08647303	-0.08352534	0.050699085	-0.01237742	-0.20658813	0.05574346	-0.03675939	-0.06147659	-0.034127403	0.17171556	0.007812755	-0.4456979	-0.20564915	0.21272743	-0.02740554	0.13766886	0.08039084	0.043427356	0.0300827	0.17293866	-0.13292491	-0.11715437	0.10939821	-0.012240327	
-0.20297773	0.08091078	-0.04242012	0.18738091	0.106879845	-0.058384426	-0.056236356	-0.042033836	0.07080747	-0.08668948	-0.035296336	0.048400283	-0.024000982	0.03039307	-0.5181097	0.11836476	-0.0089533795	-0.5625521	0.046157077	0.05865573	0.38660806	-0.40231746	0.036218982	-0.08748945	0.351893	0.43119663	-0.048330925	0.10025648	-0.29275316	-0.32559076	-0.1881802	0.22780818	-0.07795248	0.15554357	-0.2849527	-0.12364011	-0.36737296	0.10636341	0.05432154	-0.38422906	0.10371304	-0.053119328	0.070800334	-0.31992286	-0.4706529	0.25723052	0.038051058	-0.040093318	0.085437186	0.080807105	-0.0022559082	0.4658593	0.6398925	-0.09414297	0.026292052	-0.1722954	0.06981091	-0.13059561	0.18204758	0.07643509	0.31115982	0.12727302	-0.032166857	-0.057831667	
0.21825619	-0.15296851	-0.051046282	0.25864446	0.11784542	0.03674561	0.09759062	-0.08905914	0.09471453	0.07565441	0.010715577	-0.059440784	0.044615865	-0.009100573	0.520691	-0.06662328	0.35183004	-0.36244532	-0.17892884	0.0049285563	0.013723527	0.23702686	-0.08783997	-0.3282057	-0.255675	-0.3035536	0.21538429	-0.19837454	0.07192871	-0.13547903	-0.049784653	-0.076573834	0.048518408	0.21426815	0.16542195	-0.03254627	0.3449063	-0.13684319	0.25458404	-0.2152124	-0.037127644	0.23122282	-0.063172534	-0.24232799	-0.13090512	-0.02809306	-0.033190902	0.2974895	-0.022691986	-0.11276644	-0.0327536	-0.19414589	-0.047235616	0.013468919	-0.024433192	0.13803971	-0.12353036	-0.027702745	0.07294734	-0.17750861	-0.083019495	0.03423665	-0.16830358	-0.0757035	
0.14646982	0.03226548	-0.036452245	0.0004305218	-0.09055384	-0.011396286	-0.06348886	0.053445194	-0.043885242	-0.07293336	0.06774363	-0.08255377	-0.018976673	-0.001591682	-0.13433072	0.1368279	-0.24935715	-0.3310498	-0.021014744	0.04347313	-0.19475923	-0.034971144	-0.011384329	0.044313185	0.2108646	0.10212463	0.045999356	-0.3645211	-0.042233612	0.2571046	0.019243455	0.10856225	0.08638686	0.20705555	0.2180155	-0.034306645	-0.1629593	0.12012564	-0.10746657	0.13632293	-0.17977397	-0.0949892	0.1600446	0.07929902	-0.044809677	-0.30142653	0.026898319	0.10277305	-0.014036426	-0.08175027	0.035450228	0.051061865	-0.1717843	-0.1695804	0.024406923	-0.10453339	0.06917116	0.034922365	-0.17517135	0.11875738	-0.047509763	-0.041947946	0.103215784	0.17898715	
0.52921385	-0.13989621	0.0059759887	0.11632728	-0.5229488	-0.0041002324	-0.06290575	-0.20853245	0.025281716	-0.28455648	-0.019055562	-0.088320196	0.010230585	0.018000374	0.049943797	0.15038341	0.26564974	0.055754624	-0.092758074	-0.100484475	0.0052987426	0.011030194	-0.16128643	0.18446657	-0.035102148	0.001485527	0.004754042	-0.034768216	0.36342317	0.37240374	-0.07374562	-0.2032185	0.034258272	-0.3442442	0.068757296	0.046420787	-0.33201346	0.086553745	-0.25289813	0.1838938	-0.00035814114	-0.15586558	0.22813125	0.11626473	-0.32268292	0.037679125	-0.023165511	0.06906616	-0.020099143	-0.3780615	0.010238472	0.35993782	0.67685634	0.033744648	-0.15584685	0.09702728	-0.10921184	-0.1961563	0.21828476	-0.21515657	-0.12179403	-0.11366789	0.07181156	0.11894136	
0.4940946	0.027167948	-0.10645055	-0.08160143	0.8252848	-0.03366034	-0.23048341	0.31668612	0.13346787	-0.22658323	-0.067692325	0.087914534	0.012824706	0.042103197	-0.21881457	-0.2243805	0.10313691	0.17894097	0.29220217	0.28642794	-0.56229305	-0.10159811	0.20980652	0.11332459	0.29321957	-0.20540135	0.042051554	0.14882544	-0.14400452	-0.40485704	-0.1918096	0.40914646	-0.012979872	0.041732293	-0.036107123	-0.1969358	0.6522804	-0.18657508	0.19355188	-0.48622286	-0.080479406	0.57823116	-0.0136468755	0.24368744	-0.5954478	0.062418085	0.12732747	0.13326633	0.013733965	0.04404159	-0.05041512	-0.06466023	-0.1747432	0.0657534	0.24747938	-0.2325444	-0.6270593	-0.1069399	0.14706501	0.9714169	0.24654551	0.018113062	-0.6619776	0.29470015	
-0.34263498	0.33303416	0.28213266	0.9259271	-0.17154825	0.09813589	-0.12872143	-0.14297794	0.15478398	0.5084226	0.031708512	0.12958455	-0.017887969	-0.030127266	0.51080924	-0.1785479	-0.040997412	0.561586	-0.66756886	-0.24440855	-0.40786266	-0.11017243	0.044193096	0.1635679	-0.20073237	0.26045695	-0.2899646	0.06629682	0.5287033	-0.26347393	0.36761612	-0.084192894	-0.12537175	-0.6019939	-0.05779676	-0.13011776	-0.7299592	-0.49954376	0.09805528	0.19145998	0.03586733	-0.47241113	-0.6963093	0.22245765	-0.2752215	-0.4112085	-0.16777645	-0.21868554	-0.014339694	0.53290504	0.01547257	-0.19478379	-0.62271607	0.34635273	-0.21118693	0.20345673	0.0731087	0.27625915	-0.5731013	-0.57236904	-0.23142876	-0.22014667	0.6053376	-0.029801425	
-0.37125018	0.33996436	-0.0075906296	-0.26106015	-0.11258618	-0.061994392	0.01635189	0.093671694	-0.12839468	0.07109073	-0.045511454	-0.45375764	-0.027500154	0.014196344	-0.46607435	-0.04635597	-0.36240605	0.38577622	0.48340374	0.13242927	-0.024438724	0.2949349	0.1781118	0.08577474	0.17617	0.18525526	0.42412442	0.68464804	0.029038237	-0.032325447	0.1297524	0.03966778	0.027373493	-0.19532104	0.3706298	-0.060265575	0.44577056	0.53674287	-0.09538539	0.24812858	0.22503835	-0.07588148	-0.39015037	0.22843485	0.2946746	0.25238514	0.060692158	-0.14610304	-0.049934443	-0.6929796	0.020404669	0.109689705	0.038414318	0.08619491	0.05026524	-0.13586137	0.0526488	0.15094706	-0.13935931	0.15032338	-0.101335116	-0.43602157	0.06758625	-0.27064455	
-0.10653755	-0.06139412	-0.31191877	-0.32702762	0.12260918	0.017939676	-0.12287736	-0.056032885	-0.019235838	0.032910794	-0.05898126	0.43148366	-0.009338955	-0.00563164	0.09710825	-0.1377709	0.23497541	0.29643986	0.03613654	-0.105700746	0.18986604	-0.08359902	0.054651164	0.07423381	-0.20287123	-0.080405995	0.50239515	0.08434826	0.020009166	0.26821047	0.02861068	-0.2834135	-0.10006412	-0.020874213	-0.46999958	0.053875156	-0.084809214	-0.26139548	-0.051502258	-0.124924086	-0.2530158	0.056027662	-0.23148446	-0.046623215	0.19237013	0.17672099	-0.08874722	-0.055333726	0.039280638	0.46435362	-0.022601156	-0.040990736	0.16534321	0.33351606	-0.078869715	0.049102057	-0.027329693	-0.03785781	0.18977223	-0.040667605	0.04356576	-0.118914336	-0.03489617	0.03406308	
-0.42060608	0.107094064	-0.05301903	0.0831364	0.22143885	-0.023401694	0.3876308	-0.7059599	0.09402067	-0.5904018	0.0023406856	0.011735043	-0.007934464	0.0053034574	0.05062317	-0.095070295	0.38535652	-0.015739786	0.008190124	0.11227324	-0.28299892	-0.056388833	0.14878412	-0.6671111	-0.19476683	0.39720416	0.05033777	0.10046133	-0.23346868	-0.14199539	0.023457225	0.33719888	-0.10014577	0.17335345	-0.004873983	-0.0677078	0.06149678	0.54547375	0.09352049	0.07727302	-0.054330945	0.23652075	-0.1875411	-0.021687407	0.110979296	-0.009594239	0.022777028	-0.008153346	-0.029226145	0.4073187	-0.009001142	-0.2687792	-0.4285707	-0.30044326	0.5326178	-0.15289563	0.1358839	0.10041876	-0.052535728	0.30462635	0.21245645	0.18593639	-0.08967388	-0.4013688	
-0.04902016	-0.01171344	0.0051455284	-0.009110968	-0.049360033	0.005674527	-0.04243309	0.008088899	0.038216215	-0.032219917	0.09521934	-0.0091667585	-0.0029847047	-0.002500578	0.0120786885	0.022673836	-0.0058561363	-0.023028998	0.011261809	-0.0056253127	-0.019245325	-0.014176623	-0.029244678	0.0765972	-0.015273126	-0.0052286205	0.0070485454	-0.031083958	0.0003369592	0.010448336	-0.010598629	-0.02239315	0.005635114	-0.02010678	0.00066773	-0.00305648	0.018804012	0.009307395	-0.0363637	0.029572269	-0.0052827033	0.002601538	0.03689567	0.010878669	-0.05202087	0.006982552	-0.0029373837	0.013889536	-0.0046500238	-0.015699964	-0.011457832	-0.006466306	0.007943481	-0.008434792	0.0011870352	-0.0108133275	0.008711858	-0.024011036	0.029556684	-0.0030331928	-0.018542964	-0.0024523872	0.020109663	0.00015489789	
0.042698104	0.0083220275	0.00082993106	-0.061610285	0.017113406	0.009603063	0.010011984	-0.0088053765	-0.03150767	-0.055395875	0.123435915	0.01437996	0.0020224182	-0.011191018	-0.06539223	-0.112201355	0.028526828	-0.06639706	0.000499478	0.002473153	0.0047925008	-0.050194096	-0.006549625	0.007242881	0.11117983	0.02712429	-0.0003191749	0.011177073	-0.004057964	-0.0054840473	0.020167587	0.034534246	-0.021859033	0.0065405415	0.009499175	-0.0043668672	-0.07873005	-0.06448504	0.03456055	-0.13782464	0.014327459	0.010418557	0.019287929	-0.010108587	0.006774269	0.0026217538	0.0006003795	0.014990115	-0.0036820327	0.08284791	0.019864004	0.09495998	-0.014968554	0.047368634	0.008045215	0.020733643	-0.03189062	-0.026126977	-0.06968133	0.10767551	-0.0018000755	-0.010142252	-0.030616827	0.029921979	
-0.029511606	-0.022479845	-0.01140797	0.10324676	0.008982012	0.022499347	-0.0057779877	-0.00040243962	0.022445576	0.08272584	0.1818871	-0.0018130707	-0.013906708	0.00038977413	0.08753877	-0.06434654	0.00828895	-0.07078422	-0.036357798	-0.072332166	-0.11617725	0.08794454	-0.022008868	-0.041286822	-0.16895972	-0.05536948	0.011293324	-0.054200824	-0.07977267	-0.013935211	-0.01605864	-0.012530019	0.051645357	-0.1129919	-0.027447937	0.0041939	0.15295553	-0.010317693	0.0046308	0.09041308	-0.053205706	-0.038749687	-0.070131615	0.02581345	-0.031618305	-0.051402543	-0.011935729	-0.0112604685	0.04878509	-0.021147806	-0.020332918	-0.1169857	-0.0033635325	-0.023413712	-0.010009446	-0.011344549	0.008533677	0.019598318	0.033091728	-0.15681818	0.038215015	-0.006511379	0.00075188716	-0.002116861	
-0.003667786	0.065133594	0.010987322	-0.0071965335	0.024348866	-0.004125657	-0.002665535	0.0027680995	-0.0123994555	-0.014392487	0.10382001	-0.0211264	0.007847027	0.0068171807	-0.05425071	0.013456607	-0.024090713	-0.03943171	0.010449284	-0.0055616917	-0.0058540255	-0.04022033	0.018160881	-0.03467372	0.08248566	0.020179452	-0.027854715	0.0907094	0.009313141	0.044034265	0.015240001	-0.009740517	-0.03935287	0.014403088	0.03427596	-0.0058033196	-0.15415694	0.019035727	-0.06441884	0.041299313	0.049468003	-0.047505707	-0.0031405266	0.027396612	0.03701739	0.0015595277	0.013201915	-0.014424761	-0.029366214	-0.07047294	0.016029358	0.06586222	0.030041674	-0.027745891	0.013390769	-0.025433026	0.006728744	0.032712653	-0.00907772	0.06365751	0.050302792	0.0047813873	0.001649072	-0.0023250945	
0.0040094806	-0.0055572945	0.006373662	-0.00964124	-0.0007791466	-0.0077139637	0.030989524	-0.0020302115	0.0009049455	0.019184703	-0.0057093967	0.027816923	-0.0023694795	-0.011879868	0.015920663	-0.038211107	0.033695657	-0.03250486	0.0036552066	-0.025009394	0.03901207	-0.00048312097	0.0042978185	0.025207274	-0.042027183	-0.018573184	0.03237818	0.011774779	0.015724726	0.0025024773	0.03073749	0.010622791	0.03016205	0.014543022	-0.019342927	0.000106981635	0.062166326	-0.00011005466	0.030505177	-0.037434857	0.0044336985	0.011778192	-0.011815246	-0.027637312	-0.006375979	0.04085862	0.004317785	0.0055269944	0.01331185	0.028846726	0.009062573	-0.025372386	-0.019994266	0.023674054	-0.011576921	0.0113041205	-0.00660962	-0.003199551	-0.006508826	-0.011678359	-0.01997552	-0.06845822	-0.014885119	-0.030752532	
0.009209979	0.011911811	-0.0107213445	0.018834181	0.10126196	-0.004482346	0.021006634	0.016094172	-0.019974055	0.009364871	-0.014148172	0.0070147514	-0.019606186	0.00410145	-0.00049760833	-0.034132916	0.01232169	0.029195294	-0.013631207	-0.0195903	-0.0063604475	-0.0046717688	0.022880327	0.014223311	-0.110180736	0.043987412	0.00042492108	0.07647202	0.011862565	-0.027053947	-0.009457845	0.10846193	-0.0029358303	0.03965743	-0.035213906	0.0014001455	0.078287736	-0.06445535	0.052624717	0.020479588	-0.02185677	-0.009419085	-0.07168318	-0.016077243	0.031039534	-0.009828117	0.0043774634	-0.024300572	-0.00962514	-0.07017474	0.020906888	-0.078062914	-0.020038486	0.001751507	0.03433578	-0.02100501	0.0063298447	-0.008740586	0.04077137	-0.018542169	0.0076311273	-0.0246037	-0.02113243	-0.074875616	
0.013650411	-0.006319858	0.051845286	0.086469546	0.018947076	-0.009191551	0.11003652	-0.022335958	-0.020521345	0.17879479	-0.9211813	-0.013406564	0.008454157	0.005640725	0.06468581	0.05635689	-0.055064272	0.07467249	-0.066906504	0.051081397	0.109216295	0.014655107	0.116981365	0.035381164	-0.015372713	-0.068912	-0.024121769	-0.003322578	0.033724513	-0.040496923	0.03708666	-0.07342265	0.08141239	0.1722174	-0.0015862827	0.011400579	-0.19938953	0.11163815	-0.009273879	0.15482335	0.088117644	-0.034633473	-0.088132754	-0.018631263	0.033188727	-0.007167705	-0.02869007	-0.009798232	0.0404279	-0.05760074	-0.024154203	0.02222339	0.04789299	-0.008692932	-0.05493764	-0.014710163	0.05452906	0.06359472	-0.014642484	-0.023252215	-0.17725535	0.14230342	0.054346804	-0.06723235	
0.032028925	-0.052149992	-0.017251628	0.012184862	-0.099721886	-0.027576664	-0.010508379	0.028724972	0.032394953	-0.12901357	-0.44636363	-0.02458395	-0.003762548	0.014738034	-0.07526878	0.0421504	-0.05771448	0.074211635	0.117839046	0.14272022	0.09528346	0.016830549	0.054747026	0.03672064	0.11812038	0.06589109	0.05231007	-0.0036004158	-0.00072031806	0.071675435	0.040965267	0.039322868	0.0015035511	0.0014975416	-0.0032270805	-0.034692746	0.1749525	0.05829745	-0.036725134	-0.18711616	-0.0044744457	0.07607684	0.059313	-0.021601366	0.010939544	0.07131978	0.0014793333	0.017786283	-0.045462154	0.09019189	0.012828129	0.050747693	-0.0005074178	-0.011204887	0.03945253	0.03157805	-0.020329757	-0.04012759	-0.0055723554	0.05232063	-0.08608528	0.008777242	-0.04626216	0.050651263	
-0.009262623	-0.052344464	-0.007696484	0.023117209	0.0133685	-0.019319402	0.059587155	-0.035187498	0.0016507389	0.018663088	-0.15879977	0.08750836	0.0135260755	-0.03183692	0.057808977	0.004181561	0.024675617	0.03777663	-0.05952224	-0.0017532035	0.046298623	-0.0320351	-0.007737013	-0.024597896	-0.058469217	0.032756362	-0.0099872025	-0.0981669	-0.002398519	0.03659109	-0.007352455	-0.028814249	0.0113686565	0.015199089	-0.022369035	0.003036734	-0.035217598	-0.03701264	0.0500128	0.004046507	-0.07589353	-0.034325298	-0.0013861418	-0.013816737	-0.047141075	-0.039033636	0.0056385873	0.008784102	0.0047835214	0.014729594	-0.021371448	-0.030079087	-0.031583633	0.05801674	-0.014175065	0.033967067	0.005859737	-0.026446214	-0.010491631	0.0026192018	-0.040731568	0.07031478	-0.028941775	0.07408533	
0.0051230197	0.015699005	0.013416453	-0.028672518	-0.017124556	0.0076184324	-0.03170633	0.012989475	-0.0016802414	-0.011633243	0.034447834	-0.06581739	0.0009598106	0.019195683	-0.031286918	0.06318281	-0.012419533	0.0211802	0.012354331	0.004494423	-0.040819604	0.009242563	-0.0065078526	0.022075724	0.05151054	-0.003918307	-0.002938726	0.008467284	0.0077341627	-0.030511042	-0.023603635	0.013913222	-0.026788365	-0.0069754412	0.016547166	-0.0029469118	-0.015110117	0.0014957882	-0.0005771068	0.026208736	0.06064184	0.036314406	-0.024567941	0.029120574	0.02996935	-0.014344261	-0.009283625	-0.006563014	-0.008736287	-0.0027810398	-0.0068112435	0.015927672	0.019557256	-0.014997681	0.0023978162	-0.0111825075	0.0057402737	0.0029026791	0.0065637184	-0.011674659	0.0027405338	0.040498838	0.016315028	-0.034890987	
-0.017254112	-0.050590493	0.006450793	-0.019268885	-0.08841496	0.0038255542	-0.01442308	0.1274363	0.021841278	0.036217794	-0.2029589	-0.010263906	-0.026952447	0.0051139533	0.015883788	-0.0074746134	-0.11641986	-0.019749105	0.04123153	0.043303404	0.018496629	0.01091763	0.007861192	-0.09575761	0.04974147	0.06522489	0.0078511285	-0.09781159	-0.05212354	0.03084588	0.07132403	-0.07136461	0.051856786	-0.03781325	0.013713984	-0.013500155	-0.003158737	0.07266377	-0.017431762	-0.10743848	0.013121118	0.038349528	0.007384743	-0.0027838617	0.021552442	0.0058446825	-0.02235936	-0.0016219475	0.008533745	0.07145306	-0.025259487	0.06218019	0.014266821	0.029066345	-0.04281116	-0.0048421076	0.0008574116	0.019329397	-0.064733714	0.063009314	-0.025130266	0.065332845	0.015480012	0.17407851	
-0.05120247	-0.009279164	0.32468843	0.0002456544	-0.0017955609	-0.6713833	0.086984955	0.020572463	-0.4021232	-0.04784028	-0.004721753	0.0050596986	0.7420597	0.7175007	-0.008343105	-0.03042091	0.030237233	0.0023589304	-0.0016000082	0.30040705	-0.07141023	0.020886537	-0.2703822	0.00044497548	0.08895709	-0.009233392	0.020552255	0.057022974	0.09237745	-0.066424936	0.23815961	0.0009804484	0.23851164	0.08938139	-0.004178427	0.28081554	0.0036137814	0.024193713	-0.009929841	-0.004079343	-0.21769015	8.268353e-06	0.042009536	0.009014617	-0.046172645	-0.0009865904	-0.61428106	-0.013233143	0.55544853	-0.0018403383	-0.7531479	0.004728606	0.0024442233	0.09770155	-0.04438677	-0.12961766	0.045671083	-0.08586465	-0.013713539	-0.029953403	0.2677669	0.013690322	-0.004519037	-0.059827283	
0.12809049	-0.039470017	-0.12939617	-0.053440202	-0.10398894	0.014863077	0.019689962	0.05979627	0.041606832	0.05644484	-0.04533101	-0.13362668	0.0022542542	-0.08408545	0.08354153	0.02810259	0.085289955	0.052751716	-0.08575197	-0.0028620716	0.012426309	-0.005084703	-0.0968284	0.011739123	0.011032491	-0.08262788	-0.10147163	-0.06037915	0.015632577	0.14019947	0.16011982	0.16021787	-0.07796324	-0.10599982	0.034550276	0.02715911	0.151633	-0.03077043	0.017602822	0.0060198726	0.07486341	0.03369595	-0.067831635	0.066201754	-0.13538627	-0.02824913	0.09315413	-0.13113837	-0.041611686	-0.015337677	0.2133468	0.020449199	-0.07323462	0.011572733	0.047303617	-0.050091203	-0.028857153	0.2033128	0.062491264	-0.046038255	0.04097946	0.030802393	-0.047497448	0.0042950027	
-0.027456468	0.1967908	-0.10139801	0.29086775	0.15223734	-0.10869892	-0.06490935	-0.033512846	0.03576129	-0.016289003	-0.02491303	0.117161475	0.027899556	-0.06558485	-0.2756003	0.19693846	0.12561512	0.05106964	-0.11980946	-0.09039729	0.040682524	0.092010364	0.015630752	0.08038432	-0.004608824	0.17260467	0.102121666	0.053785156	-0.040208004	-0.20125054	0.048981782	0.029868914	0.10562583	-0.018109381	0.024672797	0.00803134	0.11225347	0.060781285	-0.021438181	0.181487	0.02330118	0.08101985	0.04576454	-0.0039411755	-0.10654281	-0.1077762	-0.0006276726	0.078458816	-0.13365693	-0.1034419	-0.37953356	0.13735344	0.303147	-0.08368497	0.066276245	0.120828666	0.11494483	0.19687854	0.18288162	0.008212145	-0.0021600998	0.061455872	0.13267243	0.054800835	
0.08731958	-0.067679875	0.067294374	0.15850285	-0.0046402495	0.05027006	-0.14640659	0.022293232	-0.03119751	0.0016398882	0.076006375	-0.048771538	-0.02397867	-0.0055694524	0.004138291	0.035699468	0.08425653	-0.2523826	0.20380192	0.027397215	-0.02564398	0.114576034	0.14563437	0.05137491	0.08080856	-0.027848644	-0.079203725	0.03610954	0.11398502	-0.11289364	0.17925395	-0.043245897	-0.40759462	0.01846145	-0.11409249	0.08544152	0.072762795	0.09691673	-0.061617855	0.023374025	-0.012178037	-0.07740672	0.014350249	0.07264023	0.031626903	-0.19559775	0.17064968	-0.39368802	0.020608207	0.18988842	0.032915596	0.1269358	0.16430826	-0.0028466883	0.055404615	0.014950467	-0.18693559	-0.023218913	0.11196165	-0.2052447	-0.014728297	-0.012872449	-0.028403502	0.18051298	
0.047280606	0.12145549	-0.037607457	0.06577443	-0.12667517	0.06766942	-0.029341592	-0.0014964098	0.0063330955	-0.32957527	0.09017226	0.032096043	0.0016815024	0.0030081063	0.014105286	-0.15472639	0.0038352194	-0.15504953	0.02373742	0.056620162	0.20942138	0.039958708	0.060922436	0.085878074	0.038954403	-0.027729305	0.03284722	0.011229846	-0.07845232	-0.1011588	0.28489193	-0.039593097	-0.502193	-0.010502062	0.05540549	0.02678567	-0.0625396	0.05466753	-0.008935626	-0.02548549	0.0030267055	-1.1316359	0.023560451	-0.04931613	-0.067316644	0.023974866	-0.034797657	-0.0011354687	0.030453233	0.19780116	-0.0067130094	0.028968018	0.17837131	0.008512687	-0.010920812	-0.039872542	-0.08447201	0.0252018	0.08455669	0.05366846	0.11019177	-0.25299168	-0.06358161	0.19565837	
0.41705236	0.011419549	0.16130625	0.13005084	-0.053310312	0.0707217	0.06480827	-0.10423562	0.10486621	-0.07303354	-0.1251432	0.29886672	0.050724626	-0.050288063	-0.054632097	0.19145976	0.09496457	0.03184513	-0.015068957	0.19484998	0.175595	0.20944321	0.13578221	0.07788723	0.20942192	0.18240267	-0.049118422	-0.09726872	-0.025998857	0.26794785	0.15968077	-0.26604864	-0.035794083	-0.022840502	0.15240237	-0.040664587	-0.070276976	0.050199382	0.037601456	0.22735544	0.08335488	0.13388558	-0.16972658	0.10809309	0.2067273	0.07687577	0.0923686	0.112511195	0.0065403813	0.20054497	0.19553727	0.12165803	-0.008728961	0.21594314	0.2069768	0.057194047	0.07693955	0.17130587	0.0935958	0.06835157	-0.07302391	0.16396698	0.23915112	0.11425426	
-0.0595473	-0.37190965	-0.072973885	-0.02194867	0.0043151705	-0.27187422	0.035983857	0.0814205	0.31876907	0.074560836	0.25350526	0.0071652173	0.106368564	-0.028225653	-0.2798038	0.0764864	-0.17224787	0.0945227	-0.16864012	-0.18961325	0.071132176	-0.005630095	-0.102497265	0.0337629	0.060637664	0.0006402384	0.18395774	-0.37553012	0.10408593	-0.12856439	0.030102132	0.05656441	0.2579274	-0.012783579	0.048863117	0.0920323	-0.15858142	0.29812312	0.052489497	0.01951204	-0.12301538	-0.011039616	-0.35384467	-0.041309774	0.48188266	-0.00086701877	-0.18247941	0.10461337	-0.013430241	-0.16605736	0.0060712537	0.03924205	0.16422534	-0.13058937	-0.21406546	-0.18197866	0.08236087	-0.08906516	0.102284	0.07632955	-0.1558931	0.17278254	-0.17212392	0.072532155	
0.00072398374	-0.18384545	-0.066672795	-0.0012657167	0.034595292	0.011731775	-0.24525763	0.082761236	-0.035227086	0.09452341	0.092936404	-0.047494978	0.030874388	-0.011226321	-0.02956835	0.23318158	0.036160126	0.015633604	-0.22422992	0.1060422	-0.18985528	-0.21545208	-0.24941383	-0.06274239	0.024451355	-0.015822526	-0.06908323	-0.060380813	0.08589643	0.16063245	-0.14569551	-0.016494129	0.08100079	0.1540639	0.03230133	0.0011275199	0.081265934	0.0031290967	0.3602133	0.15623388	0.30128142	-0.008649906	-0.009176057	0.04876133	0.06737039	-0.015479833	0.16555189	-0.1147753	0.3070157	-0.67596745	0.15283634	0.046833053	0.014070569	-0.0077731535	0.2209215	0.15466033	0.04357256	0.016953757	-0.16585614	-0.0673006	-0.034490783	0.32669744	0.105805404	0.06621118	
-0.1838751	0.10081982	-0.052281283	-0.114615634	0.0056537706	-0.1061006	0.1547234	-0.10478272	0.086860776	0.0142929815	-0.02295554	-0.29009464	0.15205313	0.15091872	0.2660672	-0.054239858	0.11453812	-0.07786263	0.06569822	0.15094163	0.061853543	-0.14583515	-0.010532657	-0.030678526	-0.02543527	-0.024316253	0.0037028068	0.046863955	0.1717361	0.0013540183	-0.04644353	-0.02470548	0.110433504	0.014107153	0.025571305	0.054586753	-0.001752015	0.11238199	0.04892145	0.07714555	-0.12178264	-0.057423007	0.082509995	0.22087	0.025183829	0.046071008	-0.07284495	-0.043434195	0.0889117	-0.119280964	0.09574517	-0.10098919	-0.20854993	0.08928377	0.18388344	0.03900728	0.02841699	-0.02201917	0.07431001	-0.046274982	-0.06531246	-0.1483461	-0.09814191	0.1459855	
-0.06868675	0.2179981	0.005321509	0.14813423	-0.13568562	-0.12106853	-0.24645771	0.06680364	-0.0070358673	-0.07063126	-0.11816175	0.034449548	0.06148018	-0.13145193	0.016218299	-0.04714121	0.28874257	-0.2526353	0.18789215	-0.111957	-0.09688616	-0.061024256	0.17372756	0.107462235	0.15882263	0.03326855	-0.0010158725	0.035372574	0.029166998	0.066223755	0.16140446	-8.291333e-05	-0.17557183	0.027428769	0.11281471	0.07112548	0.31899905	0.12962744	-0.14785537	0.0052898726	-0.0022863676	-0.027196271	-0.066125594	0.13802901	0.036021907	0.005198973	0.25976676	-0.1149778	-0.07682952	0.12944995	0.091085784	-0.04299143	0.07590052	-0.006443733	0.102987334	-0.0011901417	-0.093015544	-0.100336306	-0.2138003	-0.27468005	-0.21622302	0.012571776	-0.06698145	0.12583712	
-0.066754356	0.13850635	0.03344825	-0.04725746	0.031614397	-0.18957977	0.09406404	-0.056813665	0.034029227	0.0488158	0.085736215	-0.010103488	-0.041862268	0.014091908	-0.04104741	0.14363141	-0.0869535	0.20784563	-0.4191628	-0.02068482	0.3248456	-0.05963848	-0.0011831234	0.046644926	0.18790413	0.05514849	-0.03580179	0.14679055	0.031306177	-0.061554782	-0.09345388	0.13674447	-0.12741295	0.2545033	-0.25741693	-0.19455	0.034330714	0.03763534	0.09848317	-0.02677789	0.2777221	-0.009980773	0.014356383	0.013327539	0.07307252	-0.06842836	-0.03314431	-0.35879877	0.18332244	-0.2979772	0.06407753	-0.010676506	-0.13457607	0.008948161	-0.020958267	0.28603792	0.101774305	-0.02873074	0.024790548	-0.11799598	0.0183568	-0.12555818	-0.009758231	-0.032558464	
-0.10977121	-0.09418633	0.20578317	0.03317794	-0.03576616	0.12640436	-0.031759147	0.041369583	0.04511923	0.020157995	0.04342341	-0.22649555	0.09313697	-0.39211607	0.038622048	0.06283444	0.07584995	0.07263689	-0.034962796	-0.063037395	-0.0068672234	-0.008938966	0.08291571	-0.1800722	-0.04030515	0.028691817	-0.03156963	-0.14053705	0.07894169	-0.11609517	-0.014202838	0.10156941	0.03609133	-0.067711785	0.029336467	-0.0043888506	0.012535352	-0.009158259	0.035388727	-0.011012696	-0.115922175	0.058060493	-0.05491391	0.026905892	0.11776768	0.0935232	0.049632084	0.11297041	0.08445941	-0.1044746	0.4206561	0.0964044	0.06365978	-0.08092584	0.23994425	0.075326025	-0.014181505	0.14187708	0.02423394	0.06981004	0.107500106	-0.018761309	-0.055207927	0.06675158	
-0.035598364	0.039155778	-0.092509724	-0.048333593	-0.13769116	-0.036857467	0.115911454	0.016639207	-0.007208021	0.13279042	-0.052116133	-0.02012745	0.006448934	-5.4239703e-05	0.15600283	0.06489312	0.23455006	-0.003165505	0.0038464393	0.05788788	0.011688392	0.09113168	0.14006497	0.017068915	0.06755155	0.03129746	0.01556119	-0.12611242	-0.038304463	0.06592398	-0.009745135	-0.143388	0.12864153	0.041521586	0.14355344	-0.29086053	0.072434865	0.1084173	0.0170302	0.103748456	-0.026852336	0.121881515	0.01063758	0.22607096	0.13948856	0.118070535	0.08580234	0.09218433	-0.043419745	0.012653565	-0.06779916	0.23464675	-0.11343926	0.118950896	0.20442906	0.19529124	0.11077802	0.20096944	0.28003728	-0.06368478	-0.043626618	0.09292148	-0.01621389	0.16519324	
-0.01123571	0.16041493	0.015518565	0.097742364	-0.18976177	-0.014179141	-0.052494623	0.014029878	0.022742126	0.026318163	-0.08011712	0.015805852	9.969702e-05	0.013440741	0.006158342	0.050419386	0.05480821	-0.4083568	-0.20995736	-0.009846535	0.113246836	0.044299345	0.081965044	0.41905475	0.11142105	0.021689378	-0.021479046	0.11587442	0.082091294	-0.010543571	0.34163734	-0.034977026	-0.42420438	0.26529247	-0.009639074	0.021277664	0.13300508	-0.044101693	-0.06351215	-0.071014516	-0.0747947	-0.21337163	-0.12487435	-0.07605026	0.08309257	-0.31818345	0.37866354	-0.45386308	0.16625972	0.094922274	0.04731429	-0.0484231	-0.004388767	-0.11081215	-0.027268417	0.04972102	-0.15948714	0.10264619	0.005420542	-0.353194	-0.022971895	0.007769335	-0.027782744	0.18926443	
-0.027725097	-0.10179278	0.045832098	0.08788008	-0.111883484	0.033651955	-0.46419117	-0.23531124	0.07979974	-0.031325385	0.063147694	-0.0012652307	0.10247248	0.013419014	-0.0322428	0.042196322	0.028223159	-0.07722692	-0.06250036	0.08275857	0.21798708	-0.17562641	-0.31562153	-0.02295305	0.08305066	-0.06729349	0.015791504	0.119770356	-0.08702224	-0.1604275	0.24379212	-0.09377325	-0.06750973	-0.047847506	0.29601818	0.033833317	-0.16071814	0.084092416	-1.1195825	-0.15368468	-0.28996354	-0.2066112	-0.01316767	0.1274298	-0.086082235	0.069182195	-0.32248572	0.1960905	-0.1457315	0.027542138	-0.058972117	-0.052518398	0.031657282	0.17904758	0.17348501	-0.021586437	0.17247029	0.012287383	-0.24679178	0.06888586	0.15340868	0.029210974	-0.0008904636	0.20276946	
-0.015911916	-0.14321047	0.034196135	-0.10574386	0.24472815	-0.16987449	-0.069127254	0.015666734	0.036676157	0.40889314	0.002153387	0.020466125	-0.08649073	0.03294511	0.03599043	0.28531402	0.035616882	0.022385865	0.10110595	0.026280047	-0.10165038	0.19785503	-0.17282033	0.24282797	-0.13948129	0.0068831486	-0.019969003	0.14277077	0.100848734	0.059529804	-0.32553956	0.14244846	-0.09522944	0.20906253	-0.1657522	0.058085334	0.25749105	-0.060792454	-0.19865882	0.17271258	0.03293955	-0.033981428	0.032310635	-0.0693207	0.1228605	0.057097945	-0.36793837	0.014750473	-0.11350239	-0.14765503	0.0072804405	0.19893546	0.3149088	-0.08239503	-0.16912897	0.23418397	0.16308497	0.34800535	0.2162698	-0.051382933	0.006826481	0.19126593	-0.110825285	-0.4892657	
-0.22926676	-0.26349655	-0.18165849	-0.21456511	0.10687518	0.09236056	0.12258926	-0.02592463	0.81913275	-0.009349879	0.020587817	-0.1079998	0.19208662	0.21547017	-0.054598674	0.15293732	0.14061204	0.13350204	-0.114413254	0.093999654	-0.054435678	-0.035495505	0.23027605	-0.047421254	0.21672875	0.15012833	-0.06797095	-0.1127748	0.119645014	-0.11605963	-0.1370952	0.050953947	0.20873678	0.008499763	-0.13817905	0.055990145	-0.16038719	-0.10602859	0.039862234	0.20178771	0.23884748	0.148569	0.38177994	0.20921223	-0.00827246	-0.035885986	-0.007802206	0.18278192	-0.07463532	-0.060156476	-0.16848056	0.19789295	0.051092982	0.15194887	0.1232062	-0.14905317	0.076493785	0.19664356	0.041113913	0.27841747	0.017461723	-0.25322816	0.10424711	-0.07871468	
0.14344744	0.07225037	0.05934709	0.076370485	-0.19109493	-0.020579206	0.08237759	-0.07990808	-0.018291444	0.111124545	0.015452483	0.0026143333	-0.08894407	0.0028796396	0.049584426	0.089641415	0.01751407	-0.24732016	0.0981384	0.0084484415	-0.045244496	-0.09980986	0.102146626	0.16809516	0.014425498	-0.02154821	-0.17200492	0.025816554	0.033685803	0.14715661	0.256805	0.081821114	-0.35857633	0.15040907	-0.15977444	0.00027337988	0.19858672	0.06964331	0.012225266	0.05900079	0.022949062	-0.007830683	0.062069017	0.08714632	-0.05376133	-0.15212555	0.23824109	-0.27315992	0.036802746	-0.19130948	0.04162663	0.08160844	-0.13809699	-0.11683011	0.11497339	-0.096556105	-0.0582567	0.07239025	-0.0019327755	-0.09252543	-0.014299194	0.08177246	-0.11514065	-0.054457262	
0.036853414	-0.21681722	-0.0058442554	0.1520446	-0.07890803	-0.16232814	-0.103378296	-0.016479928	0.28649297	0.15101385	-0.092270575	0.096893735	-0.027267732	0.4269887	-0.20104127	0.029250935	-0.16197188	0.054423533	-0.065479204	0.16823037	0.023389967	0.16217218	-0.09869892	-0.06692854	0.050844833	-0.13925678	0.0009978903	0.20904902	0.09135217	-0.013316966	-0.06912653	0.13858959	0.12262698	0.05527166	0.1137267	0.087507926	-0.010136745	-5.2144806e-05	-0.007816569	-0.034804378	0.3057207	0.027921863	-0.07833607	0.09109942	-0.13084	-0.039963905	-0.0006918132	0.21444474	-0.03187267	0.023620442	-0.07070312	0.03170689	-0.10839668	0.013047858	0.11742924	0.00021555583	0.13510568	0.055915087	-0.026787534	0.14995459	-0.07648496	-0.102701284	0.007315831	-0.109425694	
-0.10182572	-0.11666986	0.08738523	-0.10662615	-0.17988619	-0.044116266	0.072295666	0.002167108	0.049342185	0.12638131	0.0907791	0.121593	-0.43721765	0.03725175	-0.052077156	0.12767887	0.16118082	0.16135748	0.04012658	0.19246642	0.096745946	0.06226101	0.2145406	-0.14086874	-0.001744712	-0.14054808	-0.57137877	-0.019139001	0.009021453	0.05478876	0.052394178	-0.47089368	-0.043688063	-0.07875371	-0.121161014	-0.41622454	0.004294902	0.038914297	0.020362474	0.41399363	0.039090015	0.1784426	-0.018427528	0.059879754	0.1025379	0.011375847	0.015737794	0.14242853	-0.14401756	0.015886275	-0.11197178	-0.07920883	-0.047218263	-0.12809657	0.20048286	0.20975798	0.12251499	0.30525836	-0.0869046	0.087049946	0.16576752	0.06077864	-0.14819299	0.04380534	
-0.22562094	-0.051192395	0.04124387	0.19361167	0.030671239	0.16489457	-0.08043413	0.12336568	-0.25755644	0.053261634	0.12342534	-0.1219574	0.16725081	-0.04895222	0.06473547	-0.16765995	0.0115117	0.23938428	0.006932782	-0.024239568	-0.082777314	-0.06551908	-0.18623616	-0.19793855	-0.17950995	-0.21723947	-0.029082993	-0.120533206	-0.0206305	0.0360162	-0.35203978	-0.1414675	0.15442531	-0.19535245	0.046349067	0.07655483	0.06385632	-0.03724348	-0.006208013	-0.014950528	-0.047169544	-0.01129169	-0.0639562	-0.04548493	0.11113178	0.22519267	-0.32723206	-0.035514608	0.0581145	-0.031120505	0.008035615	0.10742328	-0.014927264	-0.10928049	0.12532935	-0.0028875961	0.16644017	0.13283908	0.08905453	0.28808358	0.05881491	0.20197192	0.069108866	-0.028806781	
0.086412966	-0.16001004	-0.0012712517	-0.11318327	-0.07485013	-0.12948285	0.07912593	0.11439332	-0.099211805	-0.0030966827	0.080935284	0.085269555	0.1914418	-0.025308933	0.072366275	-0.0017838094	0.15257555	-0.10088824	0.078470744	0.010809363	-0.1162714	-0.05265659	0.044739455	0.03688405	-0.118564785	0.06968903	-0.016827198	-0.025130786	-0.22098081	0.05834429	0.039451506	0.060599342	0.11206978	-0.09016517	0.07238003	-0.07628796	0.016758358	0.121883616	-0.083524965	0.13653997	-0.20809026	-0.07229638	0.04135667	0.19932327	0.070834145	0.25895834	0.0445894	0.038585186	-0.087070264	-0.15756899	-0.026404452	0.09669958	-0.1902808	-0.18006739	-0.0051269997	0.0157261	-0.09615624	-0.033635683	0.2703212	0.15060516	-0.0876347	-0.06352697	-0.24122791	-0.03593221	
-0.04635036	0.017704075	-0.014200319	0.05479918	0.08771326	-0.10627096	0.05314078	0.06026326	0.08558854	0.19418177	-0.08488377	0.05366749	-0.12717733	-0.20807111	0.48932433	0.14906695	0.039744064	0.1424696	-0.051619872	-0.24384207	-0.0049224794	0.085353374	0.080646604	-0.1454261	-0.25750464	0.09264428	-0.18408008	0.022854708	-0.03015793	0.45077926	-0.15139802	0.13190922	0.079652295	-0.034537584	0.085424125	-0.29757303	-0.0072456067	-0.042835787	0.111245885	-0.32652858	0.048595104	-0.06446929	-0.12402573	-0.08003364	0.03135989	0.06979603	-0.10804292	0.18486941	0.068416394	0.15364026	-0.08030603	-0.10631934	-0.08522074	0.1266129	-0.019760484	0.18516311	0.09917466	0.0167759	-0.019056123	0.044763245	-0.030791562	0.22160988	-0.08502278	0.034839142	
-0.00846011	0.14506888	0.17332426	0.18719071	-0.08198387	0.1024635	-0.061281715	0.038378384	0.024070363	-0.037849974	0.042391494	-0.032513067	-0.08377097	9.174097e-05	-0.018703122	0.023046862	0.04920767	-0.32935318	0.029811878	0.007222436	-0.03679957	-0.023528282	0.17161351	0.34289953	0.039326392	-0.010870552	-0.07265376	0.01634768	0.1815829	-0.01765994	0.28788373	-0.025240427	-0.32623884	0.25460523	-0.13037275	0.06697551	0.23894194	0.007588656	-0.011562974	-0.042054508	0.04068087	-0.016002866	0.008671603	0.08606314	-0.009579868	-0.34793255	0.2566482	-0.39920002	0.18454304	-0.14520141	0.049001135	0.014875209	0.06256018	-0.041070122	0.010153856	0.0049838778	-0.18606643	0.1392565	-0.029376874	-0.23026577	0.017472057	0.003807891	0.0072651445	0.09024264	
-0.076571405	0.03322019	0.007749639	0.0037758483	-0.14463986	-0.046713416	0.16809551	0.12739958	-0.13789375	0.08061013	0.26589724	0.1560584	-0.082333714	0.046728246	-0.13731778	-0.23299694	-0.24838321	0.1271002	0.15390153	0.063682705	-0.23401555	-0.10876995	0.03911495	-0.16738002	0.046041444	0.024346435	0.24039426	0.17239219	-0.06347361	-0.15784188	-0.00836306	-0.06863344	0.09897331	0.04061554	0.10922724	0.06525221	0.070738435	0.20895758	0.2090798	-0.20336366	0.07338896	0.18615495	-0.0721133	-0.06671674	-0.012798998	0.061478063	0.1525369	-0.065871336	-0.013445282	-0.22630145	-0.004921831	0.19945738	-0.096092656	0.036242537	0.05873026	0.028734839	0.03685762	-0.08621282	-0.13697256	-0.024138115	-0.04677209	-0.22114523	0.13816407	0.060295776	
0.094712935	-0.18506332	0.13724627	0.055483308	0.08841326	0.04037919	0.06657322	0.1383659	-0.041038528	0.039233927	0.11666189	0.10455448	-0.11741335	-0.0060579246	0.06423191	0.022665704	0.2962164	0.1048416	0.015962696	0.28147516	0.00057706994	0.062263716	0.16618516	-0.10632761	-0.04002571	0.027264027	-0.09014581	-0.046242043	0.023835784	-0.028773176	-0.0448601	0.038197905	0.14830017	-0.13251612	0.12979615	-0.25232944	0.016694106	0.15351018	0.06358951	0.10538707	0.111926265	0.18433268	-0.0073281215	0.049998455	0.09859914	0.1007752	-0.07884633	0.120947674	-0.061363246	0.069889836	0.043750916	0.17553268	0.39170235	-0.001067061	0.07031924	0.054414585	0.095975734	0.14719157	0.08590658	0.1824543	0.22207169	0.0017622919	0.08034455	0.024193926	
-0.104536295	-0.17881413	-0.06409517	0.08487576	0.2206524	0.14115085	-0.04587179	0.1798261	-0.30871508	-0.08138049	-0.0470491	-0.034506027	-0.033696253	-0.2514053	-0.041239414	0.030689247	-0.03001041	0.023049476	-0.04229673	-0.2822557	-0.07917325	0.005851889	-0.07370796	0.09667808	0.08068959	-0.008836526	0.09827341	0.07913758	-0.0981059	-0.16962908	-0.15681995	0.014392837	0.2683697	-0.047734402	-0.04753722	-0.024684235	-0.11332803	-0.035050653	-0.002136888	0.16544552	0.10012903	0.05372187	-0.14050612	-0.18938579	0.44004273	-0.02004891	0.1078873	0.15797213	0.19005473	-0.32429302	-0.118344694	0.14406823	-0.015765697	0.07230249	-0.17143326	-0.24842757	0.12719773	0.013150562	-0.028459603	0.19665079	-0.013362373	0.105431356	0.078826115	0.040182643	
-0.15646766	-0.09167311	0.118337065	0.09626058	-0.031923395	0.032067444	0.065456614	0.14062585	-0.047334496	-0.017108617	-0.09167104	-0.045101278	0.08127357	0.51118255	0.024572782	0.076733276	-0.06791738	0.18210578	0.0003263078	-0.07101544	-0.058477137	0.09312203	0.049181715	-0.15563947	0.17215654	-0.0097622285	0.07588771	-0.14817584	0.059980012	0.1016173	-0.051369537	0.025194878	0.10254704	-0.2346622	0.15606217	0.16344786	-0.015976379	0.14159715	-0.024625836	-0.012205441	0.12516405	0.07239708	-0.32330835	0.046050377	0.10613618	0.03136459	0.0563806	0.1545293	0.12688938	0.15154366	-0.044911403	0.045799483	0.09302499	0.56117475	-0.17475815	-0.23748654	0.08178747	-0.014254992	0.19662963	0.2631373	0.1373579	0.01835463	0.1876956	0.04317997	
0.31566268	0.02912467	0.21553063	0.057645634	-0.0145965135	0.08250239	0.06176658	-0.012385836	0.04153391	0.28317592	0.17160438	-0.067122005	0.0012278649	0.013278486	-0.103715986	-0.113128476	-0.07969262	0.13953608	0.13198791	0.14032885	0.0059049195	-0.008315552	0.10528126	-0.05507808	-0.029777464	-0.7491916	0.14335132	0.039128687	-0.16257742	-0.03428572	-0.011112629	-0.205988	-0.12100881	-0.030845413	0.009263425	-0.08360185	0.053942394	0.04016387	0.008965242	0.02116694	0.015178165	-0.021085221	-0.02914579	0.1360412	0.090798415	0.07020985	-0.015663914	0.08986077	-0.052215017	0.1408272	0.18142895	0.09437181	0.019972594	0.004268436	0.26875827	0.008213158	0.020749498	0.04481563	-0.031691875	0.08180525	0.006632539	0.05092998	0.01564876	0.026809623	
-0.3562274	-0.007535469	0.21974374	0.09342438	0.0019619397	0.39445785	0.18399219	-0.10789693	-0.08929568	-0.11140839	0.0037208945	-0.07775827	-0.052826606	-0.026224554	-0.077053174	-0.13754125	-0.06975748	-0.06198709	0.20309909	0.07170532	-0.031311866	-0.04862231	0.027413411	-0.011158027	-0.056498833	-0.027159097	0.27932104	-0.07836256	-0.19636557	-0.17684278	0.09041482	-0.23260203	0.053894963	-0.020883907	0.008775418	-0.019845443	0.07930223	0.11936373	0.055162843	-0.18603815	-0.047202002	0.10002222	0.04231461	0.002839524	0.09196999	0.03503678	0.038751505	0.18311076	0.031926554	0.024754968	0.12567267	0.03594038	-0.055663206	0.12330074	0.053631708	0.10444694	0.17895155	-0.12270595	0.28053907	0.058527052	0.038757864	0.057275806	0.013117529	0.0783154	
-0.17021595	0.18656857	0.020000527	-0.102121584	0.17869928	0.09021656	0.018199384	-0.17208683	0.04499565	-0.1979774	-0.008021472	0.13902634	-0.078012995	-0.07155119	-0.21092898	-0.09547776	0.16077848	0.01543432	-0.029951442	0.014324007	-0.030113881	-0.04183165	0.012016572	0.04160949	0.09170407	0.01355296	0.07274387	0.094372034	-0.066953465	-0.2547813	0.11493283	0.0054476745	-0.04754145	-0.07412388	-0.05669387	0.16740082	0.008948543	-0.13662691	0.04086112	0.2140135	-0.0086055985	-0.1992573	0.048358653	-0.07101731	-0.33124372	0.141111	-0.21625057	-0.0932194	0.054739483	0.05758811	-0.051697727	0.2703375	-0.016410796	0.24563326	0.024576202	-0.24013528	-0.11462915	-0.19943555	0.05958744	0.10275623	0.037735727	-0.08422611	0.1994479	-0.119124316	
0.28766406	-0.20856254	-0.12906453	0.182919	0.0023380504	0.1340034	0.038219832	0.003714531	-0.06694107	0.08822685	0.020675937	-0.036785718	0.0912227	0.035062272	0.013374733	-0.0663642	0.3191582	0.001724508	0.14479159	0.0757683	-0.033451	-0.09941118	0.00077964814	0.059457123	-0.19524807	-0.23808965	-0.08233626	-0.17048913	0.19632387	-0.021303277	-0.03483117	-0.23507947	0.029538304	0.08312948	-0.004590843	-0.054720443	0.024061736	0.14487705	-0.046675697	0.21426827	0.07482849	0.03637387	0.024066221	-0.00283001	0.0108756805	-0.13004456	0.05975545	0.10125077	-0.07730049	0.051079255	0.077705525	0.18567541	0.20993072	0.04070244	0.2751659	0.2418937	-0.059605762	-0.022549158	0.008037611	0.07937157	0.010384314	0.2673954	0.26650217	0.059872422	
-0.13573337	-0.038042862	0.1019207	-0.13449785	-0.03158242	-0.0723228	-0.29986376	0.09141827	0.052536342	0.12522568	0.056627277	0.10783975	-0.06855902	0.013877966	0.03654298	0.0029436443	0.111740746	-0.16809283	-0.017978253	-0.1606174	0.050323278	-0.13018243	-0.042145804	0.18665926	0.24129423	0.06709482	0.05107018	0.10987126	-0.01375443	-0.104862384	0.13908361	0.032995418	0.030795814	-0.037542857	0.01779426	0.002922226	0.03706456	-0.10506478	-0.24156803	-0.041982744	-0.09103383	-0.11411524	0.09325438	0.06335234	0.11490836	-0.03560117	0.021351878	-0.08123365	0.035631478	-0.1727091	0.09395148	0.09709116	0.04423898	0.062930085	-0.19441296	-0.0021386053	-0.079451926	0.045064848	-0.072666556	0.034868132	-0.037101045	-0.22604536	-0.057408493	0.0107446285	
