33
64
2
5
2
2
0.23108917	-0.0072090984	0.021284666	-0.29950327	0.00608778	-0.016321719	0.01415411	-0.012674747	-0.29943782	0.1396113	0.112378456	0.012481867	0.0453891	0.07773305	0.018567447	-0.006916475	-0.11742574	0.17015992	-0.13061525	-0.103897825	0.00041537755	-0.14308654	-0.032156628	0.01113779	0.0031704812	0.2453058	0.036674473	0.070171855	0.009999407	0.0033245634	-0.003656494	0.18224011	-0.19453125	-0.0059054308	-0.0059948876	-0.014891748	0.011250947	-0.30197245	0.0043082186	-0.12555608	0.06254778	0.35955676	-0.037242282	-0.02845747	0.04261241	-0.008282215	-0.033378102	0.12006988	0.08026499	-0.008712949	0.012778633	0.06333247	0.017477617	-0.0544994	0.0024718898	0.0054854555	0.0840007	-0.007631162	0.19290423	-0.14547697	-0.07452951	-0.006030665	0.00067796727	0.023185322	
-0.2730688	0.045009457	0.18242523	-0.11842734	-0.08797737	0.002010736	-0.008148371	-0.03685838	-0.12771788	-0.41342434	-0.26206088	-0.054299675	-0.014518065	0.092014834	0.19468188	0.12661125	0.24122477	-0.021906473	0.06784518	0.11724514	0.19517706	0.28102568	-0.15724224	-0.2771605	-0.01199667	0.032128833	0.16247503	-0.13584112	0.09801986	-0.010632226	0.018456807	-0.20898308	0.28471604	0.02723996	-0.051471513	0.074767396	-0.013612195	0.42085037	0.0448169	-0.14330152	0.028049951	-0.16587904	-0.2272913	0.112785235	-0.34248823	0.010304072	-0.10608946	0.18347141	-0.26101294	0.024822375	0.2935667	0.24846518	-0.21578985	-0.0023797278	0.0144896945	-0.00097168586	-0.1758034	-0.17461124	-0.089895725	0.08391316	0.24396083	0.0049334527	0.01332943	-0.07816443	
0.13357085	0.00511071	0.39582482	0.18619074	0.26590568	0.03508223	-0.018938739	0.15676829	0.2522007	0.3746168	0.3058724	-0.021365745	-0.35348728	0.12470609	-0.15143675	0.03538026	-0.0896658	-0.19092822	0.095019445	-0.13410005	-0.025998075	-0.05419938	0.023455016	0.050296802	0.037039645	-0.24323082	0.060845967	-0.36346632	-0.21394835	0.005191569	-0.18367912	0.19716078	-0.2308511	-0.193435	0.32715574	0.07063137	0.08762061	0.046886154	-0.044730708	-0.18489942	0.37004068	0.08918758	-0.24257682	0.07967055	0.28745097	-0.002406674	-0.14083861	-0.28022105	0.36325338	0.007757713	0.09745915	-0.51164705	0.07069459	-0.0021709397	-0.021299297	-0.005712731	-0.05480997	-0.07257824	0.0066695125	0.08025746	-0.32399803	-0.009165353	-0.1815312	0.28304198	
-0.07922959	0.27194962	0.05736191	0.08413005	-0.35050216	-0.018315451	0.02601528	-0.12957528	0.035829335	-0.14273782	-0.19579749	0.051955357	0.11610344	-0.17154196	-0.23613827	-0.061307576	-0.18166527	0.10812158	-0.029096283	0.055362582	-0.0911486	-0.18079337	-0.033108506	-0.22459711	-0.19153082	-0.1559523	0.09958089	-0.14929709	0.019483106	0.018816743	-0.23542117	-0.073707804	0.032392282	0.20284176	-0.36037272	0.19027853	-0.27065402	-0.28385177	0.27684227	-0.06452556	0.24825889	-0.005311188	-0.11446794	0.13027377	0.24674934	-0.015319546	0.029081406	-0.027421605	-0.16921623	-0.031851254	-0.078655966	0.301234	0.05279431	0.21508758	0.010347548	0.0004483976	0.045094773	0.16826692	-0.09303651	0.03619504	0.2561695	0.0076960707	0.43347836	-0.3089597	
-0.019532872	0.00028228853	-0.15475856	0.00096119737	0.29258385	0.0031419226	0.004693494	-0.1305391	0.009292718	-0.017993152	-0.10012517	0.14472422	-0.056954775	-0.029424403	0.0026916328	-0.18563612	0.0047499808	0.028671708	-0.009417959	0.031769894	-0.10526141	0.075011365	0.10797884	0.09885489	-0.09144404	0.14861321	-0.035601035	-0.047573563	0.014828295	0.015243606	-0.21478546	0.03000529	0.08049204	-0.12894946	0.060064524	-0.36463624	0.1063936	0.102459006	0.31340885	0.027032712	0.26024064	0.0484623	0.24420214	-0.0686685	-0.13238977	0.017798992	-0.076293565	0.04650346	0.039584767	0.012072652	0.013314679	-0.03073711	0.08382616	0.09683931	-0.009303754	0.0029799268	-0.020701032	0.13030383	0.024739947	-0.065945044	0.13658607	0.011124266	-0.28331223	0.020216871	
-0.18982789	-0.1034223	-0.09838336	-0.0060078423	0.11111553	-0.028632924	-0.001053634	0.032230023	0.48716924	0.07317066	-0.03357163	-0.043745432	-0.011165649	-0.2441057	-0.22382757	-0.04683625	-0.15157679	0.06232711	0.15450254	-0.10548016	0.22659437	-0.11553275	0.0034525793	-0.11166883	0.0144648375	-0.4252758	0.067890204	-0.10961653	-0.05033556	-7.662355e-06	0.0126294205	0.08015835	0.14435181	0.0273421	0.038836353	-0.09116297	0.07409301	0.40061983	-0.05947737	0.008596089	-0.0897375	-0.54442364	0.2055088	0.1775848	-0.05491772	0.024622615	-0.13129875	-0.065674596	-0.19731086	0.109092385	0.32018942	0.17479132	-0.20966254	-0.12351614	0.11257465	0.003828021	0.2462398	0.09281201	0.27412987	-0.18792263	-0.003400911	0.0073699737	0.004108483	-0.0049598585	
0.47966418	0.23789944	-0.34258795	0.64092606	-0.1896659	0.081699364	0.03334182	-0.011979819	-0.014403346	0.08302363	0.2825203	-0.2162973	-0.13384621	0.016563814	0.011849235	0.2939856	-0.34925526	-0.2664879	-0.52005965	0.25181258	-0.32798588	0.4145531	0.025232596	-0.0388032	0.0148099605	0.050844498	-0.29697156	0.42351037	-0.04495381	0.012551484	-0.01390306	-0.268075	-0.4049339	-0.21253899	-0.2485946	-0.17291105	-0.15855964	-0.52058643	-0.08059316	0.24042147	0.005254807	-0.1785159	0.21453108	0.2473287	0.025589516	-0.045038294	-0.3959222	0.35278413	0.30184805	-0.028817363	0.04338399	-0.27989855	0.32312438	0.047286205	-0.091723435	-0.022454714	0.61939645	-0.33621833	-0.6289532	0.32815096	-0.14782356	0.004317359	-0.012733037	-0.019929705	
-0.32667688	-0.27398163	-0.41089013	-0.041882712	0.19486739	-0.059322707	-0.05375084	-0.30099928	-0.18556893	-0.30092266	-0.42633224	0.0727231	0.39588833	0.32671678	0.50021046	-0.054915622	-0.117200576	-0.45982864	-0.10099556	-0.25462103	0.43023947	-0.55599445	0.45194265	0.054080762	-0.4337319	0.25665826	0.28762037	0.24966404	-0.18608472	0.00308904	0.24105369	0.21825455	0.33965915	0.5087138	0.417678	0.0010662588	-0.075422004	-0.035322595	-0.38679403	-0.26028794	-0.3442275	-0.013779003	0.3238586	-0.48735434	0.23116395	0.2793384	0.34185758	0.006793134	-0.28690156	-0.09274489	-0.37251776	-0.0030526547	-0.4452087	-0.4394608	-0.029382706	0.0049425866	0.055716615	0.26275378	0.22234702	-0.033878196	0.5148425	-0.016128328	0.18536182	0.120190054	
0.27716082	-0.036872845	0.09411036	-0.19985677	-0.31823465	0.02967051	0.0014963018	-0.059393596	-0.047406375	0.34083673	-0.018903082	0.070098944	-0.091569304	-0.10165341	0.004950538	0.1824146	0.26875883	0.21511747	0.020988444	0.086186305	0.23438455	0.2911623	0.2023799	0.10430421	0.06273301	0.26714963	-0.45579925	0.045060758	-0.050433975	-0.018237641	0.20402966	0.018410854	-0.33329612	-0.21300699	-0.24073431	0.42897794	0.24104704	0.28783906	-0.34911335	0.4916398	-0.27729106	-0.024887398	-0.072957374	-0.30060217	0.019702924	0.25514084	-0.05141688	-0.2769396	0.17099653	0.06392036	0.009890885	0.1485227	-0.18737528	-0.09497724	0.014599322	0.0009004772	-0.034546047	0.017489782	-0.00015415486	-0.121615626	0.012544782	-0.00022797796	-0.4464207	-0.3867784	
0.10516271	0.040682174	0.10292239	-0.036249865	0.014230374	-0.00860457	-0.0011272995	0.022466484	0.003560124	-0.15678719	-0.09719781	0.18507281	0.017525543	0.0879692	0.0092556365	0.108526886	0.015086957	-0.02607094	0.021705678	-0.12164635	0.11218766	-0.011396218	-0.026809843	-0.0108524375	0.0019593476	-0.17409182	-0.055431213	-0.005618826	0.004282627	-0.017832845	0.19235185	0.060411487	-0.18650968	0.11141155	0.04765937	-0.09018472	-0.084038064	-0.11005308	0.09406894	0.06978385	-0.27974498	-0.04401138	-0.18392493	0.037396166	-0.27397338	-0.48564506	0.10459154	-0.004669866	-0.032904956	-0.012243181	-0.0076375855	-0.05289889	-0.086893775	-0.20652062	-0.000671314	-0.006360212	0.013409589	-0.14562151	0.014719883	0.036559064	0.068526834	0.008791271	0.2867545	0.3572691	
0.043458533	0.06701078	0.0625106	0.24540488	-0.09077302	0.051113166	0.0032393432	-0.2975868	-0.2500663	-0.040612187	-0.030835064	-0.15978493	-0.001678854	-0.38091356	0.1348158	0.34701574	0.13263899	-0.1530255	0.06640778	-0.6335073	-0.29948583	0.04614332	-0.07733543	0.024294356	0.050728958	0.2877897	0.024502018	0.018586285	0.08212082	0.0062788837	-0.008866011	0.57902944	-0.0581724	-0.018304938	0.019539215	0.1236177	-0.06509266	-0.09737965	0.08198244	0.051442537	0.023517018	0.116336815	-0.04919313	-0.08748935	0.03436109	-0.015846808	-0.061263926	0.05824939	-0.00193525	0.22262304	0.0063784826	-0.10212934	0.24573503	0.33907938	0.43537244	-0.014117305	-0.4199708	-0.016609933	-0.4211525	0.0029621583	0.0126921525	0.023223849	-0.0036540763	0.008314127	
0.02337968	0.0077993916	0.021910714	-0.02527216	0.010530181	0.053049907	-0.033986095	-0.0037048538	-0.012137035	-0.014146578	-0.013615478	0.02275023	0.0006193242	-0.013025037	-0.011873687	0.018761175	-0.006351929	0.037761115	-0.03923122	0.014036291	-0.0084960265	0.010671593	-0.022664003	-0.005770387	0.0073431837	0.011219004	0.008328167	0.07392654	-0.0034793918	-0.0699341	-0.004605993	-0.026133854	-0.016533727	-0.011462364	0.015276415	0.010410994	-0.060697928	0.04426205	-0.016582238	-0.015327011	-0.008746778	-0.019166907	-0.015284	-0.027335947	0.069142155	-0.02107176	-0.0023203418	-0.02079431	-0.02919569	-0.046388302	0.09408832	-0.06093487	0.0030379447	0.018931456	-0.0097600985	0.033163443	0.012978787	0.009351237	-0.006348505	-0.10085996	0.036807775	0.020478887	0.0025224295	-0.0032015808	
-0.04612346	-0.010018561	0.013751091	-0.09711722	-0.014068571	-0.016897658	-0.06501968	-0.0040084966	-0.0578909	0.029839467	0.0664318	-0.027214201	0.0054876055	0.059286118	0.018302882	0.03280995	0.0051404126	-0.0014514133	0.057556108	-0.03889857	-0.043281574	-0.037378598	0.05645199	-0.19429445	0.016358454	-0.013252707	-0.073475614	-0.10272482	-0.13230376	-0.20455003	0.05669058	0.044984277	0.047411744	-0.009097814	-0.03610573	0.030296559	-0.10909363	-0.017317748	0.050547764	0.041873068	0.021703782	0.07104292	-0.010433515	-0.11723136	-0.038007326	0.028252445	0.12216109	0.06294264	0.21221142	-0.039282504	0.10384682	0.027948687	0.06215102	-0.044604212	0.017911915	0.13836479	0.0505663	-0.04484652	0.019843262	0.06617077	-0.07273337	-0.029193342	0.005012803	-0.017271232	
0.068279184	0.1930298	-0.098277286	0.09315767	-0.0025816476	-0.09081975	0.034080092	0.05623307	0.09178158	0.020221507	0.010531949	0.007177708	-0.07435289	-0.023675427	0.011189885	-0.030171946	-0.039911047	-0.08789822	0.038450267	0.008090636	0.08667265	0.005957268	-0.044917542	-0.2643078	-0.01588823	0.021836229	0.058563426	0.016725449	0.13424742	-0.37242442	-0.18846346	-0.029120978	-0.05146648	-0.043071177	-0.032550894	0.0027662413	0.27768156	-0.0070008873	-0.08802596	-0.042286217	0.04931044	0.055869345	0.07217131	-0.053883493	-0.044402357	-0.031326838	0.15731905	0.03488231	-0.25834066	0.089949355	0.021845458	0.025646344	-0.09166148	0.028410735	-0.02253712	-0.1307343	0.0054270094	-0.026727099	-0.070755236	0.12274334	0.032173026	-0.15449677	0.019517887	0.014505317	
0.0024132337	0.29244232	-0.037761495	0.06926084	0.016759677	0.0034604727	-0.05624081	0.002217621	0.07836068	-0.033028774	-0.082657196	0.057376508	0.02449269	-0.0036437402	0.042397168	-0.051689904	-0.004255616	-0.012444392	0.018823383	-0.0264678	0.037259873	0.0032519682	-0.002164787	-0.14338945	0.024930418	-0.023783699	0.0022378399	0.07400528	0.086904645	-0.24477965	-0.23703665	0.06614365	-0.087669805	-0.047083907	0.05102928	0.015162622	0.25614145	0.0077970712	-0.11530061	0.011381267	0.08318926	0.029664611	0.044108693	-0.003989611	-0.09648843	0.04185091	0.04230106	-0.049470287	0.0910463	-0.015922189	-0.017628198	-0.007401092	-0.042365428	0.007076929	0.018469708	-0.023958454	-0.03740163	0.03419093	-0.0026775089	-0.050418332	0.036801066	0.13779233	-0.037982002	-0.024132155	
0.03780014	0.094768114	-0.012752516	0.019706061	0.032653123	0.011933053	0.31996632	-0.045167588	0.00605992	-0.031121038	-0.030360518	0.050673787	-0.0018741515	-0.0376996	-0.0020592664	-0.03331784	0.019786393	0.0006124398	0.034695618	0.006278728	0.023720188	-0.0095845405	-0.017822905	0.041761525	0.0064003123	-0.019963924	-0.004050363	0.018209388	-0.012389608	-0.15613073	-0.14380501	-0.004691405	-0.030535594	-0.019442204	-0.037156556	0.015876735	0.11689556	-0.017761094	-0.13257009	0.0074272123	0.018171199	0.006183978	-0.040167615	0.017930979	0.04184081	-0.035513513	-0.025683044	-0.0149153285	-0.026291652	-0.013340279	0.019106753	0.017717293	-0.0042461967	-0.026497424	-0.0018782024	0.05734706	-0.008750114	-0.030899776	-0.001162077	-0.04720801	0.030817535	0.043062333	0.026264628	0.028230721	
-0.023306323	-0.061143026	-0.020289415	0.010472498	-0.0380229	0.24554884	0.2968848	-0.033650845	-0.001008703	0.05496381	0.02153034	-0.017356284	0.004209641	0.0027222366	0.009962466	0.011236491	-0.060220517	0.016552726	0.034964852	-0.007580683	-0.043135162	0.019532379	0.06446562	-0.087280855	-0.024827195	0.057034306	-0.035108235	-0.16937734	-0.018072007	0.07822661	0.050505023	0.03413513	0.0147672435	0.042019185	-0.037658654	-0.04729661	-0.011752465	-0.031391907	0.006138931	-0.013477956	0.004949456	0.017472694	-0.0016538638	-0.08966794	-0.0037828197	-0.025844812	0.0916172	0.09557491	-0.0054479977	0.050247446	0.07907599	0.041310467	0.04554927	-0.02224886	-0.09229641	0.080452785	-0.059355177	-0.18011652	0.008572207	-0.20192827	-0.03511436	-0.07446135	-0.009116473	-0.0015238954	
0.07976315	-0.08290526	0.020528309	0.15510713	0.059795175	-0.62185276	-0.15588172	0.09084585	0.19687155	-0.20171863	-0.051381327	-0.11972074	-0.118844025	0.08819028	-0.05598765	-0.17100678	-0.061223198	-0.16843966	-0.5152014	-0.05536907	0.11074477	-0.015772773	-0.07168277	-0.37745705	-0.061391417	-0.06357829	0.07566963	-0.0374924	0.36991563	0.29438004	-0.024480665	0.00909678	-0.0872617	-0.06998616	0.1519651	0.011175433	0.6927327	-0.014740274	0.02891979	-0.017266963	-0.008831576	-0.109086715	0.035507478	0.076345965	-0.13854581	-0.01737783	0.2954322	0.1761598	-0.05444717	0.5697915	-0.038258646	0.015816573	-0.12824996	0.005285724	-0.11665724	-0.5040722	-0.09039311	0.3826142	0.02072611	0.37273267	0.1113719	-0.09191212	0.007931113	-0.0017300221	
-0.09738244	-0.27510408	0.13704476	-0.05838255	0.049613044	0.4171857	-0.44090903	-0.1149672	-0.14053284	0.18521382	0.048094045	0.06634964	0.020711988	0.022697786	0.020960856	0.06093166	0.015265775	0.02609911	-0.1528793	0.045973163	-0.1750402	0.024431894	0.083586685	0.3664	-0.031522594	-0.01834126	-0.028421436	-0.10257553	-0.087745935	0.3789444	0.26821312	0.021376662	0.083932266	0.07684469	-0.09827129	0.05172059	-0.29317933	0.056696758	0.13789816	-0.014803985	-0.0394391	-0.090127245	-0.10571864	0.019359622	-0.03056089	0.14775649	-0.25199473	-0.21414727	0.037271086	-0.5179936	-0.17207669	-0.025112132	0.16737746	-0.092764534	0.2284841	0.10868714	0.0010961283	-0.0069790035	-0.03930566	-0.10838587	-0.07978682	-0.1615148	-0.012717264	0.02140911	
-0.024536163	0.034236725	0.0013478949	-0.06399644	-0.10958449	0.029826758	-0.33812237	-0.07336352	-0.026611907	0.027743474	-0.012041698	0.07775968	-0.03194897	0.018368846	-0.059979074	0.037314776	0.04442684	0.06533426	-0.019252785	0.00089376455	-0.09774064	-0.033894017	-0.026653955	0.10899434	-0.025902772	0.04904201	-0.014099147	0.030028183	-0.065118544	0.23955059	0.2130287	-0.0031772517	0.0908502	-0.0040612565	0.04788652	-0.04626998	-0.18740165	-0.028895916	0.134959	0.020010443	-0.08422498	-0.026452567	-0.049761437	0.072388716	0.13907506	-0.0046341415	-0.11439857	-0.101133995	0.028812524	-0.0863055	0.005485381	0.028194372	0.06946929	0.04379984	-0.044014163	-0.012032087	0.032573484	-0.10251858	0.09166679	-0.12162249	0.074289046	0.13498122	0.03243635	-0.049411427	
0.008155786	0.060833156	0.015622918	-0.06169651	0.05466847	-0.02553591	-0.092923775	0.06729379	-0.02088623	-0.037050772	-0.0064824363	0.009536135	0.020542186	0.0026682129	0.013337927	-0.005882682	-0.028105889	0.0076817367	-0.019216992	-0.04453871	-0.00025799978	0.034837876	0.004487826	0.07076075	0.0015987093	0.006017104	0.0017249694	0.010542172	0.012836834	0.14703691	0.09050796	0.017779075	0.014966268	0.0272474	-0.021859623	0.03494071	-0.09037606	0.021408953	-0.02149058	-0.014051435	-0.026628682	-0.008078795	0.062032584	0.0012769199	0.05844285	-0.11225857	0.0051945853	0.035490658	0.010151374	0.041073173	-0.00267861	-0.042971265	-0.0075140563	-0.0033672287	-0.007927246	-0.012867155	0.0075636827	0.03873358	0.00093155797	-0.009343475	-0.013112895	0.14890714	-0.018354017	0.022109695	
-0.022839293	0.1928896	0.009020686	0.04913378	0.0032269123	0.004472763	-0.21042787	0.1324402	-0.019644458	0.03761807	0.0043590986	-0.05684423	-0.021481518	-0.046057448	0.028457448	0.030421406	0.0061817546	-0.07612685	0.1431056	-0.123557314	0.0884772	0.012017537	-0.058605537	-0.107794546	0.011381019	-0.044713028	0.010168559	0.09296961	0.054948058	0.013502744	-0.09167267	0.01823881	0.021056082	-0.01921608	-0.020143306	0.0015482293	0.16298516	-0.004675859	-0.025994975	0.018850192	0.013121263	-0.0095635755	0.020277021	0.09349358	-0.019478658	0.010503514	0.103253916	0.016756576	0.03238101	0.8777659	-0.025603015	-0.021225505	-0.074470334	-0.029869933	-0.9523041	-0.08191845	0.08204208	0.10142905	-0.02069294	-0.07557951	-0.016741203	0.5166243	0.010539876	0.0049584927	
-0.0094077345	0.030293718	0.004197818	0.008829353	0.0010232854	-0.036795996	-0.004852285	0.0011218991	-0.0137402285	0.018974373	-0.0029297709	-0.011863641	0.046938248	-0.01467515	0.014676111	0.019581752	0.0036104748	-0.009149541	0.025420146	-0.0031148852	0.006428452	0.0039306553	0.009688326	0.044011578	0.0047494764	0.013124223	-0.002073375	-0.040012714	0.012371027	0.061671708	-0.005413857	0.007695927	-0.011271362	0.01033014	-0.02705832	0.004884133	-0.01889982	-0.021473594	-0.030782413	0.0074111405	0.015347464	0.0069468715	-0.0020849814	0.028455056	0.0040040747	-0.0089610405	-0.020190855	0.0054408927	-0.015204999	-0.0066299285	-0.008227512	0.018165598	0.0037740984	-0.026567006	0.008764799	-0.12137431	0.015820492	-0.022082664	0.010989557	0.087056465	-0.026853386	-0.027990049	0.003979477	0.004491574	
0.020125106	0.022301933	0.0007568262	0.06299614	-0.026196763	-0.0077214115	0.06448377	-0.02412967	-0.04791042	-0.066394225	-0.015376845	-0.013714455	-0.032025937	0.03763973	-0.00039459945	-0.02910472	0.029139556	0.020771857	-0.008152062	0.0145526165	0.0016788184	0.000942	-0.011608878	0.031110559	-0.009605116	-0.018749	0.016054945	0.0050978903	0.011560111	0.24344407	-0.030228924	-0.024276214	-0.03840082	0.022412958	0.035506245	-0.024520809	0.114822246	0.009911532	-0.021093536	0.0149905365	-0.01318895	0.020762399	-0.014823789	0.054275844	-0.036320426	-0.00057074695	-0.011671157	-0.019168997	-0.017192673	0.050153628	-0.051955506	-0.0018053083	-0.016578678	0.04066346	-0.018581955	-0.14135024	-0.045240015	0.10108722	0.00809765	-0.06802077	0.0256571	0.021466155	0.009085802	0.010607387	
-0.0027778884	-0.05209666	0.016984982	-0.06789367	0.022067698	0.09189993	0.09104945	-0.025297996	-0.0064243474	0.032730572	-0.01312426	0.044690713	-0.26731935	-0.040107783	-0.07795365	-0.02061444	-0.029823992	0.036752965	-0.07405359	-0.0040460294	-0.057241455	0.027103668	0.028022446	0.00054281874	-0.030567627	0.012264395	-0.022741742	0.055911995	-0.009181271	0.28950825	0.112929836	0.004839421	0.05614856	0.05716304	-0.0046289135	0.016200336	0.05013039	-0.008177905	0.006959359	-0.014759602	-0.113263495	-0.0049684322	-0.009436156	0.04795289	0.08384937	0.008993186	-0.071354166	0.02312475	0.008574295	-0.032544717	-0.05177993	-0.007753738	0.057263132	-0.053186335	0.015587115	0.36087665	-0.006996841	-0.0825794	0.017536683	-0.1211652	0.016247576	0.16938788	-0.0278082	-0.0017370699	
0.0069454852	-0.19784293	-0.004129459	-0.0006866497	0.039275467	0.0049686637	0.10755273	-0.03092589	-0.01525752	0.0053498014	-0.022196334	-0.021712309	-0.22875127	0.016897377	-0.0736808	-0.06134036	-0.0045692823	0.03499814	-0.08717885	-0.009312501	-0.003560775	-0.025725422	-0.005971817	-0.02081753	-0.02113238	0.0064152293	0.026883874	0.0060933423	-0.025203058	0.18060292	0.13476041	-0.0028607755	0.02475372	0.035457727	-0.03225617	0.013035397	-0.002745955	-0.011811996	0.07411748	-0.032234527	-0.049822923	-0.0323682	-0.0049271146	0.0001885278	-0.0064041805	-0.0036597815	0.05557014	0.02024326	0.018250251	0.006196944	0.0037290214	0.021948075	-0.008231325	0.07436343	0.0027185336	0.18624431	-0.025300313	0.0077102142	-0.016679373	0.022281615	0.033257797	-0.08931001	0.0264197	0.006510068	
0.010994981	-0.023685463	-0.016068228	-0.03459274	-0.033637673	-0.012182875	-0.15877144	0.02678523	-0.014245882	0.011846775	-0.011125343	0.010427157	-0.10231039	0.01009665	-0.014889284	0.021688402	0.009208784	0.018686363	0.011411859	-0.0011353906	-0.029446421	0.0054260674	0.008053309	-0.01431954	-0.008001202	0.003722221	-0.009732475	0.002434258	-0.013117506	0.1251375	0.06752624	0.015385217	-0.011485004	-0.024941685	0.0321176	0.012209246	0.0015039584	0.01289591	0.04540547	-0.0026202325	-0.029925413	0.0077439714	0.035805814	0.017593514	-0.007090205	-0.00286917	-0.0031157574	-0.008247469	-0.0123861255	0.009247388	-0.018095974	-0.009542244	0.033406965	-0.015901452	0.009986212	-0.017201029	-0.011475518	0.016909804	0.013069551	0.06382139	0.0036623697	-0.03355662	-0.018784298	-0.01000577	
0.01712941	0.07267419	0.015706593	-0.0016024075	-0.03396731	-0.052715212	-0.18201649	0.030419491	0.002324888	0.020757832	0.026966212	-0.0101058185	-0.0024021112	-0.004577893	-0.0049311337	0.04293164	0.046281967	0.0062311157	0.0071057323	-0.013957684	0.023890534	-0.03448979	-0.019360684	-0.06803587	0.0021766983	-0.025682347	-0.014563472	0.074233055	-0.018142529	-0.11680697	5.121002e-05	-0.010388209	0.023176601	-0.03767841	0.035665665	0.009003342	0.04799399	-0.0015216254	0.0642035	0.0070256484	0.008412537	-0.009710165	-0.005392957	0.020048868	-0.0320871	0.006677922	0.013759728	0.027659832	0.009173514	0.0839781	-0.086285576	0.0122858705	-0.016044777	0.0006316187	-0.08621087	0.025493888	0.025287613	0.044729006	-0.023777619	0.10939015	0.0063311863	0.042251807	-0.006690658	0.0068911496	
-0.07500362	-0.009341765	-0.07350778	-0.09066862	0.07848454	0.72364163	0.33883396	-0.039159324	0.07317942	0.065659404	0.00091273466	0.04878901	-0.1823821	-0.05332335	0.00024977323	-0.04251509	-0.03808124	0.055599272	0.0014920279	0.048524845	-0.034058373	0.07797949	0.019566657	-0.06356588	-0.007326825	0.012326639	0.020055383	0.09882672	-0.07791053	-0.47241735	0.0059840744	-0.04039268	0.06652415	0.080010295	-0.037627183	0.023408988	-0.2009092	-0.020583218	-0.003008216	-0.031373706	-0.04069656	-0.037068073	0.030656394	-0.10885348	-0.053188134	0.028565472	-0.15630266	-0.045515444	0.031270694	-0.29232094	-0.024116224	-0.002175838	0.027822088	0.02311767	0.07207166	1.1063272	0.0065577137	-0.18713906	-0.040445335	-0.6576896	-0.0138476975	0.1940636	-0.014186248	-0.02218666	
0.0012897581	0.075044274	-0.00045516994	0.052753758	-0.0738533	-0.61428714	0.4769901	0.059867114	0.023405652	-0.114204414	0.035726406	-0.028047686	0.2845	-0.046495795	0.10890301	0.012620354	0.038908068	-0.04244317	0.073695965	-0.055179715	0.09902425	-0.053825393	-0.031879615	-0.022923514	0.053985115	-0.021309787	-0.007790958	-0.036411	-0.023473414	-0.323706	-0.1947858	0.016835531	-0.043131534	-0.10485425	0.03626988	-0.041021	-0.045311626	0.02113979	-0.16827506	0.012693632	0.12366855	-0.0042536855	0.0076953843	-0.042871743	0.045792654	-0.06781962	0.11815682	0.005203887	0.04858019	0.20587496	0.14956103	-0.013680864	-0.09140045	0.022296125	-0.075861655	-0.25651455	-0.0071491324	0.071944326	0.024751993	0.48611203	-0.035788693	0.22728842	0.027365012	0.019865168	
0.033636723	0.032323778	0.010863053	-0.0022017767	0.09714507	-0.07358606	0.22045538	0.007861992	0.005331259	0.0015614623	-0.0034736313	-0.0026513678	0.2100928	0.0059150285	-0.0016976565	0.053301394	0.024379991	-0.020311093	0.028006045	0.03508237	0.024216458	0.018521162	0.020721368	0.03402378	0.012432555	0.013811256	0.0077080275	-0.011950306	0.005148205	-0.16130923	-0.10657672	-0.0003613826	-0.07867449	-0.018698027	-0.08029926	0.02434181	-0.016679311	-0.0034676979	-0.048122734	0.026935788	0.057595924	0.022007259	-0.01605485	-0.032791927	-0.002134119	0.008342536	-0.018961718	-0.00871048	-0.06255197	0.00059903355	0.020973217	0.016255604	0.005463679	-0.03995517	0.09055637	-0.19893755	0.022705385	0.009195258	0.03112939	0.1268701	-0.045053557	-0.3453123	-0.028064013	-0.009615695	
-0.016408555	-0.02394481	0.006533867	0.029469285	-0.004254624	0.048734743	0.05853773	-0.026733289	0.018894793	-0.021241017	0.016481666	-0.030922214	0.09366211	0.005879915	0.015309981	-0.021771217	0.0081018545	-0.021517145	-0.018954083	-0.0051304484	0.0150988335	-0.008398775	-0.008238042	0.014461271	0.008300401	-0.010677989	-0.001583028	-0.0018859007	0.01175963	-0.10928353	-0.040939666	-0.019125486	0.014110953	0.025367105	0.018605692	0.0007500954	-0.014056921	-0.0012391424	0.021177096	0.012050845	0.027214823	0.0010462804	-0.013324897	-0.0046267505	-0.045900192	0.018793598	-0.015679935	0.013922118	0.015896661	0.012955214	0.018437684	-0.015651327	-0.028861914	0.02983246	-0.02921536	-0.028775202	0.009775973	0.00092218316	-0.022266457	-0.06485646	-0.0018621172	-0.1333203	0.011296163	0.012330399	
-0.0008785612	0.10452575	-0.039824616	-0.054486416	0.09805236	0.85312915	0.110607274	0.019022034	0.026276713	0.009870181	-0.02253132	-0.020366665	-0.1383867	0.05634857	0.0036639553	0.012651604	0.0014064673	0.048423737	-0.021416353	0.04818572	-0.030043185	0.013603192	0.012686296	-0.05707239	0.012668102	-0.011478518	0.010201379	-0.056389175	-0.0015246952	0.037984036	0.053079393	-0.059246097	-0.035269108	0.024518527	0.027309073	0.023927057	-0.08083787	-0.0028197889	0.028245496	-0.009780428	-0.0060359007	-0.011943543	0.05676993	-0.06992766	-0.025302699	0.00015477424	-0.06003755	-0.014706166	-0.008413029	-0.04314681	-0.034872428	0.0066689383	0.018866597	-0.004513096	0.0033378867	0.1672273	-0.055294883	-0.043086674	0.0039122966	-0.2681045	0.0024842597	-0.89027756	-7.136844e-05	0.008384135	
-0.23726754	0.11644104	-0.22880255	0.205743	0.30983824	-0.16646826	-0.10625114	0.048647374	0.058603574	0.11674408	-0.19222914	0.12622622	0.08940785	-0.059435673	0.05972662	0.0053292634	0.0065190094	-0.13092217	-0.16666369	-0.07920984	-0.23802052	0.060406335	0.06607692	-0.06037365	-0.057603434	0.09680647	-0.024297932	0.049264777	-0.1413855	-0.06472491	-0.1650772	0.36310345	0.20920771	-0.008530898	-0.23720019	-0.02698449	-0.2695831	0.052437317	0.23324348	-0.07255555	-0.0016542003	0.007614334	-0.15789409	-0.24677536	0.1960872	0.0070840702	-0.08092652	-0.03306546	-0.30437177	0.30955184	-0.09156144	-0.0038775366	-0.069888435	-0.111760736	-0.07838636	0.10441134	0.025141934	0.07229362	-0.07312374	-0.12845613	-0.04291011	0.3009292	0.004093133	0.009048202	
0.088543296	0.04963122	0.01477918	0.19719096	-0.089094706	-0.04382141	-0.12712973	0.04712102	0.027297392	0.0388796	0.09172432	0.077516496	0.1137373	-0.3785488	-0.18853365	0.0036970833	0.045953874	-0.23769538	0.1578873	0.00030918996	0.06781738	0.013374521	-0.054445095	0.20139632	-0.137851	-0.018354733	0.05440271	-0.02427395	-0.054094322	0.006246149	0.17136385	-0.07988251	-0.203207	-0.07793257	0.03125323	-0.028989987	-0.0038235316	0.020190239	-0.1133484	0.009086251	-0.076929264	-0.0787923	-0.092059046	0.029736258	0.022082523	0.025996123	0.083899915	-0.039729405	-0.13910414	-0.12721567	0.014732884	-0.06533484	0.24236505	0.056213014	0.038914986	0.04695422	0.0582131	-0.091453515	-0.015182373	0.12783581	0.13956891	0.1252414	-0.0086066825	0.057469826	
0.08756986	-0.088239536	-0.4418075	0.07133465	-0.21802647	0.08453624	-0.22220488	0.056467567	-0.12019788	-0.16900222	-0.07957434	-0.4387205	-0.14663067	0.068353824	-0.13439757	0.16987294	0.04880775	0.091020405	0.019991446	-0.034882404	0.22705087	0.1321349	0.33283147	0.06587889	-0.33861446	0.123142034	-0.042308126	0.15220359	-0.13736194	-0.5291136	-0.06425272	0.24346115	-0.10067972	0.16948225	0.017318292	-0.2241109	-0.019767895	-0.06424772	0.019366084	0.015810229	-0.051260307	0.20642738	-0.06560131	0.24729371	-0.116164036	0.13144013	-0.13252513	0.24739923	0.17005908	0.11082461	0.36336276	0.06645933	-0.13679801	0.12819621	0.21268843	0.2412352	0.036084354	0.102978446	-0.0069268704	0.06997249	0.088154376	0.034086123	0.13473716	-0.084391564	
-0.17928992	-0.24193749	0.14916945	0.16634274	0.060020294	0.26557213	-0.029567894	0.20705459	0.028319461	0.09885949	-0.047889173	0.020646019	-0.14747867	0.113276795	-0.08795454	0.12895548	-0.022586506	-0.045239616	0.046842877	0.08945467	-0.35676748	0.14790688	-0.121330366	-0.15412249	-0.14358774	-0.064305626	-0.1349687	-0.164499	-0.003446987	0.32552722	0.19240224	-0.035655167	0.03479358	-0.034819383	-0.081755534	0.06990404	0.13479447	0.1027927	0.383982	0.12569275	-0.06186024	-0.12844631	0.105851404	0.07304054	0.17568532	-0.065518536	0.21450546	0.09643391	0.35575575	0.08455933	0.37990963	-0.06418925	0.035380766	0.03642513	-0.12801798	-0.30563623	0.11571595	-0.041732524	-0.15000592	0.22979438	0.027846051	-0.05905746	0.01776071	-0.03471103	
0.22692768	0.3000762	-0.65819025	0.15514246	-0.04964873	-0.042475928	-0.0710222	0.061956443	0.06547986	0.05316367	0.25693676	-0.11196474	0.029397568	-0.4142053	0.04852671	-0.11173668	0.23484755	-0.090320386	0.11250604	0.0020838252	-0.12959026	-0.039228	0.06375533	0.17366378	0.10965913	0.0725712	-0.008114099	0.011251974	0.33272463	-0.06481894	0.13883969	-0.07696014	-0.25778878	0.23435459	0.09907438	-0.00031847862	0.09038298	0.040824555	-0.17521605	-0.09905586	-0.05622177	0.17930213	-0.078781724	0.12497457	0.21531023	-0.047914434	0.12513904	0.020606723	-0.2520423	-0.14094687	-0.19658032	0.035610925	0.07006162	0.13754794	-0.1343469	0.060695734	0.027455172	-0.01186031	0.02122934	-0.18491177	-0.08033178	-0.12809093	0.23542331	-0.033338256	
-0.080344684	-0.056377478	0.009416791	-0.06663135	0.0027916841	0.043732923	0.07004657	0.027299974	0.10040532	0.090257704	-0.0486792	-0.0744674	0.164069	0.043312997	0.05183987	0.14484136	-0.18155187	0.09173603	-0.04661718	0.15800476	-0.084396586	0.07683307	0.020354638	-0.030069679	0.17653589	-0.022695335	-0.026878413	-0.024898257	-0.00869025	-0.022493886	-0.07727462	0.045306485	0.18345094	-0.033302803	0.13690299	0.016352616	-0.025290782	0.061267566	0.017865364	-0.012318813	0.26821226	-0.03772095	-0.20662883	-0.010408441	-0.005814279	-0.3569061	-0.33360773	0.0930478	-0.095446154	0.1002069	0.0027393925	-0.079189815	-0.4377072	-0.054068007	-0.071885884	-0.025980806	0.05654584	0.05803308	0.13059294	0.07400422	-0.15862116	-0.12373369	-0.0075881407	0.04307853	
0.039213173	0.13770571	-0.050754298	0.09309058	-0.12265457	0.0007924232	-0.083016306	-0.015189101	-0.0677003	0.080549374	0.105058186	-0.039966516	0.16550897	-0.11243781	-0.060527053	-0.02281081	0.15274523	-0.12574913	-0.006495772	-0.047792856	0.1527535	-0.017720899	-0.0936954	-0.057042427	-0.16710095	0.1239132	0.020650111	-0.09217164	0.0012420065	0.0844654	0.0075941696	0.00884694	-0.08247337	0.13096839	-0.17734809	-0.08247859	0.09325044	0.012239582	-0.13990405	-0.014278259	0.003595666	0.009489822	-0.32447392	0.072456226	-0.00044107635	0.035854813	0.04929207	0.042942286	-0.3018872	-0.065153345	-0.042449005	-0.08254974	-0.14482996	0.11786313	0.24301717	0.05149691	0.2553784	-0.08193859	0.05977467	-0.1051287	0.046793543	0.0017284445	0.08045871	0.045304082	
-0.0144201275	-0.0020608169	-0.031005694	0.06808891	-0.23826133	0.03752962	0.086101316	-0.0680309	-0.05162087	-0.21324779	-0.09983993	0.108633034	-0.09266716	-0.07079109	-0.021180514	-0.22418608	-0.04509617	-0.13617705	-0.064744554	-0.06176413	0.076193936	0.26230243	-0.018282546	-0.011691652	-0.1785014	-0.15803744	0.05144338	0.062777236	-0.038446635	-0.18415987	0.18895997	-0.09714204	-0.1724027	-0.1200187	0.04083364	0.012006653	0.034626283	-0.15020998	0.0063293404	-0.047939893	-0.22237803	-0.130737	-0.20768958	-0.20105855	0.082104504	0.24568352	0.0052113873	0.022871241	-0.03416344	0.02739546	0.20739289	-0.089337364	-0.10508917	0.1398806	-0.07746378	0.075464614	-0.12311354	0.21511538	0.098791115	0.007010972	0.25267258	-0.0887701	-0.1213974	-0.006411122	
0.14465125	0.28335828	-0.25921124	-0.13733871	0.10858629	0.008947394	-0.106271185	-0.18957828	0.11019412	0.11304454	-0.28492093	0.25686264	-0.0013746045	0.07575476	0.13929069	-0.05186136	0.043130357	-0.18158081	-0.04794595	0.037233725	0.11511504	0.1172813	0.36778048	0.10508204	-0.31302258	0.11345581	-0.040953543	0.012643803	-0.020372465	-0.04577978	-0.10631069	-0.029717265	0.11253514	0.16187023	-0.06228362	-0.18953963	0.12587287	0.1356391	-0.07192932	-0.14420918	-0.18237905	0.19295649	0.09403539	-0.05924191	0.24715407	-0.0204102	0.20774375	0.069706306	-0.23028818	0.17805056	0.18242927	-0.16858225	-0.1546434	-0.11522783	-0.017494543	0.13896844	-0.1041112	-0.19027913	0.016304292	-0.21776879	-0.08824075	0.14422518	0.023016667	0.05210387	
-0.04334299	0.071653105	-0.24677344	0.31263503	0.14901897	0.04137184	-0.06923388	-0.13512647	0.058256857	0.1333859	0.029607411	-0.042577058	0.22094814	0.06715546	-0.07538912	-0.17809273	0.061051466	0.0077373553	-0.020037804	0.2240373	-0.06382121	-0.06327939	-0.0352445	0.06987729	-0.042489182	0.36320105	0.2483238	-0.05968626	0.18258622	-0.05144458	0.25788522	0.027757132	-0.05711065	0.19254836	0.020959007	-0.062932655	0.06434011	-0.07867987	-0.054647177	0.092238404	0.07370078	0.19127457	-0.06352251	0.03626941	0.095059045	-0.15447325	-0.0015529443	-0.1488809	-0.19231157	0.19807248	-0.09648979	-0.003823244	0.04279213	0.16743267	0.31731278	-0.103268705	0.0265934	-0.2581376	0.14576913	-0.16275814	0.026126461	0.13009314	0.26028332	0.2813901	
-0.10557547	0.19697876	-0.08708363	-0.011987177	0.053884633	-0.23112035	0.03452255	0.022394713	-0.011959803	-0.25895888	-0.17375608	-0.074705	0.30386984	0.36011264	-0.1274615	0.015776742	0.10540158	-0.058201794	-0.00075394846	0.05374312	-0.19716814	0.09159295	0.03546749	-0.11095637	0.076380394	0.12904935	-0.17632182	-0.06675354	0.12923586	-0.103115685	-0.14293511	-0.06345484	-0.10000106	-0.11257946	-0.097970076	-0.21580586	-0.021327106	0.22200248	0.0035835772	-0.25371295	0.13098077	-0.0345102	-0.040454876	-0.26312816	0.25076628	-0.054295924	-0.035610095	0.16661347	0.051335216	0.13608375	0.018749926	-0.00052858115	-0.015833735	0.292816	-0.07841299	0.020220546	0.1304698	0.08152137	0.115210935	0.17493834	0.023870807	0.15643047	-0.040949147	0.14124116	
0.13705531	0.005454422	-0.017491955	-0.009859659	-0.09413095	-0.0044859224	-0.16425413	-0.08990642	-0.1654651	0.09910091	-0.11510504	-0.078278705	0.05307062	0.17115223	-0.063543804	-0.026054537	-0.026145367	-0.003969918	-0.04968672	0.069799334	-0.05169456	0.0843844	-0.06251246	-0.030410096	0.14724302	0.13523364	-0.4465243	0.119220614	0.03933635	-0.086236045	-0.05060651	0.11144238	0.31084093	0.07608954	0.186026	-0.06926524	0.058964603	0.028257981	-0.17273568	-0.2398871	0.24961838	0.00981398	0.08039166	0.09752864	-0.13116641	-0.010491537	-0.16374493	0.20147409	0.026919452	0.07077899	-0.15418953	0.003769934	0.039548807	0.22240517	0.07976647	-0.06795693	-0.021454137	0.04597749	0.060946677	0.055517025	-0.06543643	-0.00038204857	-0.032892283	0.05534427	
-0.08204393	0.049972143	0.16423692	0.01950215	0.13087912	0.0068103303	0.10984653	-0.12453603	-0.081073835	0.108308	-0.1727106	0.32994822	-0.06690709	0.04681988	0.08259203	0.018987425	0.17312635	0.020078022	-0.086311616	-0.012125028	0.03748079	-0.015713615	-0.00064059463	0.21438651	-0.23971856	0.08153423	-0.08828503	0.1122188	-0.05806775	0.10815192	-0.06045524	-0.009988579	-0.08877263	-0.050257582	-0.07338287	0.20134857	-0.19216399	-0.10705968	0.016107608	0.024852512	0.13361159	-0.008184069	0.1812027	-0.079910666	-0.1062279	0.0052058445	-0.057335816	0.17200394	0.13373882	-0.06939619	0.05884295	0.036900282	0.21736097	-0.13296418	-0.0151330205	0.0098367855	-0.17478822	0.06067145	-0.22116227	-0.16009602	0.06742848	0.13835128	-0.03486616	0.10363539	
-0.033590727	0.15821958	-0.011893687	-0.16461492	-0.18371278	0.035667334	0.022741377	0.18027325	0.1865953	-0.04071884	0.06627165	-0.09693036	0.111582816	0.0015377011	-0.06791279	-0.08873096	-0.013756063	-0.06886479	0.018640378	0.044427082	-0.16182858	0.08933332	-0.102702886	0.16073494	0.014089408	0.11865452	-0.0044783126	-0.1406462	0.07175541	-0.060180243	0.0064165937	-0.140852	0.022974677	-0.06904311	0.077349424	-0.06339137	0.16243179	-0.17148682	0.14413416	-0.38146064	0.22730388	-0.14617948	-0.056715403	0.078915015	0.0036374137	0.2605243	0.02552304	0.3051282	-0.035459947	-0.039985694	0.09417208	-0.071326844	-0.071527645	0.13924927	-0.039704137	0.26133844	0.28470543	0.00080813456	-0.10191211	-0.05292748	0.14700687	0.1251981	-0.27492037	-0.049577594	
0.19102131	-0.13056332	-0.26680017	0.011563632	0.07943568	0.008099664	-0.0019071003	0.15804438	0.11479552	0.044904638	0.27602795	0.100044206	-0.22457361	-0.05024784	-0.061919287	-0.09680957	-0.024295773	0.0791663	-0.17250495	-0.08329865	0.012838612	-0.01467652	0.06494919	-0.08136894	-0.40632167	0.05032101	0.2757067	0.06854402	0.02944201	0.14712934	0.15628244	-0.14032991	-0.042410407	-0.05199538	0.051962133	0.007767697	-0.11842538	0.074644774	-0.14344239	-0.056788027	0.171257	-0.21951468	-0.12459247	0.34531596	-0.088876	0.09025763	0.23148471	0.1983553	0.04608657	-0.12567778	-0.08065286	0.007038661	0.21580862	0.194499	0.030569762	0.20007125	0.087783284	-0.49274758	-0.17939031	0.031280622	0.09967563	0.07146227	0.1819329	-0.2978837	
-0.17859231	-0.05610689	-0.06666566	0.103096485	0.17319998	0.018859236	-0.14540708	0.07348587	0.030961217	0.016861035	0.045348547	-0.031154754	-0.03101113	0.07934771	0.10322774	0.082781665	0.116984025	0.1672501	-0.054760255	-0.111146554	-0.18708889	-0.12428131	0.07150284	0.058974337	-0.11062842	0.16006505	-0.15533888	-0.13041571	-0.062460564	0.1109839	-0.049600158	0.121573895	-0.20207304	0.037315026	-0.0021416044	0.026127772	-0.054671366	0.07889174	-0.16721068	0.2301349	0.0049643023	-0.4134542	-0.21780917	0.009929567	-0.052313555	0.054842662	0.155551	-0.11791016	0.016959844	-0.10202566	0.122800596	0.093032934	0.05650231	0.1205578	0.09976971	0.10290327	-0.10694376	-0.016671624	-0.10854055	0.0011468501	0.050991848	0.11174079	-0.16592632	-0.10565081	
-0.26071122	-0.40620533	-0.06965115	-0.1252434	0.0791023	0.43542972	-0.13126045	-0.019368352	-0.07566409	-0.002612632	-0.22238435	-0.044830885	-0.023503687	-0.15131399	0.16150059	-0.047969542	-0.0032157444	-0.058434878	-0.004749802	0.25124797	0.23167783	0.13363232	-0.13484944	-0.013387313	-0.100845985	-0.10160855	0.010430905	0.034665212	-0.16369185	-0.21791402	-0.11248122	0.009157884	0.17131498	0.17170668	0.007413788	-0.10550207	-0.17776285	0.11935335	-0.035869293	-0.14795507	0.051541287	-0.042564254	0.15524466	-0.11512838	-0.17387639	-0.03293944	-0.0019542847	0.06021987	-0.4215125	-0.20022605	0.026315868	-0.060643774	0.03661258	0.11059569	-0.17304398	-0.15117155	-0.05032086	0.08695981	0.059719954	0.14599836	0.005285678	-0.02305826	-0.12593709	-0.06259001	
-0.08777013	0.14137135	0.18102552	-0.11852733	-0.030015575	-0.063957095	-0.044971894	-0.10935504	0.009793023	0.16236354	0.0035392004	-0.07711164	-0.023042666	-0.025457673	0.007596553	-0.06326055	0.23324943	-0.035288174	0.10108545	0.240263	-0.24740265	-0.07592097	-0.29057476	0.03915974	0.27092397	0.16350773	0.11754452	0.12537538	-0.14680673	0.1111663	0.17273937	-0.04390891	0.005285409	0.21057191	0.10350284	0.036384247	-0.047307737	-0.18925671	-0.027554635	0.049991306	-0.043796916	0.055386562	0.20817341	0.00968156	0.16429833	-0.112495415	-0.1834323	0.06017997	-0.19582994	0.0817961	0.020914719	0.23685317	-0.078715965	-0.106328085	0.27376375	-0.10678586	-0.060572874	0.1288188	0.043090813	0.0021047366	0.07347883	0.16505814	0.24132875	0.108514145	
0.1570563	-0.083352126	-0.073049024	0.10883409	-0.12017457	-0.14962414	-0.13922685	-0.15528482	-0.09607597	0.08373265	0.0037859057	0.012622951	0.06583426	-0.010618166	0.16767654	0.11206903	0.029115848	-0.027072595	0.16076371	-0.14662486	0.18285854	-0.14893098	0.2147235	0.17528163	-0.27869427	0.028548587	0.051206056	0.11418444	0.06800605	-0.0029470425	-0.019488893	-0.065443955	-0.011722374	-0.026524277	0.16148527	-0.03180181	-0.19313937	-0.0074177776	-0.09318216	0.00715498	-0.021965558	0.090384	0.15096734	0.21909244	-0.16645664	0.097528376	0.09319612	0.10426587	-0.017081678	-0.25275722	0.065270536	-0.06727147	0.20242575	0.12777314	-0.019291615	-0.14338642	-0.019224472	-0.17101818	0.06577665	0.020025378	0.1434334	0.178676	0.26441702	-0.055549286	
0.06735163	0.23956254	0.08003305	-0.06898731	-0.16613671	-0.02693016	0.098330475	0.3817539	0.0072688814	0.15673009	0.05534464	-0.024261178	-0.014715531	-0.00017078474	0.07146109	-0.77901435	-0.36483333	0.013070613	0.10585922	0.1301697	0.008218132	0.017846232	0.08777725	0.08830726	0.09329547	0.027122606	-0.052671086	0.09940708	-0.16338955	0.09896067	0.10201018	0.079193674	0.02639891	0.07125468	-0.04398245	0.27001673	-0.06389901	0.009580581	-0.08558364	-0.26142624	0.13936308	0.21873291	-0.06442829	-0.07796491	0.12956224	-0.31655964	0.119438194	0.15792845	-0.05043263	-0.08177552	-0.17507675	-0.30421415	-0.09372653	-0.12726207	0.19705689	0.13300376	-0.011255168	0.026408322	-0.09882702	0.09881919	-0.14426951	-0.072966754	-0.28643373	0.09357362	
-0.08267994	0.16948555	0.0266885	-0.06325445	-0.010808205	0.14573571	0.009582845	-0.18552148	0.3386234	-0.041192167	-0.08420446	-0.02451756	0.05509682	0.13469717	0.13344242	-0.20302974	0.06584666	0.0645291	-0.102098554	-0.14059484	0.027523825	0.016224636	0.11657284	-0.043508675	0.088352814	0.13940626	-0.069601744	0.34960842	-0.08680429	-0.14534628	0.11207018	0.1653307	-0.024827981	-0.11548989	-0.13132913	-0.15189023	0.11609799	-0.04701607	-0.0075654723	-0.07708211	0.1901764	0.140225	0.079061665	0.011250877	-0.020131072	0.007920383	-0.013941661	0.04632561	0.034396343	-0.023004692	0.18235448	0.2019303	0.053809576	-0.07248075	-0.08886241	-0.14636268	-0.1040814	0.23375219	-0.080049515	-0.018118711	0.084139645	-0.082209006	-0.034382943	0.16567989	
-0.07604126	-0.14092617	-0.12155003	-0.2419872	0.16998456	0.04727358	-0.10497379	0.4495629	0.087484114	-0.082648724	-0.12715973	-0.031457014	0.12617838	0.08299391	0.08895968	-0.087625585	0.15410851	0.0744506	-0.013601809	0.14932506	0.19298908	-0.13741934	0.25706497	-0.19491811	0.18253468	0.011070559	0.18618841	0.017156627	0.0049979724	-0.13057874	0.04546427	0.07183146	0.10640844	0.011556491	0.00091954804	0.15740603	-0.0070308154	0.009937814	-0.012083468	0.107435286	-0.16472493	-0.407267	0.2700163	0.09861076	-0.13391176	-0.30563408	-0.012147254	0.027869355	-0.22185554	0.22382909	0.092880435	0.041632663	0.18281735	0.10905004	-0.016685408	-0.0013612836	-0.10013693	0.3190364	0.053793047	0.11097554	0.11598269	0.16484979	-0.4282976	0.19778992	
-0.07512083	-0.1265848	0.05517141	0.25729293	0.023879608	0.13579428	0.035012025	-0.12766604	0.23292284	0.008214013	-0.14685895	0.21783513	-0.08808001	0.045255426	0.00197961	-0.010049381	0.11730055	0.028447319	0.06851899	-0.026937492	-0.15075605	-0.14563048	-0.23170401	-0.03823709	-0.053075068	-0.2620613	0.021586977	0.035068978	0.20972803	0.033694755	0.10056388	0.20354131	0.15404108	-0.017022477	0.15499908	0.045380276	0.06028704	0.122097656	-0.0027395962	-0.13526106	0.011055424	0.013073445	-0.1611024	-0.030755088	0.002955284	-0.068618804	-0.024545712	-0.00083768024	0.14119686	0.059766557	-0.05864627	-0.22578385	-0.17481844	-0.061170496	-0.07151762	0.10888118	-0.027678076	-0.03701374	-0.012563165	-0.17050669	0.069388986	-0.07748819	0.040942427	-0.0561672	
-0.09954975	-0.088524	0.033966113	0.08279387	-0.1373124	0.11526324	0.08284562	-0.055208955	-0.044524513	0.08671615	0.04567588	0.10183148	-0.02040741	-0.053865667	-0.11819319	-0.013512429	-0.0914095	-0.051595986	0.3615821	0.12828405	-0.04699484	0.01197301	0.048801724	0.17786415	0.0112783015	0.13750379	0.09263782	-0.17819445	0.12796679	0.10296797	0.094294615	0.13932317	0.18473437	-0.20264207	0.272995	-0.045753848	-0.031000257	-0.035903662	0.306256	-0.039976783	0.040172923	0.013133089	0.035733663	0.0011748093	0.16691177	0.07530325	-0.004335181	0.03450458	0.14792411	0.108304314	-0.013925462	0.17053923	-0.10840265	-0.021437854	-0.21833743	-0.093775444	-0.24130483	0.13810903	-0.026428545	0.07444413	0.0559878	0.034036636	-0.07196607	0.016280835	
-0.25216535	0.07142713	-0.12940715	-0.0702819	0.087438375	-0.010349998	-0.4533028	0.0709175	-0.17509346	0.10415055	0.14244244	0.025537325	-0.09055437	-0.02957009	-0.085275754	0.19074233	0.18001407	0.22608107	-0.015300872	0.16484863	-0.06492642	-0.1420963	0.031786624	0.16183594	-0.1461655	-0.1798014	-0.08652643	0.16915458	-0.1172468	-0.030515824	-0.03950033	-0.011056948	-0.13556181	0.10351874	-0.036348734	-0.0922905	-0.16704318	0.015351909	-0.17973	0.09206133	-0.12762973	-0.028615361	-0.20332856	-0.026639767	0.0494456	0.23509309	0.010053236	0.2592228	0.04158159	-0.10313218	0.05854164	0.08036107	0.18931632	0.044389874	0.14654642	-0.025028996	-0.06949143	0.11103827	-0.108483955	-0.021934798	0.11657099	0.07487696	0.18195598	-0.027670661	
0.003890317	0.04857885	0.25718608	0.00042370422	0.11566504	0.0451267	0.21230298	0.00767173	0.12662663	-0.38596466	0.048963822	0.048625518	-0.08444397	-0.07546824	-0.19732207	0.17188549	-0.045624316	0.11533332	0.008252406	0.22059704	0.3792972	0.10197812	-0.07772575	-0.36036438	-0.057092223	-0.08849767	0.3155073	0.0029484096	-0.16091494	0.09076363	-0.30973074	0.109201014	0.053816646	-0.25294042	0.058627013	0.10376462	-0.055866655	0.037229218	0.027781922	0.19168735	-0.099159844	0.26962894	-0.18661065	0.14223203	-0.22465238	-0.1738927	-0.32128865	-0.083289556	-0.10530127	0.32830352	-0.089103155	0.08470813	-0.14960253	-0.010899052	-0.2595374	0.21128412	-0.070782915	-0.041269045	0.058620613	-0.11669009	0.12631208	-0.077913664	-0.034324545	0.018276846	
-0.009031618	-0.20598942	-0.041873842	0.036549065	0.08402439	0.067337975	0.19716248	-0.25137106	-0.06772288	0.14595813	0.08456877	-0.1785204	-0.022258706	0.24837175	-0.0765533	-0.043757647	0.05971532	-0.038619075	-0.0044466904	-0.105454944	0.1922422	0.2503266	-0.088466436	0.02445443	-0.014945228	-0.163433	0.3138953	0.08629967	0.21189043	-0.0143934125	-0.15709218	-0.5188933	-0.021677576	-0.10088212	0.008190095	0.16945735	0.11848475	0.014663692	0.1339964	-0.039623182	-0.11244388	0.036734153	0.07231112	0.09080027	-0.09573255	-0.08176095	0.11357148	-0.025624061	-0.03632412	-0.071099885	-0.080102056	0.1258364	-0.07332975	0.22116832	-0.2738801	-0.21126872	0.095165394	0.046496723	0.103997335	-0.15402351	-0.058627345	0.16447002	0.012863208	0.07901782	
-0.087062806	0.007153664	-0.055714607	-0.11340574	0.043012895	-0.056065056	-0.18495472	0.041698497	-0.11487113	-0.048616953	0.01860712	0.08406898	0.050946314	-0.08562367	-0.12827626	0.026702974	0.05116131	0.17142932	-0.11001283	0.12335077	0.10741079	-0.18641081	-0.029439215	-0.19256468	-0.09573608	0.08677244	-0.19926998	-0.14119923	0.03908257	0.14373787	-0.015540007	-0.26725066	0.004170479	-0.20152493	-0.10523411	0.1061493	0.10919802	0.048463743	0.0026475668	-0.06443883	0.22552834	-0.10031625	0.064036034	0.15637358	-0.065600805	-0.11659191	0.048460074	0.1954605	0.07671631	0.007074332	0.08412595	-0.06158905	0.15386938	0.12643439	0.13830478	0.09575845	0.122904055	-0.28635192	-0.014665971	-0.16165471	-0.13768432	-0.15972082	-0.18739639	0.059029944	
0.21329191	-0.24343438	0.15720251	-0.042418104	0.03243411	-0.020673092	-0.29850823	0.07143428	-0.10063695	0.14198284	0.11294505	-0.1245916	-0.15561984	0.046942197	-0.1860796	0.039629918	0.07577942	-0.325582	-0.18906383	0.0944705	0.19713667	-0.010518636	-0.08979632	0.04218583	-0.21363173	0.023737332	0.2257742	0.1700705	-0.18334708	0.20286764	0.0044391844	0.016186312	-0.03832604	0.34927967	-0.20529191	0.008958976	-0.20012824	0.010682658	-0.034770366	0.09250377	0.062561095	0.08763203	-0.0686925	0.087147854	0.015443379	0.2191883	0.039567187	0.195251	0.040620174	-0.08505956	0.043726932	0.079981714	0.20712276	-0.09605703	-0.04664156	0.011584041	0.13043463	-0.10771748	0.005605868	-0.0766579	0.051589016	0.2103607	0.088509046	-0.08468915	
0.100570805	0.07056273	0.018938849	0.08863602	0.22169653	-0.0049413783	-0.08229175	-0.012243436	-0.05430174	-0.029405061	-0.106014766	0.19665113	-0.040274054	0.05435567	-0.048264112	-0.00744253	0.12094769	0.1362242	-0.01014428	-0.11549897	-0.01946837	-0.038955133	0.14575605	0.16065948	-0.5211013	0.040427357	0.04890186	0.093839735	-0.039345294	-0.0019216535	-0.0039397413	-0.060236808	-0.011570847	0.06568013	-0.20088078	-0.03980025	-0.27489334	0.0022478558	-0.04960826	-0.04219938	-0.1208646	0.07251489	0.04220806	0.040017672	-0.07349979	0.072829254	0.2041774	0.14028297	-0.022595271	-0.067058384	0.016667224	0.036684617	0.3099362	-0.010352916	-0.011433741	-0.1572744	-0.0011075125	-0.11753609	-0.20887364	-0.02787348	0.06678896	0.10210628	-0.050717458	-0.07231985	
0.040028907	0.12036197	-0.20081323	0.14054547	-0.07720512	-0.0800972	0.043439057	-0.06199515	-0.11913652	0.19532627	-0.09856609	0.14855844	-0.037354782	-0.01649547	0.3280158	0.03807377	0.032143936	-0.26214612	0.45525038	-0.004278765	0.09895621	-0.105358794	-0.16890596	-0.10482717	-0.4739153	0.010616041	-0.09440262	0.2515722	-0.06728128	0.07043802	0.022226289	0.028523613	-0.07401766	-0.12806533	0.23648363	-0.02168738	-0.12712854	0.019514551	-0.028232308	-0.011090036	-0.08902005	-0.033876948	-5.883821e-05	0.018834172	-0.040981844	0.24333121	0.099915266	0.07304589	-0.05621931	-0.13331072	0.074795775	0.09595532	0.040624835	0.03558175	0.1581827	0.16796608	-0.008185955	-0.10914487	-0.07632287	-0.05257157	0.29613066	-0.09393507	0.10094293	0.108726755	
-0.16736352	-0.40715966	-0.032530267	-0.074323475	0.029075483	0.14688931	-0.102514066	-0.39010477	-0.015107778	-0.0801512	0.030475516	0.0545265	0.0058474606	0.0067114225	-0.13682514	0.12742293	0.20949258	-0.042748023	-0.05656515	-0.1673897	0.10276968	0.12272552	-0.018278848	0.14621772	0.16162011	0.13627122	-0.0072441255	0.104379736	0.1326567	0.07272226	0.14127359	-0.051322605	-0.059840955	-0.043327425	0.056571063	-0.15444335	0.13362326	0.21833852	0.061058454	0.38855654	-0.21097083	-0.5394129	0.14379038	0.058841202	-0.0052633407	-0.05782279	-0.054151468	-0.086432405	0.07237696	0.006477307	-0.024238033	0.063126326	0.2432135	0.10868349	-0.0050048204	-0.20140634	0.058750518	-0.005736214	-0.0020032711	-0.08302698	0.08728975	0.11591158	0.010179238	0.032226443	
0.13480717	0.005950773	0.12761876	0.03999354	0.021192122	0.043055493	0.092934914	-0.052432563	-0.0814321	0.10327468	0.2002335	-0.10928664	-0.09119552	-0.011861349	-0.16290261	-0.13686177	0.0030898731	0.150999	0.082621224	0.13071093	0.4276371	-0.069124244	0.041842386	0.078688346	0.1665881	0.012015232	0.15342398	0.14756647	-0.012261623	0.23909777	0.19025335	-0.2800283	-0.10346541	0.13208997	-0.013958255	0.19201459	-0.031612694	0.08584475	-0.17851833	0.15820019	-0.0067561655	0.13622008	-0.057457767	0.14403154	-0.38770628	6.0549493e-05	0.25256336	0.07326958	-0.031270135	-0.22197846	-0.095106624	-0.104119495	0.03913212	-0.12848535	-0.061049737	0.18028373	-0.12258565	0.11430751	0.20687848	-0.094376065	-0.19455065	-0.15186296	-0.10291673	-0.12350484	
-0.17071638	-0.22877826	-0.0947822	-0.1729845	-0.09264436	0.048875015	-0.13162547	0.09611557	0.2597948	-0.024510745	-0.005877995	-0.14415905	0.057697996	0.15273464	0.14183143	-0.1394166	0.13910161	-0.048845585	0.19631132	0.16404444	0.042541955	-0.15929735	-0.051520865	-0.092970654	0.1117926	0.047566243	-0.17812127	-0.2000375	0.25359365	-0.047755543	0.21778291	-0.08302692	0.12159214	0.035124622	0.07156729	-0.02467445	0.5994058	-0.01668004	-0.08035783	0.025139423	0.21480395	-0.015592583	0.3464076	-0.09622125	0.025413515	-0.13144866	-0.26580122	-0.08012998	-0.21690348	-0.30894133	-0.1802807	-0.21329354	-0.27464533	-0.068026915	-0.10914407	-0.011048147	0.0033593364	-0.10186661	0.21960331	0.19884221	-0.24687813	0.0040094876	-0.19100276	-0.07231568	
-0.1890517	-0.024908938	-0.2853803	-0.10726939	0.08218697	0.17710714	0.026865818	-0.12052721	-0.036976952	-0.10246312	0.006747712	0.014207242	-0.022470128	0.11084912	-0.017670365	0.10371383	0.28034943	-0.0027595097	-0.050822455	0.098477796	0.06699623	-0.028496167	0.037139397	0.10538741	0.30603597	0.03308015	0.151067	-0.047323976	0.41752195	-0.16976938	0.007294065	-0.06356318	-0.07819696	0.10764052	-0.10098104	-0.15194073	0.13691336	-0.11523925	-0.08419103	0.10459728	0.10043264	-0.13922776	0.093373746	0.32869506	-0.003655397	-0.2707065	-0.116744004	0.06597554	-0.030841494	0.11506916	0.019810697	-0.060100116	-0.0065883636	0.37607303	0.02305836	-0.083919525	0.23699409	-0.23017046	0.09399013	0.16642094	-0.11483369	-0.0608842	-0.0758586	0.2084321	
-0.049685623	0.21162266	-0.34264722	0.06386012	0.07368851	0.031430982	-0.21768425	0.01736681	0.105946794	-0.021783482	0.17798114	-0.08379349	-0.007730309	-0.06527981	0.3736595	0.06958034	0.13882662	-0.121468805	-0.029355854	0.05779584	0.06249956	-0.04861916	-0.08853109	0.025725417	0.21429032	0.27211857	0.07226526	-0.047786273	-0.073723584	-0.01976444	-0.049230468	-0.17692414	0.030440621	0.11247375	-0.07639709	-0.057200197	0.06524012	0.08529579	-0.25255987	-0.0056148386	0.103268705	-0.17642233	-0.16891123	0.017005332	-0.026608601	0.054242034	0.14500283	0.12804638	-0.051979505	-0.13709794	-0.3250324	0.06476211	0.07219338	0.11473845	0.19689472	0.16170532	0.22513573	-0.32960004	0.08334131	0.10672906	0.2721653	0.066656396	-0.06959208	0.23521568	
-0.11669034	0.08328613	0.09102993	0.08685435	-0.017354725	-0.012586733	0.14297421	-0.096697494	-0.08177185	0.05797599	-0.032518994	0.05110811	-0.09932585	-0.1962867	-0.06951066	-0.06925107	0.031127289	-0.49656987	-0.39179584	-0.03299982	-0.13874026	-0.09443923	0.06687573	0.14822814	-0.35717157	0.03616024	-0.08029507	0.16754639	0.051192265	0.090553276	0.057433043	-0.036734547	-0.13061269	-0.112864055	-0.3010877	0.028126562	-0.2981462	-0.11290197	0.22515602	0.04505972	0.06329832	-0.030420532	-0.08056352	0.042035997	-0.06768796	0.03166759	-0.017544739	0.10360753	0.2609455	0.09062979	0.11681801	0.18325327	0.20234387	0.17785123	-0.099870935	0.013269007	-0.05344283	0.09451775	-0.115616314	0.08009293	0.17480847	0.122007445	0.05403376	-0.0022551203	
-0.03108036	0.081125125	0.1461452	-0.051872108	0.18130255	-0.16957447	0.12614815	0.06440243	0.28386	-0.035099488	0.13077295	-0.10651653	-0.12134318	0.105652526	-0.16579266	-0.20355153	-0.15889707	0.17847283	-0.0922839	0.1006127	0.21892922	-0.115901776	0.5252802	-0.13594258	-0.00054299406	0.12438976	0.038384646	-0.41913518	0.083344854	-0.15195557	0.065656625	-0.09851087	0.027866593	-0.14705993	-0.0012051649	0.28142262	-0.30634865	-0.13740733	0.03595381	0.06631503	0.15188618	0.24234846	0.120884635	0.061574534	-0.13277234	-0.2981756	-0.0155692855	-0.22447336	-0.13842617	0.1812964	-0.0740127	-0.13304196	-0.04014151	0.31591484	-0.13522208	0.019650055	0.15275109	0.1938052	0.3134406	-0.26028123	0.12055701	-0.0017247527	0.49169317	0.08940492	
0.13532184	0.10521226	-0.22946268	0.18870331	-0.18815066	-0.0096311625	-0.29018053	-0.018271593	-0.104519255	0.111321464	0.14351468	-0.048846323	0.3114961	-0.23369625	0.031025227	0.017571684	0.10528537	0.17420071	-0.006773073	-0.07902408	0.07451495	0.24599016	0.026753942	-0.10645032	-0.056666035	-0.105967924	-0.09030022	0.15636131	0.010901165	0.09337109	-0.079594694	-0.06531771	-0.22633453	0.11499861	-0.06693711	-0.011920358	0.14066155	0.016226426	-0.23024935	0.055534437	0.032090746	-0.27048236	-0.27495164	0.30327836	0.08288905	0.0060218726	0.076098375	-0.059255503	-0.0855225	-0.1224438	-0.045500204	0.04496648	-0.10054823	0.07851884	0.06760152	0.16755283	0.074823156	0.004151497	-0.06308832	0.01515287	0.16915059	0.019101977	0.085235864	0.166867	
-0.1287275	0.053630523	0.021956658	0.034573905	0.077913664	-0.013536142	0.04799367	0.14245924	0.06451415	0.17945771	-0.34459233	0.20852049	0.0074312096	0.056068044	0.10868751	0.118139416	-0.018277347	0.13548492	-0.06271067	0.036371257	-0.21420886	-0.05051433	0.03676761	-0.07153296	0.057155028	0.14724755	-0.27430195	0.028817007	-0.15405747	-0.07245114	0.12531818	0.32267514	0.14795586	0.070482485	-0.0056904363	-0.20708136	-0.033456896	0.011012154	0.1297994	0.020825276	0.06231797	-0.03682425	0.08905588	-0.2660919	0.20448865	-0.10364894	0.11162444	0.046230793	-0.094454125	0.0763527	-0.0036316218	0.076626055	-0.11879758	-0.35470226	0.19136706	-0.24124917	-0.17405406	-0.06632949	0.112684675	-0.027703065	0.37296626	-0.32198438	-0.20946628	-0.050368614	
0.08714718	0.16408288	0.06672807	0.23286495	0.21431895	0.0036415115	0.258977	0.016152756	-0.14090428	0.016341986	0.01712085	-0.19007696	-0.11731659	0.067988195	0.02941446	-0.07024346	0.015195929	0.020309133	-0.11299997	-0.15238324	-0.12591003	-0.15035427	0.37757617	0.3139099	-0.38845637	0.08919977	0.08140077	0.13258033	0.0258807	-0.34255344	-0.03742453	0.023192845	0.10735392	0.17421983	-0.11287864	0.03296197	-0.14227904	0.04972805	-0.06674937	-0.041046575	0.020184398	0.08913114	0.101770096	0.055962853	-0.0035920367	0.08391285	-0.0013228117	0.15464538	0.3537413	0.1073529	-0.30812594	0.2459218	0.18397973	-0.31276977	-0.13744152	-0.13800576	0.026523722	0.010787172	-0.06671428	0.15022865	-0.040502153	0.17787816	-0.17427206	-0.18829423	
0.23257758	-0.18874756	0.0977785	-0.032239158	0.26452777	0.051040873	0.03447152	0.12728019	0.12919158	-0.38731077	-0.057620984	-0.057762027	-0.07177874	0.040779334	-0.0009793197	-0.03848601	-0.17181663	-0.04485718	0.009212984	0.16084926	-0.052842256	-0.04440796	-0.117363065	-0.011830329	-0.09895553	0.22588071	0.1281111	0.048622385	0.19682099	0.18836115	-0.2893884	-0.046035156	-0.021418186	0.32059637	0.030543732	-0.028407222	0.0108672315	0.17125724	0.21974044	-0.07664681	-0.16132046	-0.10118371	0.18401769	-0.09715742	-0.09169229	0.045209255	0.18734293	0.3325609	-0.097861886	0.03383197	0.12291804	0.19361484	0.043862995	-0.1394561	-0.015245993	-0.14830369	-0.09232894	0.179634	-0.06419651	-0.30483586	0.038008653	-0.34073812	-0.18133576	-0.102493174	
0.16735734	0.28640756	0.028373362	0.02412121	0.06480901	-0.09542692	0.08067631	-0.121433415	0.024199147	0.20337108	-0.004558145	0.29958075	0.019647721	-0.19924249	-0.116585225	-0.029663563	0.11716887	-0.013478871	-0.12325548	0.091504514	-0.10399321	-0.13883628	0.049189124	-0.2424315	-0.21633388	0.082975864	-0.38422307	0.03318602	0.010169957	0.29285726	0.031040205	-0.1063075	-0.17441837	-0.20137806	-0.040710457	0.2583587	-0.11710555	0.07415614	0.06641733	0.0033490553	0.022269815	0.07525917	-0.043996744	0.11070477	-0.1247078	0.08708018	-0.07279395	-0.0025754175	0.011894385	-0.12551858	-0.29174086	-0.015703062	0.24857599	-0.23609892	-0.0937337	-0.11067449	0.06935926	-0.16105296	-0.08039683	0.09269215	-0.05697856	-0.083959945	0.068214394	0.16989416	
0.08913464	0.013531424	0.009492634	0.004596527	0.104351394	0.052330468	0.2158714	0.036793277	0.1183315	0.10140874	-0.008889971	-0.11962115	-0.015832512	0.12927093	0.07684279	-0.11414931	-0.068995245	0.18849525	-0.1429931	0.1453924	-0.050726555	0.25255895	-0.017269205	-0.1347271	0.3758049	-0.01765001	0.0011314263	0.057193607	-0.17679287	-0.16146444	-0.05105075	0.084676266	-0.03423544	0.053503145	-0.13855822	0.008705425	-0.06312425	-0.084217235	0.042314008	0.08030256	0.015091147	-0.006945552	0.052821647	-0.19871755	0.31018528	-0.021424808	-0.046097834	0.049102098	-0.15356675	0.028697735	0.12957075	0.27582493	-0.20004411	-0.10088017	0.019034898	0.041940905	-0.06804705	-0.11938357	0.18801847	0.11735495	-0.07609408	0.0718814	-0.13919812	-0.107569344	
-0.05261051	0.0766384	0.30780616	0.07103029	-0.055902243	0.18673661	0.048347365	0.028545387	0.0716548	0.0862927	-0.1475298	0.17762524	0.035695504	0.13391532	-0.19881253	0.004317303	0.041596595	0.24094036	-0.14921664	0.036902368	-0.18629096	0.11507425	-0.028199028	-0.1230659	0.18208991	-0.2882405	-0.09633543	0.06667692	0.028411452	0.046515625	0.10250966	-0.1322506	-0.019704988	0.15899053	0.08258137	0.007821023	0.105678454	0.12809767	0.13804942	-0.06377057	0.0050382493	-0.07978413	0.060455464	0.08647683	0.08141118	-0.2043554	-0.100142695	0.10834894	0.22668326	0.13583057	0.18820584	0.009861173	-0.18850143	-0.19244042	-0.049699366	-0.1866706	0.083958454	0.12354258	0.09104633	-0.052123494	0.0028233854	-0.06556887	-0.044290483	0.05317839	
-0.100696385	0.22009948	0.09010085	0.089691944	-0.052214272	0.055496067	0.31196615	0.052776426	-0.06646714	0.38460663	-0.09955799	0.022058845	-0.029809114	0.0148232	-0.0071363593	0.08048988	-0.07852587	-0.20720337	0.20989776	-0.08754421	-0.00014989842	-0.07463113	0.029504463	0.10374811	0.013904468	-0.110777885	-0.12661563	0.10441492	-0.10995364	0.007533759	-0.060759325	0.2561204	0.10231473	-0.21469386	-0.014141666	0.07857034	0.054289415	0.29749158	0.043979708	-0.043045048	-0.033933986	0.24250671	-0.17582265	0.039610673	0.060490355	0.35581306	0.00655277	0.110499464	-0.16778927	-0.078098185	-0.12929122	-0.005538901	-0.16643293	-0.06507279	0.040011387	-0.08884981	0.03020608	0.031467773	0.14021036	-0.029596338	0.12725745	0.07215753	0.03813807	0.16345878	
-0.18014914	-0.21436119	-0.068035044	0.007636655	0.03748765	0.19230454	-0.012879003	-0.036550436	-0.13430513	0.076730594	-0.072044685	0.25208068	0.0706842	0.17749633	0.01992918	-0.039727807	0.042199444	-0.047747225	-0.3651132	-0.16337754	0.16129689	-0.047357917	0.11903256	0.084092006	0.06317844	0.0038988215	-0.06993479	-0.0035911559	0.07787817	0.03203833	0.096510366	0.044155553	0.30923778	-0.09371737	-0.3965393	0.025500285	-0.23420937	-0.08979615	0.10005657	-0.023480264	0.1593167	0.06464906	0.23886123	0.016794654	-0.029389372	-0.030259881	0.025107	0.15832232	-0.20489183	-0.047214564	-0.09446142	0.088278964	-0.096799344	-0.17326513	-0.04477156	-0.15217294	-0.3648017	0.07932148	0.121055156	0.030377991	-0.10492702	0.030660676	-0.14349718	-0.0028121169	
-0.042601127	-0.055897668	0.012801261	0.10058649	-0.02579298	0.025132023	0.09883693	0.036754273	0.09353136	0.104130626	0.31474823	0.18035327	0.15965678	0.0866777	0.15253729	0.14494178	0.0007725042	-0.21615867	0.10984501	0.17877479	-0.35679927	-0.08255671	-0.048893336	0.24863674	0.11405276	0.03364371	0.17400686	-0.08338995	0.014433163	0.036099646	-0.07858282	-0.16709623	0.15330282	-0.18327902	-0.18211558	0.22576243	-0.053049017	-0.035099868	0.19529271	-0.0976625	0.17725675	0.14214063	0.07039989	0.1838068	-0.12880905	-0.0077961795	-0.01369403	-0.06595421	0.013799181	0.040566545	-0.038389243	0.06210171	0.024019837	0.11042383	-0.084302664	-0.03160608	0.15308571	-0.0036155153	0.10461323	0.13710554	-0.04649634	0.12753849	0.19925874	-0.1597381	
0.017569097	0.18751827	-0.07172707	0.20570788	0.1252536	0.035408065	-0.14388792	0.2531681	0.010563143	-0.24785486	0.2258836	0.010762668	-0.0823387	-0.2396307	0.01028965	-0.39945102	-0.027757838	0.16044301	-0.05672208	0.22805919	-0.058552176	-0.04367198	-0.005342899	0.07431183	0.13127069	0.09113001	0.065736614	-0.08480557	0.009730051	-0.12778072	0.05945324	0.1346486	0.111798175	0.0918435	0.032558084	0.025480617	0.1718842	-0.08793536	0.09414243	0.14412628	-0.31926647	-0.03670963	0.010656703	0.23285416	-0.19428992	-0.37125653	-0.10606866	0.0068669873	0.10805853	0.398791	0.10663662	-0.33111742	0.19483612	0.093736134	0.113045745	0.21154255	0.07044706	0.10598535	-0.15492217	-0.0314291	-0.1290757	0.13037767	0.06330348	0.16300325	
0.016588315	-0.027566614	0.057401527	-0.089961536	0.14349805	0.07755519	0.0630436	0.044048604	0.043204453	0.11739763	-0.11439394	-0.10190571	0.10583838	0.1540174	0.035336733	0.27082178	-0.246639	-0.2823944	-0.014167767	0.22446243	-0.15552469	0.083214305	-0.038520467	0.03974341	0.16404262	-0.07797438	-0.09766331	0.037850358	-0.02693204	-0.03168192	-0.19686125	0.056247465	0.08534688	0.029987182	-0.24221641	0.039671246	-0.006684654	-0.0705444	0.08855732	0.1470372	0.22828862	-0.1091196	0.01211144	-0.08430426	0.118293755	-0.38987705	-0.33821684	0.00940307	-0.03882844	0.079012424	-0.008551681	0.017870206	-0.29205853	-0.052658565	-0.11675562	-0.109522805	-0.028512467	-0.010332736	0.029244304	-0.06372303	-0.15324011	-0.10267918	0.012189879	0.18071051	
0.12281566	-0.009634198	-0.04133108	0.110306144	0.062425632	0.044321682	0.0018766879	-0.06909994	0.010175883	0.2258191	-0.16535106	-0.0206556	-0.04808217	-0.19172215	-0.036719494	0.09660124	0.0032390114	-0.0507455	0.19938321	0.14278397	-0.608266	0.0064746523	0.012040837	0.059210625	-0.1412655	0.024075445	0.08101723	-0.037442	-0.017876307	-0.1310992	-0.32345274	0.11428148	0.08133521	-0.0023401733	0.15206139	-0.041615926	-0.029000208	0.110020325	-0.011996415	-0.055730667	-0.09376978	-0.080452465	-0.04336142	-0.08966887	0.039360292	-0.2172657	0.05099383	0.14288127	0.032839566	-0.12963286	0.10763834	0.24184091	-0.06330506	-0.19085233	-0.058408923	-0.072341576	-0.12675494	0.18922442	0.08279767	0.29429403	-0.007271178	-0.04013779	-0.09742924	0.10717973	
-0.003844295	0.12023979	0.17148589	-0.29529643	0.12697555	-0.09506893	0.011857369	0.02858015	0.20271456	-0.14010069	-0.08290468	-0.076167986	-0.07218647	0.11588436	0.021407258	-0.16075538	0.008900269	0.1051213	-0.038811628	0.012739457	-0.04238381	0.04155433	0.02161567	0.035960354	0.13998902	-0.101118356	-0.07811064	-0.29534933	-0.1322281	-0.032724954	-0.19319034	0.07527623	-0.0707932	0.24040799	0.06514864	0.12366494	-0.0042433767	0.24796712	-0.0031170235	-0.089515656	0.030833634	-0.11604743	0.21642616	-0.05385418	-0.13908148	-0.1392863	-0.13531569	0.020164797	0.10215038	-0.22621876	-0.16881245	0.15225005	0.043682843	-0.42592472	0.11562684	-0.37892538	-0.0281903	0.26520213	0.4443328	-0.16936506	0.091481335	-0.090449765	-0.1505175	0.26096326	
0.1197218	-0.19769894	-0.13094223	-0.06984473	0.003931445	-0.081830196	0.15822642	0.1570498	-0.12079875	-0.011030128	0.23501469	0.17577541	0.27966517	-0.15939659	0.05919907	0.23014331	0.013670438	0.016595727	0.045142584	0.26078188	-0.15856233	0.0363865	0.021398406	0.08974728	0.027177222	0.20872638	-0.05660593	-0.3004444	0.24762113	0.043126088	-0.066679865	-0.123069376	-0.098576374	-0.012173903	0.16359684	-0.00022135998	-0.13967443	0.016056275	-0.12420442	-0.018873664	-0.1561217	0.0015920937	0.10284838	-0.057875074	0.14254074	0.09449557	-0.13314934	0.20584224	-0.0565732	0.020456882	-0.1603654	-0.239894	-0.186405	-0.01534187	-0.010556586	0.20235974	0.045091994	-0.10143934	-0.1308551	-0.11644635	-0.07240156	0.30547184	-3.0699877e-05	-0.14780061	
0.098777115	-0.042920526	0.1287989	0.12605196	-0.058362696	0.04880749	0.029869886	0.02647521	0.20132245	-0.00040919022	0.046377525	0.029975789	0.09318118	0.015650785	-0.060414962	0.24899235	-0.081121325	-0.045888856	0.015256128	0.31474358	0.15837821	0.02678825	0.20957531	-0.02392922	0.061497845	-0.18603519	-0.16667302	-0.002213702	-0.16961159	0.16425052	0.07431756	0.043130606	0.019514875	-0.04116523	-0.04738001	0.048436455	-0.022269167	0.14217934	-0.07421833	0.007034874	0.031968284	0.003869812	0.052839722	-0.17374709	-0.04614859	0.18367808	0.01991079	-0.051353116	-0.0876665	0.095112294	-0.2091203	-0.12910157	0.12401787	-0.10629782	0.22260062	-0.20815933	0.19221178	-0.03302375	0.087648265	0.24175072	0.12070842	0.0002962471	-0.00807046	0.13046882	
-0.004509463	-0.07792833	0.025955139	0.000962899	0.16092703	0.07623374	0.043429844	0.034703273	0.05919959	0.11865546	-0.041202027	-0.066777594	0.20919195	-0.0024523102	0.066948175	0.23507576	-0.1699822	0.06359596	-0.03394152	0.14869747	-0.0039912867	0.11218747	-0.018988078	-0.017445289	0.021935862	-0.10152604	-0.04898166	0.027389878	-0.019028237	-0.043275695	-0.030240098	0.06278221	0.051028613	0.008708871	-0.02039604	0.025387926	-0.028126866	-0.07502672	0.016325675	-0.0060658706	0.20055409	-0.12643291	-0.18231288	-0.017767616	0.0016899314	-0.40194505	-0.26990366	0.03539277	-0.071926445	0.010779504	0.048796896	0.019749165	-0.26642707	-0.027227731	-0.019578014	0.10505009	0.0542149	0.00081750064	0.12324356	-0.015242416	-0.10354281	-0.06234407	0.09190083	0.21444808	
0.07918793	-0.19691628	0.10955217	0.04467234	0.12172031	0.070782274	0.10005794	-0.002630326	-0.088250145	0.038033858	-0.15163144	0.18698382	-0.26053458	0.13037658	-0.07456697	0.04453472	-0.035692	0.25446227	0.05776392	-0.14814523	-0.095495015	0.037700552	0.12637272	0.27091926	-0.28282025	-0.1146712	0.08107564	0.12307932	-0.0067789983	0.029243497	0.021098703	0.017094463	0.037440583	-0.06534991	0.21044089	0.095453024	-0.4151496	-0.08629511	0.19860663	0.015942514	-0.020708099	-0.06009399	0.25929037	-0.0073853517	0.056216642	0.1691282	0.08811154	0.06745393	0.43600145	0.0121049145	0.10359549	0.21854484	0.317584	-0.1298866	-0.36214834	0.04877136	-0.25370887	0.073974416	-0.19650269	0.14164154	0.20019773	0.15635198	-0.10053	-0.106189415	
0.2727969	0.02879076	0.005756813	0.020011017	0.2837545	-0.18436162	-0.24110714	0.005358929	0.13170812	-0.083024584	-0.016085334	0.29657173	-0.111063324	0.11143849	-0.053033467	0.018112356	-0.118206665	0.070532545	-0.057220772	-0.1854855	0.124259025	-0.013857074	-0.018656548	0.10015875	-0.43376118	-0.01840015	0.09199068	-0.08219236	0.026036961	0.12403812	0.053466894	-0.13249691	-0.10034898	0.055534557	0.021931905	0.0418241	-0.10426676	-0.11924441	-0.3285787	-0.042840317	-0.08661934	0.22925287	-0.027688926	0.04524323	0.2487104	0.22868527	0.11806647	0.20030563	0.18454973	0.17285024	-0.013236447	0.19487976	-0.03757503	0.026968932	-0.0756732	0.069850855	0.3711133	-0.28274477	0.12645957	0.010623026	0.03250803	0.16458051	0.08390852	0.0052833636	
0.24408607	-0.018222844	0.22755358	-0.043506984	0.039782744	0.22850668	0.0018730164	-0.16761771	0.2046789	-0.04933847	-0.15733336	0.15651344	0.104478575	0.052806336	-0.21043997	-0.087233	0.16833508	-0.08455021	0.030573275	0.21228607	-0.119800776	0.07547199	0.10076292	-0.011348024	0.12384654	-0.13635375	0.021408424	0.10932138	-0.10728041	-0.004206512	0.01303749	-0.20756774	0.03361879	0.037688594	-0.13894235	0.14972383	-0.21277937	-0.2287883	0.098112196	-0.033988144	0.022575827	-0.029589815	0.081645906	-0.01503623	-0.08010732	-0.13817662	-0.12504421	0.07557366	-0.042800024	0.18212757	-0.1998592	-0.13970862	-0.045212112	0.27474838	-0.039824713	-0.09891318	0.029425677	0.0056685624	0.24307266	-0.12446381	0.07868691	-0.16935873	0.21821237	-0.0011547687	
-0.12764113	-0.16624318	-0.13441665	-0.067673385	0.03745374	0.04004689	-0.02051367	-0.24575776	0.073337264	0.026341263	-0.044805247	-0.15037677	0.1525419	-0.10270511	0.09602593	-0.28572252	-0.3595653	0.041647892	0.0051660794	2.7340318e-05	-0.08858037	0.0902375	0.18849051	0.003889368	0.09621287	0.15755773	0.06433298	0.068664655	0.19736952	0.053960435	0.014082078	0.0013935975	0.07764639	-0.2655787	0.06053607	0.19087242	0.0737435	-0.08613506	-0.22313385	-0.10547557	0.22639163	0.14282407	0.16845743	0.029248929	0.057522297	-0.32549188	-0.056532595	0.06044489	0.025319565	-0.1486884	-0.02338821	0.104523465	-0.012257992	-0.0018903388	-0.21458216	-0.08447698	-0.22818457	0.24962401	0.21013695	-0.08871036	-0.012241581	-0.13739742	0.3123766	0.08846057	
-0.00013691561	-0.075622976	0.027353896	-0.077852085	0.0031238033	-0.016469918	0.06896016	0.15760729	0.10388634	0.04446677	0.019650474	-0.10335041	0.057670265	0.05226464	0.009443759	-0.014224751	-0.17193052	-0.017135607	0.06174073	0.19715133	-0.15610762	0.0266703	0.03305408	0.12179005	0.16167563	-0.06779608	0.033727743	-0.012498106	0.058263913	-0.020142263	0.1180553	-0.027888931	0.14151013	-0.023960527	0.16293968	0.034230527	0.009496154	0.13560985	0.10209809	-0.063314416	0.23760922	-0.08729066	0.008135102	0.075861625	-0.008203458	-0.27613038	-0.24588525	0.07262047	0.03390544	0.05515734	0.01372735	-0.1345234	-0.30229253	-0.042538952	-0.16336067	0.095217325	-0.13708796	-0.024253162	-0.013371726	0.25548783	-0.13639201	0.021924185	-0.077551626	-0.056016833	
0.2922629	-0.039931513	0.13738717	-0.061229575	-0.053941205	0.20644104	-0.046518248	0.17904194	0.1997037	-0.025872594	0.28194818	-0.10878408	-0.023147555	-0.1936823	-0.15456098	0.0042596404	0.09222657	-0.08182919	0.07102812	-0.16537662	0.20892853	-0.04020083	0.1295196	0.14380543	-0.023945667	-0.15239982	0.14813423	-0.34623602	-0.03766261	0.22173926	0.013221295	0.13998586	-0.04858769	-0.0111553185	-0.042772975	0.1952649	-0.09404247	0.09406617	0.09817838	0.1844203	0.25694492	0.1302503	0.0020539176	0.118451625	-0.004370628	-0.13446556	0.17677096	-0.08745676	-0.10845564	-0.22304942	-0.04440475	0.09364967	0.042012192	-0.14580104	-0.058638968	0.064600185	-0.1649097	-0.12555626	0.09978197	0.061699163	-0.087927274	0.13015004	0.09080279	-0.054807935	
-0.046080958	0.12526825	-0.07975343	-0.023828158	-0.087370604	0.039775625	-0.015382418	0.030066507	0.072514065	0.1041721	0.067459196	-0.096178845	0.278191	-0.19708213	0.1410345	0.07522822	-0.016366797	-0.024633583	-0.054604545	0.06214612	-0.068101734	0.007287049	-0.0417733	-0.03620579	0.045404904	-0.010763476	-0.051111687	-0.044354904	0.002515552	-0.06093891	-0.101804174	-0.021283783	0.0066950284	0.06144615	0.02336738	-0.011961978	0.07951959	0.06663009	-0.077699706	0.010659223	0.15214415	0.043745555	-0.33448347	-0.025662081	0.041074138	-0.19695762	-0.19354431	0.011488128	-0.32031593	-0.009967209	-0.075725526	-0.10745487	-0.3094978	0.04060627	0.06538531	-0.07722138	0.12993728	0.03871763	0.062373865	0.008925617	-0.03098197	-0.07728524	0.022207381	0.062262088	
0.19423129	0.33853316	0.079255596	0.13893318	0.15702578	0.18940529	0.24148335	-0.009240586	0.04493088	-0.33880702	-0.18056536	0.10083934	0.058186527	-0.04340324	0.49657196	-0.23549502	-0.035854552	0.023517542	0.037072975	0.13809761	0.07838476	0.30549112	0.12640525	-0.28799105	-0.49625275	0.16142674	0.1314126	-0.07800774	0.36019954	0.07049852	-0.014220015	0.41444102	-0.054948788	0.05652808	-0.0074459235	0.45323223	-0.3195057	0.12041718	0.047421213	0.14630139	0.05543308	0.4970414	-0.019312948	-0.14083762	-0.24337356	-0.29920378	0.03257192	0.008853001	0.036868036	0.23796305	-0.005218732	-0.20292899	0.12915936	0.37214813	0.16673346	0.21991247	0.0010841743	0.13227883	0.012605654	-0.55490637	0.39497465	0.31937525	-0.02241612	0.030041734	
0.02037444	0.025116522	-0.6144935	-0.14163513	0.13228029	0.035909798	0.23221919	-0.03332955	0.042734	0.058487754	0.06562094	0.020532606	0.21906564	-0.23015347	0.36869273	0.053269126	0.032687604	0.075662605	-0.075311355	0.08447003	-0.04087562	0.3240896	-0.06584913	-0.30783653	0.111898325	-0.0065443586	-0.20613177	0.19665274	0.33175617	-0.04990528	-0.036140952	0.110981055	0.13084252	-0.062281456	-0.10701508	0.037972413	0.05211061	0.30881298	-0.21971467	0.09415175	0.057004586	-0.14397328	0.008743137	0.06853594	-0.09418914	-0.21457964	0.049507894	0.07917712	0.22099179	0.21487398	0.016467039	-0.07499321	0.015249518	-0.28691453	-0.24482039	-0.23329532	-0.1990101	0.3838408	0.16611187	0.117112815	0.25891858	0.07378223	-0.33752677	0.08981959	
-0.016393667	0.20115273	-0.03354389	-0.07975029	0.08728086	-0.1313708	0.11456475	-0.017257033	0.14943478	-0.013154908	0.32646534	-0.08144403	0.0030379049	0.095369935	0.07864975	-0.31140196	-0.007296413	0.11370121	0.07916251	0.069846824	-0.19944698	0.030041175	0.033952456	-0.032174177	0.15299277	0.11500902	-0.00015325526	0.1045005	0.06890652	0.20640308	0.15907118	0.08103726	-0.00855759	-0.5091093	-0.055364624	-0.11919875	0.18646966	0.10350712	-0.24165784	0.17356853	-0.16818094	-0.044601697	-0.14626876	0.17538393	-0.05194101	0.19153793	-0.15085347	0.022694455	0.047492374	0.13348597	-0.15276985	-0.00014559692	-0.033564623	-0.003468605	0.00165356	0.031242542	-0.014049305	0.054129258	-0.055851728	-0.16209501	-0.26254496	0.13062756	0.030766672	-0.26442197	
-0.36026284	-0.016154025	0.020627756	0.0035100544	0.34368554	-0.043737337	0.060899965	0.14808512	0.065604895	0.11882956	-0.08926976	-0.0800463	-0.14006469	-0.032285117	0.13378602	0.20776446	0.27195466	0.14149159	0.068076655	0.2418022	-0.050935242	-0.16084513	0.0747975	-0.15130517	0.12366185	-0.0851556	0.32388625	-0.19069052	-0.17914721	-0.2695814	-0.077161275	-0.18467009	0.18000436	0.12445097	0.13124703	0.047693964	0.15762661	0.0816165	0.032587882	0.12461868	0.049514797	0.040083893	0.024346562	0.013554708	0.0015279334	-0.2412144	0.037037987	-0.05285857	0.048340276	0.006824266	-0.04777579	-0.04992685	-0.25635758	0.006889502	-0.03384532	0.1508047	-0.2022295	-0.27512386	0.06817429	0.14062184	-0.17314292	0.07548853	-0.03012427	-0.11405077	
0.44608283	-0.1693788	-0.20573959	-0.0826311	-0.096199125	-0.12156499	0.24583639	-0.23015031	0.044747807	0.24067423	0.026663695	-0.13379441	0.18676868	0.14501724	0.1276448	0.24472733	-0.211521	0.06879997	-0.2445617	0.07344732	0.0681503	-0.25958768	0.02258864	-0.33296946	-0.17534028	-0.09247422	0.17809452	0.19323924	-0.18707375	-0.15640396	-0.47269425	-0.18873696	0.051925056	0.12667133	-0.08048996	-0.15494135	-0.13507755	-0.017146096	-0.13181034	0.5448921	-0.008617306	0.013739121	0.43115154	-0.08302561	0.04742313	0.40187857	0.06417582	0.0552425	0.015127663	-0.08399292	0.3518013	0.468101	-0.059430514	-0.028700422	-0.0062755705	0.07926884	0.13071026	0.20220022	-0.18777317	-0.10521909	0.22334813	-0.010374824	0.01957077	0.24823079	
-0.011208011	-0.30373594	-0.19408697	0.048093	-0.23606159	0.12317496	-0.024160517	0.008447353	0.04241909	-0.17924105	-0.15289071	-0.013252565	-0.041627783	0.0067671225	-0.0641903	0.10200467	-0.017650694	-0.26254386	-0.05891923	0.19396856	-0.057408575	0.2221838	0.18880528	0.08574235	-0.036668662	0.022085888	0.014888452	-0.009046578	0.08125968	-0.09567568	-0.07918033	-0.22433029	0.23119745	-0.13787946	-0.07410392	0.13160406	-0.18185736	0.06514728	-0.40966907	0.24529451	-0.04255261	0.18731265	-0.09959863	-0.053368237	-0.051256686	0.15259823	-0.021397457	-0.045513876	0.2470579	-0.15155451	-0.010464253	0.030191984	0.25052238	-0.098204896	-0.04309422	0.063121416	0.1506098	0.114132226	-0.15227288	-0.21699604	0.036114987	-0.1985269	-0.12544684	-0.19641551	
0.083013326	-0.029211206	-0.15930188	-0.2818152	0.07542379	0.27860016	0.07359877	-0.06615826	0.15995204	-0.006733296	0.08300817	0.054473314	0.0022524905	0.035756044	-0.034681965	-0.06676315	-0.13902578	0.035584375	-0.28301618	0.0954548	-0.110639505	0.17374799	-0.21771717	-0.14698967	-0.097583674	0.213934	-0.21863855	-0.10490874	-0.25829184	-0.083677515	0.18391328	0.056550004	0.08487034	0.042710327	-0.13252033	0.001990997	-0.1870383	-0.19860493	0.034994155	0.0299256	0.12825528	-0.10534705	0.27749306	0.00030739547	0.25822663	0.05960702	-0.17597575	-0.15743946	0.111893676	-0.12198242	-0.1551072	-0.052740183	0.11116502	0.24323516	-0.02248552	-0.20185637	0.06634971	-0.100941785	0.16529858	-0.15967932	0.13440749	0.01875682	0.10513648	-0.04987697	
-0.036722507	0.19101799	-0.20904987	0.019124703	-0.15356372	0.08743358	-0.0030016843	0.09028149	0.00072104443	-0.16855405	0.12764606	0.15255752	-0.021869639	0.10876025	0.020839898	-0.15384297	0.18225044	0.22541441	-0.09044596	0.12670769	-0.16715555	0.22539853	-0.114709385	-0.27582398	0.10471181	0.09340838	0.14782238	0.12173705	0.069392845	0.093468376	0.028243154	-0.13904214	0.07863357	0.22655475	-0.10588935	0.11666162	0.03706602	0.059817456	-0.09789275	-0.03238682	0.059294377	0.014934442	0.094500706	0.25376064	-0.18301077	-0.16584681	0.23877442	0.080092326	0.08783224	-0.16437702	0.21680929	0.26792204	0.24774338	0.15471153	0.06441809	-0.12816532	-0.13025166	-0.051984016	0.056829162	0.15015976	0.06953734	0.12807716	0.12854342	0.00664516	
0.010150078	-0.08954687	0.044988085	0.28462014	0.0705868	0.16884324	0.005099197	-0.20787625	-0.22988908	0.0322259	0.3557477	0.20359012	0.34033573	-0.15810241	-0.14767604	-0.0709909	-0.079601	-0.013823776	-0.4300296	0.014655462	-0.08490863	0.011446492	-0.059278745	0.006826492	0.014882841	-0.3221076	0.28344956	0.04639711	0.03500616	0.17674425	-0.12539902	0.12978896	-0.21187265	0.3028516	0.16967581	0.17449886	-0.031796075	0.034483716	-0.21882324	-0.14209798	0.044783704	-0.048590466	0.08278442	0.0750572	-0.102775045	-0.053913936	0.12689582	0.20957363	0.036655124	0.15136124	0.20283058	-0.12092969	0.02094082	-0.11802876	-0.032389544	0.03949386	0.21011917	-0.013764331	-0.05289559	0.17680801	-0.008796109	-0.114109725	0.25256377	0.087771825	
0.16335785	-0.16908717	0.1548974	-0.15352455	0.096333034	0.3287282	-0.11290087	0.010628532	0.17259796	0.06150718	-0.030676002	-0.10102695	-0.5896592	0.24292205	0.114513576	0.07081821	0.037070975	0.108365715	0.09228965	0.26052946	0.08521661	-0.11925172	0.022146227	-0.08370517	0.13691725	0.030942954	0.11832643	-0.089721695	0.1693334	-0.16101654	0.16486907	0.1800355	-0.011763475	0.10282056	0.041988745	-0.10906962	-0.13844033	-0.056111787	0.13426985	-0.19267842	-0.14494726	-0.092491254	-0.13800366	-0.14545143	-0.038145605	-0.20239204	-0.119469255	-0.22712398	0.19575486	-0.70161843	0.17567399	-0.117542535	0.03087159	0.16174608	0.09716758	-0.053860318	0.2584789	-0.0005544323	0.22591093	-0.06983753	-0.13394442	0.049592055	0.07875739	0.10547273	
0.013673141	0.14616573	-0.17419183	0.054535996	-0.18751375	-0.23316418	-0.07697751	0.026151882	-0.09921055	0.1669241	-0.085289694	-0.041057844	0.10714734	0.049528558	0.01821439	-0.2168353	0.13024019	0.22987182	0.05873161	0.07923313	-0.0056716697	0.046678536	-0.027885098	-0.69939965	0.12370866	0.2250923	0.16645265	0.05948125	0.12901254	-0.039772056	0.03091462	0.082748406	-0.09109032	-0.17224607	-0.16233723	-0.060359728	0.051616225	-0.104998045	-0.024021015	-0.066062465	-0.04620373	0.03563088	-0.1331975	0.06348701	-0.006194403	-0.053444065	0.19591507	0.1822542	0.1301478	0.064256325	0.06577535	0.032514818	-0.08411578	-0.06324597	0.30896884	-0.03678272	0.07460838	0.11134884	-0.13013741	0.01666696	0.017225778	0.25390336	-0.0023161103	0.19466431	
-0.074550234	-0.12825502	-0.018963648	0.017601952	0.073192276	-0.1820543	0.033144217	-0.092812665	-0.059845492	0.01197024	0.013320736	-0.18571831	0.04821436	0.07726307	-0.19059604	0.29874164	-0.02258639	-0.24842852	-0.1046565	-0.058066502	0.17607282	0.20786045	-0.17357455	0.022561964	0.0025918714	-0.07319977	0.08018604	0.00393897	0.18965036	0.05318566	0.109645754	0.11738617	-0.052783318	0.0049796207	-0.059826307	0.32265714	0.0032980589	0.15602532	0.004408984	-0.028933188	0.14820239	-0.18738821	0.22096005	-0.14134848	-0.19858563	-0.15940753	-0.028896047	0.06094996	-0.104467966	0.04392024	0.16905853	-0.12321913	0.16985723	0.11633639	0.083976105	0.19795167	-0.0016708432	-0.030233867	0.11128398	0.15812583	0.024108805	0.027695125	-0.21089485	0.033463273	
-0.14403251	-0.006917198	0.10181168	0.23139128	-0.20468378	0.08945205	0.015807096	0.012352911	0.028748637	-0.024539877	-0.11184851	-0.22785106	0.11016824	-0.23888724	0.055078134	0.018969275	0.19744381	-0.112528734	0.120230645	-0.0005641528	0.20710787	0.20442265	0.26689723	-0.15495911	-0.016506534	-0.14993423	0.107319094	-0.22485729	0.1558227	0.10262598	0.19885723	0.0033355728	0.19334084	-0.119970344	0.0813468	-0.16051784	-0.027453609	-0.18159334	0.026507685	-0.02259419	-0.0076836073	0.13654855	-0.14394388	-0.1034622	0.049611263	-0.15324348	-0.038244385	0.30972585	0.06695037	0.1206955	0.097809516	0.16065499	0.013293164	-0.05400876	0.027920416	0.073113784	0.011693573	0.31507224	-0.14766903	0.021120027	0.10917816	0.19109254	0.0471821	0.051280502	
0.17517588	-0.051016096	-0.16844144	-0.33885756	0.04117731	-0.02821226	0.09791056	0.07593315	0.015797503	0.074328125	-0.08352498	-0.02741518	0.22490822	-0.010737896	-0.062712766	-0.024751004	-0.06460339	-0.17490314	-0.45880234	-0.1567112	0.07683725	-0.06142682	0.08006845	-0.12767668	0.16654198	-0.040545408	-0.100740366	-0.13898063	-0.1370156	0.13798392	-0.051538825	-0.042328253	-0.020207208	-0.22762527	-0.025410658	-0.07670529	-0.0073892893	0.07648184	0.19811031	0.1787658	-0.071069025	0.0843826	-0.12812792	0.16529457	0.16925684	0.028838873	0.09641042	-0.08251843	-0.21398368	0.07720866	0.11763732	-0.1485318	-0.16480143	0.18627797	0.14892311	-0.4789404	0.17465045	-0.19412148	-0.16473724	-0.049284674	0.16378537	-0.043477602	-0.027550638	0.05627614	
0.033023536	-0.132623	0.083103746	0.01740594	0.32788926	-0.119148605	-0.116543315	0.11595068	-0.010056385	-0.24082099	0.02081199	-0.018655283	-0.100427814	0.07040136	0.089454405	-0.04341007	-0.04970917	-0.03937405	-0.08600266	0.15969843	0.099346586	-0.2611645	0.010471594	0.0027323244	-0.040409222	0.0030963486	-0.01567999	-0.112892345	-0.085039385	-0.057077754	0.17084745	0.33862013	-0.060552534	0.1853466	0.01861662	-0.028616317	-0.19070098	-0.19267856	-0.010054106	0.16778195	-0.073542945	-0.003938194	-0.124292515	-0.094826385	0.044178396	-0.149944	-0.06867415	-0.19543242	0.078238264	0.10733877	0.086805016	-0.05737186	-0.002493843	0.07754647	0.0022831399	0.13811782	-0.009581794	0.08115253	0.028461197	-0.0868126	0.3442312	-0.13235855	0.20519456	-0.065901056	
-0.0077630216	-0.08375344	0.0101053575	0.13301022	0.016863585	-0.20854165	0.034618005	0.16682315	0.026818175	-0.058846124	0.01534721	-0.15111747	0.040697806	0.008845756	0.2359538	0.12283024	0.037013818	-0.019265437	0.047557026	0.23551965	-0.08287683	-0.1247449	0.13349679	-0.07360676	-0.009438696	-0.15551965	-0.015032429	0.017195465	0.11944726	-0.057923738	-0.061349455	-0.0903616	0.12077446	0.045151904	0.164648	-0.09262247	-0.08653976	0.026670992	0.050598357	0.1674252	0.005619974	-0.09175506	-0.08171266	-0.0061042164	-0.17406033	-0.37888205	-0.022597892	-0.05375208	0.013792549	-0.06922998	0.17957243	-0.078726575	-0.08612671	-0.009331069	-0.04766613	0.08092031	0.01744108	0.07084561	0.19074264	-0.20605841	0.15378	0.06844444	0.1884288	-0.05533599	
-0.058406428	-0.24393961	-0.073493786	-0.23007591	0.24947129	-0.17475677	-0.012541856	0.0043741656	-0.0018007649	-0.0074792784	0.07155961	0.29829106	-0.006482414	0.21383025	0.120767236	0.020934049	0.14310154	-0.1036611	-0.0010162691	0.007954649	0.18902336	0.07809531	-0.05771463	-0.09841438	0.081243694	-0.12054751	-0.121520914	0.18305773	0.11801788	-0.017827628	0.043700572	0.122679755	-0.0015350425	0.43400046	0.10779431	0.00018349657	0.059603516	0.047831208	0.3523361	0.036279812	-0.19849762	0.3275842	0.18903165	0.015738795	-0.098875195	0.1738568	-0.23531756	0.0068421047	0.13059027	0.026601112	-0.057106636	-0.059993435	0.031987157	-0.014521893	0.16229959	0.26192588	0.017261531	0.013427644	-0.020383846	0.11365173	-0.10927291	-0.011512697	-0.029304152	0.012144299	
0.04743878	-0.044864513	0.06980648	0.38685042	0.078545	0.00081113074	0.11365521	-0.124811135	-0.030320976	0.3269403	-0.11714396	0.2243152	0.30469015	0.18395834	0.0658612	0.13272505	-0.11866092	0.0022846994	-0.12470317	-0.08289456	0.117584124	0.299736	0.20120268	-0.14473845	-0.015397365	0.06740361	-0.16231899	-0.057414837	0.19711772	0.09202356	0.014773179	0.06698677	0.27675638	0.08978565	-0.08741159	0.08542257	-0.11115072	0.029556645	-0.018504865	0.027002376	-0.18604937	0.036898606	0.13429622	0.2757847	-0.097917706	-0.017001998	-0.35067183	0.0010411366	-0.0071639135	0.095968656	0.19496894	0.13302372	0.27994636	0.025017755	-0.04945743	0.040791206	0.051387858	0.20944229	0.03717177	-0.020042198	0.104522794	0.02511821	0.25973243	-0.07123855	
0.18119352	0.10666236	-0.13397256	0.008483551	-0.013243833	-0.010943039	0.07887999	0.0498309	-0.061128955	-0.14131355	-0.054354943	-0.20379026	0.06887854	0.016834183	0.0812825	-0.12064608	0.22126715	-0.15502633	0.15034655	-0.07512538	0.019890364	0.1344711	0.07367566	0.14488962	-0.1651826	-0.07038759	-0.15548559	-0.108531795	0.05651531	-0.14350167	0.31309146	-0.034055915	0.07344143	-0.122401826	0.15485358	0.05268257	-0.31010503	0.05289415	0.1495205	-0.060763493	-0.048579574	0.022896776	-0.0034618124	0.021500973	0.008373066	-0.27972546	0.09708111	0.08156935	0.2052348	0.09862114	-0.1453019	-0.13085066	-0.059963122	0.07293355	-0.0773356	0.056674052	-0.14406848	-0.21625404	0.05850666	-0.08596972	0.1969671	0.24105173	-0.45924443	-0.038663235	
0.039658237	-0.084851034	0.08262734	0.069853485	-0.107365794	-0.18272461	0.115317434	-0.09231828	0.06835872	0.09791819	0.00019755526	0.102771424	0.0084711695	0.15393154	0.28324825	0.03783372	-0.11307293	-0.064773746	-0.23201144	0.019183133	-0.09014184	0.14266543	0.13438867	0.20983113	0.048625544	0.24873851	-0.051747624	0.1036283	0.080473095	-0.18529892	0.022947459	-0.19037446	-0.008635779	-0.01749127	0.042110085	0.050254896	-0.13377334	-0.20294474	0.12657705	0.19581985	-0.06092323	-0.13954248	0.10382121	-0.09006774	-0.1843927	0.08655254	0.038655076	0.076092996	-0.3524179	-0.2527878	-0.021874705	-0.001298381	-0.06524163	0.12007864	-0.010125878	0.019803965	0.06067938	-0.10836737	0.15782927	-0.2175467	0.065073766	-0.16888765	0.17397946	0.06962763	
-0.004220404	-0.083170496	-0.062938094	-0.33957046	-0.015298227	0.26650712	0.0154779265	0.09847165	-0.11039099	0.031612657	-0.037420213	-0.100147165	-0.13340144	0.020498475	-0.16282785	-0.02663836	0.00644538	-0.20144887	-0.047600623	-0.07937472	-0.03877194	-0.022098124	-0.28896397	-0.055898942	-0.10230618	-0.020776886	-0.045856822	-0.20747231	-0.21096362	0.05626184	-0.31909865	0.07920668	-0.11767851	-0.10774711	-0.14837441	-0.003287638	0.076975316	0.11741058	-0.20745617	-0.24967821	0.030391583	0.057640154	0.050225433	0.18479644	0.043124188	0.0117693385	-0.16791952	-0.05272299	0.16941823	0.08346539	-0.1359169	0.18670557	0.040546183	0.03756304	-0.060680315	-0.09970244	0.004365426	0.17176574	-0.020010902	-0.101950176	-0.064252876	0.25304335	-0.3262863	-0.17741963	
-0.15241167	0.2781294	0.17411382	-0.007994269	0.037566416	0.008764087	-0.022576712	0.06887692	0.22849786	0.08722083	0.14123227	0.039325494	-0.08897747	0.07969473	0.018770272	-0.03450584	0.06599599	0.11533946	0.1140592	-0.048541587	-0.1220254	-0.128181	0.32237533	0.2378087	-0.06417424	-0.048857514	0.041587655	0.040906977	0.08133576	-0.0778386	-0.17181772	0.07720414	0.066997655	0.1261272	0.3963144	-0.07391235	-0.17212947	0.08288751	0.161531	-0.0867883	0.093876034	-0.019116601	0.12068934	0.05961062	-0.12372511	-0.05022848	0.02917112	0.04101276	-0.10120093	-0.04130698	-0.008985544	-0.10401553	-0.055715706	-0.12794684	0.038238514	0.11384004	0.013618664	-0.15354463	0.14229326	-0.19813333	-0.13055791	-0.24399278	0.14355868	0.05602747	
-0.119446225	0.058393855	-0.21816254	0.32731354	-0.12636596	0.08429396	0.040090356	-0.30205786	-0.038639396	-0.07115275	0.09472429	0.19979851	0.10479976	-0.018770522	-0.252839	-0.03364082	-0.0746478	-0.24454993	0.20229259	0.04008782	0.06753338	0.24104975	0.05611177	0.007902815	-0.070141956	-0.0011352523	0.17350887	0.07272196	0.0901847	-0.095129654	0.25938663	-0.10453324	-0.20770863	0.18357515	-0.0583507	0.07838042	-0.10076922	-0.034139935	0.22247553	-0.47253877	-0.32564822	-0.0004673547	-0.0907151	0.076092415	-0.017410452	0.004075946	0.1564711	-0.029269047	-0.29005164	0.19882731	0.0692459	0.3066235	0.23780656	0.15371099	0.10293701	0.14698236	-0.29624146	0.02909336	0.20476021	-0.17724195	0.09219291	-0.09769074	0.12030838	0.09834735	
-0.043585386	0.024610834	0.10465013	-0.017328678	0.16738656	-0.1928453	-0.09192417	-0.019865444	0.12084742	0.10573648	-0.13792902	-0.14584367	-0.2238918	0.22939482	0.08546517	0.052372407	-0.15373293	0.1805366	0.08901733	-0.14199135	-0.072589815	-0.3177187	0.036437653	0.16921651	-0.02586611	0.0039561065	-0.022758963	0.028487852	0.04748303	-0.079968065	-0.10363593	0.3059061	-0.1321013	-0.1612789	-0.027307203	0.29204574	0.00885427	0.06182857	0.100307226	-0.13957116	0.21758728	-0.07784512	-0.11980003	0.16139688	0.0032924316	0.33442664	0.07079295	0.0054351054	-0.08790403	0.08035349	-0.0033737624	0.1641653	0.109619476	-0.02008033	0.02087187	0.08879394	-0.06139071	0.03414444	-0.02978115	-0.1584347	0.023410637	0.009681638	0.06418441	-0.23578812	
0.11687229	0.093319476	0.037646204	0.13220668	0.059667997	0.0046994123	0.08602189	-0.34633154	0.2715738	0.13755764	0.03877692	-0.0066683944	0.03295057	0.064357676	-0.107096	-0.02807886	0.13584027	0.16472848	-0.25941342	-0.17391899	0.3362479	-0.00571158	-0.023355449	0.11045343	-0.1021655	0.080903545	0.0051167943	0.07930769	-0.42807683	-0.019843321	-0.22937283	-0.072039895	-0.013060792	-0.18341392	-0.005249083	-0.062655844	0.08466758	0.07286837	3.7658745e-05	-0.13464576	0.13598835	0.03752395	0.10249157	0.19565749	0.2589	0.1451258	0.062443733	0.018794473	-0.12550181	0.20934188	0.078329235	0.11842854	-0.22331953	0.24914272	-0.12962915	0.030266967	-0.114628784	0.09746214	-0.14918877	-0.11223882	-0.04225392	0.048649732	0.12418943	0.07553957	
-0.06905135	0.07282258	0.04307895	0.07618076	-0.115139596	-0.1415685	-0.12246431	0.033851653	-0.14189874	-0.09165158	0.10411487	0.0939298	-0.32579985	0.12932548	0.096940406	-0.18800843	0.022985382	-0.14445198	0.1239707	0.09404072	0.119155794	-0.08749155	-0.0695468	0.1405621	-0.0231096	0.039114017	-0.14245516	0.056892868	-0.021929557	-0.04438096	-0.054788116	-0.0423241	0.18024656	0.022904614	-0.1276805	0.19835968	0.051956426	-0.1490828	-0.3109848	0.072880946	0.023127023	-0.05885407	-0.10499022	-0.027725449	-0.10645672	-0.10935027	0.0031614886	0.054957315	-0.05101777	0.17113191	0.017889163	0.27505064	-0.24932823	-0.21490467	-0.1024529	0.03662911	-0.05028868	-0.16659486	0.25124145	-0.011241511	-0.10408618	-0.090094715	-0.16437323	-0.058855787	
-0.33813122	0.14461294	0.35833785	0.27440295	0.11783494	0.07465636	-0.3735721	0.12888955	-0.07827735	0.0075453906	-0.06988339	-0.17363346	0.08547712	0.022701489	0.101081766	0.062658854	0.09291774	0.0080939885	-0.069791645	0.018892623	0.013992504	-0.04567032	-0.039001994	-0.07034526	0.007864424	-0.24433161	0.17323172	-0.35705286	-0.093024015	-0.28658858	0.07309749	0.32585382	-0.24200511	0.18201765	0.10435319	0.30290684	0.16127242	0.05999661	0.16686325	-0.021974567	-0.22673231	-0.368024	0.16055544	-0.006350998	-0.044568606	0.14213596	-0.39099163	0.022579366	0.10104824	0.29226896	0.03759451	-0.13107148	-0.06661869	-0.13891003	0.0823389	0.31697622	-0.13590567	-0.061414037	-0.04319992	-0.20693107	0.110212296	-0.109638706	0.20777744	0.206816	
0.12723444	0.2916399	0.20555127	0.27348396	-0.1353715	-0.11171707	-0.005358361	0.22312456	0.12346718	0.0056864684	-0.13054259	0.08391958	0.28042874	0.1667777	0.16175641	-0.036771547	-0.14862312	0.18102174	0.044392664	0.054735098	-0.2149616	0.09271499	-0.0065874485	-0.15075393	0.016211394	0.11909639	0.06870556	-0.102534324	-0.05296714	-0.16314392	0.279716	-0.10524577	-0.11360508	0.062267184	-0.23277852	-0.051233657	0.062590815	-0.020150363	-0.066133045	-0.0005796353	0.035235748	-0.04524791	-0.14036614	-0.114879645	-0.11209924	0.08839516	0.060814254	-0.26255178	-0.23159851	-0.032626603	0.06088762	0.08736364	-0.17695175	0.2349604	0.17368639	-0.098606564	0.108107366	-0.16429079	-0.13738982	-0.20330504	0.08883196	-0.03779669	0.23383391	-0.21080239	
-0.08728613	0.28510657	-0.121131465	0.035361566	-0.02693151	0.060284536	0.180758	0.20467754	0.22723383	0.047287125	-0.09506221	0.1379092	-0.030885495	0.4235719	0.091112025	0.21152389	0.19158338	0.20140001	0.01375626	0.12003921	-0.050975405	-0.08905477	-0.12522186	0.25441688	0.06251804	-0.13382885	-0.166564	0.1704876	-0.038472563	-0.08763223	-0.23820913	-0.10823699	-0.21421906	-0.060005523	0.07124781	-0.12242563	-0.07589646	0.032949623	0.1719508	-0.5476014	0.045288734	-0.15765803	-0.034286574	-0.14524826	0.07980312	0.032039784	0.053776048	0.06708772	-0.05792421	-0.047356527	-0.20957442	0.16290364	0.14005814	-0.23176837	-0.03550466	-0.13136385	-0.08561057	0.18248263	0.2380843	-0.12545393	0.034064833	-0.07248245	-0.073993035	-0.09154481	
0.07852332	0.021568906	0.2911169	-0.17834963	-0.099296495	0.025886169	-0.023073506	0.07956667	-0.10247433	0.15357463	0.09871811	0.15753612	0.0787472	-0.17843725	-0.03101688	-0.10251598	-0.021037865	0.2089643	-0.029716264	-0.12414121	0.027251622	-0.043883923	-0.08105272	0.027951974	0.002542557	0.032439005	0.18129693	0.11014759	0.18033975	0.10033799	-0.07869324	0.14507373	0.007037971	-0.20781891	-0.018235747	0.0037822363	0.23242259	0.13633108	-0.031611066	-0.36617038	-0.14222358	-0.053143743	0.024218563	-0.04372161	0.025305025	-0.13434745	0.10698103	0.16757569	-0.08446637	0.22664692	0.24628359	0.2637289	-0.11013994	-0.27623197	0.030102046	-0.055359475	-0.2052179	0.06625387	0.028907886	-0.1629257	0.056830257	0.16975991	-0.027423086	0.080462605	
-0.00063508534	-0.16297533	-0.13699828	-0.1077447	0.24435467	0.1580463	-0.111301124	-0.24468176	0.23421521	0.035785712	0.0026045993	0.17989802	-0.44300583	-0.038655773	0.132554	0.02245378	0.2004976	0.038544998	0.036874894	-0.0673113	-0.043846264	-0.12697521	0.0636961	-0.1063719	0.004948035	0.17802249	0.1445229	0.12818384	-0.0062544863	-0.14075443	-0.15861772	0.00713014	0.019985722	0.23209846	0.24635808	-0.112790056	-0.106868334	-0.030412134	0.08189663	0.12289674	0.08017956	-0.4105066	-0.19330993	0.2636915	-0.049444806	-0.2914608	0.14844318	-0.11703407	0.11774957	-0.31165004	-0.09616208	-0.11457784	-0.09762657	0.09898702	0.04149048	-0.089097545	0.15324353	-0.10458398	0.011374758	-0.06968464	0.027586976	0.15418792	0.20913889	0.109978385	
0.13225426	-0.16824807	-0.19605348	0.31826952	0.15506372	0.053704105	-0.060215585	0.23577307	0.2129518	-0.1069771	0.027273845	-0.06370191	-0.07096165	-0.06288271	-0.19939667	-0.10604311	0.05005838	0.13360256	0.09100365	-0.24420476	-0.1382101	0.0035787607	0.020812098	0.14483126	-0.046171345	0.050918892	-0.3134405	0.027807722	-0.019736484	0.020041164	-0.07040745	-0.0020711196	-0.025644086	0.17280814	0.06737953	-0.008330982	-0.05621252	0.2099354	-0.075036265	-0.08240223	0.1878531	0.043531116	-0.13328059	0.011184634	-0.15558471	-0.04331445	0.07060292	-0.10953508	-0.056287125	0.07493977	0.16961329	-0.28322458	0.14994751	0.0124464715	0.14030425	-0.15979147	0.011866182	0.19274378	-0.082421154	-0.11015518	-0.039432794	0.036453564	-0.005859401	-0.16055876	
0.043362513	-0.2107006	0.16093104	0.15369283	-0.09540679	-0.16483848	-0.18849476	-0.18848772	-0.12933926	-0.13385026	0.078871615	0.10190415	-0.12653433	-0.15218692	0.23621494	0.1032471	0.06099066	0.007003601	0.2205247	0.16921546	0.32042912	-0.0023782635	0.12211136	0.039207567	-0.07520123	-0.1592944	-0.067628555	-0.11779066	0.16141845	0.1091341	0.12900369	-0.02548458	0.14297816	0.06330097	-0.032148566	0.14018829	0.047810342	0.10858434	-0.19860756	0.058655992	0.043567736	-0.017538475	-0.13394238	-0.15108626	-0.13375771	-0.033532247	-0.13488492	0.14420894	-0.055463694	-0.039984137	-0.0021389471	-0.042958274	-0.01754637	0.07520767	0.040260915	0.07720026	-0.07385971	0.22687364	-0.060606685	0.17358871	0.011190824	-0.00014789439	0.083709374	-0.055202957	
0.05516771	0.00048242573	0.1070475	0.20312682	0.15689225	0.15486306	-0.021091854	0.08200677	0.09527469	0.29912907	0.07830223	0.14083217	-0.010097146	-0.23085523	0.19755086	-0.29914185	0.03438038	-0.07665795	-0.07979683	0.16989252	-0.04498396	0.026663681	0.0872905	-0.27804148	0.0865277	0.16739406	-0.078033134	-0.07793308	-0.13216601	0.06835176	0.32773486	-0.025014773	0.20046842	0.1824079	-0.22796571	0.11095422	0.1303811	-0.24035189	0.0045892587	0.21707341	-0.14244469	0.09438356	-0.13337177	-0.25862712	0.15824749	0.17909577	0.026575187	0.14011286	-0.005775784	0.105791755	0.25482944	-0.05858624	0.13699056	-0.06355131	0.15697142	0.17153282	0.14385043	-0.117574155	-0.006886956	-0.028911639	-0.11819581	0.009296414	-0.1844194	0.035232183	
-0.13193059	0.055539057	0.13084073	-0.05726224	-0.013580773	-0.082025275	0.018314384	-0.021190034	-0.2319622	0.062067244	-0.17940588	-0.115788035	0.111526676	-0.02937898	-0.21727486	0.0892568	-0.032880414	0.06773053	0.1422579	0.31760576	-0.17769164	0.04347658	-0.09907371	-0.54190046	0.19049738	0.13534363	0.22453529	-0.049114298	-0.16892217	0.1800432	-0.048520457	0.25125605	0.039338198	-0.22697847	-0.049645785	-0.09016058	0.032948703	0.0792905	0.021862397	-0.14738068	0.03267011	-0.17217903	-0.0029333543	0.03942232	0.12764843	0.07558024	-0.13982555	0.11435192	-0.05571473	-0.28540096	0.014770934	0.1020515	-0.13483262	0.12612307	0.12599277	0.18137506	0.14202765	0.07051607	0.179577	-0.1627747	0.023446286	4.777223e-06	-0.17469734	0.24959506	
0.076367475	0.0849928	-0.03932361	0.056187816	0.13160676	0.038236097	0.09482671	-0.08187216	0.07126106	-0.016739797	-0.1622371	-0.011883586	-0.19970785	0.027431978	-0.010273613	-0.10897423	0.03577379	0.16807197	0.13153699	-0.019452447	0.074236795	0.009383479	0.02098293	-0.13537838	0.08604543	0.13923043	-0.26598778	-0.24312207	-0.010102031	0.04071996	0.062221833	-0.16287918	0.07437994	-0.07957902	0.063491754	-0.20291094	-0.015088522	-0.10217103	0.11459778	-0.053845398	0.03767138	0.06991717	-0.113879964	-0.22206071	0.20544383	-0.1551527	-0.06386272	-0.07592903	0.012785398	-0.05297573	0.012612813	0.4923251	-0.01520207	0.005357552	-0.36187977	0.021468624	0.070041545	-0.3031448	-0.12716933	0.029102301	0.0529345	0.18198721	-0.1062997	-0.31282094	
