101
64
2
5
2
2
-0.03005407	0.05955514	-0.18316431	0.13304381	0.004460922	0.07106411	0.38341463	0.036579236	0.2484707	0.004364389	-0.36642274	-0.097761944	0.06826854	0.023768062	0.15585004	-0.041608226	0.3345568	0.07426286	-0.20607671	-0.19061491	-0.13365236	-0.017345563	0.46891528	0.116226114	-0.06542713	0.2330922	-0.047087464	0.19313076	0.01118346	-0.10268098	0.03948212	0.14252774	0.047109388	0.022769943	-0.002530421	-0.0873402	-0.0014542766	-0.1823226	-0.107050374	-0.22419065	0.23252529	-0.12571461	-0.15694422	0.072106	0.13501565	0.30369785	-0.08241265	0.10446841	0.1128155	-0.112270765	0.020539192	-0.041236166	0.28457728	0.14750673	0.087332934	0.03825675	0.056583527	-0.10391591	-0.026694622	-0.034832288	0.23669703	0.11774352	-0.07331516	-0.030790295	
-0.061995126	0.01944136	-0.016530642	0.022003504	0.025060697	-0.0016268205	0.10029115	-0.007963158	0.20527205	0.016172422	0.019912144	-0.038487274	0.030521706	0.034242667	-0.05665592	-0.040013302	0.30085877	0.023847768	0.15176629	-0.08560671	-0.029592264	-0.003251729	0.43947938	-0.15895264	0.08178302	0.061557733	0.21068823	-0.020620149	-0.13159491	-0.11480167	-0.0012510183	0.23895304	0.1777291	0.007838406	-0.13820907	0.40789393	0.17519438	0.17411648	-0.102923565	0.30998433	0.05159522	0.03128194	-0.07496058	0.022142477	0.19739945	0.49313322	-0.033015907	-0.023735205	0.041369803	0.03581635	0.06842413	0.1626456	-0.18757986	0.07181098	0.037803616	0.096826695	-0.08763109	-0.020053059	0.06407054	-0.11755776	0.035005704	-0.14078885	0.13846406	0.1405769	
0.021702267	0.011778937	-0.016503505	0.2563036	-0.019779176	0.009811827	-0.055241715	0.13009009	0.021372285	0.065850876	0.04652901	-0.041513827	0.101923384	-0.042369105	-8.82711e-05	0.049490534	-0.054178752	0.017830418	-0.005860741	0.12685154	-0.055619497	-0.08554659	-0.2525634	-0.033600472	-0.15384011	-0.057932276	0.040839072	-0.073750965	0.14184488	-0.0585999	-0.065777324	0.008465341	0.04682765	0.15273656	0.03255717	0.06663026	0.15897006	0.07495467	-0.20616111	-0.09050846	-0.15565862	-0.02951542	-0.15875037	0.09043812	-0.012060934	-0.15490718	0.19256298	-0.038067766	0.071815245	0.11809669	-0.050405964	0.16521962	-0.030721033	-0.03916713	-0.058763325	0.11463417	0.04862624	0.03529225	-0.011052775	0.10930792	0.014510943	0.005925807	0.30968136	0.035022862	
-0.064252734	0.072120555	0.1809276	0.09571952	-0.068136424	0.008853499	-0.045272045	-0.030133545	-0.05034001	0.17138448	0.019517804	0.005618037	-0.07003497	-0.07678535	0.20682688	-0.07030014	0.148467	-0.18005472	-0.0020837157	-0.14009486	0.06894629	0.12088687	-0.08353233	0.12193541	0.062569134	-0.0028041473	-0.2593017	-0.11649649	-0.032843716	0.097215	-0.037999246	0.06169428	-0.07556811	-0.0622049	0.029553527	-0.07621823	0.40702114	-0.100604855	-0.03145342	-0.03069531	-0.010158543	0.08818362	-0.14387679	-0.0047391537	-0.21601643	-0.043904737	0.18766351	-0.0051698815	0.074314326	-0.08214	0.04757918	-0.32807305	0.18988273	0.015671449	0.048615605	-0.20737238	0.19489579	0.07386908	0.015338263	-0.10394821	0.02945949	-0.12365865	-0.044114657	0.053854506	
0.046561144	0.030544795	0.046209473	-0.06515379	-0.066859774	0.036271196	-0.32080108	0.14863034	-0.016470237	0.067640014	-0.026774328	0.056017343	0.059440643	0.41423756	0.24464385	-0.09342511	0.116670124	0.25619406	0.30188304	-0.019151915	0.067725174	-0.032690376	-0.17386368	-0.320402	-0.046346847	0.09053471	-0.1032182	0.11797357	0.036967665	0.09392329	-0.023521386	-0.06115169	0.25783825	0.11470614	0.32867688	-0.010664001	0.06707004	0.20437892	0.11355592	-0.08179636	0.054152314	0.19800068	0.14588512	0.28133717	-0.0883411	-0.21632975	-0.030947415	-0.10902223	0.3809572	-0.033334658	0.07231846	0.038123816	0.27537256	0.26433253	-0.16249606	-0.10867231	-0.014427996	0.0495558	0.0859923	-0.021694988	-0.09613243	-0.013807502	0.0057262145	0.20130806	
0.18509877	-0.14457597	0.101759866	0.082920685	0.081121564	0.12349125	0.22999461	0.08594471	-0.058474932	0.031646807	0.060761757	-0.007530798	-0.17025435	-0.12604536	0.11897654	-0.024418976	-0.17921966	-0.059007403	-0.1497318	-0.007795564	-0.056739442	0.038531817	0.17039724	0.24906072	0.076377444	-0.027267655	0.29001546	0.16666277	0.08413592	0.034448884	-0.15815547	0.07851399	-0.14273806	0.025468437	0.028972436	0.07643568	-0.14545026	-0.2225509	0.00925428	0.17805949	0.040643	0.1054885	-0.21338323	-0.18620251	-0.051622435	-0.14366339	0.28719622	0.0701684	0.09358325	-0.12264659	0.026718533	-0.1886676	0.009805082	0.08996343	0.10201766	0.13629301	-0.026781097	-0.01454129	-0.097991735	0.013573335	0.15927792	0.17305925	-0.17218703	-0.1494776	
0.2671264	-0.040124193	0.013472088	0.019765407	-0.020020781	-0.067686535	0.16090885	0.091845065	0.04145614	0.02197845	-0.36020413	0.10526951	-0.07302494	0.08353842	0.09421992	0.039837237	0.20750618	0.045803122	-0.108343415	-0.13613652	0.012891021	-0.0667722	0.29755795	0.08936235	-0.14987756	0.038462844	0.03660429	0.158191	-0.018381303	0.14698923	-0.065954335	0.10215204	-0.029188855	0.02746822	-0.003521472	0.024661778	-0.05462167	0.018500948	-0.100512706	0.24256675	0.08334571	-0.04460118	-0.19233717	0.3076036	0.20192684	0.22937658	0.086514555	0.014623096	0.17306653	-0.105737984	0.05810411	0.15350655	0.31824505	0.0025660074	0.15094818	0.018051414	0.07734497	0.11882495	-0.017954797	0.07892834	0.16256997	-0.027601289	-0.09405227	0.049543977	
0.11664848	0.10966508	0.066433884	0.08280662	-0.2270993	-0.05686889	-0.14716274	0.06703456	-0.07306587	-0.0025825638	-0.009644523	-0.076099046	-0.03346747	0.1095479	0.16963753	-0.010175637	0.053164724	-0.055820357	0.24021022	-0.028480833	-0.015248896	-0.15214479	-0.10243274	0.34134147	-0.0037237112	-0.018460356	0.09164963	-0.04915022	0.03479424	-0.095778055	-0.08669386	-0.16366284	-0.05789369	0.058037356	-0.15314418	0.027587287	0.16376655	-0.032156844	-0.100248136	-0.31919748	0.14177881	0.13944861	-0.46187285	0.21186751	0.2669259	-0.051606372	0.04307416	-0.042974956	0.1202982	0.020541912	0.09749055	0.4497182	0.39465874	0.07161971	0.09844366	0.07266732	-0.26517293	-0.23011608	0.24904723	-0.35530868	-0.039717264	-0.08483786	0.20051815	-0.10237326	
0.17748062	0.07284305	0.01848279	-0.04418185	0.2679617	0.04004219	0.17135718	0.25155184	0.08146214	0.010231046	0.11583007	-0.09901452	-0.19467008	-0.121234864	-0.1031741	-0.039255403	-0.07778007	-0.13675454	0.06198321	0.14455923	-0.08157645	-0.048914414	0.15116991	-0.12736909	0.0064962856	-0.046550084	0.16456197	0.20035838	0.13220705	0.3673054	0.21253482	0.0043468424	0.11973642	-0.03718043	0.18686102	-0.04130621	0.05374823	-0.022738444	-0.028646268	0.1448586	-0.13433872	0.102974735	-0.019729728	0.12871283	-0.30258286	0.1534708	0.12631041	0.17671463	0.12711433	0.05653963	0.018599551	-0.06054843	-0.03246931	0.07412593	0.29285347	0.26127082	0.073208794	-0.10384366	-0.07797407	-0.00047879832	-0.047340408	0.018039718	0.029073518	0.158815	
0.10645436	0.08641832	-0.073879845	0.0280229	-0.10928826	0.019642295	0.06355726	0.091794536	0.105744585	0.07124403	0.08759157	-0.10755402	-0.028528323	-0.16276197	-0.147432	-0.0003729178	-0.022172036	-0.115435526	-0.01240718	-0.017078718	-0.00010379782	0.014912097	-0.0145220505	0.09154185	0.022071175	0.093454555	0.23904678	0.08064984	-0.07779867	0.060565412	0.18802065	0.26747128	-0.029114062	0.041855056	0.096034385	-0.09437005	-0.13812897	-0.20560798	0.22897361	0.03278129	-0.19996467	0.14326766	-0.21182516	0.2883579	0.13435732	0.16371305	0.15308866	0.1372478	-0.085067436	0.053527024	0.054290008	-0.07263473	-0.030722568	-0.07438559	0.07569316	0.19276948	-0.04178114	-0.08372255	0.013217516	-0.11193696	0.11188183	-0.03552371	-0.123913415	0.17325793	
-0.11091382	0.26223877	-0.17604329	0.025962953	-0.05638316	0.046964385	-0.061971337	0.028158395	-0.011646667	-0.22543992	-0.05593852	-0.08625406	-0.13136749	0.0936624	0.13376959	-0.0118842935	0.18237671	0.07618962	0.23545511	-0.056115303	-0.10060354	-0.036620326	0.1960187	0.2030376	-0.06869457	0.030891808	0.265583	-0.11021376	-0.14491339	-0.16021973	-0.18863542	-0.031122347	0.043964304	-0.07785871	-0.042979196	0.109424554	0.039401636	0.013652074	-0.00019100208	0.21025755	0.06241706	-0.021960901	-0.035027094	0.06008633	0.16058156	0.057869397	-0.06715204	-0.010593556	0.17717724	0.06020413	-0.04487668	0.0072011477	-0.08998728	0.20791523	-0.08393365	0.03555933	0.048691895	-0.018444499	-0.075902656	-0.093274996	-0.124920756	-0.0073158476	0.26082897	-0.39348722	
-0.07719997	0.114077106	0.061656073	-0.008443708	-0.20506461	0.029306754	-0.0107495235	0.12866218	0.062920585	-0.04047353	-0.10255604	0.028077265	-0.3282481	-0.077818304	0.25283954	-0.08808734	0.05496285	-0.016275158	-0.04614909	0.107427396	-0.005450765	0.004822909	-0.0096668005	-0.107166484	-0.01872688	-0.12225078	-0.07234497	-0.040205784	-0.17950578	0.049488164	-0.10956419	-0.045497335	-0.09897786	-0.15017706	0.107247815	0.08661565	-0.0037095072	-0.09454915	-0.10614529	0.1559465	-0.07410754	-0.08265125	-0.16568711	-0.037370034	0.12442826	0.16517037	0.1859651	-0.024107855	-0.037862405	0.09647461	0.04284891	0.03040763	0.08313103	-0.10017727	-0.043239657	-0.14086127	-0.081254706	0.061561175	-0.10171118	-0.026590126	0.04235513	-0.13625838	-0.10323231	0.13001448	
-0.015704984	0.08054003	0.030140301	0.29756755	0.34103006	-0.038436774	0.19245858	0.19589068	-0.12191152	0.15410836	0.06890576	-0.0883994	-0.03840158	-0.061648816	-0.03220601	0.061193246	0.16289656	-0.12450925	0.22081257	-0.08385112	0.14151847	-0.034475625	0.070923045	0.17494299	0.13208818	-0.08602151	0.2614868	0.02683499	-0.07122507	0.028403645	0.0064447876	-0.11979043	0.21211001	-0.16374907	0.09412427	0.19164927	-0.16325262	-0.0668609	0.27017307	0.22921558	0.16323632	0.09031088	0.020395085	-0.11876616	-0.21817042	-0.14257014	0.073921375	0.18019587	0.69406223	-0.19475698	0.013290733	0.22089683	0.1703924	0.18272993	-0.25643468	0.38552967	0.20573577	0.058716465	-0.17186134	-0.05500012	-0.051617842	0.0026624538	0.025582217	0.2389933	
0.09943528	-0.13699776	0.13752921	0.020520972	-0.11247694	0.010107395	0.101017736	-0.015982019	0.06677919	-0.10243373	-0.17732005	0.036920317	0.03040157	0.13547553	0.04787428	-0.006183067	0.016238302	0.1242694	-0.16312002	-0.0051147086	0.10925526	0.056909032	0.09159168	-0.028576324	0.017536707	0.033196438	-0.008855609	0.14573006	-0.2069046	0.028784944	-0.17395411	0.08636165	0.09329064	0.039100304	-0.12137797	-0.037467796	-0.04236087	-0.080423206	0.033030648	0.028528776	-0.030274315	0.05235881	0.33351758	-0.11282394	0.095520705	0.045807138	-0.0035095662	-0.15191081	0.19101451	-0.026062904	0.0025453132	0.23562643	-0.15219092	0.19696622	-0.051749803	0.26755032	0.017058251	0.0320667	-0.025170079	0.08105919	-0.20038779	-0.055569224	0.17405851	-0.10109599	
0.049028147	-0.041451614	-0.055962086	0.087514706	0.19303082	0.006725253	0.039302573	0.22087286	0.1771809	0.056605607	0.18362592	-0.03571841	0.21543092	-0.12138846	0.18394484	-0.0033845901	0.014446869	-0.029092485	0.21030606	-0.1792182	0.043427672	0.04751654	0.19995794	-0.1484808	-0.047531374	-0.2300937	0.012088858	-0.09084763	-0.10754337	0.15584007	0.14171466	-0.046073794	-0.057397388	-0.13657974	-0.02994225	0.15333144	0.04344466	0.17865361	0.025413645	0.095692605	-0.0062685814	-0.08562118	-0.02492787	-0.0015484998	0.017671507	0.02453414	0.09151344	0.20713206	0.21979317	0.12860179	0.069775194	-0.056287196	-0.2104677	0.16606237	-0.00910146	0.21633372	0.043630756	-0.023279533	-0.07591375	0.1430485	0.17596604	0.085645184	0.25152114	0.14933708	
0.07839375	0.10683593	0.16519284	-0.17897572	-0.08073846	-0.06030839	-0.0890975	0.1792337	-0.080743596	0.18225758	0.16061963	-0.030814687	-0.1228446	0.024831047	-0.038259987	-0.1443479	-0.021759203	0.015134439	-0.05104377	-0.019795142	-0.10186273	-0.123022854	0.0030861837	-0.08617136	-0.12527384	0.12339816	0.055804625	0.05097152	0.18514334	0.15898606	-0.022140604	-0.1476808	-0.16072738	0.016166123	-0.11369163	-0.017269228	0.041252434	0.0854279	0.0362543	-0.17091879	-0.030986093	-0.16172582	-0.02780585	-0.058585156	0.1895089	-0.024985148	-0.124541394	0.116374806	-0.15842068	-0.004205704	0.18070108	-0.16537146	-0.036513343	0.1810749	-0.114517316	0.14157921	0.021287534	-0.013399266	-0.021823833	-0.13150701	0.07587867	0.11853776	0.008469838	0.09641866	
0.055840135	0.15175517	-0.18624276	0.09265193	-0.14075452	-0.14364724	-0.12200691	-0.20123212	0.11087717	-0.1144741	-0.07882616	0.13567962	0.028628677	0.036822937	-0.09101836	-0.25217196	-0.03700998	0.11395107	-0.127459	0.014973724	0.051900793	-0.048053764	0.11521668	-0.103056505	-0.1930268	-0.043272678	0.07101142	-0.06936685	-0.1988084	0.14322332	-0.04813141	0.127213	-0.04722461	-0.039977793	0.10527	-0.027899554	0.10939642	0.05962816	-0.10513068	0.06174823	-0.036270477	0.07510037	-0.13192534	0.10933691	0.0029673881	0.02735008	-0.08233147	0.21009335	-0.04546785	-0.012726247	-0.0810983	-0.07544304	-0.17050885	0.15939869	-0.0852915	-0.18757075	0.13923237	0.07548466	-0.24855465	-0.015347414	-0.018660592	-0.10989229	-0.05072106	0.05120144	
0.17603433	0.27203923	-0.06369876	-0.11825307	0.06386143	-0.055402912	0.31944534	-0.014908288	0.042361837	0.020764299	0.060829043	0.13653028	-0.07126136	-0.14188533	-0.099723734	0.008093413	-0.037375778	0.05148841	0.17775251	0.10851419	0.080598086	0.019841699	0.024657682	0.13069202	0.01937594	-0.054933183	0.0712098	0.02503099	-0.1314442	-0.032563493	-0.054224793	0.15269907	0.1012619	-0.07638398	-0.038917467	-0.09826115	-0.070909776	0.16002128	-0.23787639	-0.54146075	0.116105326	0.042166393	-0.17728007	0.1117588	-0.19868448	0.07882527	0.08470135	0.012873044	-0.29904887	0.02721346	-0.08372597	-0.3507658	-0.03174012	-0.17870048	-0.16831207	0.029942889	-0.093880445	-0.046864476	-0.009829468	-0.18207875	0.08217433	-0.11214139	-0.10927734	-0.28484532	
0.025883088	-0.20207399	-0.059426848	0.032125425	0.08565986	0.14050354	0.1331181	0.070708	0.090888076	0.085611604	0.051783927	0.06519018	-0.09702397	0.057718277	-0.049257804	-0.07585826	-0.051485367	0.062610514	-0.07362876	0.17073703	-0.1704072	-0.100417055	0.16570577	-0.14578408	-0.09909697	0.03260702	0.14571841	-0.0016309981	0.19467607	-0.112875365	-0.03481585	0.21253064	0.030023536	-0.05512289	0.08386668	-0.025248667	0.16482891	0.019877821	0.10677451	-0.20568345	-0.0055023143	0.047155235	-0.043477252	0.04733617	0.037071224	0.10685298	0.14002602	0.09357778	-0.23109977	-0.014663411	-0.041825507	0.16394073	0.08002871	0.23697804	0.33274463	0.04172896	0.074750796	0.055460062	-0.031894453	-0.038838018	0.41823062	0.025403164	-0.07715367	0.28717223	
-0.01777731	-0.1857717	-0.096039996	0.05935116	0.13571492	0.020542147	-0.0023562987	0.18538584	-0.16053885	-0.072124094	0.24630672	-0.13739598	0.010345242	0.034665287	0.27002728	0.07317715	-0.14681669	-0.009409562	0.082440235	0.14865914	0.13361537	-0.057308488	0.2668686	-0.016035976	-0.25085247	0.06526656	0.23358111	-0.005794513	0.16999497	0.10823408	-0.076436855	-0.028732829	0.13804573	0.037010163	-0.0849337	0.13180058	-0.09926379	0.08424138	-0.088881254	0.08369131	0.06478318	-0.09333863	0.010766085	0.037838776	0.17519984	-0.08018654	-0.008147944	0.03063767	0.27399132	-0.10976436	0.02779276	0.1548456	-0.12768383	0.25530422	-0.13255666	0.037018504	-0.16735572	-0.07560098	0.05180119	-0.0032812054	-0.028306551	0.019504365	-0.008094021	-0.10507562	
0.21777447	0.045186345	0.12287461	0.14046335	0.055074513	-0.0372221	0.1578779	0.20434389	0.22154698	0.14432915	-0.18486555	-0.008600389	0.033951923	-0.05898649	-0.30863702	-0.18543743	-0.11374654	-0.05180639	-0.4309912	-0.55429494	-0.12789942	0.11771717	0.1916062	0.4942611	0.15370296	-0.16078827	-0.26225674	0.022270344	-0.123289704	0.14346486	-0.17943488	-0.09227164	0.19617988	0.023761954	-0.074772246	-0.35941473	0.3990138	-0.04365263	0.38153055	0.14936902	-0.16747613	-0.19037725	-0.08306019	0.27051935	-0.5609033	0.028489698	-0.09493188	0.32748803	0.19314897	-0.1622122	-0.17637485	0.26084366	0.18670802	0.3793649	-0.179593	0.056944434	0.28158194	0.2194894	0.09579564	-0.20979106	0.051889405	0.03374901	0.19437024	-0.003170958	
0.040265895	0.15175574	0.018749796	0.0039525065	-0.026548298	-0.089733005	0.17234595	0.12841563	0.0709981	0.10552453	0.15455729	0.015577452	0.09725421	0.056836247	-0.03418504	-0.012634026	-0.08001876	-0.005337729	-0.0035180252	-0.097537085	-0.06449552	-0.027625667	0.092429794	0.07539871	-0.020421313	0.22733985	0.00027251733	0.17091462	0.11107295	-0.024708793	0.1312612	0.037864313	0.12014289	-0.048013594	0.11045147	-0.11064439	-0.12655938	-0.116845846	-0.07790679	-0.22346522	0.046797186	0.012856414	-0.24069084	0.11697266	0.055996265	0.08347885	0.065500595	0.1777185	0.1042147	-0.080885015	-0.06426359	0.18984784	0.08838352	-0.00865254	0.010491396	0.03170376	0.044516575	0.07808946	-0.250489	0.047406826	0.15377383	0.0758126	-0.023980169	0.009122132	
-0.108294636	0.32368565	0.11895051	0.03568862	-0.061736427	-0.15523553	-0.044270158	0.13938683	0.01524136	-0.10762565	0.025495414	-0.030960808	-0.08250545	0.0473583	0.2875081	-0.0235844	-0.07724362	-0.20113428	0.23548421	-0.026143514	-0.0043621897	-0.0056705307	-0.17768848	-0.017733421	-0.1564038	0.014138014	0.25835368	0.020630123	0.037314106	-0.1341403	-0.21192831	-0.046538778	0.059161127	0.047820736	0.07722769	0.38620725	0.33903	0.13830881	0.14898707	-0.10932173	-0.15007307	0.038929075	0.087327294	-0.0054683476	0.19540253	0.0739735	0.14322881	-0.18898965	0.17120346	0.0023442812	0.09628839	-0.20474774	-0.0669521	0.21581663	-0.15287913	0.0738594	-0.083424725	-0.052248597	-0.2102803	0.014061778	-0.04868575	-0.04835053	-0.10246864	-0.17664097	
0.062715925	-0.19028649	0.097672924	-0.17252955	0.043782853	-0.0418168	0.09723933	-0.09914062	0.026973361	0.04332823	0.14897415	0.011154428	-0.19228835	-0.03196055	0.026559642	0.13288714	-0.20024781	-0.098372325	-0.0316639	0.35970563	-0.024568107	-0.021505017	0.085705556	-0.22026673	0.046686232	-0.092248484	0.082549326	0.017086968	0.042167623	0.12638028	-0.06743917	0.11857999	-0.062727265	0.027044449	-0.06326146	-0.12843353	-0.08159061	-0.03349123	0.005955668	-0.2871634	-0.07040547	-0.009112251	-0.07182662	-0.16195959	-0.056998607	0.13407773	-0.14210105	-0.10335974	-0.19878167	0.19913515	-0.20681582	0.11676972	-0.07774655	-0.0909287	0.12636703	0.019471142	-0.0487493	0.050120164	0.08451994	0.06227229	0.020561568	-0.1256932	-0.124483414	-0.056547433	
-0.0013293672	0.20509644	-0.10185002	0.072108656	0.08321407	0.06577922	0.12597044	0.21250427	-0.070623755	-0.032247897	0.085949324	0.017560534	0.06972145	0.122750305	-0.11916525	-0.007259976	0.15055828	0.053433947	-0.019520344	-0.055241764	0.16169104	-0.05739172	0.031056125	0.23263335	-0.062902756	0.09750492	0.10431639	0.09985539	0.18626286	-0.06797708	0.03132478	-0.047284808	0.08517436	-0.10143416	0.1478073	0.03437809	-0.07121085	0.18677047	-0.098985545	-0.21121423	-0.0601675	-0.026848556	-0.05554631	0.06635222	-0.021642584	0.11028357	0.057092357	-0.06019663	0.0034124951	0.07353981	-0.032803476	0.22938593	0.040648565	-0.050042678	-0.20562348	0.04909186	-0.08878642	-0.0852822	-0.0010505515	0.05761182	-0.05817044	0.04858734	0.02495632	-0.041184608	
0.21231125	0.3324776	-0.07021243	-0.024202857	0.21986559	0.13525248	0.12930292	-0.027323954	0.11815615	-0.12517987	-0.43266198	-0.012928404	-0.119500875	-0.18526421	0.26939204	0.0708573	0.17248286	-0.01681072	-0.05395959	0.001879325	-0.29718176	-0.071984485	-0.18845582	-0.25860548	-0.16088632	0.07664821	0.109084204	-0.2231289	-0.22797577	-0.024275074	0.19122523	0.077351674	-0.22717708	-0.0016819414	0.16214095	0.072816476	0.3265407	-0.11892943	0.06426076	-0.02068958	-0.084796205	-0.03163775	0.099867605	0.16806178	-0.2835034	0.19819832	0.09850835	0.04214502	-0.084184535	-0.18615136	0.08871856	-0.2887561	0.28898275	-0.08966775	0.1746323	-0.26601675	-0.0711912	-0.08169428	-0.030816907	-0.28634533	0.10038069	0.2238272	-0.20901783	0.2782803	
0.13995811	-0.33017	0.04899725	-0.27063105	0.045445185	-0.038693875	0.12110423	-0.06766226	-0.4416888	-0.22998166	-0.084777616	-0.026623653	-0.032514226	-0.033334102	0.13585408	0.058467336	0.13551089	-0.069082394	0.14300396	0.33365464	-0.15903959	0.04192864	0.24761552	0.17095819	-0.10879821	0.030716129	0.1289285	0.10592175	-0.029606406	0.06791694	0.07834511	-0.029534735	0.2826073	-0.052287266	0.12893091	-0.18605793	-0.122604445	0.10014907	0.100060456	0.10973393	0.027801517	0.03871205	-0.29792637	0.2852645	-0.31415543	0.2725438	-0.16197787	-0.023968827	-0.12511015	0.06390579	-0.05313123	0.43103904	0.0068243267	0.050106913	0.34402242	0.0440069	-0.08983444	-0.026423912	-0.027636357	-0.029675387	-0.13042988	-0.0689749	0.19894359	-0.12574404	
-0.13207594	0.30123112	-0.03067618	0.14466287	0.114569925	0.12449591	0.18973789	0.15021273	0.16908379	0.043626655	0.092929214	0.010248345	-0.0608357	-0.12739024	0.08824673	0.004420657	0.24457319	0.028063968	0.23127888	0.08236841	0.031860765	-0.024886852	0.045850847	0.108264424	0.052454643	-0.18393394	0.13286333	-0.037546955	0.06552968	-0.03188954	-0.067952	0.053360857	0.024919175	-0.09127652	0.14384404	0.13388531	0.28015837	0.13500246	0.06348867	-0.010519509	0.05874659	0.09489693	-0.22009039	0.28790715	0.08934669	0.10400981	0.12897298	0.20498516	0.08749695	0.0018878855	-0.0903053	0.07564961	0.123797804	0.018805364	0.14735776	-0.0030121773	-0.07392337	0.027702948	0.045152407	-0.08459871	0.18539575	0.29619125	-0.0027265179	0.14445126	
0.21551026	0.021977162	-0.029353553	0.092549264	0.1389348	0.025395967	0.39832884	0.02503824	0.27299532	0.002375216	0.066896	-0.020881819	0.05316255	0.1318909	-0.0718786	0.056143995	0.06443496	-0.06496352	-0.16134948	0.09220449	0.05482015	-0.09845735	0.3071951	-0.2196943	0.010032782	0.05284621	-0.20924403	0.13070755	0.15752926	0.16035935	0.26236394	0.13322428	0.017722331	-0.024756484	-0.05834756	-0.022116633	0.17975481	0.059821915	-0.17404903	0.15271816	-0.03597773	-0.08132264	0.26382065	-0.13641694	-0.15522127	0.26286477	-0.0077021495	0.13704014	0.13686828	-0.106523134	-0.177586	-0.11965167	-0.25511768	0.058847487	0.22829731	0.24790603	0.049622305	0.00821234	-0.005834397	-0.08279907	0.045454893	0.053340133	0.072377026	0.0933316	
0.16488816	0.06302168	0.07863842	-0.007205257	0.10354192	0.053794548	0.14526586	0.05359909	0.17484821	-0.182061	-0.007477174	0.020608423	0.026464054	0.060535237	-0.025695257	0.031991422	0.05409962	0.13149342	-0.020305278	-0.021871772	-0.05997057	-0.061550636	-0.01462973	0.23673771	0.13124856	0.14973411	0.23924942	0.09348717	-0.045446724	0.059107967	-0.1445632	0.15885484	-0.049127277	0.01996852	0.17486249	-0.008989354	0.11882586	0.0927413	0.22225715	-0.08809629	-0.052108623	0.010738157	0.08127477	0.17787275	-0.12635165	0.15969802	-0.037988503	-0.028972624	0.06939311	-0.0681668	0.09146461	0.2566869	0.02796813	0.06351261	0.108439006	-0.12254669	-0.013022816	-0.025207557	-0.10098784	-0.17028847	-0.06737591	0.20517287	0.09055292	0.21117349	
-0.058093846	-0.11655553	0.025282064	-0.066213876	-0.060156867	0.017095251	-0.017286036	-0.12688617	0.11056228	0.07066953	0.2389488	-0.062915295	0.25032905	-0.0060060704	0.11961936	0.057453617	-0.19890054	-0.096087374	0.08436491	-0.22284089	0.06943471	-0.008664339	0.42151135	0.020552551	0.04944821	-0.1803954	0.019876506	0.04340353	0.13063854	0.17979845	0.071181595	0.32396802	-0.03503701	-0.005422361	-0.07996452	-0.116830066	0.040293805	0.019579917	-0.13007735	-0.04220263	0.021537794	0.1578644	0.11482609	0.1918029	-0.26485527	0.08254985	0.009653063	0.10283722	-0.38950375	-6.5194814e-05	0.009992908	0.13040936	-0.068252824	-0.043970503	0.24521823	-0.042113505	0.03818581	0.022722263	0.05557773	-0.06320594	0.22037414	0.15717788	-0.04254145	0.22842015	
-0.05963689	-0.22613227	-0.13700175	-0.08187169	0.25063485	0.022505172	-0.13379727	-0.037207182	-0.3272571	0.02819633	0.16274482	0.08633229	-0.11492582	-0.09551201	0.051130142	-0.049448006	-0.25547242	-0.053650264	-0.0069451244	0.010493629	-0.04464352	0.1397401	-0.008391243	-0.019887032	-0.061328188	-0.017289482	0.16745144	0.06583364	0.12440441	-0.04504768	0.11260399	-0.13478574	0.06686698	0.09111777	-0.09187409	0.052399226	-0.15153924	0.11174508	0.043663125	0.21295597	-0.030453287	0.06164078	0.048905425	-0.3224427	0.15166983	-0.08489198	-0.045649607	0.10210198	0.096259326	0.019640017	-0.07801759	0.0006313389	-0.49378836	0.284722	-0.014770327	0.028628202	-0.06238761	-0.10063345	-0.19456825	-0.1183785	0.016375547	-0.0637169	0.008559249	0.0771925	
-0.2723541	-0.13561459	0.10231188	0.07431288	0.2201572	-0.0039650574	0.17359126	-0.1801966	-0.12585035	0.10670396	0.14374374	0.010424304	-0.18652661	-0.18645816	0.03134341	-0.056952737	0.1417614	0.06880132	-0.06738648	-0.0470368	-0.059591807	0.015893463	0.06553391	0.13167636	0.0820417	0.070963465	-0.11146646	-0.029065307	0.0119321095	-0.11851872	0.06829147	0.09705167	0.10720919	-0.047745954	-0.17897649	-0.0747908	0.16253906	0.22998789	-0.040171765	0.19276536	-0.031395964	0.07299232	0.42725635	0.008997539	-0.2861531	-0.033671822	0.16530374	0.2847262	0.033779513	-0.23767044	-0.011542001	-0.021213138	0.007955408	0.3418353	0.07902385	0.09923738	-0.04367408	-0.074723996	0.1341691	-0.12223873	0.25906938	-0.016285801	0.06447742	0.11576063	
0.24104801	-0.14806527	-0.036497075	-0.12550734	-0.047123466	-0.016592378	-0.16483451	-0.07657272	-0.2930373	-0.0043806597	-0.19921714	0.040622856	0.061524644	-0.13723823	0.34426153	-0.048384055	-0.24145441	-0.097200006	0.0833123	0.03162329	0.22175045	0.11951362	-0.3115054	0.102664635	0.16204406	0.027931638	0.2555543	-0.01887153	0.27600923	-0.12640677	-0.14996593	0.013098617	-0.03206466	0.12078007	-0.1790271	0.31026965	-0.16976383	0.02813995	-0.24721664	-0.39557678	-0.18167658	0.00043373386	-0.3811184	0.12879007	0.37596914	0.05996783	0.019253047	-0.38994485	-0.10248402	0.020053899	0.08201789	0.06392491	0.42309543	0.36649075	0.16913292	-0.2812745	-0.061004873	0.16396736	-0.028993683	0.06734548	0.13486806	-0.27080384	-0.105201766	0.16500498	
0.0515035	0.15182011	-0.03775459	0.12859559	-0.052308228	-0.032581743	0.2555403	0.15095349	0.17001618	-0.07893357	0.101126574	0.15756932	0.012361914	0.16467701	0.15371092	0.04660272	0.06121154	0.057347573	0.18608032	-0.06116119	-0.03918408	0.010062483	0.14407746	-0.04208114	0.04353767	0.0028584637	-0.009959488	0.051616408	-0.027892435	0.07677689	-0.06306409	0.075526394	-0.031535063	0.033958808	0.23912476	-0.020912291	0.10885238	0.22485302	0.27776992	0.12790903	0.119094156	0.16841584	-0.05148624	-0.15116198	-0.028987728	0.1898664	0.09820757	0.021973467	0.21572906	-0.015425328	0.056975313	-0.06387763	-0.16817504	0.08986633	0.12940171	0.2691432	-0.09372029	0.018321564	-0.09686067	-0.12536673	0.0126428325	0.13780884	0.08383361	0.15980917	
0.09043087	-0.08580511	0.007299391	-0.058685906	0.053968396	0.074340254	0.23115438	-0.04918073	0.040578764	0.23448482	0.024608526	0.034158293	0.009223057	-0.08742192	0.2018345	0.07203594	-0.19652887	0.1083058	0.029019175	0.031026905	0.011336307	-0.022029102	0.26340523	0.2021517	0.1862694	-0.13121533	-0.013668728	0.13301076	0.03582673	0.19461101	-0.14058316	0.0119991945	0.0019124812	0.03840489	-0.052256748	-0.09312313	-0.21934657	0.20500422	-0.029427376	0.18666312	0.15283372	0.087182924	0.02289988	0.14665495	-0.12398661	0.09909929	-0.029285409	-0.11324987	-0.047100432	-0.001230383	-0.043163672	-0.111662075	0.1211567	0.043342344	0.1810492	0.035225976	-0.08065571	-0.10058491	0.2158819	0.025832135	0.110472865	0.05145538	0.06610178	0.03845077	
0.13663076	0.12109643	-0.02483996	0.022319298	0.0066018933	0.013917276	0.025298465	0.020509893	0.09570446	-0.090432495	0.012747958	-0.03880002	0.016730946	0.062544584	-0.022478675	0.059879094	0.13800871	0.090023056	0.035298653	0.27129072	0.10631356	0.025775867	-0.12055645	-0.011247968	0.03370532	-0.047257528	0.15170544	-0.09474383	0.2501441	-0.06935766	0.10557432	-0.0099602835	0.07308345	0.008031143	0.008378239	-0.02212866	0.13415396	0.19490173	0.055774942	-0.18181029	-0.05895061	0.009995227	0.18991977	0.045741368	-0.055188842	-0.04395167	0.13084507	-0.08353733	-0.16562206	-0.031349346	-0.0021229023	0.045322206	-0.08560093	0.052122433	0.093025506	-0.07908244	0.0072405385	0.045785926	-0.14154044	0.061382793	0.0778625	-0.036668092	0.087716155	-0.031418286	
0.20442201	0.070699416	-0.03584328	0.15654431	0.11686379	0.0591225	0.018716492	0.1960576	0.079977654	0.09560762	0.06808384	-0.12777424	0.083393835	-0.0063801226	0.09656834	0.010107694	-0.046042133	0.014452186	0.03621278	-0.058150116	-0.0706785	-0.013971414	0.05751467	0.03001092	0.09982768	-0.03816996	0.19663495	0.30458525	0.23184869	0.28947443	-0.022201916	0.13962029	-0.00593768	-0.03295008	0.21269451	0.21732052	0.1517294	0.17536925	-0.14063509	0.19002803	-0.016668284	0.23202543	0.17240697	0.036838274	0.17319828	-0.105507225	0.13194782	0.0138880415	0.3587134	-0.031624485	-0.106460564	0.13331057	0.10605238	-0.043556917	0.2560155	-0.01168195	0.10805147	-0.0096415505	0.25742328	-0.006107479	0.07349629	0.007479577	0.11930911	0.32507637	
-0.055197675	0.11627178	-0.06178434	0.0060937013	0.090994455	-0.0057106274	0.043714162	0.07432144	0.039571147	0.012718609	0.19774656	-0.03835862	0.0854017	-0.12326907	0.16396664	-0.012514095	-0.08867229	0.007047042	0.13432798	-0.06820793	-0.025352158	0.09956953	0.12031071	-0.24588186	-0.041768815	0.09472105	0.23839472	0.07341428	-0.024621747	-0.05962026	0.04450996	0.092902236	0.03944912	0.03610245	0.06914919	0.15496343	0.020439487	-0.045661233	-0.0061022583	0.06014391	0.0022115393	0.091631435	0.09046142	0.17383021	0.23863451	0.07601536	0.15062554	-0.11838769	0.08791995	0.18939304	0.02397163	0.008898719	0.112763636	0.051323365	0.04557477	0.108450204	-0.042154796	0.115102604	-0.04371983	-0.071563415	0.05102974	-0.0006239273	-0.024309974	0.07346847	
-0.061985023	0.562595	-0.06693802	0.25204217	-0.07831412	0.042741306	0.20698434	-0.053526413	-0.14724052	0.10712498	-0.27481902	0.033544283	-0.012350894	0.15997563	-0.3020123	-0.008642877	-0.25891963	0.056575254	-0.21621367	-0.067733176	-0.28941727	-0.029835258	-0.14750679	-0.21260598	0.016058514	0.29439	0.04195606	-0.06737996	0.01791868	-0.084146604	-0.11195114	-0.07233752	-0.07821268	-0.0050047208	-0.21262378	-0.1472487	0.07211385	0.58173233	0.07411832	0.025431013	-0.061146725	-0.035198666	0.09616488	0.25598076	0.21729553	-0.23207898	-0.029688593	0.08053895	-0.13477995	0.09172132	-0.10628973	-0.031564426	-0.043588858	0.19394517	-0.070780165	-0.21291043	0.16615313	0.14258605	0.35574543	0.041559972	-0.18124235	0.049722955	0.19324388	-0.10937943	
-0.045331843	0.13090034	0.014725677	0.3341017	-0.14757288	-0.09834197	0.25618306	-0.10162828	0.17250118	-0.04326481	-0.06641711	-0.039373588	-0.049563695	-0.14742038	0.23999566	-0.01652171	0.067737564	-0.016770307	0.07809949	0.14184092	-0.036796153	0.10173731	0.0372506	0.25046808	-0.065502614	-0.120364815	0.14639968	0.10447549	0.236943	0.0024311552	0.038940344	0.22616586	-0.07828141	-0.021752981	-0.099929236	0.22927973	-0.05039388	0.32595012	-0.08066429	-0.047721308	0.16011874	0.08758476	0.0017287862	-0.0318371	0.39521548	0.016879423	0.095763676	-0.05915048	0.19425648	0.049265616	0.00940728	0.18817446	0.06021471	0.121853754	0.114082694	0.20436533	0.0008364084	0.06934468	0.048854575	-0.045824468	0.30016807	-0.032938045	0.03920214	0.29603267	
-0.029209174	0.03984283	0.04318936	0.36974645	0.14316307	0.036478758	-0.083652176	0.11467831	0.13129255	0.19498336	-0.14681572	0.0047699683	-0.02808683	0.058288693	-0.059623454	-0.034145836	0.29883078	-0.115604274	-0.12759644	0.005072574	0.09741426	-0.033193607	0.13023819	0.04252891	-0.08889309	0.082756795	0.042868152	0.0985194	0.11666009	0.07028521	0.14561383	0.123558365	0.055263817	-0.035705406	-0.24493732	0.12130429	0.08039827	0.09607962	0.08857935	-0.10824337	0.008868895	0.03432016	-0.14628391	-0.3002885	0.20086645	-0.21287872	0.06881806	0.3055867	0.31831777	-0.077594414	0.04859508	-0.017117694	0.15727976	0.043903872	-0.1796153	-0.028540386	0.11110995	-0.11126793	-0.045769777	0.087014295	0.2094778	-0.080412306	0.24205263	0.09009143	
-0.04498198	0.08654009	-0.0088714175	-0.16264565	0.03339055	0.08855205	0.072219394	0.06346318	-0.15729181	-0.04770773	0.1628813	-0.107132465	0.054003138	0.086361915	0.017553277	-0.090652384	0.018617596	-0.053966876	0.18613465	-0.12217082	0.005950843	-0.040098604	-0.26299158	-0.36468026	0.030362811	-0.039763812	0.007420991	0.13043559	-0.0032399264	-0.12107776	0.106256194	-0.07626945	-0.05890347	0.0017696403	0.1331949	-0.08481927	-0.09374262	-0.16589434	0.0059615904	0.1949762	0.09680156	0.16202722	-0.072446324	0.4237987	-0.012146598	-0.09281169	-0.036558565	-0.014711002	0.07565853	-0.04524759	-0.0641381	-0.11741533	0.14500493	0.09287239	-0.06978535	0.30630818	-0.017363984	0.08509777	0.07412855	0.067989014	0.03589623	0.04919638	-0.036371864	-0.17476387	
0.17186624	0.050851777	0.035691544	0.068346545	0.117292665	0.09007229	0.10361158	0.08795658	0.141548	-0.06308039	-0.030586176	-0.06606372	-0.16008747	0.069120444	0.0012182635	0.000930567	0.1311093	-0.14925887	0.0027779005	0.028725244	0.018508153	0.03473479	-0.110756874	-0.043794524	-0.09047295	-0.11657857	0.13579857	0.19012757	0.18621925	0.28367126	-0.017323868	0.15815565	0.010665018	0.11863628	-0.0010846782	0.11736016	-0.12919472	-0.08899265	0.0047252816	0.08161444	-0.028952353	-0.051815726	-0.004027781	0.12792887	0.21700123	0.13510457	-0.06818285	-0.14458443	0.30658755	0.018760948	0.027586496	-0.0941283	0.17655192	-0.108989015	0.022175467	0.31414512	0.17207164	-0.10300782	-0.21041183	-0.04150731	-0.049178425	0.1127921	-0.03612153	-0.009070589	
0.022000507	0.08005181	-0.018523494	0.18181321	0.047086503	0.01362822	0.021987293	0.11906439	0.057282455	-0.12816316	0.1412313	-0.010704173	0.04790107	0.035899967	0.13828795	0.041247793	0.13651949	-0.07330998	0.16612677	0.0946023	0.0033097398	-0.014082129	-0.1449645	0.0022149575	0.12989534	0.13812166	0.124244094	-0.15973537	0.10792961	-0.08149266	0.12027418	0.06798875	0.23500526	0.07160753	-0.011994679	0.08761058	0.22555192	0.05679497	0.08338682	-0.23705268	-0.10941513	0.11717625	-0.07039701	0.13072254	-0.19883068	0.15112175	0.23836997	0.05922549	0.20246233	0.099981576	-0.063997515	0.32329246	0.12672345	0.35898957	-0.17543133	-0.12630868	0.044168305	0.029512595	-0.043943524	0.08177602	0.016930861	-0.0045630713	0.1480448	0.0031441024	
-0.21799979	-0.17874457	0.10942209	-0.21785067	-0.13462366	-0.043904923	0.15321454	-0.13048206	0.06960987	0.013782967	-0.073692344	0.09746363	0.041407283	0.05032812	0.13858995	-0.040233225	0.09328609	0.13232745	0.0055477717	-0.0334325	0.029856851	-0.022076579	0.18122286	-0.035280433	-0.06453941	-0.06376155	-0.109952405	0.022245467	-0.30410215	-0.12910041	-0.16574693	0.017430356	0.24313566	-0.024018949	-0.078690834	0.03892531	-0.01261852	0.3695313	0.04532126	-0.17977926	0.1129355	-0.04615956	0.22334209	-0.015778063	0.18027839	0.12690373	-0.028918846	-0.075396985	-0.038580198	0.12777531	-0.07222884	-0.08743908	-0.062023576	0.047650382	0.105955616	-0.15121557	-0.11748617	0.116777435	0.040242694	0.08971645	-0.037506714	-0.051615003	0.0764504	-0.030506019	
-0.053218424	-0.12903202	-0.106803425	0.11141405	-0.07128119	-0.010138364	0.02119419	-0.121851094	-0.12575378	-0.01941277	-0.018387819	0.057436325	-0.115787916	0.036816638	0.01707359	-0.08099391	0.018811548	-0.016464943	0.09672911	0.16399573	-0.07539352	-0.07936391	0.0666079	0.05547908	-0.19612128	-0.13547975	-0.056423746	-0.15974356	-0.11643859	-0.039308947	0.021537947	-0.10731188	0.007484284	-0.15260662	-0.020224124	0.09481458	0.119068384	0.03791908	-0.008268531	-0.15826812	-0.01869397	0.01322648	0.16941251	0.04394964	-0.10020334	0.09964067	0.06246546	-0.004641236	0.1374865	0.09654365	-0.1807942	-0.0026248363	-0.12435907	0.16240147	-0.043744672	0.043159496	0.0022155338	-0.08313286	0.022153113	-0.1778807	-0.0069950162	-0.11577882	0.061191674	-0.030291352	
0.22662316	-0.041957147	-0.021446489	-0.487152	0.082022786	0.16750395	0.0070237294	0.0989619	-0.27614287	-0.39738107	-0.33484575	-0.12570602	0.025722409	0.27928236	0.21426217	-0.15410987	-0.08294422	-0.07140682	0.16453613	-0.07056257	-0.0025045201	0.0031606555	0.076883785	-0.051732708	-0.17886788	0.014886907	0.31969398	0.17168452	-0.12564597	-0.07500356	-0.49149624	-0.15493529	0.031047514	-0.1747228	0.003097088	0.20703638	-0.08140215	0.11719268	0.005090795	-0.021271741	-0.21608743	-0.23674813	-0.042801477	0.19020508	0.060543112	0.19739294	-0.32731885	-0.33989412	0.21515939	0.0152136125	0.043655157	0.42616442	0.167746	-0.151432	0.024160262	-0.17070983	-0.041912768	0.08280111	-0.09958127	-0.012340481	-0.14599796	-0.039532576	0.0080527635	-0.35692188	
-0.09393268	-0.13317193	-0.009467738	0.15708868	0.14705394	-0.033879638	0.08474103	-0.015547262	-0.07908338	0.01999022	0.06162293	0.047180515	0.18407737	-0.21475415	0.1415576	-0.0008733289	0.12632287	-0.24025135	-0.059827648	-0.13243788	0.060779568	0.07234745	0.06892215	0.104423046	-0.16989958	-0.009517902	-0.060198236	0.04540864	0.049131118	-0.1189721	0.13138019	0.078167655	0.08331021	0.051412847	-0.13561952	0.15418935	-0.07286255	0.036708813	-0.014789676	-0.10027965	0.21301556	0.07206607	0.045218594	-0.2643994	-0.01397125	-0.07590036	0.10884014	-0.0003613138	-0.049338683	0.007972806	0.12567422	0.035293635	-0.27460852	0.19131957	0.09667923	-0.021314021	0.016820963	0.006667969	0.10963087	0.08083877	-0.1521769	-0.06929081	-0.14922886	0.102544054	
-0.115872785	0.097770795	0.09447471	0.18778324	-0.022451818	-0.037051536	0.06799346	-0.0017518819	0.25283754	0.1106015	0.05226384	-0.02257975	0.020717876	-0.14893864	0.27065095	-0.042219948	-0.14046037	0.0435369	-0.11380266	0.12362548	0.06400701	0.008291818	-0.024802541	-0.09642986	-0.07849791	0.007817245	-0.24188891	-0.0877088	0.021241399	-0.16703713	0.05304238	0.007055169	-0.02140974	0.077173576	0.23197946	-0.023136236	0.1572622	-0.07511994	0.09769184	0.00018622701	0.105784304	0.014731918	0.17917605	0.07912661	-0.2102693	0.11892152	0.18703948	0.080135785	-0.059791926	-0.006381631	0.14084588	-0.2099926	-0.05812336	-0.031903204	0.06358262	-0.07227472	0.024005767	-0.09642307	-0.13817352	-0.02085541	0.1658873	0.10207417	-0.12274648	0.22943003	
0.006379628	0.087724276	-0.4103681	-0.034580518	-0.10188814	-0.030166188	0.06789406	-0.18478629	0.1390414	-0.07448291	0.06779131	0.024827141	-0.10156212	0.026619783	-0.024041483	0.12620303	0.124695316	-0.022138003	0.04196353	-0.33910868	-0.06184903	-0.03677815	0.35202157	-0.12527111	-0.03567133	0.0055978834	-0.10747563	-0.02197383	-0.18069915	-0.005468183	0.11876889	0.092630565	0.010864316	0.080278486	0.019713854	0.050312087	0.09220463	0.019286644	0.3663338	0.053667698	0.027069919	-0.026035482	0.071785554	-0.1626549	-0.14891659	-0.26639333	-0.06891508	0.06692369	-0.029134477	0.15298572	-0.14243077	-0.13270819	0.051771577	-0.10281314	0.06664324	0.05073726	-0.024139972	0.022523304	-0.18419649	0.30115268	0.08860809	0.12313029	0.18428402	0.13581257	
-0.25270286	-0.027407799	-0.03024378	0.03938577	-0.14765088	-0.008839878	0.09511777	-0.09465363	-0.08332922	-0.1381687	-0.27298227	0.13767138	0.052103117	0.070539266	0.08398336	0.038590133	-0.35694948	-0.00065501634	-0.23482677	-0.004992567	0.06499245	-0.05334098	-0.24067667	0.120490596	0.016385041	0.009512694	-0.23475799	-0.078305	-0.2824653	-0.22332366	-0.24304265	0.06344463	-0.030769512	0.07772083	-0.14347656	-0.09004978	0.0064909733	-0.24065077	-0.009457245	-0.10205247	0.009029196	-0.11100642	0.28340262	-0.13600416	0.0031941782	-0.021361375	0.023362959	-0.100205414	-0.03403244	0.05952806	0.03838529	0.094523154	-0.25496888	0.03858997	0.084364116	-0.11994024	-0.09407901	0.01266045	0.004627226	0.1869014	-0.21394715	0.0496819	-0.10042489	0.15629502	
0.14492506	-0.11218333	0.14397196	0.1517425	-0.063740805	-0.11605832	0.38259906	0.03545866	0.13927095	0.11160504	0.042325947	-0.010954167	0.1219299	-0.15064715	-0.1736259	0.045074105	-0.055366904	-0.06512781	-0.14337574	-0.2115878	0.047410406	-0.049808953	0.011873778	0.02472062	0.026209557	0.14624561	0.004895	-0.10963556	0.036770955	0.13555697	0.17967458	0.07967776	0.0019520521	-0.08377957	0.21256809	-0.070548005	0.26364145	-0.0659279	0.31664616	-0.19177373	-0.14336602	-0.24100697	-0.035832755	0.017804917	-0.12230185	0.23064543	0.30493262	0.005645247	0.22343262	0.03855111	0.10633161	0.21855393	-0.5990972	-0.1390601	0.104121864	0.007353972	0.098834865	-0.111413896	0.047189713	-0.1688602	-0.0086551225	0.041532382	-0.04462361	0.10437336	
-0.17197053	-0.1196507	-0.08753797	0.18825173	-0.12374509	-0.0021694915	-0.11076326	-0.122231	0.03174667	0.18085378	-0.04716596	-0.024132138	-0.07065918	-0.15860467	-0.26500094	-0.006678214	0.023510866	-0.044612523	0.04726697	-0.16055857	-0.07865618	0.018969271	-0.27144593	0.03914956	0.06893891	-0.090133935	0.069443576	0.15188912	0.04617165	-0.040837046	-0.032748125	0.11569642	0.06285164	-0.10506899	0.077160485	-0.13136594	-0.23480645	0.017138906	0.1133629	0.1480243	0.21609327	0.27465186	0.40067706	0.018153286	0.013419379	-0.15571593	-0.05193982	-0.0349923	0.12500823	0.0921769	-0.0021370142	-0.0587673	-0.32753432	-0.012340225	0.112820506	0.20041735	0.023444055	0.047222715	0.10859216	0.056554083	-0.20276448	-0.056349568	0.20873156	0.050251145	
-0.2331727	-0.008381433	-0.0011367708	0.008037948	0.09995951	0.03518131	-0.018296951	-0.12390133	-0.1306452	-0.13783586	0.15623073	-0.004818524	-0.054696612	-0.05534458	0.1531413	0.12333078	-0.12323169	0.08498548	-0.05860716	-0.26697332	-0.13361013	-0.18745291	-0.24944846	-0.16338025	0.058752187	0.06006137	-0.29074532	-0.17387043	0.07956683	-0.10420789	-0.17525692	0.09350535	-0.0024081087	0.15174896	-0.027971588	0.10831723	0.054218818	-0.041381773	-0.020907313	0.07752335	0.05290422	-0.10439895	0.2853307	0.313444	-0.07773687	0.07140931	0.10721106	-0.031600233	-0.16717368	-0.091467604	-0.10720264	-0.25964633	-0.18629923	0.014769391	-0.14535102	0.028805494	-0.08139691	-0.10795989	0.18775517	0.03055687	0.023186143	0.15876298	-0.16432713	-0.1207096	
-0.18466423	0.26487407	-0.058726795	0.088952415	-0.17360252	-0.08427016	0.19776087	-0.07700863	0.16225219	-0.08514816	0.13009344	0.08132397	-0.024454067	-0.11199133	0.20957264	0.05468362	0.1359125	-0.046676874	0.13962646	-0.12345379	0.039330497	0.0059390296	0.11572864	0.12392677	-0.06724119	-0.012603592	0.051646326	-0.092193104	0.050970897	-0.23060445	0.14648977	0.19963922	-0.1415381	0.011524065	-0.055292968	0.080465205	0.43768597	0.18576439	0.039030842	0.25828585	0.048134997	0.1826293	0.15922092	0.17007433	0.2982838	0.28528404	0.14364447	-0.06897788	-0.20616344	0.0068317717	-0.14797857	-0.21690227	-0.0012583294	0.14017667	0.18632899	0.009502472	-0.13717142	-0.05011941	0.08493345	0.043198545	0.19268064	-0.029826557	0.15443379	-0.07604923	
0.018940264	-0.20361848	0.014390648	0.09257447	0.17741807	0.024600975	0.1475749	-0.009267849	-0.105861515	0.10068247	-0.046619844	0.02602725	0.2308135	-0.13485643	0.06248262	-0.023643646	-0.0767216	-0.08031682	-0.20078078	0.10280529	0.012708392	0.03267617	0.116741635	-0.1571783	0.12373399	-0.18263228	-0.052069783	0.056957554	0.0070937313	0.19354239	0.27078208	-0.16932471	-0.05068429	-0.113796726	0.08107452	0.107276164	-0.19604856	-0.034227718	-0.115898505	0.035510298	-0.08184834	-0.19192766	-0.060515877	-0.17862687	0.029083516	-0.21565124	0.10854369	0.08894021	0.20792075	-0.08127838	-0.026027184	0.16977033	0.10004525	-0.13055077	0.10391344	0.023405379	0.047796063	0.033293787	0.07943834	0.10124477	-0.010818618	0.07850777	0.08146155	0.14224644	
0.21895656	0.016910193	-0.13915807	0.10994972	-0.10425752	-0.03758195	-0.04748201	0.035050664	-0.07497479	0.14736943	0.059838455	-0.0641628	-0.13812579	-0.11918566	0.1504267	-0.018158969	0.006170423	-0.1585045	0.11371759	-0.08872636	0.16580085	0.019855632	0.04275983	-0.24675931	0.08798777	-0.17467383	-0.10196161	-0.12181958	0.055727918	0.35456675	0.16482611	-0.021469325	-0.14853701	-0.025159802	0.12578198	-0.024496952	-0.06434994	-0.0032088866	-0.18230066	0.1773215	0.13934454	0.057300862	-0.25666675	0.2836734	0.28940573	-0.014665303	0.014717179	0.13729924	0.080842875	0.04184281	-0.11478319	-0.07777654	0.13835615	-0.08906926	-0.11900237	-0.053973343	-0.061966866	0.014052461	0.0789214	-0.08839011	0.1791926	-0.006894359	0.04387252	0.2184213	
0.13929744	0.08766657	-0.11344335	-0.07250227	-0.062115088	-9.6559896e-05	-0.13186564	0.038113937	-0.038486257	0.002573754	-0.07133016	0.10571966	-0.01424029	0.11460458	0.22176425	0.03806874	0.1490235	-0.009285965	0.13664058	-0.05350725	-0.41044056	0.00020662876	0.11704037	-0.020492084	-0.07139095	0.07823577	0.08406594	0.1337911	0.06876784	0.06165106	0.028604684	-0.17207028	-0.085586876	0.047981843	0.06376482	0.069189586	-0.03611346	-0.09433342	0.032615636	0.16965802	0.12068264	0.04174662	-0.3001256	0.35814613	0.2136149	-0.20393404	-0.06401255	-0.041553173	0.056732196	-0.013365225	-0.044883866	0.09372395	0.19097999	0.05758693	0.1499374	-0.047976233	0.0064648194	0.002824876	0.0055990876	0.17160414	0.11405225	-0.093702026	-0.03278713	-0.10888646	
-0.10046383	-0.0355588	0.08243968	-0.10001562	-0.014865375	0.12800889	-0.064239256	-0.07940066	-0.27891353	-0.04980012	-0.1692098	0.221646	-0.03484773	-0.07944049	0.24689728	0.031972498	-0.1309114	0.087767236	-0.1589426	-0.19631296	-0.083456635	0.13843538	0.012151683	0.027535848	0.08956181	0.039093535	-0.3083151	0.1511219	-0.056853328	-0.10393633	0.03241862	-0.14639097	-0.25020126	-0.12601885	-0.0483564	-0.040629026	0.22019567	0.055749305	-0.30876815	0.01988211	0.06308713	-0.15985537	-0.31944606	-0.09665594	-0.010193637	-0.017375711	-0.10987595	-0.12132628	0.13406025	-0.24683861	-0.16357836	0.07428418	-0.03637774	0.18246919	-0.06252996	-0.0030221054	0.092146724	-0.010411757	0.16200347	0.05689812	0.068654664	-0.01767837	-0.11567795	-0.07699676	
0.029087842	-0.056487095	0.0076918365	-0.06675922	0.0018021024	0.0056030294	-0.024505004	0.09929658	-0.066669814	-0.1282559	0.11677921	0.024507973	0.059803206	0.008270538	-0.06785196	0.008323303	0.019887341	0.12117514	0.11091829	-0.023779497	-0.035156254	-0.006069989	-0.24719581	-0.026733942	0.16003075	0.04738953	-0.13392131	0.09276528	0.21801543	0.082364164	0.024795119	0.010805702	-0.06684137	0.030145982	0.17634416	0.0033804993	0.09338392	-0.178462	-0.0690676	0.19335553	0.2375594	0.29069906	0.27279273	0.117349714	0.034113612	0.32723758	0.013051639	-0.13111739	0.101159796	-0.16857769	-0.005142963	-0.101608016	-0.06539181	0.1054913	0.26981577	0.15435174	-0.08496116	0.053436693	0.07202392	0.12847073	0.06121273	0.20449382	0.065356106	-0.05934086	
0.0018396967	0.022126822	0.00644371	0.370893	-0.10063715	-0.014967054	0.22226684	-0.063237004	0.050418172	0.19603401	-0.032209687	-0.08222913	0.09067842	-0.00349868	-0.09826941	-0.06281271	0.24992098	0.12529163	0.14396232	0.09965636	0.033827316	-0.046350155	0.13418598	0.037111074	-0.08405146	0.020496111	0.091331154	-0.20328999	0.22519735	-0.031394865	0.33186716	0.19065149	0.14055806	-0.052427795	0.27986014	-0.08330721	0.22821738	0.25415754	0.091763504	-0.030556401	0.07364109	0.011578896	-0.18776315	0.08748471	-0.060734518	-0.1507787	0.2653663	0.16120559	-0.21564531	0.07541581	0.06404681	-0.13971275	-0.043971255	0.052892175	-0.06221484	0.02122148	0.023234507	0.03626221	0.089811705	-0.12378628	0.26150948	-0.19289052	-0.15159822	0.14768979	
0.019267473	0.086962275	-0.07097916	0.058053575	0.07150254	-0.033988547	-0.041838683	0.14531425	0.21528523	0.021635072	0.05891753	0.07276459	-0.013856811	-0.09935993	0.21275567	-0.036023695	0.21443006	0.022528673	0.1367817	-0.010490363	0.028831981	0.0911387	0.11940999	0.005795137	-0.099969484	-0.057171315	0.022939181	0.049926657	-0.018281382	-0.035982694	0.13555533	-0.08610179	0.09867219	0.047894478	0.24775097	0.2447371	0.06668294	0.19158578	0.13568717	0.057009656	-0.0023013018	0.06439068	0.08808911	0.22797434	-0.032677446	0.12373727	0.27974367	0.010099589	-0.08703741	-0.08902257	0.1641367	-0.10937678	0.12983508	-0.0735916	0.08110759	0.16178228	-0.071499236	-0.056828644	-0.10377747	-0.17719585	0.22746296	0.019346982	0.041721392	0.22095446	
0.095173486	-0.09219114	0.052303236	0.031070296	0.05424769	-0.050361857	0.088305235	0.30630058	0.027551983	0.115187384	0.19972159	0.078383766	-0.009810814	-0.019063372	-0.03662458	-0.00020832437	0.034152094	0.18149322	0.35664168	-0.06589491	0.01778674	0.024349988	0.08764527	0.018276813	-0.019834014	-0.024642937	0.17641369	0.11717408	0.24160118	0.062270917	0.20880046	0.08872467	0.094573066	0.09772412	0.034823734	0.1445777	0.07515075	0.13115032	0.10628532	0.06955048	0.18311083	0.08399349	0.16996263	0.24995796	0.27507174	0.040951874	0.16458717	0.03189749	0.029799793	-0.08540019	0.099423625	-0.19236338	-0.20647496	-0.059305076	0.11865414	0.28482366	0.03002938	0.06965016	0.0025241887	-0.016908463	0.20018622	-0.08399637	0.20392151	0.14622584	
0.0008657428	0.036739822	0.07767187	-0.017474746	-0.0071702856	0.00040547605	-0.008220293	0.011324917	-0.009352854	-0.00022696957	-0.012957875	0.0011729957	-0.0028986584	-0.005452199	-0.008391329	0.0019473248	-0.009221568	-0.003282329	0.006964336	0.032011047	-0.0065321946	0.0056530517	-0.0040953527	-0.0046489323	-0.028672842	-0.0575268	0.0076364465	0.00075981655	-0.010570025	-0.0019461963	-0.0010598097	-0.012643294	-0.0027853062	0.0012191724	-0.004116343	0.010780649	0.0058327685	0.018637609	0.025119983	0.0034057451	0.00055124133	-0.0019605458	-0.0048379404	0.016143078	0.013128364	0.0002887947	0.010669936	0.009119205	0.01522979	-0.008184488	0.016259588	-0.00081791333	-0.010262661	-0.004514332	0.024922268	-0.028063474	-0.005792539	-0.0007781589	-0.0094659	-0.054079056	0.026550917	-0.0109007275	0.0345291	0.0020605375	
-0.004011423	0.010983783	0.05083964	0.013207809	-0.01710944	-0.0012219874	0.015662441	-0.014922204	-0.030230926	0.0057194275	0.032948934	-0.0016401425	-0.009507295	-0.0060609537	0.020450257	-0.0071992693	-0.007009748	-0.0021444743	-0.027073273	-0.07207642	0.20612015	5.342099e-05	0.035065077	-0.011555925	-0.015609634	0.03553689	-0.035427522	0.021324549	0.05306666	-0.0024163658	0.00803142	-0.0024124726	0.010218391	-0.00065162755	0.005711788	-0.014465329	-0.0051615806	0.017167214	-0.04440642	0.0019250772	0.004983762	-0.008184007	-0.0024358262	-9.7178585e-05	-0.018762581	-0.01920227	-0.009820333	-0.0070687626	0.0155960955	-0.014348179	0.17738055	0.0015594542	0.006292184	0.0062027834	-0.02316394	-0.009539608	-0.0030412122	-0.016307753	0.014249234	0.07710312	-0.011788781	0.0025499985	-0.02543734	-0.009333764	
-0.015700815	0.015392641	0.12005186	0.02728914	-0.006505795	0.004256764	0.03238668	-0.0072288257	0.026982827	-0.005747401	0.0048281658	0.006554915	-0.16368233	0.0074056764	0.0062860413	-0.001011179	0.030406957	-0.0014215346	0.020170568	0.06980966	-0.018632522	0.0005838083	-0.027408153	0.0031605682	-0.002775072	0.0011126195	0.009062048	-0.0076259007	-0.033860087	0.0017078678	-0.015667073	0.040597618	0.0075637726	-0.0064948364	0.014068478	0.019725975	0.0040734312	-0.04292876	-0.0062341113	0.034020323	0.0012791024	0.031871606	0.006888946	-0.005712086	-0.0019009188	0.021909673	0.009865505	-0.00085123116	-0.031872135	0.005467041	-0.045952663	0.0130633	0.010194099	-0.022133805	-0.045383397	0.068233006	0.016758991	-0.06359823	-0.021682596	0.16876051	-0.059711885	0.047744785	-0.078006096	0.0146093555	
0.008383872	0.04520365	0.22432983	-0.009078906	0.02025659	0.0003463752	0.040532384	-0.023556938	-0.0152576	0.007285516	-0.008046288	-0.00026902824	0.0009535921	0.0038828	-0.010493043	0.0076574227	0.0046641934	0.0019029854	0.011838743	-0.020203223	-0.15141211	-0.011601877	0.02019693	0.00120761	0.015758393	0.04133295	-0.022858994	-0.0009688937	0.026974909	-0.010133982	0.05454389	-0.037727803	0.009022205	0.0036721053	-0.021173088	0.012178107	0.053729977	0.053403616	0.00060176826	0.04140938	0.010105601	-0.03721848	0.04998161	-0.013015566	-0.0056565143	-0.01308021	-0.010584374	-0.0032847677	-0.004192994	0.0024199798	-0.24736275	-0.0036600267	0.00041118384	0.03476854	0.026929842	0.00094965193	-0.008227803	-0.180713	0.012016903	-0.070097364	-0.015376041	0.005844842	-0.044793762	-0.012923133	
0.00059446756	-0.024694858	0.09157074	0.010554608	0.010607684	-0.0005459121	-0.03320787	0.03264244	0.03367281	-0.0056676557	0.027140241	0.0045111044	-0.0032088424	-0.003487403	0.031368773	-0.005430229	0.013831411	0.002180675	-0.0019909067	0.017687878	0.011171788	0.0003884	0.003349893	0.0036831002	-0.008230903	-0.0010119294	-0.019503307	0.015006468	-0.012154598	0.006241991	-0.04243143	0.020900961	0.0058730566	0.0053929887	0.008102881	-0.029005032	-0.034026597	0.0006430249	-0.0049614585	-0.02666331	-0.0076267812	0.023879286	0.019103391	0.02219692	-0.0072084023	0.027710622	-0.01734084	-0.008269055	0.027270295	0.024474181	-0.0018889038	-0.009007652	-0.012366885	-0.018444713	-0.0406925	0.030236159	0.0006118123	-0.09614249	-0.005958702	-0.19861667	-0.01193036	-0.03515892	0.03645188	0.019064961	
-0.0010272077	-0.07090955	-0.1381184	0.01447502	0.003105124	0.0028075099	-0.016972054	-0.012758086	0.017420474	0.0027031114	-0.017958585	0.0015669015	0.016563928	0.0025420466	0.020417016	0.011441408	0.03026764	0.0022966007	-0.015615465	-0.06941864	-0.025102561	-0.0013915794	0.0013727535	-0.006652237	0.03451325	0.1140797	-0.045338288	-0.005904022	0.00533899	0.0040959464	-0.012758276	-0.014048358	0.012568856	0.0021798653	-0.009716739	-0.04744112	-0.012712272	0.008667768	0.16344216	-0.020342326	0.0040406995	-0.019972919	0.011364263	-0.039020304	-0.011154032	0.0062283706	-0.03615519	-0.04149954	-0.054035015	-0.017603494	0.019562816	0.0054441397	0.036093783	0.005938356	-0.02907052	0.05712631	0.0016651546	0.031643678	0.018791368	-0.12548858	-0.053853724	0.004731724	-0.056207392	0.024214337	
-0.0017147475	-0.04423111	-0.095430456	-0.07101267	-0.01444853	0.00937119	0.0046328455	0.040438317	0.025836091	-0.008695002	0.0022271525	0.009059548	-0.10474846	0.00053376675	0.016303027	-0.0032221684	-0.067082345	0.012568961	0.0018557775	0.04230218	0.099822536	0.014668372	-0.012469952	0.01802787	0.02581034	0.39506364	0.04032116	-0.013813961	-0.05777561	-0.0041485275	0.04039982	-0.02651563	-0.022284059	0.0071005626	0.01109251	0.020799283	-0.0033085945	-0.07457695	-0.17862558	-0.053896595	-0.029875465	0.007953846	-0.008100575	-0.068210065	0.018320888	0.037049603	0.03326235	0.086550295	-0.040907573	0.009090892	0.104659095	-0.00068346685	-0.0669973	0.021339148	0.08618747	0.021714019	0.0025797207	0.023909321	-0.010791354	-0.089494236	0.06470508	0.0047478764	0.036578365	0.0003092133	
0.030870967	0.0011114457	-0.057270113	0.0026495208	0.018463286	-0.013876999	-0.08458729	0.03135438	0.05423582	0.007875524	-0.09333807	-0.015877126	-0.32920596	-0.00016107594	0.07708011	0.008259333	0.014302741	-0.0059941793	0.02680683	-0.032236055	0.05930578	-0.0059749195	0.09363824	0.0020743785	0.01577435	-0.11660864	0.015734106	0.0077496474	0.010691332	0.003125207	-0.031215664	-0.0389198	0.0033642289	-0.00080250116	-0.034681357	0.0010946376	-0.06962639	-0.0018405296	0.07405853	-0.056424733	0.03432449	-0.015930973	0.005712914	0.066609785	0.068005815	0.00012639123	-0.068524204	-0.0014762696	0.02415768	0.0068880063	0.2097136	0.0032463006	0.035713255	0.01692203	-0.03809231	-0.040472094	-0.011682899	0.071030915	0.028242426	0.022156542	0.078375965	-0.028059822	-0.079171695	-0.034173325	
-0.0071029295	-0.0048028505	-0.26508498	-0.0067284037	0.03311268	0.008351847	-0.022554157	0.025490597	-0.003791848	-0.00917506	0.07303065	0.0074027553	-0.0010924557	-0.0048549934	-0.009473402	-0.009895471	-0.014205072	-0.0079028	-0.017457878	-0.04935943	-0.22352776	0.005873046	-0.048512112	-0.00017265625	-0.012661217	-0.0020131024	0.055120777	-0.017055314	-0.02266703	0.0036880774	-0.069648445	0.08817417	-0.04355228	-0.011711692	0.029788	-0.048302103	0.027028073	0.0019664303	0.036273524	-0.042237915	-0.039105292	0.058764108	-0.27134377	0.071744606	0.027541386	0.044468667	0.029957382	0.00398722	-0.0020021256	0.0017763708	-0.22714059	-0.00089952553	-0.034426317	-0.018851276	-0.035660736	-0.061196174	0.013113521	0.1337567	-0.012550814	-0.026501216	0.0862159	-0.020136546	0.14134301	-0.021255583	
-0.01221532	0.027899567	-0.026287276	-0.017964415	-0.043870907	-0.0069369287	0.023261093	-0.042716045	-0.022560032	0.010479175	-0.043254126	-0.0084141195	0.02321061	0.0026782502	-0.0417835	0.0056684716	-0.004058323	0.0045745904	0.0055229818	0.05571744	0.06881053	0.00050550175	-0.0002276535	-0.0066657304	0.005557814	-0.020698959	0.017573332	-0.0025838376	0.0014841337	0.0006348369	0.044700015	-0.024725784	0.0067512956	0.003646101	-0.026206216	0.03639892	0.020327192	-0.017556984	-0.01531523	0.022248218	0.016134232	-0.023562472	-0.034811936	-0.021338476	0.011003225	-0.037866108	0.005167924	0.004635045	-0.020968864	0.0015602888	0.12284637	0.00076722685	0.035969064	0.00758007	0.044883486	-0.026560493	-0.0051422496	0.07685095	0.0047761695	0.17225057	-0.001430759	0.03944924	-0.06253663	-0.016232735	
0.003081057	0.029927127	-0.02019538	-0.0055861324	-0.0044744997	0.0025025017	0.0017706869	-0.00042850245	0.0103265885	-0.0006189297	0.036844768	-0.0024777662	-0.042160075	0.00382696	-0.0056010904	-0.0066906586	0.030424017	0.00047071252	0.035790563	-0.00815665	-0.23403056	-0.006613858	0.0063052443	-0.007815595	-0.025202367	0.038568094	-0.032914802	0.022048092	0.0068416987	0.0043617943	0.034261405	0.02005529	0.003948274	-0.0036211037	-0.011662136	-0.0064448435	0.009645042	0.021766052	0.031640995	0.015088839	0.03247174	0.013058827	-0.034564305	0.045098267	-0.01372273	-0.011444717	-0.0019618561	0.016734151	0.03212952	-0.0007786948	-0.29144418	-0.0013911912	-0.20458914	0.008603417	-0.019104525	-0.011214129	-0.0052869786	0.0042390907	-0.017031448	0.17649214	0.03132258	0.010380457	0.041987862	-0.029559229	
-0.0069782594	-0.051666696	0.02563403	-0.06719991	-0.026525252	-0.0012239026	-0.09579894	0.02571264	-0.0619108	-0.049639538	-0.017995	-0.15520787	0.03306984	0.006240602	0.060766056	0.0344535	-0.09108843	0.0003726474	-0.029375926	-0.052557778	0.042438276	0.32625774	0.13048756	0.039567444	0.19676316	0.019051807	0.008323057	-0.06546074	0.08459303	-0.021956095	0.028898116	-0.020841155	0.006913652	0.01964034	-0.04511588	0.035129715	-0.03890223	0.05270791	0.054639604	0.025077373	0.0059288107	-0.050048746	0.015107175	-0.09699891	-0.022601662	-0.020500794	-0.04753993	0.03228112	-0.04410867	-0.036637075	0.011375061	-0.0014300174	-0.0030641654	-0.00074286625	0.075886145	0.015185552	0.012536732	0.004788385	-0.07693211	0.012581963	0.046447407	0.02638654	0.024645364	0.060243014	
0.027788026	0.0801086	-0.021209091	-0.030118998	-0.034134816	0.031882312	0.04929915	-0.044900596	-0.009594961	0.025594011	0.072773516	-0.053473815	-0.047809858	0.06692023	-0.020803034	-0.12322667	-0.14506817	-0.035276398	0.012927563	-0.010439539	-0.08114088	0.25846773	0.044654243	-0.06411144	0.3178743	0.007125522	-0.0003778712	0.083534166	0.044625692	0.048347604	-0.07141074	0.029057087	0.03496824	0.024684498	0.005328885	-0.10766887	0.11204951	-0.0026103717	-0.06164842	-0.0056476775	-0.036560543	0.08885999	0.0011500816	0.027312733	-0.12610328	0.11895346	0.052685283	0.035329845	0.085048065	-0.23358154	0.006158731	0.026527014	0.022219008	-0.006361656	0.028319277	-0.095002145	-0.02164587	0.02742467	0.006560543	0.0030259353	-0.031403884	0.027178342	-0.018915359	-0.17466107	
-0.02701666	0.0023047694	0.008067945	0.10909076	0.055100486	-0.043303315	0.1594249	0.12889189	-0.12909079	0.08122082	-0.13630897	0.03038576	-0.012592783	0.14816344	-0.038110066	0.060769733	-0.181998	0.042663537	0.068112366	0.021115283	0.03719787	-0.17900379	0.15998365	0.029860571	-0.10702186	-0.01076175	-0.033031438	-0.008531831	0.09369436	-0.037618186	0.03412449	0.03718593	-0.0062654866	-0.18380831	0.07377075	-0.14019291	0.12936863	0.026720215	0.030559992	-0.17014506	-0.032703288	-0.036715128	0.04043045	0.031947292	0.034247845	0.13828103	-0.064827405	0.10138318	0.16534176	-0.15422682	0.013117015	0.04287075	-0.01844448	-0.13480467	-0.13995643	-0.043456	-0.14768004	0.021634147	0.026920749	0.010241838	-0.047709037	-0.07037212	0.006095907	-0.026065165	
-0.020475863	-0.0335049	-0.0030590524	0.07014455	-0.045268275	-0.015963098	0.05474657	-0.008668635	0.025743239	0.07050473	-0.08027723	0.1028723	0.012034976	0.08152851	0.03572428	0.05030324	-0.07075857	-0.055882458	0.09510633	0.023530481	-0.0351648	-0.23153	0.01912963	0.049989887	-0.1708695	-0.019397615	0.033307225	-0.04061149	0.038368154	-0.049656358	0.11802977	0.0483872	0.07021721	0.02083886	0.0731489	0.021271136	-0.040241335	-0.039993357	-0.013670548	-0.008971683	0.052563544	0.031434614	-0.060640473	0.03603912	0.023044692	0.16686629	-0.046446163	0.006384388	0.078959376	0.15638861	-0.04347178	-0.10829699	0.032644387	0.035663772	-0.14577268	0.09479516	-0.06054234	0.08863737	0.008129844	-0.007874787	-0.0665299	-0.032901097	-0.06339602	-0.057273075	
-0.12003551	-0.034558684	0.040259477	0.017247034	0.02021323	0.03349194	-0.17440274	0.019218378	-0.07674438	0.025156712	0.009137164	0.0015677399	0.00040005223	-0.014074514	-0.04350004	-0.017562114	-0.029805772	0.024569664	-0.033166967	-0.02158636	0.010435345	0.0476952	-0.041157078	0.059337486	-0.045093566	0.010512825	0.02287801	-0.05584023	-0.02413445	0.026204318	-0.06439216	-0.033259004	0.02976791	0.18502052	-0.037702728	0.053774945	-0.15921395	0.105718404	0.0006995897	0.052644275	-0.013533926	0.07015908	-0.011400701	0.024652226	-0.07098857	0.093415916	0.07159072	0.069270164	-0.018423015	0.3192587	-0.0019244589	-0.03093277	0.0011980502	0.012669053	-0.056666695	0.05584832	-0.07173832	0.07694971	0.072259635	-0.017327461	0.06630541	0.08628487	0.027334442	0.1257689	
-0.03004456	0.044171575	-0.010989393	-0.03309282	0.030504974	0.009222278	0.07927463	-0.08483038	-0.077136695	0.0833045	0.010288456	0.4102626	-0.052055202	-0.007587343	-0.16592771	0.14872287	0.005356425	-0.005577426	0.10546698	0.09976801	0.042291746	-0.042565286	-0.011128743	-0.052036494	-0.061520357	0.050609406	0.029917974	0.033324294	-0.18861763	0.03155389	-0.044239894	-0.02724824	-0.0007326349	-0.053260084	0.04077265	0.038247384	0.048560437	-0.03790452	-0.0028780936	-0.06086718	0.15939382	0.051976725	-0.052507684	0.07176015	0.0338814	-0.1063569	0.07923488	-0.036847647	-0.019374851	-0.14834706	-0.030074429	0.028669305	-0.020811055	0.031867392	-0.04325735	-0.06756794	-0.049001962	-0.04840163	-0.037598845	-0.023819426	0.09796207	0.013863669	0.086618625	0.021784298	
-0.03938529	0.05242083	0.036318462	-0.06298975	-0.076191425	-0.021164205	-0.019836063	-0.0029608242	-0.12118662	0.13521719	0.0972809	0.2673263	0.122591965	-0.18502383	0.004615716	-0.099070385	0.104252115	-0.0044790506	-0.21664098	-0.026885588	-0.11609311	-0.07545834	-0.2679049	0.027521515	-0.0076227663	-0.16255207	-0.09703596	0.010036229	-0.1391059	-0.00095886993	0.07937232	-0.1521659	-0.027665868	0.12914161	0.0109580755	0.19336776	-0.15526503	-0.008941172	-0.09631325	0.038326636	-0.093507834	-0.038591854	0.04445559	0.10394586	0.3287575	0.022378413	0.024517717	-0.16457285	0.024150996	0.038263097	0.015131708	-0.24170128	0.058192223	0.08742054	-0.061787076	0.33156922	-0.0038623307	0.0022659488	-0.1579627	-0.04136801	0.1443597	-0.0650907	-0.014121045	0.15456977	
0.24364439	0.010177507	-0.026692817	0.10492083	-0.0196293	-0.08946931	-0.12154135	0.051897112	0.2433273	0.06633737	0.041692488	-0.2784031	0.09313567	-0.26024702	0.14619477	-0.029757561	-0.4905946	0.051779646	-0.038060036	-0.11573352	0.0020377145	-0.043722223	0.040623307	0.060871214	0.05515357	0.124105334	-0.02710348	0.09184509	-0.17286539	0.01830351	-0.21756242	0.024961395	0.018372778	0.0681878	-0.14370808	0.15263917	-0.16364591	0.18096034	-0.006692967	0.37304166	-0.017902313	-0.047497965	-0.007876845	-0.22837907	0.048192266	-0.39556804	0.055575892	-0.20995332	0.13854204	0.1059817	-0.009015394	-0.4078692	-0.15278935	-0.00028109454	-0.14689307	0.09094409	0.033565108	-0.03107738	0.2967519	0.057437647	0.01571954	0.021238169	-0.1522719	0.10008356	
-0.06241626	-0.10588938	0.01868284	0.018320698	0.071259916	0.20884232	0.0075326324	-0.11033895	0.16406578	-0.06863889	0.18637584	0.11809475	-0.019735007	-0.07789969	0.01666666	-0.011487554	-0.103713475	0.016007118	-0.014601235	0.1646438	0.15934674	-0.14008543	0.035175823	-0.5457366	-0.0016162258	0.028419603	0.053198583	-0.064026654	-0.029290115	-0.029528193	-0.051103007	0.039956596	-0.0963841	-0.22914445	-0.08916119	-0.08391562	0.032266617	-0.07814736	0.08314397	-0.06925702	-0.025927432	-0.03742201	0.25311103	0.069204785	0.03450311	-0.24898261	-0.0105444295	-0.15343165	-0.30096245	-0.13315749	0.07422075	0.24550523	-0.03452862	0.04032935	0.1436436	-0.17331848	0.029291425	-0.09994217	-0.0398867	0.039632916	-0.11624758	0.10110971	0.11131058	-0.16548242	
-0.22083414	0.1085903	-0.027419176	-0.15154944	-0.032033436	-0.104104966	0.13603833	-0.07029589	-0.019832628	-0.021677451	0.035877164	-0.09107243	-0.010302677	0.013060155	0.043132532	0.0051022056	0.12434238	-0.088015914	-0.018947078	-0.062982306	-0.038133375	0.23430985	-0.09741318	-0.24369802	0.027563965	-0.014508306	-0.07221931	0.11894932	-0.029617527	-0.015579344	0.0841512	0.18570578	0.007967051	-0.0016108328	-0.0027652127	-0.021726225	0.18770544	-0.062101126	-0.04406284	-0.100051165	0.0028304344	-0.03462875	0.0032106552	0.024505993	0.09477292	0.01380098	-0.034589406	-0.050965156	0.031064037	0.12742431	-0.014180682	0.050821293	0.03442511	0.045463722	0.09278385	-0.019308437	0.108910054	-0.052462146	-0.0886326	0.001303913	-0.0041316887	-0.092312574	0.008923132	-0.043724027	
-0.06449415	-0.08772814	0.009775343	0.101881854	-0.007036174	-0.024745295	0.035504278	0.12647384	0.36189988	-0.011577862	-0.14165808	-0.26218602	0.051711064	-0.03099446	0.103251636	-0.20101193	-0.039349955	-0.06688095	-0.037775096	0.026759231	0.10823566	-0.010781404	-0.28143716	0.030849185	-0.0054677054	-0.03484691	-0.22968747	0.057616305	0.059184086	-0.05535261	-0.018794565	-0.0085989665	-0.08255458	0.013049469	-0.090633586	-0.06217488	-0.21972717	0.1406859	0.070412435	0.12328358	0.31400272	0.02501603	-0.006455048	-0.08792243	-0.018524576	0.18714981	0.1240005	0.07011535	0.07928253	-0.040013406	0.04077228	0.020735791	0.020532053	0.075270906	0.06313347	-0.20439263	0.023799745	0.011313381	0.17465016	-0.007082408	0.017236022	-0.044439226	-0.064924814	-0.35002327	
0.032580256	-0.25027472	0.1298075	0.044744585	-0.046419654	0.013238355	-0.05834594	-0.20896117	0.011365529	0.08786522	0.085339196	-0.25278613	0.004238994	-0.081792854	-0.06562657	-0.15011519	-0.046396047	-0.055662703	-0.077491775	-0.017927501	0.092106424	0.37715304	0.023400284	0.01048653	-0.23074469	-0.09175567	0.12886126	0.3521573	-0.14447756	-0.02964118	-0.10504931	-0.26284146	-0.0032408945	-0.036381837	0.01723293	0.10194709	0.11893314	-0.20107064	0.12706755	-0.09675804	-0.07448357	0.115924336	0.009596728	0.0288931	0.042742018	0.14175355	0.030075366	0.056247715	-0.005612241	-0.09904928	0.02774395	0.00027376466	-0.006388869	-0.053227305	-0.1569099	0.0025389357	-0.027693765	-0.016370727	0.31056294	-0.064591	0.01316435	0.17218949	0.1594247	0.03361309	
-0.04697345	-0.13942616	0.02570378	-0.07885107	-0.48722625	-0.120462485	0.22208959	0.5600031	-0.120713815	-0.17662916	-0.080189355	-0.027167214	0.03356934	-0.2981729	-0.0011239374	0.53069276	-0.011858498	0.042527303	-0.0441337	0.28600875	-0.36524695	0.34650227	0.06563366	-0.011386659	-0.44942668	0.061880857	-0.11677978	-0.2553489	0.083478816	0.04186518	0.054312285	0.34432223	-0.26966268	-0.021092465	0.047545053	0.24985032	0.05940033	0.24513583	-0.12797248	0.008780701	0.08793765	-0.096558146	0.005577048	0.0022551941	-0.03996111	-0.2509684	-0.27107465	0.035162665	-0.10074888	-0.17882259	0.14407575	-0.0040557645	0.0055841324	0.27417305	-0.073528886	-0.12739447	0.13822524	0.029262297	0.016670387	0.09162736	-0.052876636	-0.0025655082	-0.07536005	-0.1095629	
0.02801527	0.07108019	0.12152504	-0.2206441	0.24785812	0.28955445	-0.02524972	-0.50063473	0.2857603	-0.49866384	-0.19564958	0.03183327	-0.18813358	-0.28308958	-0.027787276	-0.14552231	-0.13008918	-0.15288724	-0.023207514	-0.17533231	0.09456056	-0.2204415	0.008489087	0.0490573	0.08505631	-0.009641929	-0.081815615	-0.18116227	0.21698332	-0.12179037	-0.061323244	-0.30910426	-0.19625616	0.37012914	-0.016272869	-0.21625745	-0.010479385	-0.035227396	-0.044949673	0.11413577	-0.16439037	0.27241725	-0.021328367	0.11550219	0.12006536	0.059951548	0.15153639	0.15692565	0.27181798	-0.13130777	-0.029064324	-0.023316473	0.0026425126	-0.18378772	-0.08646148	0.15696202	0.40875176	0.14306243	-0.1011456	0.3238026	-0.29812142	-0.6470121	-0.16715157	0.18342215	
-0.19239692	-0.061846487	0.31252778	0.098174006	0.21028072	-0.09646855	-0.22220485	0.0531965	-0.018362055	-0.29146388	0.082531035	0.12320527	0.010990683	-0.21153681	-0.22107928	-0.24880308	-0.0676575	0.28784856	0.1256646	0.117120884	0.13342847	-0.27047673	0.07231032	-0.045855023	0.20630147	0.05190799	0.006852166	0.18786706	-0.00072153535	0.21964999	-0.16659781	0.062004924	-0.25802517	-0.045572102	0.13288115	-0.07123036	0.0055357846	0.0047690673	0.034216154	-0.09101076	0.07905539	-0.25342774	0.0036598416	-0.025646932	0.010955426	-0.04702375	0.15378453	0.12301967	0.055809088	0.14184551	-0.24366081	0.029986013	-0.011144795	0.021730734	0.13438685	0.04922864	0.23152705	0.3442587	-0.07744383	-0.082457274	-0.1042211	0.04707088	-0.14109896	-0.12277627	
-0.16821979	0.027461017	0.08579213	0.0237932	0.13957572	-0.10299836	-0.041695703	0.028434372	-0.1922783	-0.103040196	-0.10732255	-0.008428629	0.0033515533	0.0016674392	-0.041269913	0.023000337	-0.041477382	0.011105019	-0.064858355	-0.11567786	-0.022802645	0.004791484	0.008136552	0.021592233	0.080312476	-0.008908498	-0.062415235	-0.008774207	0.0020092202	0.10962133	0.13155334	0.20725954	-0.15615918	-0.5450413	0.13061126	0.072267696	-0.060737763	-0.01955129	0.010484447	0.027577931	0.13078327	0.019106477	-0.01209089	0.06768024	0.10688226	0.0034629558	0.027997699	0.017578993	-0.14682432	0.28695172	0.014964152	-0.04097559	0.010275677	0.06878065	-0.09678585	0.052028455	0.20075527	0.16162291	-0.25001895	-0.29843467	-0.02114866	0.4346186	0.13148554	-0.017690215	
-0.073445246	0.37733474	-0.17525926	-0.12933896	-0.017278338	-0.009127288	-0.07484946	0.15325981	-0.07882303	-0.2401352	0.13103896	0.6167864	0.034079827	0.16868304	0.09441181	-0.6459731	-0.01688031	0.00077873917	-0.2752877	0.22437443	0.015673304	-0.0069778957	0.21139763	-0.00963515	0.10033091	0.11802997	-0.26722643	-0.6701991	0.042120047	0.1054066	0.33605632	0.3659252	0.12539807	0.10205044	-0.16299082	0.10462825	-0.21574837	-0.035289213	0.48046497	-0.075583	-0.25766993	0.105160646	-0.020499943	0.17179498	-0.15776594	-0.22031514	-0.05966416	-0.011413823	0.10119636	-0.093681104	0.047203276	-0.003926265	0.018979449	-0.1361779	0.48895282	0.21253875	0.17578124	-0.015382695	0.11759611	-0.19602571	-0.1131387	0.006281395	-0.18050265	-0.26343846	
-0.019882813	0.519266	-0.16691855	-0.09066126	-0.029246403	-0.15679118	-0.27276522	-0.5134139	0.11956611	-0.35278618	0.051787928	0.27338475	-0.18410347	0.6904206	-0.13940348	0.27163908	0.11127721	0.14496624	0.6923785	0.08589669	-0.088694915	-0.18475668	-0.12963837	-0.0104255285	0.087254316	0.37271744	0.36306134	0.58363456	0.140719	0.030312557	-0.009526262	-0.0059251995	0.3233165	-0.25342628	0.18157795	-0.7669985	-0.24051724	-0.15336345	-0.444288	0.1952105	0.65620506	-0.93218553	-0.012791556	-0.40817922	0.09398097	0.32143638	0.5971153	-0.33081466	0.026517678	-0.1469449	0.024280712	-0.050044224	-0.0045065396	0.25055438	-0.4257575	0.1011404	-0.027114024	-0.11460178	0.33029032	-0.14256695	0.33336535	0.10824791	0.2719054	0.50128436	
0.32835013	-0.41378754	-0.03517979	0.7877582	-0.18162055	0.62520885	-0.00550711	0.3633594	-0.48705828	-0.20439899	0.40557998	-0.29112834	-0.19988467	0.46211633	0.2425907	0.14203669	-0.15407625	-0.43231767	-0.18457209	-0.18954349	-0.07938168	0.0034701233	-0.17346548	-0.0045117047	0.060925674	-0.21625048	-0.13160208	0.14902773	-0.7435148	-0.20298035	0.51563543	-0.058259074	0.546829	-0.21563864	-0.25055724	0.31236917	0.28512204	0.48003042	0.065295964	-0.115261294	-0.34797794	0.36516592	0.017487727	0.06851832	-0.18371065	0.095130555	-0.51867855	-0.4880801	-0.027385015	0.21693838	0.26074696	0.018769095	-0.03123755	-0.21666595	0.43553123	-0.14122091	-0.006061269	-0.17464018	-0.50835896	-0.01647058	0.48096755	0.38052523	-0.24973541	-0.34669796	
0.013586491	-0.12730974	-0.37218708	-0.13605931	0.26265466	-0.8908936	0.25747737	0.14473642	0.12682962	0.3382313	-0.19204336	0.092311054	0.016945634	0.1927011	0.20112294	0.22091873	-0.058433864	0.08653851	-0.12765753	0.15060177	0.18538383	-0.11596554	-0.008850895	-0.0653103	-0.028478472	0.030915137	0.18801528	-0.16357592	0.12544556	0.19268596	0.1694959	-0.0652606	0.469758	0.67592907	-0.42198402	-0.0026812253	0.04653062	-0.21639529	0.12115813	0.10163751	-0.121049486	0.3219273	-0.039719794	-0.04779287	-0.03770939	-0.07359931	-0.19369887	-0.40372917	-0.2121076	-0.09332248	-0.26563233	-0.020962441	0.005777636	-0.0611089	-0.3197621	-0.2075081	-0.052503895	-0.25987703	0.10663951	-0.0786979	0.17844236	0.04697852	0.35117298	-0.006519001	
-0.45298016	0.062948026	-0.004950073	-0.09436274	-0.4637388	0.49572033	0.1343179	-0.05629994	0.11846373	0.23934448	0.18796453	-0.078722775	0.02944425	-0.038843215	0.030643994	-0.010912601	0.16383955	0.6125834	0.04514881	-0.2958238	-0.08241145	0.31271872	-0.04485106	0.009418686	-0.011747276	-0.059647348	0.10782409	-0.0073396186	-0.10572268	0.44822836	-0.0686825	-0.18790394	0.10989639	-0.005420635	-0.24999946	0.002806039	-0.0017332151	0.018348176	-0.056139074	-0.051378645	-0.0996397	-0.03818807	-0.019954573	-0.0058271266	-0.1425919	0.042016093	0.036088023	0.005946517	0.12935379	0.16065916	0.15247652	0.03922255	-0.012442109	-0.022605592	0.10039059	-0.062138885	-0.38312656	-0.12915057	0.33567256	0.2597619	-0.0059860703	-0.40145978	-0.17537199	0.09921625	
-0.05727109	-0.00635063	-0.0125929965	0.18011601	0.013809487	0.04924113	0.13311823	-0.15220393	0.08753405	-0.011777485	-0.19914232	-0.36457646	-0.099583276	-0.0029706296	-0.11636077	0.7995731	-0.04349872	0.1428217	0.5990208	0.19992208	0.30235937	-0.109711625	-0.10206511	0.021304797	-0.014718847	0.05088797	-0.5567173	0.34753522	0.09338686	-0.041808613	-0.1917404	-0.1936838	-0.07373695	-0.04329303	0.4749277	-0.12361412	-0.4408901	-0.1100168	0.07062372	0.16892579	-0.72046775	-0.10781912	0.016307142	-0.14088263	0.06300484	0.15261348	0.08129138	-0.15881327	-0.12148163	-0.100347765	-0.28030175	-0.014762711	-0.014836873	0.43921825	-0.20560206	-0.1860126	-0.12972628	-0.01668604	-0.47993013	0.31603625	0.15730019	-0.16628627	0.08512323	0.0032475626	
-0.040272288	-0.06919979	-0.036591593	0.04961817	0.002387899	0.011468952	0.058858845	-0.048169035	-0.06873071	-0.015248177	0.115294	-0.010427189	0.2343316	0.0013896493	-0.09153337	-0.0014738059	-0.0064389347	-0.0016777454	0.0357451	0.019024845	0.011626052	-0.0014760852	-0.13355522	0.015306568	-0.002980104	-0.24535212	-0.050194666	-0.012818266	-0.0018939173	-0.042441603	0.04349287	0.022134038	0.012352754	0.00066227413	0.068553194	-0.03594442	0.0017982678	0.055887192	0.078308254	0.13459934	0.017817628	0.057774317	0.4154279	-0.19281997	-0.17503159	-0.053189892	0.016981404	-0.021750977	0.040152982	-0.00659697	0.041125175	-0.002233016	-0.41378736	-0.030481216	0.03151761	0.12355919	-0.00074553036	0.050402414	0.0133389095	0.039075363	-0.16876204	0.01823098	0.23810631	0.05548814	
0.0070184106	0.02913014	0.021616781	-0.062404986	-0.04203282	-0.002750069	-0.0053626983	0.02236785	0.010842093	0.005614242	-0.09451857	0.0005921867	-0.0059521804	0.0068316683	0.0089719305	-0.0060892114	-0.012448369	0.01730228	-0.0066897506	0.03626721	0.047712035	0.0070431377	0.04678121	0.0049340827	0.012799793	0.0811174	0.024022544	0.010090802	-0.039009362	0.02254931	-0.001715417	-0.06852981	-0.009953908	0.00010538633	-0.015912775	0.024122193	-0.01214812	-0.02219133	-0.028519584	-0.07296197	-0.0003837429	-0.058145076	-0.16025512	0.05831051	0.10173803	-0.024362855	0.014859455	0.024978604	-0.0063991696	-0.0035800938	0.0042133383	0.0074855317	0.24118508	-0.0038686313	0.061346963	-0.11549514	-0.0040763114	-0.006758285	-0.024729634	-0.058420174	0.075759724	-0.0030650313	-0.08341237	-0.026709976	
0.2845304	0.05537698	-0.012388523	-0.22870283	0.1162788	-0.006883648	0.56975335	0.15122353	-0.16799526	-0.20921512	-0.07184894	0.011652506	-0.14139315	0.19634368	-0.6459062	-0.058984023	0.72751325	0.082658894	0.18312748	0.22599648	-0.03343992	0.037354697	-0.20069656	1.1116884	-0.08980508	0.09673104	0.26636803	0.13868992	0.28045407	0.11437741	0.104303434	-0.48899984	0.19261499	0.011695887	0.26353118	-0.21918985	-0.67467946	0.3909506	-0.23141183	-0.8443672	0.13059159	0.038772125	-0.15440784	-0.044347722	-0.2011465	0.20702395	0.121001	0.027784824	-0.49965543	0.020992989	-0.06825444	1.077307	-0.05233144	-0.49366453	-0.06271002	0.44879282	0.115842946	-0.013567633	-0.17251386	-9.823922e-05	0.061751693	-0.024225539	0.19970056	-0.54510444	
-0.0554643	-0.023210483	0.03247562	-0.039091427	0.052160278	-0.023484953	-0.1693653	0.067321636	-0.069256544	-0.115813084	0.05937646	0.053764243	0.0016756217	0.103078276	-0.029944723	0.04773121	-0.07497999	-0.015038929	0.06199913	0.101668775	0.12081741	0.031482954	0.17818846	-0.19972831	0.058161397	-0.06997439	-0.0025032982	-0.053016078	-0.047163278	-0.011453067	-0.0279975	0.020851908	0.06715042	0.04219655	-0.0912203	0.100646034	0.022380466	-0.07946994	0.03720768	0.1898142	0.03147574	-0.12508224	-0.085787825	-0.033299204	-0.07460734	-0.14436795	-0.09278029	0.0180343	0.12165753	0.04586547	-0.05809567	-0.055442255	0.098530576	0.091403544	-0.08516448	-0.27146706	-0.049209118	0.03183884	-0.055423085	0.108214825	0.036019344	-0.07849748	0.123559915	-0.034972034	
0.036966044	0.15140441	0.0026457482	-0.0036247934	-0.00831016	-0.047767635	0.024021085	-0.15963511	0.1858797	0.27334356	-0.018341858	0.16280802	0.1121298	0.14998859	0.025797756	-0.0024819395	-0.09466674	0.12620619	-0.08017074	0.11156998	0.07604072	-0.13318585	-0.011763941	0.121830136	0.051835623	-0.07394718	0.013949088	0.137674	0.02721153	-0.2279426	0.094543815	0.018692117	0.1243642	-0.11002976	0.115205795	-0.041932207	0.11092505	0.1116512	0.038377687	0.047719814	-0.15051515	0.063670374	-0.05231991	0.0025754012	-0.11506173	0.024945004	0.065017395	0.257366	0.04936029	0.05695565	0.20995677	-0.14573719	0.16328236	0.10991968	-0.13894026	0.011056081	0.010843845	-0.14076543	-0.46280637	-0.07539771	-0.0995233	0.011945279	-0.012971024	-0.07091746	
0.1636167	0.2285679	0.1593757	-0.035814848	-0.01843201	0.10902271	-0.0020397033	0.098376706	0.16702014	0.16506879	0.15484524	-0.06909487	0.1309811	-0.014289546	-0.056459516	-0.13354677	-0.17060693	0.2692342	-0.0039964723	-0.039839458	0.03694029	-0.04269589	0.19825725	0.053771175	0.05178901	-0.04701678	0.041758318	-0.016821442	0.17875415	0.09008084	0.0018767318	-0.024950406	-0.05083964	-0.019058146	-0.21814005	0.108825214	-0.0048822253	0.22401287	0.06121157	-0.07613644	-0.13545598	-0.12789208	0.10783666	-0.0637057	-0.09308351	0.11927816	0.12596421	-0.0950659	0.124592975	0.102974065	-0.023693051	0.060721494	0.092012964	-0.09206706	-0.031255912	-0.13014258	-0.14069015	-0.15730707	-0.06133266	-0.12886904	0.09766483	0.33986682	-0.25220832	0.15384789	
0.0049970644	0.10695491	-0.22441036	-0.4086686	0.0037370422	0.00535297	-0.055352163	-0.0060126134	-0.036982197	0.030433577	-0.013201539	0.037573345	-0.05221547	0.0013431788	0.00499916	0.21437344	0.014182163	0.0014984572	0.06611022	-0.066110276	-0.15817049	0.053228922	-0.041450106	-0.08925868	0.012094347	-0.037960753	0.0039442806	0.041107487	-0.58351076	-0.03955602	0.0823449	0.030260228	-0.033444814	0.014667667	0.024178892	-0.047381647	-0.014469208	-0.026854688	0.014955412	0.014315687	-0.006941318	0.022315187	-0.013658712	0.08046386	0.052370965	0.108966365	-0.041137192	0.010421832	-0.009667889	0.020980041	0.082474984	0.07293594	-0.015810948	0.14961651	0.06827762	-0.015750637	-0.0641956	0.075834766	0.071676165	0.31715313	-0.009717882	-0.047104657	0.299829	-0.022179473	
-0.08997508	0.10991809	-0.06253004	0.060567647	0.21078245	-0.12246083	-0.062161807	-0.22717752	0.2448385	0.10846223	0.13889153	-0.065943636	0.2222989	0.1867837	-0.26746467	0.034600317	-0.040044017	0.15874386	0.24330781	0.25458667	-0.14765981	-0.16666919	-0.01885642	-0.13869402	0.029617442	-0.31028196	0.28240433	0.39132252	-0.030317515	-0.17586978	0.036451805	0.099821515	0.035901006	0.1293538	0.004424365	-0.2731337	-0.13205737	-0.07463329	0.11479253	-0.08574681	-0.051443238	0.18788837	0.121680535	0.32997128	-0.22687018	0.10413688	0.17472135	0.003852452	0.08337983	-0.0022420592	-0.1477632	0.075613104	0.056677695	-0.16208524	0.1992	0.17802663	0.19332302	-0.25077906	-0.09144895	0.061805364	0.056297835	-0.104718536	-0.016831929	-0.23546512	
0.04160583	0.13944432	0.1669479	-0.14797524	0.10035404	-0.057411067	0.16840598	0.1123658	-0.05343719	-0.036872715	-0.009869453	-0.11203008	-0.15540107	0.36234832	0.00501987	0.15815745	0.1465204	0.07653552	0.022904102	-0.022032408	0.05748545	0.018179106	-0.09729162	-0.35549706	-0.091264755	-0.11600139	-0.15822291	0.17431565	-0.14998248	0.00035788317	0.16119964	-0.027574908	-0.007997495	0.16031824	0.09827654	-0.10583914	-0.021784414	0.055860527	-0.11320842	0.015828831	-0.14369223	0.0426664	0.019203871	-0.111670285	-0.01669386	-0.026398655	-0.0396288	0.046450485	-0.1309676	0.27280912	0.048685372	-0.01932429	0.09672006	-0.05665027	-0.15880731	-0.19051932	0.05660749	0.040377263	0.07833765	0.15086934	0.13161413	0.07608486	0.068043426	-0.103172675	
0.063656576	-0.018824916	0.21607941	0.20426849	0.09417484	-0.15754583	0.39597023	0.16880886	0.053944524	-0.0032715984	0.018573485	-0.5818261	0.08650021	0.30981058	0.0019887993	0.02112589	0.21310602	-0.06667449	0.108740486	0.04033801	0.013179929	-0.0129379425	-0.1167817	0.07555058	0.20139666	0.057556447	-0.38879272	0.33465967	0.3056001	-0.01666351	0.23637007	-0.11301142	-0.38940376	-0.025139276	-0.18457384	0.34031308	-0.046599463	0.026674544	-0.15062438	-0.17107838	0.04411886	-0.042435907	0.20860517	-0.0033698461	0.4890324	0.15442711	-0.09210135	-0.22447863	-0.012492241	0.4243739	0.08558788	0.26229897	0.26627952	-0.10457063	-0.07009101	-0.042536918	-0.12821019	0.12368551	-0.31249812	0.07215311	-0.23158792	0.11602893	0.04782231	0.34012982	
0.2371016	-0.059371542	0.11709398	0.20819771	0.16651863	0.057090364	-0.1525486	0.26627755	-0.092165485	0.0432709	0.123522006	0.10118537	0.21597661	-0.018460117	0.19671997	-0.114729665	0.04008094	0.037994824	-0.1532348	-0.16297407	0.08973163	-0.20027122	-0.11410628	-0.0664472	0.0701986	-0.12178138	0.12866437	-0.18720128	-0.026829856	0.051719263	-0.18979065	0.22743328	-0.044798475	0.10597905	-0.041001942	0.043752894	-0.13053969	-0.08201561	0.1510782	0.17823343	0.015065883	0.056029677	-0.31672758	-0.013732055	-0.061638225	0.08498948	0.14615236	0.03921523	-0.19760685	0.08484592	-0.15489705	-0.19454324	0.0757991	-0.0406241	0.015773837	0.14984615	0.09777978	-0.084524356	0.2557374	-0.020749737	0.102433264	-0.2799996	0.064815484	0.15174943	
0.08950077	-0.17473409	0.18890162	-0.09638865	0.17107706	-0.16321775	-0.003010377	-0.10968479	-0.052279253	-0.1629735	-0.13131817	-0.036205657	0.25494257	-0.38925087	0.6317408	0.23389949	0.060762264	-0.016634827	0.044270813	-0.063455634	-0.042014983	-0.108785026	0.34281227	0.14156005	0.12940331	0.001969659	-0.18640965	0.037397116	-0.035760455	0.12958471	-0.3982472	-0.16667022	-0.029752161	-0.02012344	-0.07058666	0.0042555165	0.07101726	-0.17810448	0.08855865	0.08666467	-0.110564336	0.187883	0.050182253	0.23527674	-0.13748413	0.2034046	-0.028388223	-0.09691606	0.2428972	-0.1123183	0.1433765	-0.20931132	0.14775008	0.12738608	0.053437006	0.040941335	-0.0657891	0.050902996	0.035069104	0.09217865	0.12033372	0.00818651	0.054590452	0.10440899	
0.09209295	0.16817033	0.08024328	-0.0270957	-0.12589414	0.21322243	-0.015854914	0.20760773	0.0734741	-0.11744587	-0.098877415	0.103834085	-0.03460715	0.024606833	-0.22607777	-0.207053	-0.06919824	0.07459418	0.031466942	0.10043812	-0.026627064	-0.17637013	0.1308148	0.029870192	0.087634794	0.031740848	-0.11855323	-0.11264859	0.11574309	0.042543024	-0.009536643	0.1812366	0.019545648	-0.038363073	0.014220502	0.20552765	-0.0680874	0.11940061	0.03007254	-0.07585718	-0.14765182	0.21977937	0.20180635	-0.18023804	0.034296487	-0.3298162	0.092791066	0.08250654	-0.11137437	0.17988737	-0.0067328447	0.0074330973	-0.0843569	-0.034254603	0.051054996	-0.13878356	0.1368577	0.21968333	0.24320073	-0.30254215	-0.036120236	-0.083771795	-0.02863161	0.2496819	
-0.069141515	0.13623744	-0.05390961	0.09539046	0.018047526	-0.10345836	0.14740165	0.05353452	-0.15023811	0.20536198	-0.061130967	0.040332567	-0.05450234	-0.09265928	-0.010583919	-0.04438757	0.4214624	-0.0035752323	0.17674644	0.019112151	0.055048116	0.16311488	-0.09519652	-0.18592995	0.25984395	0.0970782	-0.5736483	-0.14445408	0.10173992	0.0011201386	0.08541146	-0.031706363	-0.040263806	-0.1722597	-0.016981157	0.051526483	0.009395472	0.1189877	-0.033687938	-0.10121966	-0.1691533	-0.030201145	0.069827065	0.11581097	0.03127142	0.12870729	-0.07796916	-0.04347654	0.101359166	0.047677554	0.22288518	0.045089852	0.0035450885	0.03696313	-0.060176205	0.027928313	0.14005838	0.021272982	0.05814826	0.1928122	0.27416903	-0.14489654	0.007909753	0.13446401	
-0.02328847	-0.1034698	-0.050108146	0.16792682	0.013797935	-0.21631347	-0.02608662	0.01408602	-0.0132132005	0.016470492	0.018993657	0.0408808	0.14244913	-0.17776917	-0.23676041	-0.17965572	0.0064038467	0.19684689	0.043199483	0.20097056	0.09379066	-0.06870218	0.13146935	0.242497	0.00010933391	0.17773713	-0.13121	0.09133497	0.009104122	-0.10953544	-0.11018192	-0.15771052	-0.036205854	0.12612861	-0.024201026	-0.031964302	0.035273336	0.051771365	-0.08730606	0.011312904	-0.25011685	-0.10684953	-0.08682808	-0.03336161	0.10039407	-0.13050596	-0.014086566	-0.0031448123	-0.06743542	0.01684797	-0.01730179	0.22657555	0.0021117884	-0.08259006	0.13883993	0.013270894	-0.02254257	0.106872246	0.05266214	0.17462485	-0.009947339	0.039715096	-0.048919354	0.14318411	
-0.024185905	0.0351398	0.15101796	0.15054266	-0.33118913	0.14365779	0.05349775	-0.22171845	0.416072	-0.16257162	0.008749835	-0.0520123	-0.009604157	0.025065862	0.051865753	0.013153659	0.07071384	0.20297828	-0.25704983	-0.02460597	0.050299294	0.30155104	-0.083182864	0.077424735	0.13334319	-0.17910361	-0.08312978	0.040687054	0.10980008	0.009160254	-0.15714279	0.18567543	0.109028265	-0.040218763	0.5791629	-0.046148993	0.21934864	-0.016237859	0.050515335	0.47687617	0.20788687	0.15072048	0.061486997	0.002408729	-0.011875848	0.09476493	-0.019076817	0.10581929	0.062161673	0.07873647	0.27925098	-0.10364943	-0.034142103	0.05444864	0.023819158	0.0646694	-0.05626784	0.021119028	0.033458725	-0.08286022	-0.096023925	0.045765374	0.1468793	0.07776954	
0.01697665	0.050906397	-0.1429206	-0.4032361	0.065204166	0.030830178	-0.19795637	-0.00889916	-0.042326182	-0.0014258566	0.02132907	0.018548798	-0.069966584	0.0050923964	-0.002938978	0.15373476	0.06434565	0.015051912	-0.037934367	-0.012155974	-0.11974556	0.039388403	0.018208297	-0.013591435	0.0054809153	0.06631626	-0.07022161	-0.017340543	-0.93988425	-0.051234085	-0.03880952	0.019530946	-0.016828427	-0.093456395	0.0021078254	-0.03122818	0.012585206	-0.02090613	-0.044380486	0.04335871	0.007299067	0.03413951	0.003726941	0.0046349335	-0.050930187	0.09954877	0.022834338	0.0070889653	-0.08061807	0.069684155	0.043710053	0.046312597	-0.037136298	0.020696022	-0.06464296	-0.026476547	-0.046168294	-0.028940508	-0.04827792	0.18302037	0.02794471	0.004645233	0.091126345	0.03094207	
-0.06644813	0.34088832	-0.059252795	0.08598841	-0.13091494	0.3662037	0.14849032	-0.09345101	-0.020481912	0.015096806	0.014202347	-0.054849036	-0.019760093	-0.055498134	-0.031761017	0.18034893	0.21181658	-0.2955357	0.0332613	0.01487227	-0.104818024	0.0039467667	-0.16325524	0.0403397	0.20615359	0.13403893	-0.6144602	-0.05327168	0.16705537	0.0149214575	0.003679683	-0.1328211	-0.16213582	0.16195045	-0.1255983	0.23062867	0.10188933	0.09435828	-0.05411884	-0.11239326	0.17152658	0.083778374	0.06708377	-0.20416445	0.26125622	-0.086577184	-0.1698629	-0.089824215	0.059199736	0.16668464	-0.1061109	0.07074968	0.030660398	-0.019845542	-0.13896933	0.024677135	-0.06906617	0.7631975	0.080447234	-0.06365771	-0.17472982	-0.09221587	0.21166746	-0.17248937	
-0.19719346	-0.16619776	-0.23496778	-0.08668281	-0.1636124	0.13208821	-0.09705913	-0.1381788	0.13924603	0.13987973	-0.18471411	0.15949994	-0.2074715	0.08439595	0.06810355	0.05866301	0.1368927	0.18618295	-0.004749075	0.07646837	-0.08409229	-0.07484909	0.13960367	0.01684842	-0.21250662	0.12358492	-0.023877896	-0.07196581	0.17019098	-0.04626508	-0.10059047	-0.07473275	-0.02889549	-0.12448897	0.10451467	-0.21437837	0.016275488	0.009826294	0.10564106	-0.08757546	-0.22612287	-0.001423106	0.073453024	-0.08071879	0.11119739	-0.007978898	0.21536835	0.19457014	0.0032560441	0.1559731	0.3196551	-0.03475002	-0.047615815	-0.09568544	-0.23334819	-0.1279427	0.05024908	-0.2723546	0.02195613	-0.04321191	0.110466525	0.22388616	-0.04898005	0.12894136	
-0.0034444372	0.17441007	0.2484656	0.28923526	0.08444616	0.06582495	0.3998905	0.22311011	0.0530993	-0.27739385	0.08374247	-0.19108075	0.05886502	-0.094517425	0.20604967	0.025285875	0.17281051	-0.110896826	0.01937753	0.20304444	-0.02113298	-0.18840471	0.14297381	0.1649055	0.044245955	-0.22216159	-0.28334913	0.0806524	0.22048399	0.049250327	0.2475412	0.19454195	0.15968308	-0.15003954	0.061938096	0.084638156	-0.065154195	0.04853636	-0.24995314	-0.0038936757	0.028472342	0.04606463	0.10207917	-0.20155467	0.27316234	0.11516304	-0.11423474	-0.27454343	-0.44184494	0.24607298	0.18650925	0.10331585	0.3184574	-0.11622708	0.07353222	-0.1636687	0.099771276	0.11567777	0.004254031	0.06295892	0.063766986	-0.20280835	0.05939176	0.14187536	
0.059700403	0.16902757	0.06953997	-0.089772366	0.008707123	0.07208302	-0.13101245	0.038948454	-0.15436094	0.12365555	0.0067303996	-0.05486772	0.03937473	-0.10673906	0.004841239	0.0882743	0.026413793	-0.056126814	-0.06830842	-0.10647391	0.047683008	0.30582052	-0.10365499	-0.013195772	0.10410755	-0.0174222	0.026315017	-0.07711894	0.0019507546	-0.12611806	0.010492419	0.020097224	-0.06449708	-0.016378144	-0.102994345	-0.02956506	0.04614088	-0.020952553	0.123209506	0.3246834	-0.44762677	-0.06877705	-0.15302917	0.062056933	-0.018199854	0.034006167	-0.115138486	-0.021703588	0.037628222	0.00027368343	0.054115687	-0.3489647	0.08352453	-0.0731112	-0.06118215	0.08242265	-0.19849886	-0.0023713368	0.010002407	-0.4106617	0.0037799736	-0.0044916533	-0.3009594	0.05789245	
-0.10773865	0.032612592	-0.13838632	0.058474325	-0.119343705	0.038518954	0.059892584	-0.029960431	-0.024539106	-0.035627782	0.09057078	-0.22619358	-0.119291365	0.007069708	-0.044640567	0.18339714	0.13148835	-0.011464881	0.23354365	0.12095664	0.26188424	0.044463113	-0.14747132	0.04035729	0.020943588	-0.012312362	-0.2627061	0.18737638	-0.035346698	-0.18481535	0.27333614	0.07984771	-0.8986513	-0.14732963	-0.3560305	0.123829134	0.088394985	0.21611868	-0.17567448	-0.14688623	0.03071805	-0.007719771	0.022147793	0.111269996	0.19883616	-0.032158997	-0.013708413	0.2581552	-0.004207436	0.22344328	-0.10034075	0.16547021	0.27892202	0.29956165	-0.22111963	0.035886616	-0.1065376	0.08915684	0.030363547	0.10131487	-0.11630157	0.01770849	0.06759227	-0.011080752	
0.015296659	0.13255656	-0.10887705	-0.22606327	-0.0745519	-0.11194443	-0.20215286	0.05584374	-0.008637593	0.01714381	0.4744253	-0.042667463	0.25435147	-0.047491424	0.09605991	-0.067679636	-0.18845221	-0.07207373	0.11138654	-0.15083705	-0.059233177	-0.0097506195	-0.34677303	0.13777922	-0.107881114	0.06860585	-0.027756892	0.009786695	-0.20068312	0.027336547	0.20640978	-0.19557735	-0.105695195	0.061199192	-0.010675627	0.02132774	-0.11936317	0.028775292	-0.21247634	0.04860005	0.21147802	0.28625718	-0.17326748	-0.13620006	-0.032014426	0.0114118485	-0.038960163	0.22866143	0.017767765	-0.28501257	-0.05810562	-0.09246917	-0.17640561	-0.12973014	0.1615735	-0.058784958	-0.095841296	-0.23808645	0.00021989619	0.16956665	-0.12760659	0.04089788	-0.10421238	0.045404993	
0.09168658	0.052260634	0.24107754	0.19615869	-0.028890874	-0.016074222	0.018260734	0.08231811	-0.017474055	0.3554227	-0.111419186	-0.16735105	0.04608446	0.017357389	0.04214058	-0.14076696	0.072209015	0.09317617	0.1273675	0.1572253	0.16039585	-0.17028038	0.034592476	-0.0819964	-0.097522974	0.046400566	0.0139996065	0.11485374	0.20529477	0.041321356	-0.04941082	0.06806507	-0.00172197	0.09127443	0.18259132	-0.0017249048	0.0035681627	0.19267137	0.03342058	0.039974857	0.06135568	-0.13814199	-0.0024168321	0.12466706	0.104687124	0.053855952	0.13954645	0.060323883	0.28412318	0.032652874	0.008166778	-0.10528635	0.03848579	-0.027653325	-0.02621355	0.11233436	0.04654788	-0.10687942	0.13867182	0.09948846	0.039983977	-0.036234275	-0.21102518	0.07094312	
0.017567942	-0.0025626183	0.23276739	0.40142322	0.070601396	0.05746918	-0.016756741	-0.03702776	-0.17768659	-0.03864513	0.012246534	0.066175476	0.1443654	0.058314133	-0.030364305	-0.42698717	0.041192617	-0.076762296	0.08610601	-0.0074895686	0.16376382	-0.044030894	-0.018509742	0.016243119	0.20836955	-0.04820235	-0.03456538	-0.05250953	0.41322726	-0.112687685	-0.072615296	-0.05497374	0.044755004	0.05280394	0.081368886	0.13610114	-0.009190273	0.02015563	-0.00017674906	0.0030944352	-0.02020915	0.09279873	0.07352928	-0.065767184	-0.053270955	-0.015876925	0.119475625	-0.02003452	0.03817728	0.09676652	0.06861811	-0.0639075	-0.06244382	-0.15395021	0.06723135	-0.015905445	0.031329915	0.025726622	-0.06255131	-0.24151857	0.021975785	-0.016862538	-0.3504991	0.030482959	
0.084936224	0.043190315	0.10350383	0.15063266	-0.08609583	0.004622955	0.053250987	-0.041060872	0.3095218	-0.018329581	0.016117785	-0.028296603	0.035798658	0.060929514	0.01174222	-0.13432896	0.018532025	0.027384292	-0.16413505	0.09379107	0.16740058	0.23986362	0.029004382	-0.018078037	0.05927486	-0.010935833	0.040729675	0.07262105	0.14155674	-0.09319458	-0.1449502	0.2121239	0.0704512	0.1033401	0.27169117	-0.019475969	0.0868745	0.06774585	0.0013301321	0.24106357	0.084921576	0.15240195	-0.040960297	0.07670863	-0.14032663	-0.034241855	0.09215046	0.10060661	0.18013032	-0.006929778	0.30020443	-0.10088002	-0.13026449	0.069814436	-0.12243213	-0.012846716	0.03632665	-0.042346198	-0.10369216	-0.1401717	-0.009430604	-0.1239018	-0.0098176	0.17308626	
-0.054558355	0.1619716	0.008193983	-0.17851476	-0.036615595	-0.010169175	-0.175122	0.018471854	-0.15817921	0.01677651	0.19938983	-0.034075424	0.03726823	-0.013244619	-0.06889467	0.18515864	-0.09991795	-0.19659567	-0.26408857	0.2610225	-0.040467188	-0.3162866	-0.04239411	-0.035936113	0.01676018	0.078136876	0.001725103	-0.07299311	0.066399805	0.15816428	-0.05493183	0.08794844	-0.07509059	0.08511347	0.14284472	0.05987094	0.10248441	-0.0355162	-0.04958163	-0.07066873	0.17800362	-0.34234235	0.13355935	0.09628977	0.037786465	-0.22545469	-0.23698403	-0.03929279	0.07198274	0.12578778	-0.013342952	0.009424162	0.05594006	0.009823407	-0.041404884	-0.020649614	0.150889	0.07578937	-0.0046074474	-0.2229833	-0.082943946	0.0741371	-0.32432076	-0.17498842	
0.09157376	-0.12589066	-0.099545084	-0.023303974	-0.061846	0.30019706	-0.06951748	0.14955746	-0.26151186	-0.15639487	0.01750909	0.12536997	-0.019681096	0.13247679	0.027267668	-0.31813672	-0.028708082	-0.01764111	0.016720047	0.10476897	-0.25014603	0.06214923	0.043096434	0.083189085	0.030795235	-0.0917089	-0.1675742	0.07986386	-0.037887514	-0.53342915	0.052259535	-0.082323484	-0.6726775	0.015516291	-0.30448988	0.21041498	-0.012077348	0.16545315	-0.021765899	0.29168427	0.007174314	0.11643748	-0.037808683	0.041244246	-0.15152876	-0.050056435	0.058867995	0.10256842	-0.19841214	0.10729791	-0.0719298	0.042796887	-0.05000283	0.16279714	-0.015582147	0.08223289	-0.07564183	0.05381465	-0.58483255	-0.19210805	-0.1880219	0.013939759	0.0071562533	-0.07853523	
-0.058714453	0.05935839	-0.22921076	-0.09381638	0.09818088	0.17804468	0.11789225	0.014225996	-0.06400165	0.11330376	0.017468117	-0.11164166	0.21881416	-0.0811328	-0.039088678	0.17589276	-0.04886451	-0.041283775	0.24389993	-0.036959153	0.09234071	0.014478423	-0.06383437	-0.05742625	0.0430683	0.07037422	-0.08227011	-0.014976959	-0.028538998	0.057804827	-0.019468164	0.08325268	0.045468576	-0.16069269	-0.17131603	-0.028214896	0.026940716	0.07988082	-0.06601316	-0.1749028	0.00046763514	-0.020595534	-0.081838354	-0.059916243	0.1422427	0.051145773	0.046225395	-0.055789538	-0.09504473	-0.04507158	-0.05416243	0.03679416	0.058994837	-0.06815649	0.05533023	-0.04652637	0.16099313	0.029177923	0.030952953	0.006613314	0.18664043	0.1172809	0.07913888	0.076742835	
0.034044873	-0.0086529795	0.049827285	-1.0304186	-0.1016625	-0.013510119	-0.04566533	-0.07019121	0.122792184	0.036036223	-0.00687373	-0.120838776	0.07008158	-0.033131074	-0.008199827	0.09571322	0.0010230438	-0.012705655	-0.004579599	-0.111688465	0.040157307	0.0047986987	-0.04102123	-0.28577778	0.039650448	-0.012879822	0.014847023	0.0009791083	-0.5108883	-0.028620059	0.18690723	-0.016605258	-0.05162795	0.13180918	-0.0020946276	-0.059411168	-0.014206825	0.048659112	0.019901883	-0.036052305	0.03446953	0.017429207	0.052587748	0.1117765	0.045856934	0.022770487	0.018663079	-0.03520002	0.19328102	-0.31632793	0.080266476	0.08507685	0.03330103	0.06610542	-0.00707098	-0.108816594	-0.117733635	0.03464412	0.009132059	0.07728811	0.1381555	-0.011646667	0.014744412	-0.07049365	
0.20430125	0.05054533	-0.13186833	-0.05892114	0.087801665	-0.018607166	0.0825313	0.08915373	-0.022356482	-0.027742129	-0.34295952	0.12645575	0.09597162	-0.12061632	-0.09431444	0.13196215	-0.038353853	0.14199796	-0.0019155759	-0.15908274	-0.11750263	-0.025180774	0.039754648	0.07341169	0.11793136	-0.12922324	0.17997144	-0.049945794	-0.060266405	0.14106838	0.062514104	0.3216218	0.038884044	0.114349686	0.081441045	-0.10926271	0.38988858	0.036598075	0.12812354	0.013891515	-0.008945388	-0.35041073	-0.17833938	-0.024442807	0.117840655	0.057319634	0.036730476	0.10645019	0.10414544	-0.19396739	0.16155897	-0.065254584	-0.19328551	0.016040761	0.17671308	-0.05627771	-0.06295214	-0.14554389	0.05147994	0.07146292	-0.107117474	0.06973223	0.017001849	0.071354195	
0.14524204	0.1639437	-0.09312838	0.11562091	0.08942144	-0.070334256	0.13843973	-0.025919063	0.14859635	0.042875875	0.17480548	-0.23245898	-0.14458765	-0.07563342	-0.078978576	0.32133052	0.23736836	0.13598315	-0.07783166	0.16204458	0.23576245	0.10031802	-0.1846698	0.28489745	0.00010212901	-0.036641534	-0.11911779	0.22157268	0.25701496	0.02523859	0.5876164	0.30656004	0.16626814	0.027297176	0.051427238	0.06771903	-0.16029172	-0.23034203	-0.18220845	0.0018670328	0.036666248	0.046417218	-0.048980415	-0.07195917	0.05101808	-0.040301397	-0.29658613	0.086664274	-0.01726325	-0.1377147	0.05464445	-0.019058704	-0.053498015	-0.28247675	0.27642286	-0.04134036	0.21633443	0.15438315	0.014878655	-0.06186031	-0.21015406	-0.31825057	0.07309232	0.020541327	
0.08725002	0.05967673	0.020058319	0.097039625	-0.2998845	0.20528693	0.009064437	0.29686916	-0.02842898	0.036945716	0.10592015	-0.064068764	-0.11249392	0.06652786	0.17093475	-0.013831492	0.076273926	-0.121641636	-0.14302105	-0.15706234	-0.1296601	0.18015	0.0018514941	-0.09683366	0.08723718	-0.019240327	-0.03324332	-0.10852335	0.17865689	0.2179522	-0.10963196	0.061966963	-0.13388696	0.03394229	0.14203773	0.34500325	-0.027795373	0.06336017	0.214643	0.29425633	0.14549555	0.12718308	-0.23784654	-0.15391035	0.16319774	-0.09927821	-0.116358325	0.0051037646	0.047131527	-0.10657423	0.24447659	-0.16175686	-0.058025155	-0.047822237	0.08743955	0.11152731	0.16741757	0.08020713	0.2904021	0.02106116	-0.050625887	0.19510539	0.14242291	-0.07934901	
0.12764665	0.050141357	0.1739938	-0.057994302	0.16445522	0.05509352	0.063601084	0.061770655	-0.0036053555	-0.10369058	-0.03900716	0.069613345	-0.06561021	-0.12550913	0.009472994	-0.15837093	-0.02667969	-0.06087945	-0.030048149	-0.14264394	-0.05689777	0.00075281126	0.09368878	0.06353975	-0.0055562416	0.18154407	0.27520585	-0.039548602	0.026700955	0.31206983	-0.059757866	0.0011631473	-0.21533626	0.2666072	0.010678203	0.13146964	-0.15017755	0.009881006	0.21173443	0.058046307	0.032987606	0.037906814	0.04865529	0.119560726	-0.036920335	0.0139557	0.2200977	-0.13153715	0.022705367	0.10482289	0.10520662	0.053831805	-0.17262413	0.021566236	0.2216428	-0.0053770063	-0.029545244	0.060560685	0.09112359	0.0039954577	0.10319836	0.08302201	-0.028902313	0.12139915	
